-1.819890514476371
0.4474002952009072
-0.6495430695553547
2.319404633680742
1.3940132538506318
1.242404534817555
0.2680455893671795
-0.11084356848922064
0.5782587180694867
0.1421249061557374
-0.29294642903051205
-2.9531489446529573
-2.7851092011966387
-3.150299297351916
-3.788160648055551
1.7630895247320615
-1.7194079749390514
-1.7995416052207627
0.4163428728402764
0.3087202162258252
-0.10305280191336003
-0.5200275589364522
-0.8441134849547554
-1.598360932726153
-2.68226413736956
-0.6076072630993345
0.9211924203092351
0.5909968843747743
-0.5674816695135632
-1.031371369383169
-0.2544827413197599
-1.3015158472372708
-0.1631225635451829
0.542366148278118
-1.2061858053420975
2.6883845353940385
0.4298887946741548
0.16371124439652748
4.681107786431457
0.5720868960647129
4.372500063830351
-2.0525119588963836
-3.0086771078846453
3.7486065399173185
-0.004749764003248715
0.3858351316326248
-0.8299449176457103
-3.2910743568027816
-1.692962807679817
-2.1857825927187435
0.8873335911481633
0.9470667405259559
-0.2600751515500343
-1.5624972201672622
1.6382350495240563
-0.7313794092762954
1.0888245688150495
-0.3543935690088955
-0.7232683385595475
-0.09314629610693309
-0.7870358955720756
-0.2302738816679343
-2.4772727481202
-1.0327677026155713
-0.23796454501918238
0.6146199477060469
0.6757156103788355
-0.9094821875358513
-0.7076415955584786
0.07692122086399462
-0.8236930708159005
-0.2533376037668313
0.5283099745125193
-1.527010412092163
-0.8246628981577498
-0.06536717562967925
-1.1519345916160495
-0.5301062419100926
-2.595960081259516
1.4820491027225586
-0.9054420128948706
-0.48120007064271997
2.1961143519182382
0.9202408853039866
-0.28955498953096265
-0.7103344805033897
0.3298228518238222
0.22358340568994928
0.6836048614997015
0.3897613753643752
0.09240215912751934
0.9615588148870133
-0.7442146544445712
-1.5732200581253395
1.6849960686560317
-1.1149822086527745
-0.6800854516380813
0.4523567013500154
