-0.23533167252636164
0.017739720092146992
-0.06487769191248889
0.8904313280923699
-0.020361081719750727
0.6689550387049666
0.5075685824652825
-0.223842433585936
-0.010625261434788674
-0.5635283349505651
-0.3921868257664965
-0.20248031218270054
-0.18205136460387372
-0.7721361566045396
-0.9276583297597436
0.5229157487670624
0.36871428006328044
-0.11908016260380172
-0.8792114948329726
-0.8708189335135141
-0.0863333557873458
0.6325979253518661
-0.04487525916227077
-0.03248956046021212
-0.0952815360587305
-0.050065673296898636
0.07472383061856759
-0.25741438331330246
-0.00952582056272981
-0.030170684750813748
0.5171940555826157
0.42784122295029225
-0.2406694821955377
0.11928739762110982
-0.2866738009614106
0.4892260650842179
0.5569150051664754
0.046315551325643994
0.23397047448835073
-0.14626228569607394
0.7100739791036625
0.48028004751612696
-0.43700052800230893
0.04085413807936613
-0.4943869859002007
0.12218149954549323
0.15956146247436212
-0.9538733842624246
-0.5305312529147967
-0.3453394652467864
0.22991791881190743
0.1116357967690577
0.32537433848591424
-0.05944942917725041
0.47296996941134045
0.2609558919205835
-0.42697211213467107
-0.1829251581481302
-0.0491541977247367
-0.0806392197521093
0.24437259230166952
0.18504764290673756
-0.22568961455147735
-0.1749701154835539
-0.21043320987403602
-0.45355493478549636
0.022125902256402347
0.17087602686299916
0.14285729278279258
-0.20395600440624248
-0.16047734983199738
-0.23639947409688686
-0.10396945052656009
-0.1257515812933381
-0.4282601821964138
0.282335288007581
-0.5813922802880424
0.09439056294450626
-0.5673165568245127
0.19057886010671893
-0.5613183167963671
0.2409574929939571
-0.6129605003456423
0.30456477758713985
-0.8357750199384449
-0.281802328923329
0.015165538335839668
-0.26798931059414466
-0.3127107618266424
0.2527992255434826
-0.052497731598326915
0.26318249847110575
-0.2522964477541052
-0.09223411510259222
0.11819596013863572
-0.127960576325503
-0.14167693052965255
-0.023813257230923257
