0.5225602039500188
0.47921761164197685
0.8467784469881079
1.9060872495713659
2.3459320153627745
0.4587010483513403
0.311489107361903
0.7219831384577929
0.3942579783832623
-0.4305835528928612
0.7336028993244402
-1.1223887709387064
0.7467727905984791
-0.7444134897799182
0.1788676396322037
0.7661460612618958
0.5642053881251634
0.29863580898917014
-0.3883801893684117
-2.7409199979831453
-0.669288558283897
-0.5015714249635164
-0.3450938284851962
-0.38321812347301926
-0.3077444768034816
0.362640570859416
-0.40385277820792476
1.6988895884415136
0.3594076181415333
0.2713760625185319
1.5969331376786298
0.28788942770242565
-0.36007605825941347
-0.36522668023687693
-0.696137771278502
-1.2164408222152652
-0.34866587195293497
-0.9490254373888398
1.4650871974018156
0.5339449315515404
1.3212573864650907
-1.3129875552403751
0.9794550994543298
0.7589102626107374
-0.4762540100315985
0.86334605009006
0.6574687141609087
-1.3452343013287886
-1.1410005368840892
1.1653824314169423
-0.02155341559763363
-0.32183347757078373
0.28181184315986063
1.4676708325513985
1.243695083155254
0.05875035629113301
0.355693761933803
0.24591360283951225
1.6505055900330157
-0.9181793296149696
-0.9182406627133692
0.920426722350677
-0.256143984093781
0.7664076363258521
-0.23375365597387193
-0.14622084590458428
-0.5535514982242349
0.45357769135223136
-0.4200257050289727
-2.7097807048679003
0.5052343455179583
-1.1473096493912092
-1.587374293944026
0.06859096996600851
1.7349946138881835
-0.215040103352506
0.1534936793323023
0.8222125961947429
-1.1543857220094498
-1.5454204073657563
-0.02101074888702248
-1.7702999650274498
-0.759055303541543
-0.5307688041421598
-0.9669568203048787
-1.167987746939614
-0.44205940105811986
-0.05224393324669652
0.05660018812397319
0.4645310715708535
-0.789490570515154
-2.042051069427029
1.1064414429630496
-0.01646620007275229
0.14738714986210827
-0.6161361082437992
1.6386229550773344
-2.7939539801027458
0.2162897831025449
0.5990138137879144
-0.07638114280970845
-0.07183380830752473
0.27467412809628444
-0.02115066070375532
-0.6538296363279034
-1.415683990158169
-1.8304948663026508
-0.2544947756306324
-0.8748140916941576
1.24438357823051
-1.1387715382446726
-0.13259868881903852
0.1816858096062527
-0.000879894276123061
-0.8080241200602115
-1.075696144445532
1.0485298690901854
-0.2866867347845349
-0.26078315740593916
0.10365999190023678
-0.42568645344348555
-0.5228195416314712
-0.29253913256245256
-0.11580732814263733
-0.3646399610246344
1.942580185507587
-0.01232284409863782
-0.18309607048215654
-0.040383506378015493
-0.34802084885403123
-0.4017099724608163
-0.8061084403572574
2.0569229055390617
-1.018182549454943
-0.21607401361870568
-0.20787631864422956
0.18698226958896358
-0.30251724743053254
-1.3592747862624084
0.25256161673768995
0.1883407403100618
-0.5324154743286782
-0.3523682650771924
0.11823714634679024
1.320098872643593
0.3484442376408484
1.6799829836426192
0.8884294936487731
-0.5374908974353871
0.09248217532603897
-0.009536201852762827
-0.4553006780331178
-1.0445763600504425
1.2107991619974974
0.4579591634633845
0.0598665006190352
-1.0763042008208548
-1.6064375849216834
-0.45622488237894254
-1.673800475911803
-0.5913210283202257
-0.3955807360120123
0.6826361782557281
0.20326132901370897
0.9884545691770985
0.1790922275536715
-0.2973268557574091
-0.8106841650807133
-0.7235705479424478
-2.129939669007877
-0.22327700146819696
-0.6649221282041792
-0.9131939727124956
-1.7453878993097278
-1.1260263545591278
-0.41747384508383334
-0.1365008798106766
-1.6028508736916205
-1.3116819119062808
-1.3079072100645377
-1.2880170439878276
0.27739153194968674
0.6333599331345909
1.1830687395254362
-0.2515635542156579
-1.074559298850735
-1.1927328070247076
-0.500025844608308
-0.8522956161410732
0.2679945613057403
-0.3966125746550875
-1.1061760023851002
-0.942775833251854
0.47812927900263147
-0.5299806906671213
-0.9270075603952745
0.8068090820887831
0.979436344612713
0.4753604225708415
1.0229721686454787
1.0424801611030288
2.9226844396689255
-0.5776975584082624
1.247768273646428
-0.08423082386867892
-0.7206893376152735
-0.014131742199104846
-1.345302269267397
-0.4595593914163888
-0.339229084843358
1.6530198001204006
-0.18299462191205507
0.052160760950607905
-1.60689857607007
0.27400216724868465
-1.0897891247068656
