1.3998014195815272
1.146599290786484
0.2607711348343228
0.9174794051080364
1.8752716343530702
0.35986389468349556
-0.20966088175971165
0.22812938628274332
-0.07015571271271559
0.6160823201056157
0.27894041898156696
-0.17945792138332017
-1.3034700151206036
-0.7790140661931921
0.4657902153186999
-1.0036503075262444
1.6298165176509412
-0.46122577501397055
-0.4254854854239949
-2.6288030364692982
0.15106239509278307
-1.3921968469623063
0.6012919250057366
-0.1738177162718794
0.6188555184028697
1.5779146331903686
-0.5706254689801222
0.2317008635424611
0.5160508762235142
-0.5343964261817159
0.507244636778232
0.20200724742154003
0.1759598184852451
0.16378635245007833
0.08945315281843502
-1.532338599992051
0.37531599963065787
-0.4230366343655342
1.518804686793026
-0.09594996662596582
0.38773135211126997
-0.13715463441628015
0.557743850160525
0.7348423398893227
-0.9546663445627007
0.7529664121309695
1.465096987978814
-0.316080927189515
0.6744489280684042
-0.4711407867692683
-0.1845566934523304
-0.01655315896239759
0.8657632979156794
-0.013421175378058203
0.32453394422146625
-0.2664588047394037
0.12292958068662162
-0.5833283779934901
0.6342545925964462
-0.1501352464366814
-0.15139298025294312
0.3923824224049281
-0.768544184271733
0.6629565225384999
-0.7907582335342251
-1.802203587910692
0.07442804524228358
1.33519619783694
0.04357996402656711
-2.0670789835104597
0.18385109480822387
-1.976557363273828
0.2109705774827645
-0.171610318456856
2.0755878231459652
-0.8327578651015652
-0.6901602838881049
0.26495477572473414
-0.9173816337457011
-1.213027298967602
-0.8113850008299193
-1.026685999586259
-1.0976102797168625
-0.8572002231267205
-0.14694329750244783
-0.6531298280576985
-0.8960896850169944
0.3602530030270483
-0.8561537560249401
0.8540705113873213
0.25544842978335625
-2.433384902581741
1.0160106331737013
-0.2527645968967243
0.8051980341691656
-0.4433273320648388
0.9131575944325596
-1.2982584660814385
0.8192540873442866
1.1501590729459998
-0.45474768835347823
-1.0503388486103926
-0.01388695978875154
1.0572160677349112
0.17189343291371817
-2.126689454772338
-1.720499002647945
-0.7909559815167937
-0.24998783659059576
-0.805058711147306
-1.1646676522802546
0.6221103022736179
-0.7759958852764886
-0.13478643521338973
-1.919768822621975
-1.001672405564478
0.2595190960386789
-0.22297584215885755
-1.2034672352237328
-1.4257675910454441
0.7377757893030807
-0.2910199412594107
-0.3900547358112663
0.28510042781539563
-0.669683435275658
2.0935172155942765
1.1942035466892265
-0.31434372849198977
-0.08429581247749725
1.0551047004184722
-0.891311128504927
-1.7720410808205618
1.2067893505633909
-1.219247859815061
-0.06310320181626239
-0.07608541436849467
-1.2070154490622174
-0.6990064202010642
-0.4229745483952279
-0.22718070423943193
0.43241591945017
0.4015321493630381
-0.40425019998218775
-0.4564862348065421
0.0622267417786414
0.790536286027689
1.2882026939891946
1.629256826662198
-0.27334810185433633
-0.8659479059538668
-0.14968858619032532
-0.19818111301764463
-1.8462169871771215
0.8921300155678837
1.2866116017270937
-0.7408478913332774
-1.6139706461443704
-1.7237526414039086
0.1155939352549734
-1.5580342043160957
0.6255211687869274
-0.2784433161754096
1.1302634319581266
0.3707390743653246
1.426604924124369
-1.7245398170503643
-0.8029436106564627
-0.9961104895148354
0.06040417728285946
-2.437246448724914
-2.043324846385075
-0.9798641677743865
-0.7116690444840204
-1.3621340710699517
-1.4540840588451491
0.2609643867113747
-1.8425506957413165
-2.799332449689366
-1.771609988487437
-0.7979278230980806
-0.9166435956591203
-0.9429480135913684
0.3739110283780209
0.8963893462091288
-0.004763027957252752
-0.3420318149652819
-0.1013744528998406
0.24757872964816385
-0.7224345461374443
0.7145408941648803
-0.4753457850687022
0.1994269842297164
-0.11895833205767736
-0.4206603062703065
-1.3347564283105922
-1.4124607021511812
-0.5954432293495819
0.4817095237294071
0.3477681919712511
1.1123873221538183
1.2874595683651722
2.105890063667634
0.15068936176058634
1.2327688922266928
0.2722837341498734
-1.4614361675037117
2.256609083727997
-1.0190747864067717
1.0573605754380697
-0.056357106749289544
-0.1478753216112358
0.13249726059288514
-1.1157298718251056
-0.19520745940492668
-0.7113996998130097
0.4892441477191697
