2.062015920843877
1.0930353068455827
0.4482428731338835
1.5857621161377864
1.2116369003102205
-0.014763070329251504
0.3938572549530035
0.2951589191631452
0.6003977940278357
0.12514590596710795
-0.36622404647220225
-0.6566495250094645
0.3699703320939214
-1.9005155627855337
0.10451932728811725
-0.6871626924204199
1.383101819607345
-0.3564799468076193
-0.8221688646954086
-2.2702460275549603
-0.3487300069810136
-0.7508243823951073
-0.10285458128816038
0.37038932320963597
0.157226319825384
0.7051263294599723
-0.8793043603868722
1.4410115401092694
0.3203884254648503
-0.30856134449546324
0.43850619742377184
-0.44398390793168296
0.8394532291464274
1.6174237773557403
-0.6757610280901124
-1.8299408819601588
-0.12554604897246222
-0.588994552576146
0.7128345526490477
-1.1271767975375617
0.15229212042088525
-0.9711294589100192
-0.3429142970996472
1.148683135373188
-0.8760390239379695
-0.2000389426265899
0.3346423673786111
0.7072626740810929
-0.07377994276832756
-0.007202507073715121
0.3717789967340272
0.17812782979397607
0.9607106220357792
1.2496415739023812
0.8839182468637856
-0.10229635066230897
-0.21879534844811
-1.8077557736978576
1.5094655182090286
-0.9564216217377359
-0.7749070386657955
2.391226842181455
-0.007583912222201068
0.034925161919102055
0.062369495413204384
0.6499464039127434
-0.6583091486662074
1.259584346789413
0.1243201321774304
-1.9509314106752094
-0.7219281190925105
-0.20303635033379863
-1.0330900908955707
-0.2909965769568226
1.3420988874438395
-0.7636971247297609
0.20671232585220461
0.4920367673825234
-0.11160747377598712
-0.8101955431766934
-1.2686887115777936
-2.286100710702866
-1.0678690493485512
0.6582106786850037
0.3198304069553458
-0.4956883676663307
-0.2039177745562617
0.04343200979152671
-0.5126078888743286
0.9479235035518508
-0.4653758639578583
-0.9272591981272926
2.060800043854876
1.2778533499108313
-0.8146714605140184
-0.19843927734643463
-0.09066254189410172
-1.1973017982357765
-0.02142138254553763
1.4349931675671272
0.24461722804966396
-1.0558295393881902
-0.016454631698922056
0.8911327425963534
-0.3243333874930002
-2.3102453734386166
-1.761876209777674
-0.29249960974312034
-0.05413478263342125
0.25569311242328907
0.11017696698787938
1.0117692919279149
-1.6814085289542817
0.3898299074944268
-0.9559572552746287
-0.3414024324896384
-0.15983560291855742
0.39255574454534753
-0.9551473340710136
0.10758808508821649
0.553688478975693
-0.5544408688152673
0.9576587633811098
-0.371411053006738
-1.0511013750273892
1.1398937862033653
-0.6769778229670387
-0.314218082462829
0.7929227175981248
1.0980357649233834
-1.4413313963913177
0.23717164866290313
1.9703862879194323
-0.6813123158379069
0.12474477376664221
-0.22100829803992228
-1.0514405321526754
-0.40683608187682524
-1.5931137480241024
0.8092954943409703
-0.07638405989297567
-0.746542095685348
0.807890025931641
0.16118398983288657
0.07308266019993866
-0.5727313329582222
1.5880600747614653
2.334255905911128
-0.5003013883491227
0.8159887310574829
-0.689465843027247
-1.0186933748791047
-0.40365150834314045
0.6391294218702331
0.8350458116657908
-0.7820420556844565
-1.0394732346328488
-0.9793588814368182
0.1754445220082529
-0.75589269764546
-0.7711902767119807
-0.6482442024144219
0.48543070802626437
-1.1926883474510885
0.6458639896437145
-1.0795995909633453
-1.089126618657437
0.6614062997207454
-0.30321563721363737
-2.0120067967925297
-1.3318890458706145
-2.201352029621273
-0.36117649895612414
-1.611658191419424
-0.9110832109313509
-0.1110419819785004
-1.8007204599731215
-1.5632244487838745
-1.7248909562991601
-0.28273856013444365
-0.34126217443313767
-0.06227484993321181
0.033428354338614574
1.771009492924246
0.45403966392839656
-0.867461053838219
-0.7404071929699401
-0.7401183031308324
-0.4540265918537564
0.9980039480549858
0.18619070796507597
-0.08921285475505769
-0.6841123373615724
-0.8105163108825943
-0.1412209752415573
-1.7286571274332285
0.5616614219840704
0.30006025995184604
-0.7939729149526122
1.2576631173199089
1.306967686326688
1.128003236012382
-1.0049252074588617
1.1156741506039154
0.7258741629784666
-0.4153334826837014
0.7143690988153873
-2.4356929144737833
0.44994819177038714
-0.26174928632128575
-0.9451126541834431
-0.14154073785889562
0.38075681800646594
0.018540383652178694
-0.655202074155875
0.19811482683249965
