1.1483334841259094
0.9393063151365674
-0.18790010637160676
0.07183892572088357
0.2439697220930368
0.32895731201243217
1.4196925562762457
0.8851160484196671
0.35352632227194647
0.5690152084345995
1.1397329676917798
0.16094223915973305
0.3450575032589861
-1.2053770055251796
-0.8393945090164333
-1.0545337684151304
0.4584471901894642
-0.18651533871960255
-0.905133278745448
-2.296873378094224
-0.5640921473292574
-1.3340602184169383
0.6371437301738268
0.06567859240940499
-0.856528425604083
-0.24167066384532487
-0.811043517971724
1.2519474441042044
-0.5987569752469106
-0.710837785118887
0.4736185917562798
-0.4283582195013948
0.011830447534503241
1.6080064514045205
-0.6930494385775933
-0.33111129078242796
-1.2695050835782509
-0.14980073712809838
1.1865908625533375
-0.5668409768810468
0.7357957336042095
0.4575243698956734
0.44606852513318324
1.2091648956607655
-1.191478319681937
0.239218569884669
1.465499602427016
-0.1793163500910613
-0.197935578829604
0.0776576390145634
-0.10041126464876032
-0.2652027835120546
0.4837245169907073
0.3242351867622162
0.16858674055680248
-1.0540946183272695
0.6603412230593115
-0.8673827797072937
0.8209823775104839
-1.8223350649997494
0.4788377012556306
1.551872489176089
-0.26703601909343233
0.22984890418787615
-0.6899829944854965
-1.5201621617151562
-0.6365492184863939
-0.3258154219531533
-0.851968210650125
-2.6326385203251195
-0.34208577052831185
-0.38891505819449035
-0.5491591192155238
0.3004377741988291
1.3949609885296073
-0.6389074731620921
0.130842264379584
1.1555921963749336
-0.7711107854878028
-1.380406407851055
-0.6335359042184854
-1.651291304674161
-0.8085333611273106
-0.5321415015421341
-0.9062463025788673
-0.08960742452883846
-0.6720316683161164
0.6299060338521723
-0.6982980285128487
0.9439402617840262
-0.23287051265097214
-1.1333586287948263
1.3467847903442123
-0.9765385858922007
0.21592724553484022
-0.557196111525428
0.7436687080505551
-1.8675823179956548
0.6314359623033182
0.27841125821523344
-0.6920584617290872
-0.3547873131993475
0.5268912494333491
0.16364825435345803
-0.41748501831571566
-1.1456421127078529
-0.8988991540062232
-0.4589294046447407
0.1816633973583579
0.4124574512305253
-0.4602396567741976
0.6212563704440499
-1.3567274232254667
-0.6258309811351774
-0.4377863280649454
-0.4488287053159816
0.21089094319657958
-0.47431250940275693
-0.024503274002172504
-0.4794914775591066
-0.3489148711017853
0.0861076002790288
-0.7339043469011342
0.19396774200165695
-1.3533984203418885
2.7764732274938893
1.1229297488896877
-0.1834144408003257
-0.8450502934560535
0.36209452681725657
-0.8718589101371936
-0.2181744558817108
0.22777662059413262
0.060425397828002936
0.3229319940858902
-1.2712163446493445
0.1722423546657078
-0.06505228309572242
-1.5918722933711993
0.2644416533080311
0.4202040653526362
0.3795702563813562
0.23625633308113114
0.8123888735763272
-1.0766116628384659
-0.12071471980397015
2.1678934901823554
0.3162036852494694
-0.23810224101341057
0.5345571341190415
-1.4435004004374448
-0.22892723397041745
-1.1583666570922655
0.9418288783149767
0.36605185284003516
0.4532511615439391
-1.153625250210969
-1.3736855042759055
0.5429567454230124
-1.4008579187956711
0.4451154111103799
-1.2711597425694139
0.5783893297820527
-0.9758260420705293
1.5212117100524796
-0.9557619658297335
-0.7082110894214073
-2.1924919365025266
-0.5762777855926751
-1.9550950970471344
-1.600909658110754
-0.8864290445461486
-0.899090823214516
-1.7744081790650954
-1.8043130845476276
-0.7381518863321993
-0.6963494630842657
-1.6514747538309487
-0.5716027513239355
-1.2110738167405128
-0.753407201939433
0.35040116431427987
0.8463207959335257
2.0513710871010082
1.1563666784765738
-0.3330728683343431
-1.3129397632783442
-1.0174448581381634
-1.349694121490281
0.8376051272464411
0.9229259489479493
-0.5253848271252433
-1.5742744991080497
-1.7958714557347863
-0.8158061862579152
-0.6126906182158305
0.6944706307243849
-0.2047610375515313
0.3540000289070666
0.9826104663893832
-0.13076673559447538
2.778340658249287
-0.9544468359517561
1.9775576994639197
0.4981708327190021
-0.8037945417214972
0.13459029722101612
-0.877180077391691
-0.13559724872656345
-0.059089872118304
-0.08749657417069395
-0.573992361927309
0.08516982489334453
-0.18205007631759107
1.1040353338353055
-1.3320150017615648
