0.8532731811812824
2.2123853975602903
0.8800448701263195
2.7933243823537124
1.3077025494430923
0.7977967851774502
0.7053421200391162
-1.027794642907463
0.30889611311329634
-0.5674026218457365
-0.456775437698175
-0.025982680655874613
0.0799575912092142
-2.027872865441638
-0.1333659980013018
-1.819976910524593
0.887238330698401
0.005614914733014939
-1.2241438422666908
-1.3051353086621282
0.7033444686024624
-0.840685205524329
-0.11225482980999157
0.1578571349533544
-0.7975113981155253
0.21677674071414044
0.23895963511633067
1.527729790344047
0.14771833410040955
-0.76735118103716
1.1692237108263712
0.0815017676355923
1.0260726984112665
0.20628254343730357
-0.5931569960593888
-1.218485551186696
0.34346739331273335
0.2771104790407389
1.4695048914046986
-0.0955458177122194
1.2788124001286172
-1.2687977510260564
0.19189176813834458
1.0874016785616034
-1.5476956942492597
-0.9212172275527702
-0.5360530846071352
0.08377716753194436
1.3005275860611052
-0.2193843273519018
0.8356419904755997
-0.31958798620844325
1.1468957789110894
1.0276702497129915
-0.2984126482609084
-0.8176133038957629
0.007122808185932895
-0.27212479588553784
1.9366662926160303
0.5041936880667414
0.5846860154579681
1.043880730459358
0.49308640919076296
-0.0402949625015141
-0.33070499334928805
-0.6968180930458114
-0.4821955171632805
0.6791549935407662
0.4456821660904861
-2.26092642377106
-0.09221035700680635
-0.6720231146386283
-0.17650059715658795
0.17300899450961013
1.0214391496626491
-0.7980083515158276
0.7255157749483303
1.5627795920078638
-1.1253944439949635
-1.7156075321147926
-0.1273053537583585
-2.26862017371642
-0.9842469585916578
0.43816529858402253
-0.5772708643951822
-0.42720559384475576
-1.6530720070681466
0.06756713902440767
-0.35681148364920373
0.025858465283620236
0.09757552573372633
-0.960371488382295
2.612294599667793
0.3624321522138874
0.022561155675452776
0.07413158946978249
0.7082806785319999
-2.468027427815459
-0.03486808294662708
0.726903695345547
0.8684806070395779
0.7749390635253264
0.12329251818249601
0.665037795773514
1.0529946317456793
-0.7335248180676067
-1.8910150728891653
-0.6596336013585251
-1.1173020046720223
-1.0852873922795938
-0.8177218455606169
0.0706646948791228
-0.4991607400642049
0.788207869192005
-0.8977943828932503
0.21800488330925483
1.2479271815143387
-0.2939790367341901
-0.656235557013516
-0.8442379124068315
0.2059229705669085
0.04753326476198236
-0.23403439735929796
0.3109639767491491
-0.16664072506661862
2.177475929196687
0.9676417102211992
0.5415776028142723
-0.6480323156537302
1.311344827122231
-0.36794448492105525
-0.07630861259670063
1.7322130652011791
-1.164270584543667
0.5477283619488799
-0.3600849712119037
-0.39432555360066507
-0.18906068806759047
-1.7047610264665116
1.632929469206184
0.3577627578458602
-0.4927939137285401
-0.42807665599080863
-0.5033130502270067
0.25021234172144335
-0.03680250632357935
2.1896683579101452
1.5478728950199587
-0.9508047655112866
0.6796952475171418
-0.9666100096312065
-0.08271097152350955
-0.0507912566793266
1.4445520644397174
0.37488182891968935
-0.932865626707243
-2.141595034890064
-0.9448341553245024
-0.4571537370681005
-0.8721388558054267
-0.4499005059061929
-0.7956903116645406
1.014391608982596
-0.34410094059888396
1.987869211097152
-1.0245149889649716
-1.0211346683231253
-0.7329020847029758
-0.0010956637651232115
-0.9595931967679961
-1.8553951104327613
-0.9017508881395768
-1.4020521704124933
-1.9714659214256252
-0.9252752580803305
-0.8459115383260689
-1.343822556793383
-2.3053734192858637
-1.5934108758865684
-0.8679204850506999
-1.0356058618311859
0.419092367294946
0.7754629618685033
2.0258982400171437
0.42519422577949817
0.38302764226892394
-1.5509598899349237
-0.27358099536717884
-1.4513339011115836
0.5114886532193534
2.2704606269182896
-0.8294024348325819
-1.8071273198489275
-0.35298252247241846
0.2135811151661271
-1.0232380299701254
0.46516141078676343
1.6584950766958375
-0.0704513871046096
0.6297852817632545
0.740052341784782
2.5497739627918907
-0.05444599065210781
1.1626086891226446
0.048741744688751976
-0.14827123445236906
0.37334282121870316
-1.89678235767868
0.4858140808180683
0.4316636938115551
-0.17822373525712037
-0.5052951533370793
0.04156488158016676
-1.1543684430235308
-0.11502694409751474
1.3755919675846133
