0.7738821940977609
1.003088328630424
1.502950187930358
1.3887681676602681
0.7332000251118791
-0.08502483937837757
0.27801101158540614
1.5295235386722208
0.24833009160421105
0.19846203516987643
0.5537880945362995
-0.9070736054561022
-0.0926907651278421
-0.5057608821694568
0.34934498887506493
-0.9660884360282265
-0.05928969473072376
0.24854001652083849
-1.2209192759792087
-2.230959127921052
-0.10060307855897127
-1.4835018740458856
0.8151942370081795
-0.23559607129708454
-0.7354278787730208
-0.2715398044039997
-1.3533970839916178
1.3821795723485109
0.09279826186401846
-0.507873734780227
0.6758512321545822
0.1973132069099373
-0.29779959561349967
0.8247493596988429
-0.8996620280807368
-1.1639288006428958
0.1053283798743262
0.3277991402138784
1.9747972097928934
0.37348062520732117
-0.7454069964440927
-1.0791933832561293
1.0065547751302573
2.3383808264300328
-2.0254095297225367
0.13131559491295797
1.5984162887163471
-0.5081542726723937
-0.38703505489718126
0.01260324116852915
1.425793983958022
-0.2708445730679013
-0.8561715126001119
0.6267775804619569
0.6585253933372501
-1.2770473584697297
0.1665998986588061
-0.9065599822412233
1.0058680200594927
-0.9922302300121005
0.2832852000755574
1.7277795572259653
-0.2913649639111575
0.5157728270208646
0.5796557568746565
0.1501071964059246
-0.5183755739174257
0.17053597472723536
-0.24343234932314017
-2.990218937321236
-0.06708832309619497
-0.2671627336117809
0.23321800129969728
0.3236052307621843
1.015871296084552
-0.66630734298837
-0.7465248961406992
0.8319189070794446
-1.3120785611361359
-1.5445160771119693
-0.1397652893212955
-1.177403402017073
-0.03670612725070446
-0.40444699996353195
-0.7977933342378494
0.07425940928005259
0.3662564720214
0.39798085413017237
-0.44307483329635133
0.3625542545051834
0.11211732613606118
-0.875609081126455
1.147378883905524
-0.2555838409919862
-0.10685862245173189
-1.4706600286420235
-0.1024349067149184
-1.3038409862262812
0.28250838716402554
0.9962144409347286
-0.12028082148459038
-1.76139638223274
-0.16077602633369223
0.5770687366460189
0.422440640169521
-1.1158251673383095
-1.4887372568138115
0.10676592792362288
-0.6143322800577402
0.3552993111008281
-1.2292284431107077
-0.2954028867179569
-0.5619216605908873
-0.7761439405068417
-2.135906211381277
-0.7515882450341915
0.30982037868193185
-0.34857498765850736
-0.5716223303865732
-1.3951984018981658
-0.46964039916732103
0.06261496302463876
0.11324254177365267
0.5467681318952223
-0.4624754554996269
1.7363283789364794
1.1179514051813326
0.5298053157562154
0.3370310663155108
1.0361777347823433
-0.8064773320817544
0.4134896522466515
0.45284743366822244
-0.18165062504709412
-0.6165442532997902
0.11956618193338976
-1.1325692777899248
0.09978673048133824
-1.0162479484374871
1.0395896796913244
-0.329883815901844
0.34580562387524705
0.614459804701806
0.822810511740097
0.44485496882171705
-0.07367154029749956
2.124585164611943
2.1670746551894
-1.685674351738115
1.2434451275402822
-0.8550461014433481
0.5065866824096852
-0.5967463089761433
0.5965749420442429
-0.12020042767620609
-0.3674725350837039
-1.021483569477416
-1.3348763373184855
-0.7492366159580989
-1.4655422730442296
0.024428105174678638
-0.27531010153181656
1.0407027691643629
0.23505808052582877
1.0395364581180067
-0.11093729587549506
-0.9297797209434786
-0.6026693837177056
-0.6576412546070657
-1.939326512259401
-1.3241465000021884
-0.9116690950014029
-0.6470327293341654
-0.43347382059806705
-1.712116750867171
-0.19084341818233075
-0.30266393618992793
-1.9631782470355714
-1.8362561034618095
-0.7899515150501568
0.3193889479920581
-1.1002781797430345
1.5912178386946758
0.6996760175821983
0.21208969463201802
-1.3645869729859288
-0.6779150982419221
-0.7299451710787226
-0.9645691284759627
1.1848101651964054
0.532480544830556
-0.005705708745950888
0.18332756461793875
-1.329989499786719
-1.2335497193926268
-0.634570863823929
0.9514784435573611
0.5361403531690945
-0.8004610662402831
1.468332643630697
0.2131960091648873
1.9383300622849302
-0.43072295287689477
2.130838925276161
0.08204233909333675
-0.792427331771398
0.6968811886616696
-2.243659392976819
-0.6976953440762982
-0.6062043328859494
0.2597461186820014
1.0120487817199044
-0.7123344467204853
-1.3321315520482373
-0.4444235666213778
0.3984971104553361
