1.000094819059111
0.8307450634326526
0.7012722512734537
0.9920634812411674
1.4511053183053977
0.33758669207931224
0.08937818473553244
-0.7332036137139705
0.04460922803837464
-0.3051029651254331
1.7573214846070664
-1.3521481408609408
-0.18549358885220235
-0.11219893870939845
0.4744760706959429
-0.05049194606126661
0.4979130586615154
-0.7974256442650781
-1.0277752670749505
-1.901384841713212
-0.5485182159031273
-1.2151651667304668
1.3935889780757176
-0.530879937162736
0.029472934940889733
1.04289434267287
-0.9263392101358678
0.690161953369104
-0.10953222219294681
-0.22785543272302627
0.41715007647365565
0.23488990838780782
1.176635799593957
-0.3584085846377505
-0.36592546203879167
-0.9572357782443551
-0.518712316905795
0.5177660818208216
-0.19666340854059472
0.17812404185951347
0.3526079408808928
-0.8140541799444925
0.24211435935742207
1.6128323185324043
-0.5618739299034112
0.4466558128994386
1.4640928708649845
-0.27222988095651085
0.3481922324074045
-0.15484578317831493
-0.6990610316066161
-0.4182308248406477
1.4739180725821008
1.2484969086950222
-0.42220598356744177
-1.2820499396236418
-0.24619277412998675
-0.8749930460276821
-0.8296930315035492
-1.5046747108502778
0.8655958972601978
0.2283207401179118
0.17933231178473547
0.5039385543714453
-0.3270995107106184
0.5621362065987154
0.11175141297735469
0.54667251029838
0.8275058266476822
-2.971349285091538
-1.0975747333441075
-0.6797946982810891
-0.8539084611370669
0.6672509811290138
1.4112607148474905
-0.2871166405875838
0.11438528194968406
0.8916108838985185
-0.8739390266488186
-0.48210537342577797
-0.39789371849784677
-1.2050447375001054
0.02309271585176695
-0.322793496057735
-1.3182166156162913
-0.29750361428612315
-1.7305227325934285
0.019578378458466994
0.26223331955603324
1.4437306576864515
1.268781025254619
-1.2619361773429616
1.9915390392360104
-0.23717424717717867
0.7019061675219501
-0.6841475831385639
0.7797875976501327
-3.0823432769154744
0.4740540800870767
0.21172485365978133
-0.0052080719993650715
-1.0820701617404054
0.3531751180532966
1.1183774533027182
-0.6465689364991141
-1.1938109186831338
-0.8608029991715724
-0.8948218112005679
-0.641619628040407
0.3100871619264757
-1.1184522234978462
0.5665548518292223
-0.5007848302693485
0.01918391633194133
-0.683494826518939
-0.7053443780752555
0.3189038797268202
-0.6922278365832144
-0.6882150725436508
-0.13992438588609246
0.05286969685545568
-0.12364531418308052
-0.13392092721284693
0.2953292072489909
-0.38930641072809535
1.2974757268362827
0.49617194579949775
-0.6854517256605014
-0.37608404367983983
0.40711388219516603
0.4511688299947346
-1.3542604473005242
-0.264261098020085
-0.08871781421034747
-0.24412166978128033
-0.7939194379203722
-0.05909312905740782
-1.3906760422723108
-1.4490278775830716
0.2009585007699873
0.058051552877234625
-0.22389005554234676
-0.3696723778285654
0.4183387056371888
0.7105913644771511
0.4796592093137763
1.5371984734802953
2.4455044764798215
-0.9419742840640473
0.9238311967255733
-0.10951715209473867
-0.49959453031633827
-1.2326972320315281
1.613725835658479
0.5206649503364139
-1.1530899701678516
-1.004733189078317
-1.9589418507624852
0.02456630297698903
-1.936574675252727
0.2223167260005482
-0.36380542371434343
1.700081706542134
-0.7560887377172452
1.562070255720429
-0.9451805252351974
0.2667970310264453
0.7184119588784156
-0.32841227767908293
-0.8631680911782474
-1.4283578663886312
0.6321918433034432
-1.5022688291403374
-1.8097507038517222
-0.7955928610154488
-0.859705018344844
-2.0659877125297754
-1.3918756640780008
-0.28482936887607524
-1.8081597847406257
-1.2179413918090372
0.010229807682692271
1.5460470289562767
1.5339943294008251
0.4722151074286913
-0.5486232828928357
-0.5538906005457651
0.48126585523033194
-1.2426699514314186
0.8456815132675729
0.41277549101926886
-0.3558708735885243
-1.0219192480492656
-1.003194092601301
-1.3254730615294943
-0.7558622239286963
0.9152487111582237
1.6686315175164688
-0.2799601522467415
1.050431850053664
0.5224329185206509
0.8623171450787603
0.23024661260552115
0.9850114719284297
0.4233728834884094
-0.4424390731008504
0.2882580420318009
-0.844468926558166
0.5811790378254098
0.029282059723227505
0.3898519445060152
-0.13765037865493424
0.9703477097446299
-0.35779446652341346
-0.44816364832489547
0.8102039863445806
