1.3007818646301368
2.3955503671399327
-0.4205006806540616
1.358268130696962
0.11898163243464033
0.04894876104388729
-0.39980335429904656
0.7961252951242339
1.7689048461787835
-0.35248572608345174
-0.3364494018718191
0.3146253493645311
0.6001123773484918
-0.8721649924811457
0.5159965830279918
-1.0331898126890244
-0.603896404282653
0.5282735713833786
-1.0953131938762728
-1.4133383680460816
0.5275589715344375
-0.6911731495510365
0.5615855711735549
1.1077396127375945
-0.03704215213700572
1.5499814483909051
-0.196488437074811
1.6950796168550868
-1.3043201120744101
0.9388481665851884
0.7862403148474626
-0.020665504238326818
0.3664805645350899
-0.19242466863842822
-1.6577204799992076
-1.3314288916556878
1.009358969152215
-0.7045639394546179
0.7910332353971643
-0.7388375974431701
0.29686052328690055
-0.22435109604851028
0.14854622524613498
1.3923320396945122
-0.884709252815103
-0.7504102337655992
-0.9313910743408438
0.29096800778782694
0.325609261927606
0.20848826671209106
0.2222587121714181
0.09556316670488751
0.04223742933707164
-0.11265470062049898
0.21042704159009448
-1.2037349955350938
0.03362077610968552
-0.8208767686754106
0.16954516618021687
-0.906340538626731
-1.4108122081352985
0.7802448286924282
-0.8539892406716264
-0.35321234890491304
0.09052914013679325
-0.3283133432249321
-0.67473835580991
0.7567190069311365
-0.6777420428423728
-1.9627372711609856
0.6876004901783056
-0.8913779297417509
-1.15644515990358
0.33830342697395566
1.6006729888640285
-0.6177703162080682
0.15602336331365607
0.47542835833070335
-1.4247910102482606
-1.3863987198352796
-1.2933962979522438
-1.3009445444206431
-0.03020293623008133
-0.34634200815104
-1.2104676222644253
-0.6590302143036071
-1.3936440269910007
0.2519591595987265
0.32486869598915846
0.48696575096999795
0.7844289840233364
-1.1039948965054118
1.8929122083003915
-0.367912767377552
0.3037920408203784
0.20028284648909567
0.5828960661726289
-1.8298678584387291
0.5753923400452365
-0.44712604633809505
0.08216462839499689
-1.1125932332049076
-0.14244081162787617
1.134402104353024
-1.1573427853220086
-1.1570025548916565
-1.5631550709991258
0.5382753957598436
-0.4130608500314955
0.03219724543178981
-0.7997514790665665
-0.2499196094762849
-1.1655794874036094
-1.3221100641022434
-1.460989014568029
-0.5980136744679654
-0.051666287949689305
0.004060891308553305
-1.1768677534442493
-0.10600466952924992
0.7950490162384181
1.1675049105528235
0.21819682145940383
0.638976683046611
0.16624925105590227
1.1583776594445974
1.6849294948309512
0.4572888368585124
0.07756492361135492
0.49315514370530383
-1.1251112366498583
-0.05380442273754049
1.0679812608940347
-0.34164249717434203
0.34929818103565413
-0.5827704724758246
-0.3615981146610784
-0.5887331451536953
-0.7901181605861805
-0.13695324407271592
-0.0534550194845671
-0.8255151824614615
-0.13877114368845989
-0.4360245329283858
-0.4142798871751668
-0.7583004396293651
1.667456189225833
1.586903417362241
0.08032178447517058
0.700440425482789
-1.7026309593686544
-0.5527173334780017
-0.641853321271432
1.6598504695856844
0.7319830181902217
-0.9719290417450768
-1.383103170937948
-1.2149668064472705
-0.12886529528848062
-1.6006437076620446
0.37167267241853064
-0.25705030200281964
0.5424198333170172
-0.7855823970935197
1.6946809072132911
-0.1895133023487458
0.3992364113089913
-0.26503371834334477
-0.7191577058790608
-1.2975444744678093
-0.8199749650826744
0.3884313444691969
-1.47604139022565
-1.9157608881088934
-1.2263681592146884
-0.2115252279695055
-1.8267385165663956
-2.487144417061187
0.25097299015846763
-1.114240004963802
-1.2298813517935039
0.2472262601640149
0.3785186485307186
-0.25984683227489747
-0.21345107565133284
-0.6876145014672816
-0.1837093071399054
-0.7549605438704133
-0.996514410531189
2.163737613821972
1.374100121421509
-0.9802401471503643
-1.676944183451201
-0.7129865155452992
0.15943280431673634
-2.2182363556345344
0.9949893298318068
0.2112275111547821
-0.19951914509003266
0.5918346013744504
0.5337336997900816
1.3585129298493042
0.99355071854271
1.9401886046206864
0.6374793187214127
-0.6452907499423586
0.8758485939454982
-2.182717901493337
-0.8601144059767476
-0.5806010494784565
-0.16651853355309337
-0.4111881481816876
0.07339343793935664
0.16193079328047888
-1.5435382193121678
0.09964443944267995
