1.2680620599294352
0.7782845521155521
0.4370844430638107
1.349585868853795
0.9311224571728801
0.8701893860488392
-0.5476763021701136
0.9270308957141307
0.7187519467202119
0.7007583357671909
1.5617560375008586
-0.940264506825174
-0.30119952095055863
-0.19305068593402297
0.1376926975204388
-0.6585501332605875
0.6441053263085699
0.5438502128890428
-1.119908377506328
-2.0364343262182603
0.2606086571815745
-0.607445044513737
0.5955862075045997
-0.09461863674900445
0.3508516190216355
0.20986896207616795
-0.39709386445193506
1.0963208540067497
-0.3938288923365757
0.4436858343869536
0.5913316667907775
-0.3730073955680739
0.6993294150781417
0.4425015333766255
-1.153268865662148
-0.08057134705396485
-0.7617804986443346
-0.9028728090712332
1.6295217719369695
-1.4169105495277023
0.9103382218835792
-0.9035161288496374
0.8178111488833215
1.2996927496374575
-0.9254915834755977
0.2247129830232427
-0.0016325097806864641
-0.1839586981802348
-0.5614992932253373
-0.7086540816270953
-0.5344382838222723
-0.5229839143290652
0.6919879395953783
1.9476052374410617
-0.9202416052240197
-1.1519212269223806
0.13730590090847067
-0.9590636912998641
1.8132106602462368
-1.0701881577120034
-0.24722616182198104
0.9698082933774093
-0.4150975576501759
0.2948176735849083
0.38600962447691584
0.3165062799053625
0.46373389036929746
-0.24882339296985734
0.8429704669225924
-1.9149828344484698
0.5787616706060867
-0.7219731622686284
-0.41066897434251487
-0.4426533693722948
1.5707533574296504
-0.024740770965815173
0.38439229201852315
1.2966513086701834
-1.517056714188088
-1.567151199046939
-1.0965405847925016
-1.431595131396775
-1.3206036500808185
0.5248423166227519
-0.6059207947499301
-0.8571948682310759
-0.3030193998055925
0.43588143656286144
-0.7583554444046604
0.4020225567708545
-0.5735052167977733
-0.5937496158122042
1.4674190518367365
0.36997637621299145
0.10500734882766292
-0.18703263719479252
-0.13472453125237593
-1.6869334297431602
0.1968102327780496
-0.30613579796534063
0.5519196180646522
-0.16089168865121117
0.7782059975555936
1.7586643586801762
-0.572660993150629
-1.349194568119488
-2.646870425977003
-0.18837875118618946
-0.7380103750235008
-0.1439459715441011
-0.10952784218696454
-0.5121725297651081
-0.8982579124073553
-1.4406626344903573
-1.2772369850434415
-0.5973677490405856
0.6303043405220073
-0.37885246999675337
-0.44833610014761077
-0.3536076590914806
0.8155196999744101
-0.26922019420757476
0.08054427320994015
0.3719583493586937
0.142583289818983
1.119162113990737
0.8248694219988997
0.7766695661278428
0.7167023005577859
-0.34320776881044585
0.062181588261331244
-0.5437349442137093
0.6262841998389665
-0.9178537407139895
1.211868071566569
0.2296805573119734
-0.7662448505372866
0.09159819564836835
-1.810442510023735
0.3069780992056129
-0.5717819618444768
0.4810160135480926
0.22939234533117808
0.719887127533954
0.524824434438783
-0.7303539191012673
0.4989096758368714
2.0898494617651133
-0.37066027555484504
0.9201478620737443
-0.6449061567766798
-1.0146967893622894
-1.2081186467214664
1.2256425602813623
0.6547517847221271
-1.4311425404908436
-0.4578438668272109
-1.1242205855065577
1.213563141063933
-1.0329980892490487
-1.9583782673308332
-0.5455692594015426
0.31251946640652695
-0.14653018488369124
2.119903663644084
-1.3428702004133144
-0.5325001587658975
-0.45286214184084644
-0.9062829999108173
-0.7888395386024367
-1.162688131266917
-0.8920163865334321
-1.5425776970727045
-2.0714457780797604
-1.1625874943848935
-0.2883420461018453
-0.8470396104427069
-1.852348256242896
-0.6539356442266588
-0.1127093768293409
-0.8827537651225272
-1.17150698173974
0.8628965028638959
-0.3116534893133749
0.09893126537325497
-1.6117698320045895
-0.9833089978261119
-0.9766390244373595
0.310007224160469
0.9154259769931048
0.305060725158634
-0.9216150669269443
-0.5447276889088615
-1.5180642038924197
-0.8968300154606109
-0.9681632229362143
0.9277933397420832
1.4679421742880945
0.18374066242933518
0.7537021577508094
0.10166744965352303
0.9951211987138104
-0.48951112646624517
1.703262689185451
0.8790499750943948
-1.0192647233092318
1.8930558149665875
-1.819636087249226
0.1708905369537166
-0.11720256187708986
-0.3250595184142459
-0.10254275294698018
-1.3974840023304034
-1.64354462870856
-0.17041754722137267
1.2481903586775127
