1.4017673497857088
0.8042866928955927
1.0026867435880997
2.004801248484218
0.5286295309048659
0.37096696744109847
0.4964948149744354
0.9209614434832992
0.31591392936821616
0.36271929484420706
-0.25520716010671757
-1.5209662992720887
-0.6516005607695037
-1.286663461071599
1.063167932524899
-0.29399541419180175
0.1762245678174369
-0.11969245731917294
-1.0172939062867588
-2.3212595546521286
-0.7081407779869968
-0.7243354941295728
0.6679747387794683
0.3895311168891858
-0.2929169488346849
1.2521989295745226
-0.2188074387468421
1.231922061007413
0.7178224859118508
-0.5331909155758888
1.2994197663329534
0.25577911880813686
0.6434481375534963
1.2972202741724015
-1.191252450883251
-1.2412926081185343
-0.26573009848827833
0.390009450626524
0.7650818680519935
-0.19996334994923248
1.1605941110125755
-0.9044639582269252
-0.33734627161067404
1.7435703617795983
-1.0569329270965084
0.603701403462735
0.38268898826221115
-0.8091924050024277
-0.46473843876234233
0.5143282868843934
0.4077942762369916
-0.5782734658990349
1.3785093419799415
1.312849804682681
-0.1296279714292376
0.08607124911692443
0.21387219364782162
-0.5594390132884538
0.37951786878374627
-0.8323473360924288
-1.7972277490072728
0.6010902467116865
0.433173075497878
0.1565010021086869
-0.5040643442874749
0.016727808647547776
-0.7096304451994633
0.868853862041116
0.3330719487091248
-2.47813956978326
-0.8488938874302668
-1.5866070245760127
-1.1019639533660808
-0.30047667825115987
0.8849969452393979
-0.23408042211595048
0.31247536431363515
1.413464178046076
-0.9140837100427306
-1.785797005074021
-0.9132833462351481
-0.9124472817873465
-0.10304908043435809
-0.06857944634612106
-1.7745835758508508
-0.7737222576714182
-0.06162028018583465
-0.02799512084115069
-0.8208845658840662
0.9384304865833071
-0.5944836384503788
-1.5286019203957508
1.8432460982053938
0.8880756730519861
0.11128977598833496
-0.30558700292485885
1.3276353751675272
-0.9168646266686475
-0.2721982093331483
0.571836462847845
-0.46828319985712175
-0.11945742495320477
-0.5425349803006569
0.42428068448151524
-0.37511104349764846
-1.8089003134105601
-2.1477074250615327
0.183291199381045
-0.7684973020011663
0.031879114973646844
-0.9007571138167989
0.09441728325935406
-1.4135988111683568
0.13678764006100297
-0.5553929691286533
-1.398025380937995
0.5440902541031339
-0.9591014711028916
0.6420015403299447
-0.9777157524039983
-0.784786628813497
-0.0003682642422902227
-0.10792335659437477
0.37958087961508824
0.27891271697635917
1.6035895113939995
0.7929401897142441
-0.7287072928355521
-0.27434807128484084
2.1348284906969752
-0.7568588019145173
-2.4123919930714766
-0.3178135558849493
-0.44373026820954353
0.12361618840592803
-0.07213408943736063
-1.303125104445082
-0.49572488309106544
-0.4789189374165283
0.21856286565170727
-0.3477453924714727
-1.3913622683718416
-0.13431391235073437
-0.17153315154845783
0.34357442371867875
-0.4975863441591892
1.9749984197544295
1.1078602064699572
-0.5445024364368242
-0.1326922805236851
-1.0052156330687971
0.016724319717564884
-0.5327322366060558
1.1043359255968923
1.2541090016912535
-0.6914536236899582
-1.0127207434238685
-0.3723071686654099
0.10431727824448557
-1.3755566879285084
0.14628826982103005
-0.12925016689866353
0.3332116495569769
-0.6832375292268025
2.42443825230255
-0.6161275421710206
-0.08498946882466041
-1.314067462124948
-0.7818379665832313
-1.8292374914845828
-0.14408154526346617
-1.6986963031052686
-1.8435028295974614
-2.3106580373279613
-0.9120274045600377
-0.6511850925911535
-0.5294641017825475
-2.840224364865674
-0.5496693364704289
-2.1613378018703293
-0.6958366825365621
-0.6321082256803952
1.12146705936658
0.40721689741463896
-0.09159018898542365
-0.6814480499651008
0.15623082199223481
-0.5420829025738974
-1.2747317675779826
0.4595055175444405
0.824310338949871
0.249147627650396
-0.720273367233857
-0.2256297254901246
-1.108982832330368
-0.693676097838596
0.3262533206610141
0.7309154298266641
-0.6930499091221689
0.9744326542032549
0.37912670279875427
1.83512950187835
-0.728657690229501
1.2040932647799372
0.8470704456863123
0.45451427525976584
1.4421682882217368
-1.7658262102064433
-0.2958818020171191
-0.7897051185300688
0.6244368438743533
0.11537631001070986
-0.28156519185032425
-1.500851862841032
0.040088835315966256
-0.3943479998096392
