1.069242750273592
1.337030302586839
0.407626361686716
1.559502985442951
1.6970346958172582
0.8697548558618817
0.6948583373489725
0.9992134815517479
0.8223623137167595
-0.7408851219125973
0.9603176572157586
-0.6696659964398475
-0.6665698760305353
-1.8384295301045188
-0.021479720319025897
-0.23102904762250598
0.884697134071694
-0.47962267725843455
0.2297463565047847
-0.8397680532499907
-0.22307639794137407
-1.093989796957825
1.3167423458534195
-0.6959013882902572
-0.19558828560505126
1.4835718321101667
-0.2965578915562612
1.1235198647868079
-0.3975576852496171
-0.9400685645579037
0.37969571076859016
-0.10677736368429726
0.44774813997056384
-0.17128619521019095
-0.9471580746858737
-1.2971549345404185
0.3788100361167326
-0.5129085609746705
0.481793530839721
-1.2209531245438268
0.8513789852147438
-0.20775126877545994
-0.08735203534818492
1.6902322530801057
-0.9644783067187921
0.396777681932001
0.5078236062619194
-0.8110657294973094
-0.14084155708739882
0.37095708481077727
-0.33262314181171204
0.009212978352182332
-0.03784709244006379
0.7297386186637098
0.11504088749564033
-0.4340083276456022
-0.9045489598780192
-0.8098441545497495
0.7296333279772313
-0.6189156067253464
0.04651062870782957
-0.3817189302071936
-0.015443724393841418
-0.45613273004500376
-0.5704763083475941
-0.24929526874850658
0.08884705740235216
0.4905104132679158
0.11145757235904913
-2.8083763191132416
-0.627651405054062
-0.2537354050872851
-0.29467474608827876
-0.6461352849676403
1.1019261371656728
-0.09347697665201304
-1.40373831175579
1.3823693524127028
-1.4547723263137697
-1.670102411633576
-1.169632052029581
-0.8440631935368565
0.4607549977555012
-0.81795999519829
-1.067395420520796
-0.523952642620521
-1.512715224547859
-0.4575645087023457
0.5902384157211034
1.7699163057657925
0.5326029455885218
-1.533455635879007
1.2765293159793425
0.15839405463227266
0.09449728040998458
0.0008206297468911217
0.2721436292015829
-1.7051634941626155
-0.20592153108215874
1.05902003212021
0.05682982325464386
-0.9987515244234483
0.3254805084855331
1.7082357343226113
-0.5313437747721313
-0.4125548118416277
-1.1606389827264796
-0.5740981973876341
-0.756960034645363
-0.028161896210755544
-0.9025883622430771
0.7599797050031774
-0.2859769477940013
-0.22719079933702913
-1.9450998820598928
-1.3013102895906756
0.5403923055849854
-1.1576135393069646
0.018986728272245124
-1.1527542662699592
-0.5117804353935941
0.16492631149313353
-0.7944486947520655
-0.5535063730730465
-0.11696643841551851
1.4484198553991197
0.437013724948077
-0.5554326227331942
-0.8401227104336491
1.399946105463668
-1.0031387471383908
0.06647801183159968
-0.05093373955571512
-1.2564674685365005
-0.16601509340979334
0.5674081848123689
-1.577361014331706
-1.0560334028436082
-1.1078644037624428
1.0691434950934169
-0.8629799573638564
0.3371749123590926
-0.8569964365588147
-0.13269320107422744
0.6780628726559139
1.0426506989490767
1.1208146141915551
1.866826166484494
0.3232241061316874
0.5601683067027098
-0.14615259876795184
-0.0805424948371157
-0.8596151734773859
0.9524439159250452
1.5841821875912045
-1.49351735105116
-1.348529126651787
-1.2309620215818897
0.14963122437525747
-0.25268451428519745
-0.24927107465931767
-0.11023255432982065
-0.2357281561962996
-0.7081941507522006
0.9378419315637687
-0.4744411607439736
-0.7846404898693051
-0.7880988569847635
-0.13689741918752169
-0.5023206708904817
-0.5682662533840375
-0.4578372107459586
-1.3231759295949401
-1.032606125249434
-1.1862902395273383
-0.3272949740609269
-1.3744471193811818
-0.9572119502306213
-1.4950963612955248
-0.5548096517757746
0.03544403994048628
0.15189766829662993
1.2237695177640022
0.6037925534348364
-0.33850603971518567
-0.40471305713015193
-1.205853096224584
-0.6282982640693774
-0.8633094569075167
1.2615569558068573
0.6768622637877536
-1.020064485879907
0.19735676123199763
-1.4848263631389558
-1.927560531180434
-1.036651466126587
0.49763342053214826
1.2963901638418929
-0.5185635466976097
1.750484229043786
0.21335869760097853
0.9741036262617816
-0.5821220411528365
2.3600362566947517
0.6520212399985896
-0.22892390512623967
0.6885996521073583
-2.0273372507461325
-0.9938335065341648
0.006810806394296778
0.7035100504081191
0.3099794203202776
-0.39175871351309016
-0.7142980479131773
0.3350769910591443
-1.4556057061586938
