2.0700950200797084
1.0660616768566746
0.8336277542806554
1.5841453431295174
0.37409130411366465
1.274621181938683
1.0987796139986301
0.7216931424780236
0.9077137794895942
-0.13919111792391028
0.34935827709317546
-0.27155842774598493
-0.07746054299775029
-1.4144849727643902
0.3911293404458105
-1.928612577645354
0.35313935666748375
-0.5148841660268245
-0.07582274280941326
-2.0391585073714737
-0.30233909236385426
-1.5205011212857484
-0.5220345636098429
0.29853237515091496
0.09234517961034794
-0.5174306413216758
-0.7878254163895239
0.9060266492649851
0.09910887447570974
0.5306544282671348
0.2662048669341593
-0.02360965036342816
0.21370132204246922
0.48940422679305884
-0.9194323479008772
-1.333328243516358
-0.8804658057910798
-0.3178561875585239
-0.03843949131488733
0.00873833091188582
1.248293604194289
-1.5457567588016121
0.6379270480800272
0.9726919155758423
-1.018393645658587
0.5838443066286649
0.14046764336208833
-1.275243208596522
-0.26921483939722113
0.21241890272032202
0.8015686273183527
-0.34968080480613195
0.7223165442557705
2.6266282286313274
-0.4446871254133759
-0.448604113097153
0.4630361619650234
-0.9360033397181908
0.2485650838893042
-0.33186064687143546
-0.384195050219459
0.558405790352861
-0.26044944023713174
-0.5382973355446093
-0.30544877197375875
-0.6274383410199823
-0.5975053877786456
1.2209176221442846
-0.8395825654557738
-1.4178495315920863
-0.44327772349149924
-0.5156596637754091
-0.417056364978045
0.5926260093444894
1.4611671604561387
-1.08127320686548
-0.392775322897358
1.6831616202527493
-1.2652058191089348
-0.45804190779015397
-1.2662610268902172
-0.5453554904913894
-1.686707860003256
-0.8695044646560564
-0.9550120681078509
-0.23290460978571947
-1.6307770648323603
0.15471526006436292
0.5072423124721901
0.7325757570150477
-0.6886932582181723
-1.8665684930496953
1.1322478195927475
-0.06753489490143416
1.1751598994242949
0.15494860071131122
0.9131215512664679
-1.7923107326176453
0.8551664337760411
-0.4403077438454648
0.7423036662522063
-0.9276717920446629
-0.19337761833060638
0.5544156284629532
0.15871499274520245
-0.9176109690429992
-1.1345533899835891
-0.35986908967527903
-0.373674901563921
-0.23758622938778856
-1.022298647581868
0.7934489982857396
-1.419707007512307
-0.1337299920006037
-0.8318894565588212
-0.6240456953492842
0.20460226175167398
-1.2406638529867602
0.4122412346077089
-1.1494979818936744
0.0895881443822342
-0.30494083545250084
-0.13977973647779837
-0.20487940378196529
-0.8405705943720916
1.5193661512978653
1.7370662831318209
0.10080431437278133
0.09510988252736602
0.8440170445495266
-0.42598275699660665
-0.9026542668935209
1.2466754599172643
-0.8648562987581194
0.24726296148381147
-0.5570182291932688
-1.7031127108897794
0.18546057620115375
-0.6869052214199766
-0.21545145540038624
-0.0982460877774568
0.5689723643718662
-0.2190797773734658
0.342651860828151
0.7667178712272069
-0.09315802717375198
1.7072370367127634
0.628437243174518
-0.9146923189497194
0.006090956638829859
-0.33129130625008407
1.0675194838187019
-0.6267943721696427
0.4702268937299312
0.7543407469436789
-0.47450547065483606
-1.294854073563176
-1.2084662857717168
-0.3720924046420411
-1.1989943551352278
-0.05936671418347833
-0.1183017020563693
0.3983151918729287
-0.5320733742422712
1.2811427166120462
-1.2684871738373107
-2.075000607477212
0.02023676492292359
0.015859395889323613
-1.6091249890446278
-0.9296402074105962
-0.30970247963935
-0.2289387287219743
-1.0487831132611485
-0.3903165209975054
-0.8285388631233721
-1.559746690981995
-1.593141238149891
-0.28608322186662
-0.7535603076397807
-1.218278314507172
0.6403206388177676
1.1177006122651743
1.6628657257578403
-0.0738714924133847
-0.7121577826288747
-1.430186555252591
-0.8911785277402491
-1.2884885263189092
0.2681297247996724
1.3548990493095387
-1.055769599037627
0.1169508292568332
-0.125845529171976
-1.0346870747411367
-1.711879073499733
0.3735390491865906
-0.23217203810799691
-0.4805337984983893
0.33842958108581994
0.6689439964780761
2.025118764706633
-1.1733115514449022
1.5661439362318248
0.07782681502330246
-1.18731146833161
1.0321640900525821
-0.9999252877379852
-0.006516873327305689
-0.1369410417685198
-0.6461961704001828
-0.5539610502349004
0.22443924842438473
-1.579937807013792
-0.4563192934613534
0.28383110955294033
