1.1225644974938385
0.5338210523975682
0.04295907395028886
1.817068349338821
1.523476626860483
1.126351649043086
1.2915423928304155
0.8581653594797392
1.1505350244288648
0.6905158147546675
0.1508153041800767
-1.2650604324022188
-0.2124771195598839
-0.9884241225327842
0.5462143815149568
-0.7604632522365216
0.47864027022783806
0.2880038512575877
-0.3536204184751782
-2.6998876635927
-1.1586646113098076
-0.7856475191202699
0.9115666217397798
-0.9854594853348293
0.044518037892245454
0.26724383543246827
0.019408782321617135
1.0934471458362802
0.4519426154924343
-1.238698523544714
-0.04738529344303055
0.8233139027354665
1.4814899729047821
0.16216436339766616
-1.377893500866811
-1.6408451596715437
0.422310148068345
0.2250898354893205
1.0851646734475053
-0.6203468982867162
0.5573352008795713
-0.30616194902908483
0.23073699009796694
0.8316428752572758
-0.6010041790204477
-0.07148638848107575
1.2268365977350493
-0.44341206762502294
0.2490673909915897
-0.828048902342677
-0.054701541067353476
-0.7424669686821933
0.14257715098041335
1.6238761860383122
-0.2109804966204885
0.3141487468672771
0.6892430007628859
-0.37811142832511335
-0.12805362448346858
-1.2701074491259443
-0.0800918783593777
0.4839313067036491
-0.0037615368391543825
-0.10111599492127227
0.49535194560101775
-0.8464274141307175
-0.4844373779893909
0.7183427148967937
0.08552243880046495
-2.4076209861414153
-0.21175898973049295
-1.5076856138338184
-0.8540104855723416
0.7032185284158075
1.830362969994968
-0.601842903296975
-0.030009296167237617
0.6168189761183439
-1.198637335498407
-0.3785471432507904
-0.7867048479955623
-0.8187263052310868
-0.6438413695734234
-0.8303285599914058
-1.9017732123721784
-0.5136481258700824
0.9721172338743426
0.019953550298450223
-0.2429032979986643
0.7374221350929862
0.5492150881463967
-1.1364445233134433
1.0240877539702862
0.9514126826958158
-0.49062110374017076
-1.1735611285480336
1.0075790421404396
-1.0574610367456216
-0.5521833913016202
1.0290810510393962
0.11602516582425412
-0.31637131945829555
0.016144399452638736
0.7127898386430498
-0.11353389019726451
-1.2431517477414062
-0.31775174283869556
-0.8070444936512557
-0.5549392328385551
-0.1022930795345312
-0.6254455618442516
0.08635531114723982
-0.9580979915766564
-0.07980098715762635
-0.5420301081371013
-1.2295742885784935
-0.7048386686695145
0.2631365700045702
-0.03894533310086401
-1.4674541531151477
-0.6864766864195153
-0.20118807764617294
-0.41349217393339127
0.47915089222980395
-0.5020981971635797
1.0718552009043179
1.2241231849336238
0.08498666248736801
-0.07189655450525514
0.614707567207959
-1.0539771377401113
0.5045092358761811
0.5689091595384924
0.462352340008934
-0.14245134505837048
0.6534163758048449
-0.22711359471629133
-0.05079418280961884
0.021558496841127095
0.3248954828209934
-0.30587339992462403
-0.6354888727276938
0.518425969287747
0.27937413373966646
1.2929094176435694
-0.5494001732063514
1.4314072374418658
1.5518175450768463
-0.05406514277841079
0.9575934641428557
-0.6281503367297355
-0.16169271244344663
-0.6546388409741288
0.2501442700418113
0.8340998178822399
-0.33386785069515135
-0.1431419738791646
-0.9883650783885756
0.6539674959883943
-1.8990638635969153
0.012613592312891553
-0.9540985765902272
0.8890831484666496
-0.8696898441768641
1.4170789259191092
0.7232959058832702
-0.7012510808267609
-0.538779760988997
-0.9743712972216999
-1.045662167654429
-1.680848666599666
-0.14873588288253414
-1.7689215212107876
-2.251547277813062
-0.9652704352124721
-0.7349292126946484
-0.8844293737922897
-1.527650503867426
-0.6307885964694149
-0.6305398620320717
-1.071065806837612
0.04805527816415611
0.778975591578156
0.781439185750645
-0.26530069761480446
0.37462997220054717
-0.9108115449895078
-2.141502683024137
-0.6422019988419302
1.1463657975117187
1.0262801138682198
-0.9712112309169905
-1.243363496377233
-1.6629510869117334
-1.2127171911092944
-0.16364234637146113
0.06729194831711516
0.18958117369484995
-0.7930394730391463
-0.02843160114067078
0.6712859903866458
0.5038196623541316
-0.34661782185938567
0.45417571794161293
0.3575687746365446
-0.9082963791277384
0.7333867038889189
-1.9212203424070995
0.4882734430182618
-1.0808046719364677
1.0004459930700915
-1.0245746701333265
-0.1422862621811729
-0.20110973474143667
0.9756337834162786
-0.3415582186594478
