2.5543521688931863
1.3993836095358843
-0.07878168868563973
0.8153262597133577
1.777159058520476
0.6050705081009696
-0.4790503064084035
0.5740359772697959
0.46488227524174636
-0.27022610594698826
0.6948686002728638
-1.4490539982588522
-0.5583452948707448
-0.49516353958847653
0.2085404539556945
-0.24618560065893041
0.5076033175967377
-0.030294202358578937
-0.4182491303472353
-2.9635685472608913
-0.9456155821572418
-0.16044211647852802
0.45121243224875496
-0.7735191920910209
-0.376238528980516
0.36477111150583846
-0.8810071449633543
0.6191366218880967
-0.021468366059381044
0.02567316375862727
0.5980436569252909
0.27999349356031394
0.34253917930915945
0.049997840124603204
-0.3204467742804941
-1.4856249222429794
-0.96867021015401
-0.4727062659793495
0.9663736595085493
0.998515031943834
0.2487666182946311
0.5533264480663971
0.33945196507705744
1.38817268823207
-0.609075126319473
0.26904081652700906
0.8805401984127246
-0.2762739484032588
0.5592191126023073
-0.5279893078736613
0.32960476413918843
-0.07266620863161398
0.2748441158934458
0.5784280122871364
-0.40591835412494126
-1.0410979955598494
-0.46601496320626806
0.4444163913840462
0.8233647717023775
-1.6887165427534392
-1.0955380960063108
1.8763343121088494
0.48707444523365284
1.032450198394772
0.03672053854020535
1.2364880599345989
0.024688772276973414
0.9509658708179471
-0.021511054271201646
-1.0171503786518425
-1.4765348773944327
-1.829219921937216
-0.9823223047824717
1.4691975182997252
2.151705347424951
-0.228907706326679
0.10435229618445299
1.716545038680449
0.09970787907903733
-1.432697535805673
-1.3870843731256413
-1.686437104242834
0.06073264953965232
-0.1049704394244822
-1.3341403036373696
-1.1053453686856232
0.16044553000498896
-0.3446205161156339
-0.757058688735018
1.545315227565888
1.0735306557951831
-1.7740775857664508
3.0391840765710905
1.1478875077789283
0.112404412570986
-1.2058564581692641
-0.489668498548795
-1.249988858090049
0.1473586440844262
-0.3001988947929102
1.1918325566165011
-0.74233723903804
-0.5586962994397907
1.0085794751389385
-0.05261761581478232
-1.5706312886895772
-1.121277302508839
0.11887139056252677
-0.452064310668081
0.5375351266404973
-0.33653092700813086
0.43575209231872947
-1.606724043239824
-1.2400736496141862
-0.41072140441319
-0.7629445334887964
0.16100193472484542
-0.8711969817972574
-0.6533407078498592
-1.109407461890025
-0.1649732418452117
0.7540366914815289
-0.6605652849835895
0.6271543658164508
-0.43041396910834184
1.5346923385381304
0.4468037863691383
0.14101321593262447
-0.5797694004358291
0.007931250621459163
-0.750358596086429
-0.01718377368314561
0.4880987196189043
-0.7244898457141612
0.7964532823611362
0.23572064913432234
-1.2994607689177706
-1.3580937952519316
-1.2778163935007738
0.17974426696599188
0.7386964168078338
-0.29230743151217414
0.6237689130087234
-0.2709484120391454
0.7043206293940356
-0.3494825594754265
1.5294595663513861
1.263749609421841
-0.38655763126497616
0.19048490144717745
-0.17363067614944083
-0.09115852061364069
-1.3331938443551976
0.7115829066707742
0.30400398879380036
-0.4011777597521947
-1.2904808561705257
-1.3184517823867252
0.47801851151479136
-2.2562078034633313
-0.6925438092465097
-0.9552474068612937
0.830610879928777
0.34875756476759123
0.41251276421420935
0.3077255956928615
-0.3803564222720615
-1.6117023615611634
0.024274964751498318
-1.5672809004587986
-0.780003575573748
-1.1561127163597127
-1.533082872987751
-1.5287356268334176
-0.313811957711288
-0.7142114645895988
-0.4449717082606901
-1.008990784221706
-0.9794057549846762
-0.7000549796014589
-0.30746360379976273
0.9057818346441093
0.4042809112227182
0.4311059042567208
0.35800840841381376
-0.3430140619925798
-1.5261988351169613
-0.0006378107311610925
-1.2471646040020055
0.8904088536374747
1.4854157706799649
0.524013485897987
-1.3809601884162162
-1.0942522435813455
-0.788815527083427
-1.607539699086034
-0.03834740828191241
0.554853778534518
0.7624817488689399
0.3619345815777557
1.3085357154727406
0.4253518981007365
0.43792558498323886
1.3912839422570815
-0.011972532048347861
-1.6539659758690792
0.585350042177861
-2.2360010050091272
0.6385940765445041
0.17175920882146434
1.2897514738139932
-0.25863031656500557
0.803104806208187
-0.9830634913862402
0.2939441585875949
-0.74272368852356
