0.0767774676168429
-0.18674578457921454
2.4527127728432743
2.2456645320504425
1.4995852925866169
0.08416738128605378
0.8249014678898199
1.4063455030553649
0.3896610677860418
-0.7347676516446511
1.021847678243709
0.4747963984111577
-0.5660448363674238
-2.288742859368527
0.33657694021240664
-1.1160348204405433
1.073379660785015
-0.8823175800664531
0.5641875171598459
-2.180769745937447
-0.43637339062098085
-0.9488493830060353
0.7707291591617053
-0.18017209066510878
0.05364821045989515
-0.20528385564474239
-1.9290943351559326
1.5109097133781335
0.36167250429639375
-1.8454171930212815
0.6635726063369305
-0.37507316652841016
0.8741647050983925
0.6746849948129986
-0.781062012156685
-0.5667239512140995
0.3561845634999492
-0.40806915595637794
1.7125879108363948
0.37421701303443555
0.365595773312135
-0.6531829117435217
-1.5244331937479623
0.24969341736414608
-0.49634744062280334
-0.3797485517444019
0.5235425741332748
-0.6472967421666456
-0.24073433250772414
0.035052542695150235
0.3476974014711016
-0.15571437046270356
0.43450986336125963
1.587343992839686
0.1497755154957507
-0.3324765097641944
0.122300670346908
-0.17621043436227196
1.1029089113534432
-0.5932965984138429
0.2999543685181562
1.081455078116646
0.2433226754812258
-0.10469895348826702
0.38238777972457044
-0.3007656739125122
0.7572809311426166
0.439978403244078
0.6277322169108752
-2.9644071156609733
0.7000011778471684
-2.0600110268685023
-0.22617587816408408
-0.42458119641256276
1.8935401141944914
0.9550952028890966
0.0877281291414623
0.7047844964354696
-1.4538053792454528
-1.331648232626832
-0.6277327456754449
-1.1002842442374408
-0.819463810205518
-0.5007955969816077
-0.8805829306935343
0.1079722584570938
-0.49524386563987804
0.5139750935494196
-0.5532368799740643
0.9191152080992946
0.5476449969215755
-0.9256560130377769
1.4137140425075057
-0.1015842276007729
0.18407712207124255
-0.23687786727207583
0.8352024789404005
-1.4011276638024943
-0.291448697328503
-0.11992508754082637
0.907570393331598
-0.9065471914756085
-0.394596940268078
0.6145396092818667
0.2858091306339234
-1.921338554509839
-1.7561942746345174
-0.10871034111483877
-0.7357625572072756
0.20524396873061515
-0.8039773387607502
0.4337851167134611
-0.8450303619970274
0.04919772958203367
-1.3313607275850936
-1.1055977917281787
-0.3021457971206653
0.02825387914901628
-1.1618752784682136
-0.31478384027261186
0.15235686276437715
-0.3128551197551116
-0.8698018332574255
1.4959769520413524
-0.09517916238901922
1.4061457290508896
1.2857030453386193
-0.48029657959867744
0.9641115241195368
0.8523981073123126
-1.082563164213667
-1.3327295951404579
0.97604597310546
-0.7507404456716804
0.4519760812481045
0.1560812274889659
-0.26644837014835177
-0.3726782956799061
-1.5308262222071831
0.19676110169751415
0.42110282581407443
-0.9208188976075495
0.037146568952040604
0.47625180387928506
0.42636628915851066
-0.239673999654526
1.7774880795233088
1.8693421672792327
-0.8146391254129134
0.8653686898989786
-1.2295525371032048
0.4703090608142346
-0.24984183346008093
-0.18926416885651443
1.1266647743370672
-0.5231627203329636
-1.7801262788374776
-0.9570681262267371
0.35692290845367386
-1.8072045835754937
0.12944512334023983
-0.93414868863705
1.5777839177295765
-0.451216652878746
2.3744838400415054
-0.9241165449164879
-0.5490414559622732
0.29525857439776426
1.0188646649846347
-1.516766155783485
-0.04899447949750413
-1.5083209651386278
-1.1554140474756984
-1.4322374885003302
-1.1173662805019218
-0.39948253221508556
-1.2641275197974395
-2.0699823835639077
-0.8769645042661457
-0.022927846002010366
-0.5389816342336111
0.7918875518274742
1.0977579196771718
1.7130732769166035
-0.19512245902357325
-1.1750838731475644
-2.142255715975018
-1.0701037113345528
-1.5266414911212762
1.9498431636707458
0.48841118681500056
-0.6113138454100028
-0.6237004441861045
-0.676097644433457
-1.8218021015334247
-1.2134638359324792
1.230825773226489
0.22097603976605545
-0.13238557244314061
2.2605176300979926
0.588256966619852
0.4684670313703059
-1.2561477514811517
0.7171043216662504
1.1806620025027308
0.0458893215607149
1.4641804414763708
-1.6192156716466894
0.14389515956098617
-0.08786072760078542
0.24764608405543126
-0.5046877077866734
0.15310177788328422
-0.5543472234621816
0.28747510364083045
-0.13786249112514573
