0.5660893794105682
0.3304207395431237
0.05827852355932195
0.776550557352532
0.6396825299480848
1.2467766053195497
0.5651370744783573
0.75267358498147
0.4566685655513115
0.027502284894126705
0.5221743153626239
-0.7296498326879386
1.1074456784101971
-1.1156353689644676
0.7588349178324242
-0.02028452013961568
0.9682968607228557
0.6252246941117684
0.7136641939519072
-1.2092555299574645
-0.4697213628078214
-0.7694095311815543
0.3009119240360737
-0.36031997456218645
-0.023241890548857363
-0.004101700638362571
-0.5494064135086427
1.4043471151400366
0.6817997168111902
0.6484533086530555
-0.6386315622238307
0.7058314598644301
1.0282881196590488
0.5235739821026715
-0.7603184879966923
-1.526141736838393
-0.7492677426792229
-0.5925282021037138
1.905705067236139
0.30408722295543134
0.12317030020083419
-0.6493256088542265
0.2904052181649597
1.241156931871729
-1.6700143805088226
-0.761779615906863
0.4713310421442231
-0.7039973372184198
-0.5760830091459002
0.6707099558203642
0.12438068393035892
-0.6818787249578196
1.2229519440793555
1.0984251945784491
0.24800581697696497
0.0220327589523599
0.15430508162667445
-1.7510817898488806
0.5734723785243812
-0.4405234831354522
-0.2875308554636263
0.8205359436963047
1.1338676742719633
1.2751313509148106
-0.45655263158806725
0.06650729759872834
0.2737392962897986
0.8980300084365513
-0.6591521166141963
-2.252861429328191
0.41607599747738927
-0.3193887253873955
-0.7510528248153413
-0.2165240256609179
1.7585242907622751
-0.303390570841456
0.39930553874101954
0.6619976395047458
-0.16689662776966296
-1.7990599918748797
-0.1912263841155773
-2.226353785609078
-0.5009362578054386
-0.6597178476929969
-1.3452970681966991
-0.8408291071514705
-0.7318217070253371
-0.5120570126749422
0.5910351655837658
1.1917473336162974
-0.018815641793902358
-1.0698337606727475
1.3713451277055118
0.023515309287290898
0.5270389057742864
-1.0946974920495842
0.2664102554550179
-1.5972591665674134
-0.41896840064663166
0.183111452710483
0.14915264708388992
-1.346169470016045
-0.6136615913524728
0.29819103886528203
0.3330323062678149
-2.0440615312453896
-1.5490110783720952
0.11651992341613909
-0.1851575644510407
-0.6232340295857042
-1.7963428689865566
-0.4919106866366
-0.22895107022645667
-0.026871501587366453
-0.6701502083639225
-0.696729836174506
0.42933411814425965
0.7094379889416624
-0.733613086321905
0.3877550954394894
0.46700174976419484
-0.25775212371350625
-0.5045102370601084
0.7923979729686903
-0.7675649406239908
0.859373418785454
1.3460628614566332
-0.7353255988129045
-1.7880429909046727
-0.28079027257146355
-1.1870051525120728
-0.8308804424615441
0.5507949769041867
-1.3539231858771923
0.1502476901247559
0.04933704721845357
-1.6146058883820635
-0.6692708468491244
-1.1979880529707643
-0.7490842023424797
-0.3622793528709484
-0.8676030985504671
-0.6224714685260739
-0.34200333919204023
-0.0042422196093151315
-0.04224895073348134
0.9799047742144179
1.486116869140833
-1.015585147749901
0.7232944756889726
-1.104701528488275
-0.20203445103551787
-0.8039114246486703
0.8318307228736096
0.01592649411558722
0.4448757159998419
-1.4575831258924397
-1.0803531554236223
0.5470941010611446
-0.7948121166767429
0.07954640724854112
-1.0692858628623074
0.458119666626989
-1.2225502250904818
0.6662445557677759
-1.479777231574002
-1.1193355669546863
0.01935366437963415
-0.70131135538725
-0.40802600370777165
-2.238118751227961
-1.1027967707698783
-2.2454835233194146
-0.4489440775151585
-0.6957472058228051
-0.490743129955888
-1.410145923457724
-1.1553702545662796
-1.0598198324050734
-0.16248149794141187
-1.7178405895634463
0.2873261621732059
1.2387060704922337
1.9207848172339697
0.42273215715677237
0.3223693662019689
-0.8156557442105486
-0.9747762415621744
-0.856513447879707
1.1427865450679804
1.370238509437332
-0.4032128715404464
-0.7058187341123964
-1.0026574468701765
-0.6366783947764392
-1.8750064154210992
0.20907431579392055
0.8951184344631817
-0.04496708669745173
0.9560053737744576
-0.5804651038609128
1.4463966513862938
-0.07696268246851612
-0.3432330527055252
-0.2188221219889232
-0.5113566098144244
1.3772078078014354
-1.3735755283924012
0.09291904634348766
-0.07979038294652534
1.1777096686383797
-0.42681615565697584
1.0585374938651364
-0.8979041374766721
0.22396827153106294
0.12223701174143806
