0.6737670604179097
0.8015522749847879
-0.3359932837098634
1.5096026043094017
1.5855149749164483
1.498406572643471
0.05644207447762806
1.1206693301304047
0.09269433160277474
0.37629958144860476
-0.03785564590233037
-0.5114496368470881
0.04653484305035849
-0.42574026502215256
0.7896780173487253
0.4801197643079813
-0.25223943996805354
-1.3083562641653432
-1.0121602393217797
-2.5710809463656106
-0.2568113772183856
-1.8879312164645108
0.6612034688061942
-0.14687518971157432
-0.2146427027410766
0.6220647383634987
-0.23727895047790598
2.1229010942641144
-0.2916235284588823
-0.409665528452118
-0.6053118103000458
0.1363569673584079
0.40135887172228035
0.05687960561273787
-1.8419320772443162
-1.2752625907849167
0.42424307396248395
0.4829762449033829
2.0117826993846526
-0.6333817052256182
0.33257860475106404
-0.8147825456825897
0.4925654622992306
1.5951994511021212
-0.7910904312405505
0.5684817233583016
0.025708550939295804
0.21421852664001217
-0.9132506059051785
0.9840361698338081
0.7671410842448503
0.5553491559006782
-1.0843766354545101
1.750624369569012
0.1094191997879279
-0.507659658944253
1.1921370362265173
-1.173925812460127
0.519253274268094
-1.4080339611466646
-1.2495892770516148
0.32116597650162604
0.4097337114218101
1.00074158735901
-0.534709486740877
-1.3084056597425595
0.4096794090480469
0.6867392753395738
-0.2109213105851589
-1.709220011455891
-0.32376859783789924
-0.8256384895267906
-0.2710452662018048
0.574322995595614
1.372416457164232
-0.5198756077517088
-0.16032225519435267
0.9430591597139373
-0.8997522997439102
-0.8788654119974392
-0.39081442941094174
-1.1266609902031257
-0.9019252342381658
-0.13727901551764643
-0.53794525933451
0.5977900225478376
-0.30641753604538063
0.9720136957224084
0.1247689895655679
0.7357250342040018
1.0447979953140978
-1.2357318004161615
1.4253718328307776
0.7943204566355222
-0.034941406594802965
-0.6434516673312456
0.8252209167560646
-1.6193631020687425
0.5139572362514465
-0.5127560762180585
-0.17538437652155445
-0.06015692160729158
-0.03709540169188413
0.6832457538765829
0.13251511597356175
-1.097287392004127
-1.206825330176386
-0.30454409998100085
0.09437741143211376
0.16274492817180222
-0.7533218006623308
-0.47628118921199825
-0.16848208252777652
-0.5835735131551064
-1.1117394052568177
-1.6325515572873877
0.590118134169583
-0.5118434055449103
-0.9768028872095452
-0.3515439636000116
0.29756595359547405
-0.4732943752664614
-0.6446318463980093
0.32771794642107344
0.17534976699077603
1.9298111819236006
0.1882061638330209
-0.017786938500907845
-1.1965315807806498
0.5652799300620784
-1.1435709370896994
-1.2616533808629697
1.7234479180187887
-1.3806040419600327
0.743640554648675
-0.37269803157255205
-1.9837556752186796
-1.0087947617818922
-0.8773579367370575
1.1242986350340805
0.35408141281616
-0.913020459117843
0.49406760239751857
0.15321985037645333
-0.6593428052450085
0.4664306676519846
1.8437332044471904
2.0842547198558496
-0.965612922767224
1.480992054144235
-1.1155201196713422
0.3496805580660296
-1.5879511109592195
0.9892147216681102
1.5492866730589236
-0.9238154146241329
-0.7592981764128361
-1.7505084492055274
-0.6683420325350656
-1.9583919896728552
-0.44523803408843754
-0.7966214638633602
0.46928224900421767
-1.6974933402340415
1.8018111958693857
-0.8468300938483477
0.4268107070172536
-0.8714120031449566
-0.0897560947178592
-1.501822516253241
-1.2076445537584741
-0.3950677357950944
-1.9022429773491902
-1.670929990631783
-1.8562102940011487
0.15890227520340938
-1.5965234970087767
-1.6869516254323809
-1.4994544336386653
-0.6173778042288753
-0.1003149107073461
0.171803576581804
0.648453365574285
1.7398233334886293
0.30308724615713123
-0.5284711903027057
-1.838638471494948
-0.5519016715301793
-2.5224965489424633
0.9427504229699356
1.031319083805426
-1.3320568675959137
-0.9903742153506643
-0.4384840658489092
-2.1188323217194625
-1.0050783066737594
0.014167183219471968
0.8091901363340944
-0.46262430240681895
0.3679410042217003
0.8150801538465926
1.4416099939387146
0.437510579800101
1.018565838830225
0.5579084495584967
-0.7032092377975278
1.2561943307561272
-2.3442624066092717
0.22842513950724758
-0.1387816582647285
0.47148836244300996
0.29461908391194397
1.0650311482585795
-0.9218799778708581
-0.9709656091699168
-0.4339611690284013
