1.4813558141889698
1.728787923382308
0.10363582087696316
0.6928541303270341
1.6502728517878233
1.4477977640229052
1.4112326072541557
0.09145350651780026
1.2075600481981676
0.6870768642506463
1.1139493076140465
-1.2711236195941968
-0.7574250001086614
-0.2050562772145741
0.728044524154462
0.07578967246765067
0.9224274285195444
-0.71643785846882
-0.9689676073781647
-2.25999001785973
-1.565164089373924
-0.5118603944490597
0.9713536113570689
0.42572217191373823
-1.1005063974873663
-0.5011474874489705
-1.2102042029106856
0.6199976295551858
0.6771486640948781
-0.4745562069913416
0.5331538501049202
-0.023559297919203755
0.7005068664817807
-0.018298935070061847
-0.21477120998181376
-1.0194553612150061
0.03583689951312939
-0.04519935810374581
0.7531251103671016
-0.32146237707334646
0.2988051172415506
0.2709629576443194
1.432575877093453
1.2743711894603051
-0.5990591507998007
0.22089827273425136
0.5190076588290928
-0.2121224517443588
-0.10305121384612392
-1.2786550437988458
0.776106092243287
0.2887995934860647
1.1662972683241755
0.7619441076881408
0.11559028705838804
-0.28080512474765207
-0.3735619728828578
-0.4998824452886404
0.13529092706383583
-1.3925354941592183
-0.16118092187946598
1.5680833244895835
-0.7277966860691937
0.8307509415627589
-0.6171929876958613
-0.16216301675285344
-0.5141946369897221
1.8137751694139825
0.09119759312618429
-1.9456388803720808
0.3460275231042554
-0.7225647033220285
-0.09320760989994364
0.8000746141814818
1.8426406803252213
-0.57895501965018
-0.2522711651063901
0.5552865356450483
-0.7238308166519447
-1.773938392767201
-0.7066707133505619
-1.3010749558811763
-0.8592147131896215
0.5787581438927129
-1.4798337906269485
-0.4072075725686791
-0.9373212364592588
-0.24858370848862854
0.9475842425079032
1.739654475229481
1.0544477564838692
-1.5081279146950664
1.2659012231236644
-1.0552402985506935
0.16356385730524728
-0.28843616745905537
0.22716551879494207
-0.8529267474778407
0.5485285707868945
0.06931998283209301
0.5045785555231872
0.4077988139327513
0.1888630232480303
-0.32863018030851243
-0.035022392494768906
-1.932404302330773
-1.4625724485715144
-0.11191694333169944
0.10515247162108854
-0.4621858192048877
-1.487373300926054
1.047389891728789
0.4618490419946223
-0.22773772526893518
-1.0367063572875657
-0.5548868941082337
-0.2517833230423841
0.29794618501012854
-0.5342554281477223
-0.033161122292301615
0.8835740630513778
0.3130811150794944
0.8185279678974666
0.27270694830951925
1.067943943777353
1.8986168551925138
1.0020844387306798
0.21117155602039547
-0.7277930289734262
0.5417701545711631
-0.53054954688424
-0.49519942252434407
1.1099650559401941
-0.716458076702597
0.7214466356631034
-0.2065711844895914
-0.33155862377160034
-0.8514949662391168
1.1658460800438233
0.3268677022663148
-0.38397568698761936
0.9071624265528399
0.1185685347056179
-0.10769169025377473
-0.753844527753579
-0.06405098123738781
0.801811989128894
2.196373002100229
-0.15229394524194323
0.15260611146209907
-0.3662651151364822
-0.2163108161880165
-0.46445787134726874
0.9250649293763595
0.36785864232809273
-1.4827406213215173
-0.7642305728683738
-0.49105170015486455
0.18014078005484652
-0.23066450881230938
-1.090928204824003
-1.1980303588732037
0.460607908156323
-0.03191276959305944
1.487089573086337
-1.3211461324520024
-0.4460590465175816
-1.2786537782528504
0.19300353111813184
-1.0661057216105814
-0.18420686802564934
-1.2139187748185976
-0.9985509829216958
-2.231073607804744
-1.123731946276391
-0.2059149581992734
-0.5469798642443732
-0.5624182099685271
-0.8177311286819727
-0.5111168771687811
0.08971302806890502
0.018424758007690334
0.330810180804857
1.1598200843104611
0.288229574652624
0.05096500102269996
-1.077031625475026
-0.9663673132429539
-0.7233828439988601
0.4770217712454816
0.6651112143054736
-1.3325566293689421
-1.6797341652224902
-1.3294068971737905
-0.9772433139261787
-0.5229586591730159
0.7063830023361928
0.9395456494888392
0.03465048426525606
1.026590676062923
0.8706325362032121
1.4867436753259655
-0.8302179010180941
0.592953354244264
1.1576077669160794
-0.7996353889762835
0.8468340409566223
-1.953620700619497
1.141313802608865
-0.20138578493663103
-0.37120058033316644
-0.7554994376790578
0.1719322997489245
-1.0703679089009182
-0.6568937766427401
-0.3323836826099329
