1.5351568676952159
0.3850700401225199
1.392570930581359
2.022123225813504
1.0817151929126394
0.5704830460500915
0.5500781674599795
0.9264426231159479
0.76661105060006
0.040169892958502776
-0.8516750876591901
-0.5169652565310197
0.4776450988973685
-1.6681096580071735
-0.5899652537428679
-0.6680224110559487
-0.01771154177725298
0.4692997738333177
-0.39046923671695344
-1.9425828232967837
0.5700337871503844
-1.7859438049765815
0.08546797202339729
0.7738198951466619
0.3366427201799113
0.6776145205333244
-0.9018390586692366
1.3430709204061975
-0.9464688697738858
-0.3173307040341452
0.9890303703847578
-0.2618417133703055
0.6004639360213714
-0.5741315745051182
0.2821179951821874
-0.7166806530871667
-0.14835392359857355
-0.31526796498749265
0.08958423014349381
0.3231989118727303
1.3067195248602022
-0.9647038926834757
-0.35226873883514237
0.8025175450060198
-1.24250011647926
-0.05800161113444907
-0.010729845452527698
-0.8786413802104642
0.03148298826847051
-0.799585971717063
-0.7540567679324104
0.5839089693730712
0.8125969256207863
1.3258640334300285
1.0013015613607763
0.08251735168212315
-0.9053947206259495
-0.009404466860672978
-0.05609228995444926
-1.8482006561381126
0.9555573639584194
1.0902456787569543
-0.8561232862424153
0.690172878590313
-0.45077059260862495
-0.1629972280113134
-0.315732200112014
1.3379211909215145
-0.19651070915670527
-2.2652050829536368
0.8021933410846708
-0.471451894170485
-0.7102552473446347
0.5870383107813971
1.4471703976415131
-0.5918482558772631
-0.40265076800053307
1.2749420314352657
-1.4235262748856436
-0.10700987841831477
-0.8091144369745693
-1.1769198429512309
-1.0047427738743633
0.2858981279476258
-0.5727232796515529
-0.13578858155486173
-1.1969115458521995
-0.6495428431109307
0.21298990892844763
0.11250288350406334
0.600050661936355
-1.7508268581991036
1.4770016684652083
0.3265623117795638
-0.11448376249302383
-0.17625615805839412
0.16032044118782357
-1.8458190767185598
-0.2515570867759216
-0.14362236263382167
0.05908427048472964
-1.1527290273234254
-0.3620078070139101
1.246200017396801
-0.23836652655607465
-0.53577771999834
-0.643882787341689
-0.1633171791985326
-1.552551773485136
-0.26273468825332624
-0.47507401179466724
0.11857238225015268
-0.2454117238168806
-0.5998777315446416
-0.9155404947944933
-1.7999025635073225
0.7150576654628842
-0.9446747521123786
-0.20036515459170517
-0.19082676982918773
0.8832397611224232
0.1722205777906935
-1.2192075115845054
0.4681929235643556
0.14331072389479727
1.5525990172091901
1.143859663575301
-0.22162038818908847
-0.7750841229458645
0.45301709673399737
-0.7784583936434839
-0.3549261584612894
0.43663947961087335
-1.2612693469397507
0.13934513362046463
-1.107363780132057
-0.3404926558282903
-0.4117784326365114
-0.38308379619776767
-0.47755916506043494
-0.29401757557730246
-0.9710201664788642
1.4452275623976365
-0.25727213593742376
-0.6585367529560786
-0.9508281312083497
1.8018402001592937
1.2585233006431675
1.4069375303086706
0.40198551407401184
-0.3783367459697351
-0.3235381228162961
-1.2940137191436745
1.7492261401749791
1.0370235317181087
-0.7574593621658785
-0.44417500372070173
-0.8741891687762983
0.49555175533283496
-1.9527462781874885
-0.974105088735405
-1.3228809736081755
1.0509136743501375
-1.5009183117431015
1.0793362610305015
-0.6945691807115841
-0.9138794731570341
-0.05768083948214614
-0.47793179361226235
-0.7805582990188082
-0.6520872902693574
-0.95932303800417
-1.0899529682902078
-1.762475879848059
-0.7766009645867875
-0.9792892300109881
-0.6864157691096565
-2.1127496687848977
-1.840218030486474
-0.6401850224153034
-0.5335061141002322
-0.15338409599289182
0.30541467809486467
1.749196524228074
-0.6171402168303277
-0.8015123686405566
-0.9015676347251597
0.27458734221530434
-1.567299361839995
0.44506224299939506
1.2738115353261847
-0.2922293635903745
0.5185521790241742
-0.9333578973890068
-1.6525062305902527
-2.0572687029544316
-0.8904583664005257
0.5020788281439704
-0.9934216700997058
1.9362825151898035
0.6242235522687389
1.9866353816001117
-0.7868732849130702
1.5388027638505273
0.4902382728965011
-1.0903604204974473
0.4264140218113079
-1.565671884747894
0.2042707234904892
-0.34213827455916357
-0.5923760659173793
0.6113078649773546
-0.4815588215906273
0.43850020365563547
0.18615853285452308
-0.45671796955557653
