0.4681828774722807
1.1213399718373793
-0.009299825545497298
1.1255210910486748
0.538455464455845
0.3349119949275914
1.3983359176721426
0.061706454917668685
1.0169945416280068
0.09777241538729724
-0.2635111619972654
-0.7174045230859923
-0.5453730473520432
-1.0722790146470424
-0.4319864844947824
-1.2533563285489708
1.7275842379945243
1.1826358843683633
-1.3059342043157183
-2.1823411486166715
-0.7529507735911287
-2.393455260950624
0.8279133039066088
0.39620189581950044
-1.0580119565053236
0.3857325621879516
-0.6830315004542522
1.6880176511779905
-0.812176004877928
-0.4570256825919641
0.2254152909219021
0.48483151406252034
0.5767699415293465
-0.06502564066374698
0.20271006379081347
-1.1160956959502384
0.8224003014712967
0.01841191431923339
1.0898088143745095
-0.4363466711405527
1.5023774876971858
0.342014744467071
-0.3515897047967323
1.3361300757825836
0.26716943288579675
0.6944697908138744
0.7266313198638912
-0.5600275363338029
-1.6206427610130296
-0.2729116337461934
0.7236542506385575
-0.7543187665396868
0.8757034795110135
1.1997199746459843
-0.7752581707660193
-0.8938644770244826
0.05921799055534062
-0.3077249736165102
1.935991425356406
-0.2834279652253652
0.32754810793505745
1.0470476783959202
-0.559094785003385
0.4392523356044783
-1.1391739196911574
-0.8343031639737448
-0.15821505280909542
1.0383420559822658
-0.021365005197966525
-1.6536742319280104
-0.7712018461597383
-0.6759285899390245
-0.7361422284637248
0.50894691937537
1.6901083603260951
-1.050931755532448
-0.525363843905446
0.7269304839622497
-0.829749713406067
-0.6227015395750874
0.3626328746947469
-1.4005384429360639
-0.4894473435818514
-0.8473951107958057
-1.026099452245208
-0.6366788182060813
-1.004340434669868
1.1893606986581642
-0.28525325153645087
0.7132069052520316
0.6501491575194275
-2.1811481886701802
0.819635155716801
0.7193757027867911
0.8422800923840384
0.49419719082033975
-0.3285036303129608
-0.6793152349031403
0.28453498140445826
-0.5255987290769167
0.48732141711772825
-1.0391871001760835
0.007194079486140009
0.14260631597297252
-0.12574152247995046
-0.8548156617700899
-1.1739882942131605
0.16360181322251366
-0.6640333320693887
1.109905080627935
-0.9814835795615214
1.2140955106079667
-0.7874485173827239
-1.1721107462631082
-0.5640992348873053
-0.7635483496744264
-0.1158440687068722
-0.6813608033301803
-0.6468161479842942
0.2806753901745551
-0.4835329146745464
0.3814664497333406
-0.3324429452575359
0.6107947405395727
-1.1471578812908032
2.4609646908609886
1.3826722560344777
-0.05811123466323366
0.10856458087039533
-0.10203107151661922
-0.46561000325549573
-0.9412434222665895
0.6769980123872501
-0.4824378357466861
0.00031843669810160957
-0.13962431670566144
-0.8278131253907275
-0.6727503207057588
-0.6979860642125165
0.4523412984480133
0.5557876002087846
0.7200747314113564
1.2080159804677675
0.755337621408676
-0.3779440739438876
-0.42199743544109763
1.7145994016897017
1.1444976050198536
-0.43353194340283874
1.2585400942621754
-0.4791482814303782
-1.187381735857033
-0.8114305427956987
0.3719499936682211
0.6673407007007756
-0.1455563320580382
-0.27436868254788194
-0.6315991506380954
0.8588376688394291
-1.8598383024359233
0.26525845941232506
0.2048268356626085
0.9498553088282455
-1.4673231460320721
1.712804881495143
-0.961905482492143
-0.5489535616631023
-0.38121818295422083
-0.16920443142465316
-1.775626239909155
-1.4931504548419374
-0.7697142154210804
-1.566364626389469
-1.9255957191470083
-0.9888631788520488
-1.3631918103172715
-1.1155964270547867
-2.0807673951483876
-0.12135673640653555
-1.5072585053448562
-0.8449550683090437
-0.27912617829043596
0.6809531320593905
1.7221225970851526
0.04418850196962376
-0.15734284249610225
-1.357534435701273
-0.6306769734155587
-1.5149390053055558
1.2489117852182114
0.6281616484342275
0.08207372610440045
-0.19678527501290555
-1.756141868888968
-1.4096393407702292
-0.08627406791334291
1.2810696518543625
0.6912569005651662
-0.09294477918360126
0.7449006094318973
0.5982836242716618
1.798562537736802
-1.2723929724494503
-0.1020218793914014
0.28569039143902686
-1.0807712112370789
0.7135170688108678
-1.4942612566757525
1.4413431900118394
-0.5922211652051923
1.166376070597512
-0.08549284712362616
-1.2134350425627316
-1.7288602484421043
-0.002613491422760239
-1.0772332377198488
