0.5693217346664281
0.7112758326666404
1.0961707192241021
1.1568794096359167
0.7812986070069697
0.38080321042883475
0.9028164726130541
0.7576513037349407
1.0169116208210003
-0.17329485659506552
-0.13067504186528472
-0.03266486713726757
-0.13551281522186134
-1.501925967593943
-0.6676620050613316
-1.1277480632046497
0.5995606814495084
0.004120960050121272
-1.6071823937341652
-2.8245889237350337
0.119428908441705
-1.4272502132381786
0.4514135218880088
-0.5467204994462146
-0.09244087088370723
0.5043740093303329
-0.6614354412549168
0.9624822725805238
-0.27732742715000436
-1.0391460197542033
1.1354668589143107
-0.12310274229822092
0.41088409092180567
-0.6288926733449434
-1.3036474340556596
-0.99412000439143
0.17009827824634338
0.4421109331743334
0.5863161658637968
0.3670453828837056
0.5447078191117876
-0.18507680420408645
-0.44981257570584215
-0.8555142833907452
-1.1050399308548966
0.01961288353520338
0.08804791924383204
0.5766651714043768
-0.7915093072420119
-0.2602210720943584
1.6283623304923145
0.5227107886919835
0.8811349896249011
1.1968458430060014
-0.7485201554110985
-2.0510756127593073
-0.8385761501350479
-0.8838370337030075
1.1196818505949293
-1.3979742421970567
-0.9155000689326983
0.3471520948590746
0.646496752082568
1.2519427654994386
-0.4980321688611433
-0.61828208156875
-1.3616804673954022
0.37007780094309506
0.6231579539324001
-2.8739784717024666
-0.5633484946470493
-0.12226237880188207
0.13550198012309778
0.4901381736825381
1.9095889367474792
-0.5710971343651641
-0.6182173246497733
0.621113843645758
-2.1056515301349923
-0.5717956851087985
-0.5485785080441267
-2.207797700149328
-0.5656114877560809
-0.16199706956659532
-2.03596444633276
-0.3040597176441067
-1.4837502792202857
0.17052299210444527
-0.4848287360190522
1.5373192103615136
-0.5849109057237232
-1.3103742150332556
1.3118657590963494
1.0097330491006389
0.16238232036186379
-0.4428935901370996
1.3846080918133998
-2.1417138686842696
0.5571850067094783
0.298814559944154
0.25127437220927884
-1.026340428646784
0.011944689172752682
0.32550158673603297
0.0529068921015376
-1.768222335392339
-1.25774394497121
0.1749417483997035
0.44110450086325725
0.18881243433464184
-0.7511637346492388
1.1872717046087153
-1.3039667476288421
0.14592823014004996
-1.4457665292060562
-1.1649091663029667
0.5065307438021744
-0.07445867331694395
-0.23246945178457684
-0.1961145381846846
0.6808467078148371
-0.2656917608280122
0.33287769656782756
0.5667270997732794
-0.9477734213163895
0.7537548590292066
1.2099492469637778
-0.7815962860230204
-0.10063684227503264
0.16468368553058405
-1.0699165762311127
-0.5888911929273665
0.7052951824599806
-0.27046718221024835
-0.1657872420995923
-0.7881950715737808
-1.6889659080887798
-0.4580462359936122
0.7269693055854958
-0.3132102441963054
0.18702648025775764
-1.3436991628202366
0.19059021035471685
1.5520109322030529
-0.3402206136114665
-0.2937222076650513
0.3783861224648397
2.3505871131829044
0.24897522588338006
1.1380608374814027
-0.34469053878293177
-0.4923878739883184
-0.9905538365826712
0.568278225174039
0.9903813745137582
0.5261443392348256
-1.2899330694464568
-0.7044732941183438
0.858970458551938
-1.2412023304030528
-0.25416614533118354
-0.45458915859888877
0.9508098236702419
0.2517433741039299
1.583697118925747
-0.14003574822468612
0.19643213977961654
-1.0394426277860234
-0.002439371340499319
-1.9229823553392027
-0.7543615741646681
-0.1365790297560907
-0.595230972963974
-1.8085223834440192
-1.0739567279736262
-0.5082446077906626
-0.6287384582657086
-1.3083381781779693
0.18018067691834816
-0.6122050230230609
-0.5282080607096953
-0.9284994606865951
0.8182914421935986
2.2676285193188632
-0.19328677588999518
-0.4448846835625876
-0.9058787976264225
-0.9337511361127953
-2.1445160407671118
0.21577643003420222
1.9743375248000807
-0.22267795669755092
-0.6331324288391407
-1.4740859346489699
-0.7597865921589211
-0.6385682777668985
0.9471828346534185
0.824913135077789
-1.0917556298315778
1.893712292624612
1.1592239638833024
2.051760567643247
-0.38101664577639555
0.8463275688346727
1.2354078699447002
-1.485356203686998
0.646729930994078
-1.0261461944806554
0.1761765568604968
-0.04328469494413049
0.5300054024858942
0.13121231348014784
-0.019152060830996326
-0.05791098337371203
0.0015474677207596467
-0.9671599711194516
