1.7381290928737032
0.5320948126947955
1.6477978365718258
2.1194754549974526
1.4651883763558344
0.45030868612520936
0.5054822071201076
0.7653967622813183
1.0160460094998578
-0.33213778660824833
-0.5943903193519273
-1.1445861302399827
-0.7040866024303307
-0.16868510412486015
0.08793537107725681
-0.32150957762723775
0.5134635508976386
-0.10947786404039145
-0.6172213817339027
-2.222895487120197
-0.7398624283391284
-0.8313842540410532
-0.01040459401773397
-0.6368804984363972
-0.13782647419167315
1.4270646273044436
-1.1481835453431297
0.48326065066828217
-0.20858606440483649
-0.49346962146799234
0.6090792725532627
-0.6794213281553637
0.27700636165232273
-0.4104066933090269
-0.898804816548995
-2.249449696307596
1.055425186509567
-0.43485020407354746
0.7599027247981813
0.5466559329193587
0.48568750329743227
-0.554496563215823
0.9994654775708041
1.50680340318645
-1.1151505311438958
0.2281034393831859
0.5767829442626575
-0.06834905139164821
-1.5916729999227766
0.17730688163218974
-0.5365158305323272
-0.48145450190273836
1.454191975009357
1.3555127216461198
-0.2104776298252778
-0.15454938603328167
0.11188224026610315
-0.8620221561277628
1.0858540837511987
-0.9543010872991222
-0.2817018126208517
0.30852889290296526
-1.2725112974109611
0.8279209366049072
0.17874808103607914
-0.4225291616356527
-0.966709593154128
1.7118663569172794
-0.19558251194412524
-2.86124524665855
-0.003273210506934063
-0.6303026604616668
-0.41385576318035927
-0.022110904052239255
1.7515573494035495
0.26688754890858446
0.3639744253727139
1.5853999138516341
-1.3964393843959693
-0.3751201787342374
-0.5722328226070212
-1.4538432975607234
-0.6783081291433675
0.020300914634805822
-0.8788589729381057
-0.5045591707336287
-0.6225689231072296
-0.055703847505403
-1.1515082988575867
1.3971168851657567
-0.5060958293816797
-2.8623294553991245
1.1530264928295442
-1.209576753398158
-0.2928812525590913
-0.0862429057110699
0.24572983367832946
-1.7362628557060356
-0.4012135850204597
0.5876030967222485
0.5231904878386328
-0.0592973058232128
-0.07465198740350096
-0.33918591770404993
-0.24640950476434692
-1.4199651139760403
-0.9694601485239149
-0.8349944606151509
-0.3076595222296894
0.6856436356167679
-0.8233223089611593
0.2572251956647625
-1.309069880807965
-0.6521851105822454
-1.8132367425712217
-1.1239947543999236
1.773387825198864
-0.2809480502736167
-0.6156252550991503
0.3450073137829366
0.5409059842325493
-0.1459182094699099
0.8056626744441184
0.21089563877717732
0.5910618779091734
1.390591168082637
1.131528017797093
-0.9965387111140043
-0.2884925847867673
1.618614376587586
-0.01009894652892429
-0.5037301901409436
1.556644622349801
-0.7325016191102658
0.057671118634522074
0.37292095661878377
-0.8899457805689488
-0.9808809486343139
-0.8288962052400775
0.9905578391037491
0.036189960310118036
-0.5546370437097926
0.7347950198894787
0.07885251721178008
0.8974142218791776
-0.3341807966825971
1.4012498616026658
1.7196457536741505
0.2769202976356432
2.0026594893675878
-0.23066646279410252
0.1293638077990246
-0.31359882308940157
-0.3389111797636284
0.775274143750193
-1.2392411524309523
-0.905280254267612
-1.4789709274459375
-0.3535758264517921
-1.473391207056983
0.5238917933644495
-1.2757208452599134
0.41769527558787456
-1.185614505672014
2.4321403108840283
-0.8022224094102366
-0.3153175430145716
-0.5922562036440147
-0.5643781885821756
-1.0828300140820435
-0.7812710990563649
-0.4498878230151281
-0.7417823010085705
-1.1435139236592313
-1.6600359418192316
-0.6232963801362685
-0.7865831338292091
-1.2643755756871358
-0.7751990755573757
-0.6317984815193338
-0.11849371011989607
0.9488299921035945
0.14754801879810087
1.6054280516199328
0.5247215282530813
-0.45686335923843385
-1.9519323223997997
-0.32737397563822596
-0.7056065709569972
0.3249172944257689
-0.8804991961382678
-0.426838501728533
-1.0078974747870544
-0.21664862198251256
-1.2624413851093799
-2.5189274226304006
1.2823527646920114
0.5990377708566959
-0.05431931670222257
0.8655088312533455
1.0028728326425882
1.4469786014519377
-0.6797558927755503
0.6424691294186344
0.17607983895433
-0.7272245094552204
0.13596772588477357
-0.9304725738621817
0.6985708749423772
0.004540721406762094
-0.36666183971090255
-0.481261980682766
0.377335453834459
-0.24249544397265899
1.4341294094915558
-1.262374329942583
