1.670986461614272
0.7287968620954861
0.570663415541531
0.8194823986146786
1.1874295634351184
0.7625389262805505
0.15532917557396148
0.5947816545438234
1.0075954940418699
0.11027076925009716
0.24098125242035554
-1.6887328751998223
-0.3925328338062637
-0.21364497024188212
0.9184313304725666
-0.4443976777963334
0.9102262948243833
0.06473206425690044
-0.4896402520230252
-1.756532341171882
-1.3213511611252995
-1.3300235722110165
0.7109333701114405
-0.6588985228449267
-0.07044908621921635
0.7458695443744514
-0.32860110988007785
0.027254554602452075
-0.05533087645215576
-0.22534628177647836
1.284848936963362
-0.9476607599197345
-0.7178874451360647
-0.19181834012712345
-0.6818368836621767
-0.8595716568665503
-0.22381355983500265
0.46842823767140235
0.6775696876632082
-1.4631448594144425
0.9726854369557381
-0.04604519815476091
1.038318661618481
1.6313286041610118
-0.39863409742677397
0.8365938131855197
-0.11274331728543802
0.02958131609339021
-0.5857864514048231
0.1101106283258497
-0.23181896158083637
-0.011632070641011441
0.8196400746282949
0.9917023321497034
0.8563091982525937
-0.8992019758319478
-0.6005372160009669
0.013537017404651353
0.7206988468285607
-2.5680518565791592
-1.100299985130475
0.7084917519840419
-0.6533875107858631
0.4902288674167129
-0.853071782647961
-0.13336232459929206
-0.024827101731485862
1.3603826160069752
-0.005221072109272321
-1.9005063406030764
0.1408252073652911
-1.264959416565273
-0.6058297770497055
0.3124975686870797
1.3649312507150366
-0.7785365292418831
0.9981955653551524
0.37201955093323735
-2.276922017664539
-1.342771749447478
0.267898473295792
-1.8038948221011237
-0.41015907355704484
-0.4992256091207833
-0.7846161571769129
-0.35567972941224923
-0.4351670506756898
1.1997099121431063
-0.31655038822904524
1.9991272817748806
-0.6532898721091805
-1.2635666268314856
1.3918658263279418
-0.20945605664983163
-0.07936169578755259
-0.5413988628176457
0.6435214036568229
-1.0942985997361148
1.150849845914731
0.40727430207823623
0.5850659813522263
-1.2315206818653222
-0.2506254367834134
1.170289751278137
-0.7004929531562103
-1.0518500118420901
-1.4681526247936336
-0.522383145549091
0.5349769879732382
0.660654407634208
-1.7823679597065587
0.22073428826231103
-1.2810037508688383
0.21535317534536225
-1.4620507948066512
-0.45410636478864574
1.4216964891078556
-0.44919095095147454
-1.228495599436032
0.3822195407587877
0.22719105261355463
-0.3524036711163352
-0.8647491446610125
-0.12119473774005501
-1.3026213337456607
2.3481092762798976
0.9064072437244541
0.43344882920142713
-1.3638118859776027
0.6862463594490245
-1.2869739879572946
-0.2639854961467638
-0.14164682339222623
-0.8475379757046941
0.16625065881878992
0.06308199755980261
0.8681522802680833
-1.324264226711683
-1.3167729798098236
0.6802340397359241
-0.3327387189920574
0.7835548923291833
0.28833126766834777
0.004783597846942572
-1.1180882345001086
0.1995358223500073
0.7668599657334526
1.2698052195654177
-0.5348029078515573
-0.14422799188491042
-0.936712606301009
-0.030673229005080897
-0.9269756068087469
1.6288948012142184
1.3133516086671944
-0.6241842954895475
-0.7029574955774518
-1.019281841633419
0.667213994207656
-1.0393409189289173
0.6073164479552128
-1.1872096700721366
1.7142163292617019
-0.01050885145502023
1.3426280913055446
-0.9262709900037049
-0.014476934259553709
0.05830197117403313
-0.21809746301074523
-1.632141604585503
-0.6862620453558828
-0.447654161670453
-1.6546558428276
-2.482526288918158
-0.8519300204935955
-0.8377185679619943
-1.9511042834057784
-3.127920969883992
-0.7286393580802651
-0.32326656250410846
-1.2328739863297886
0.7960594823994211
-0.0022088018523717112
0.9894166974956637
-0.61243484358973
-0.43441296710362526
-1.1717203736000725
-0.993456484278069
-1.137128840383927
0.36380844094641207
0.005966874353394602
-0.3721951540695424
-1.4684072952280514
-2.063374305250262
-0.3034367552583287
-2.030913408971155
0.11086668094722102
-0.10663798037957806
0.682843494335919
0.7486020128986723
-0.15863421853558635
2.136486725203585
-0.7847179923020091
0.9143735256370009
-0.3040668607216474
-0.9713998057734005
0.7008390587700886
-1.9033924630502908
-0.7005678323003245
0.6769369185812173
0.6444304637922741
-0.013065763562672639
0.4388374636181692
-1.2324480549640406
0.26681204377233825
1.5969117562009454
