0.18042096896005022
1.4736858253137324
0.5450924237544836
1.0267665242186914
0.6530706636227175
0.14030696260359649
0.6595866892437863
0.09461523349594303
0.025789240346217546
0.9167095369359991
0.5203522662860363
-0.9672800911026866
-0.9157034642304295
-1.0983392715219957
-0.15597613693392995
-0.8850494226926816
0.26785889523602513
0.8166273042585652
-0.5575054445190556
-1.3436237304928778
-0.41256736233864916
-1.2698716788641582
1.2041169345670142
-0.3496951357141554
-0.4580470580564042
0.11990399629501397
-0.5136119019496452
0.9178234318277132
0.6166331041523615
-0.24572330043273624
1.0953060951817095
-0.06844449067440674
0.04458908846056897
-1.3555869572875072
-0.9338073709523519
-0.6485970861770581
0.8504856370107081
0.16166661652347092
1.4483498751819939
0.595531075874174
1.0513691287710067
-1.1990674032469446
-0.3344824330572565
0.6445339844529041
-1.2189189853227735
-0.33483506764505166
0.2769362677680264
-0.9191098519166564
-0.35147206324683655
0.6721461980034378
0.1483510906844667
0.41381089162669255
1.2697634426558129
1.4536520995575088
0.680337213116861
0.05846469217997985
-0.8742305677043967
0.01268852453907704
0.4292471943609486
-0.7900674610558265
-1.1100826752893413
1.1107755652806635
0.19827436460913306
0.3176965245653538
0.8326295496274978
-0.30781110650608623
-0.18291590788613726
0.6678767058261457
0.36322718351267047
-2.178467691138093
-0.6115131827820872
-0.06959189228514384
0.9922046285535837
0.7298261476918793
1.6350189122276628
-0.1992153014252278
-0.37677819552787484
-0.23363898026001828
-1.05371932661018
-1.2167442071931807
-1.4439646699195308
-1.127939415403785
-0.28038447265214195
0.12358305689671803
-1.1369121286733574
-0.9191336071627221
-0.3942121075698677
0.19914245569940736
-0.16351936426489821
2.0418981911138157
0.799888355912918
-1.8290549647579997
1.1188417076745996
1.390760941041402
0.4501445135205512
-0.9707720604284831
-0.6667229165863194
-1.482563447239862
0.15924070302641116
-1.3270658600720018
-0.24634849193846672
-0.3724626114251914
0.24417595029864808
0.8813445008659931
-0.55892383259903
-1.0577726847837086
-1.7442634132518604
0.48797191772770027
-0.5621996414565616
-0.31528140552047645
-1.105220592599652
0.5333621164028479
-0.4863837473409302
-0.9773493923525383
0.9121903846740651
-0.3729208786541396
-0.6980236249960547
-1.117766277916663
0.15996884807095224
-0.5849612855903132
0.026019660605514416
0.12269285243433442
-0.44429299937801964
1.8241148759524928
0.7562447667600467
1.4539015599125462
0.7396568017235903
0.4678827391396485
-0.40447576471676916
0.3774145161202346
-0.9353594527421599
-0.4681758031499159
0.17109671378513946
-0.32326717668948013
-0.013804770119767912
-0.2740171221466822
0.1598810829837849
-1.1940205455366777
-0.6921640568989735
-0.07028133915455037
-0.4119138781290779
-0.32708431567906515
-0.5357104196900884
0.7920451152830528
-0.00039296551573708705
1.2007211900465309
0.9119077497913896
1.7712499835836024
-1.4245388168699589
0.5170797344601956
-0.7969354498822594
0.8231443615205278
-0.32639128315780097
1.0212484126574985
0.5381356145342271
-0.9670976886063019
-0.8878427595529683
-1.2390091875861937
-0.18269333170395574
-1.38811886403386
-0.55867471076465
0.5307189952430706
0.8414996957760268
-0.038617423462863676
-0.04945197760904341
-0.7294010828758748
0.6089100256236166
-0.755664692105402
-0.6149899657918532
-0.6563436995815076
-1.3862700258085665
-0.6779346292973658
-1.4400541761232237
-1.5679026627949164
0.22863806523069752
-1.0715746128398331
-1.3827415743349099
-2.180874017924963
-0.5046703216248907
-1.4029522080289865
-0.303742005276584
-0.34897742872234483
1.0925880753677943
1.4021190367843592
0.535592825869011
-0.43655649533898466
-0.4910226235128959
-0.5638250605514785
-0.05039031868664823
1.2654976776900124
0.009442710154200062
0.10703877264257844
-0.23285225169261403
-1.3233051370035271
-0.6818078409465076
-1.514050006767938
-0.22367594012765069
0.03900582466656466
-0.002897384057694477
0.22693922457844307
0.8210724461259521
0.9046941225505039
0.8885523565908823
1.510539508289613
0.14874975121738765
-0.11572825263515596
1.318727556212484
-1.9885446066982855
-0.6075426362702151
0.5376313272998361
-0.40174671596673756
-0.1922141355268963
-1.0017211360468672
-0.16077470374732095
-0.05891128314263676
-0.2852240786495581
