0.8589385618254539
0.04103164478032628
1.24146797992548
0.8636482234963199
0.12491062596403779
-0.30122115224018653
-0.36842869570297243
1.0021880610534502
0.11468086634480285
1.3125547732029579
0.22285547312960446
-0.646177728667048
-0.5097085342183446
-0.6443498977311226
1.4771003160820542
-0.9684089242468674
-0.09636090740797743
0.41823363904360095
-2.1525697699974056
-1.4936318132635966
-0.4098791042369946
-0.5054332900398141
-0.3955676962724922
0.15592750275234496
-0.9362944729793892
0.2647728402786629
-1.234073605357706
1.6022313934258658
0.6126095264694406
-0.40478525731947435
0.4597763614009942
-0.051859793894946965
0.6926876789792269
-0.15159684379564536
-2.1200614268575477
-2.170076089670304
-0.70979392750225
-0.6962813168650914
0.6979089871281354
0.08545858021889338
0.9049758008505961
-0.43491520333680617
-0.23684612795888194
0.7665868030871675
-0.12241867698938724
0.28971755954982736
1.1370200293471755
0.47705502916135956
-1.265519031153385
-1.316988376237669
0.6603713792100706
0.08625198650500408
1.1499983442023853
1.4277454091418078
-0.4530450672658454
0.06514704601739219
-0.46323772973319427
-0.2678027704474836
0.4229050170773625
-1.3236656412388375
-0.3966851326943868
1.0827781215298917
0.2240760477687628
-0.25575844270493353
0.2122630090069288
0.14467464793184676
0.864142136862907
1.2502376696620332
0.35360849446725306
-2.07527688225676
-0.7597812834845334
-2.1201132033863206
-0.16689034875191838
0.2165559420071611
1.9996738456641474
-0.045454656610316
-1.0570132728191513
1.2106912235202243
-1.2575947951277335
-1.1404753198645963
-0.8368604546200057
-2.061794264987152
-0.5909284090266717
0.2719518778989565
-0.24012513035621286
-0.595078320275936
-1.1209360743903471
1.4274183381622623
0.37617433191984895
0.9310470752736031
0.12751760404348111
-1.3697204852442306
2.4126108618702538
0.160708235598659
0.49201191171789554
-1.2255548326673344
0.766852239213755
-1.4745969909524363
-0.8490598464719068
0.012526467506299266
0.6590806266104922
-0.1574591499103365
-0.7410755998116769
1.0073793742062334
0.0765980473470439
-1.027043166208821
-1.3442660575121055
0.7251694664033048
-0.6157933838533969
0.09757023095448102
-0.937648945408721
-0.24160991863718384
-1.7837702730568505
-1.144603549354458
-1.41903167264716
-1.2093625799789003
-0.6720711412057307
-0.22200870432772174
-1.0966678654590725
-0.8951452991145257
0.9098065565194107
0.6897845989070188
-0.25433785298718703
-0.4911046015962857
-1.1049414134547044
1.7069117480063143
0.39319170201186515
0.6386948227713538
-0.9735549080960271
1.1958253772071288
-0.8462190625914495
-0.5272400677587753
0.32700836855602755
-1.308909630008757
-0.45945240419909006
-0.021902674941375752
-1.4337841628818122
-0.3137639749333835
-0.4402460505953091
0.355272619771827
0.39009240682019436
-1.1384521097413074
1.8033545372904631
-0.13833832313732486
0.9418017203627755
0.4976637322183742
1.6956347182771272
1.3055386126737611
-1.0401826231047964
0.8552405295517048
-0.4340282015951502
0.0870765385714228
-2.04960756201481
1.9994938008870886
0.22612027743336843
-0.8593490902272845
-0.39486737671480643
-1.3015579781810183
-0.36003481176328533
-2.234546607610346
0.0003485364091975751
1.0627414207712984
0.49407133920884694
-1.5040015403788416
1.0060647887588634
-0.9668465160013715
-0.08993315904265592
-0.5849857858768475
0.011357510927177517
-1.1220766510782543
-1.7476670322199803
-0.7910528761328014
-0.925291953738322
-1.7728785517400432
-1.0063228654619196
-0.5064217409303217
-1.9892046680501485
-0.5776353082658006
-1.8081442590981305
-0.46770564569759376
-0.16970704427480132
-0.5572660129614475
-0.02964487914531111
1.1099152473467018
1.2954996433840786
-1.4417608271851974
-0.4803243253673837
-0.8550601644508502
-1.4280447324483054
0.6885805349827402
0.5886264425157894
-0.31930120485278
-0.07963449857466376
-2.4132123372378746
-1.7034161932655048
-0.7302213863175107
-0.76534365003765
0.18032875646895924
-0.25691766696104995
2.158679707429817
1.2385175285682322
0.7862348025765055
0.44317913456548963
0.6446251893772821
-0.5416850643819249
-0.4831795431794068
0.48460521078094554
-2.8228587430877226
-0.7335478768085725
-1.077315998300985
0.6929791869222315
-0.7107110568561722
-0.7952498938225806
-0.916797990167287
0.8994553136947285
-0.6924119917300497
