1.387105689821819
0.6219910743749308
0.6399124115942609
1.7850787247340703
1.1964482953057292
1.4085620131783223
0.8666637925750307
1.216984785719803
1.3415456917927762
0.7400656544494353
0.13188352601880607
0.31775479707381027
-1.1141982809861943
-0.9943184145426298
0.13525335664367436
-1.3370120798022185
0.8374004024749961
-0.6256048019237697
-0.2402739960955999
-1.6686889693796672
-0.39825000503159735
-1.5953027147798258
0.7816065223441905
-0.46666391372461646
0.40348613274922146
1.0542818900280677
-0.43943482076034124
0.9531031119970825
0.6525536251272811
0.2268256185776822
0.4140108743784535
-0.3757609926116431
1.2742483672718092
-0.12854170824656908
-1.6193161131110487
-0.683464138670483
-0.4713122336370923
-0.4997719342782472
1.307368993883804
-0.2431391074889071
1.1925004773807937
0.017583058012911795
-0.23106959801849675
1.1728625790570508
-0.78987256924523
0.20923708708433522
0.37842875193314063
-0.12150398505569115
-1.4585565468537833
-0.36330452402648483
0.46741167056173305
-0.6335999102590535
1.2872507676522247
-0.0775236687435441
0.3739013377247277
-0.7782448919682754
0.14298306070639488
-0.2900744136841441
0.6026917687092814
-0.7591709050396642
0.07099363301454831
0.14886212066489146
0.3028576937360272
0.488933408437738
1.1075662688697334
0.22116165962481707
-0.4353163058457551
1.325796821657404
0.10188453240531667
-2.2222394402326926
-0.8207677866970836
0.31701146620180054
-0.2873063407891274
-0.2665511536575341
1.0969547973601874
-0.2815014551219558
-0.7169373440480153
1.648973772768845
-0.21295239709571456
-0.8655969753381662
-0.7288258674372564
-0.9950267911368229
-1.3001605192024317
-0.23015560149077147
-1.165674233858541
0.4350054907149926
-1.9541813261363883
0.4465618188008968
-1.0703961786239446
1.924761868708662
0.0076392951645765355
-1.8998075153959493
1.0517814153500213
-0.7206413179292868
-0.7509328960501748
0.5243466379679993
1.212091946560808
-1.9737346861140295
-0.5946333138149501
0.07589756681446913
-0.9289955871799086
-1.1092180689188968
0.728881799930273
-0.28981824495330655
-0.6917993369483252
-0.7574221912410104
-1.3123223218099571
-0.22490010903478902
-0.7809263460477702
-0.01734568620623872
-1.0362486116123417
-0.006640944365327195
-0.5086561872637168
-0.8714753957220855
-0.6486546535547615
-1.6939575419947461
0.751885058626524
-0.961214994994094
-0.3125520490843896
-0.2867355048872651
0.27159930928553017
0.13101207957329597
-0.29558375461948083
1.0392571066417475
-0.5014068278823461
1.4399593170630787
1.4527606715339763
-0.8677416427527398
-0.01623757682613794
0.46061336779308726
-1.3524894961313572
-1.4514514350972123
0.6540742312689256
-1.0827262874273826
-0.6269469378813584
-0.32024106959275095
-0.5672202596901299
-1.1635154284745899
-0.9765050325167408
0.1827269359287071
-0.3625813135254567
0.8857284712251307
0.787149593150944
0.4278391488329004
-0.07995956442125873
0.259229636114782
0.8199987632782882
1.672686400404512
-0.24151136594630962
1.738025063141696
-0.46991360897259804
0.8317338069946653
-2.115349713814132
0.15062436337341845
1.2877513617048955
-0.00934970607701513
-0.8601472719599803
-2.492968794700535
0.1079984663822483
-2.028724899063959
-1.451210528142279
-1.4103804935722508
1.1586581195193912
-1.054284311802447
1.3925216198240356
-1.141279728196788
-0.4081794087472049
-0.4312484006498165
0.7872720736574762
-1.1308089329266058
-1.4638891590556158
-1.0451040326499434
-1.7844175172604757
-1.3674131563992604
-1.0494488872608185
-1.1926730889542656
-1.1952492786127018
-1.315279172320936
-1.1977447174344185
-0.8611699274097857
-0.77416094751376
-0.006957349475595065
0.4827040930391167
1.55162496942037
-0.05322372045094323
-0.10078645172282763
-0.8435479534503748
-0.21328954724776839
-2.666337321309385
0.8335587055189538
1.4655819838506234
-1.3024572644611054
-1.1260635178285994
-1.2068083554177556
-0.2235031978152079
-1.3343055444140677
0.18067313737906537
0.5007053122482228
-0.6885439933085256
0.3324978051698795
1.7976615822533888
1.0535260726083393
-0.17292456267246573
0.6803559913478987
-0.20328576578515922
-0.32857968048831915
1.0034731597111362
-1.89641894728891
-0.7595105534523179
0.4276439643620884
0.21231738784107368
-0.596178097622174
-0.6517340085357113
-0.40710165808908244
-0.09728775128862488
-0.44507339045082794
