0.6890572207350707
1.1330071713267187
0.9778151082969493
0.6021518874901558
1.4242876206568618
0.7492794956557982
1.5995356870427744
0.4104482427902745
-0.04427332174195675
0.9435670654498833
1.2529745881241456
-1.6387956566874307
0.32346478548183466
-1.211409241820833
-0.9053416453881545
-1.2527474360716084
-0.37431372360155857
0.2631038158671632
-0.7351541094193024
-1.4096029831590924
-0.2699430892293619
-0.015494857102359871
0.6420214681979464
0.18929290779144953
0.2132731770709404
0.35023753276366865
-0.10362949250406212
0.7225034265784711
0.25471733330749186
0.4895116977353197
0.36704730249540657
0.07672288773828648
0.4773890399324225
1.0043654566432125
-0.7937215453006466
-1.23395736611857
0.41652385619195154
0.0943088757920944
1.4838492002803318
-0.04504078329672241
-0.2381225387119752
-0.6639838366779345
-0.08482761293995345
2.332314272391906
-0.7509646751621883
-0.16199856227508114
1.3896018575222573
-0.04590065634882001
0.03646716483167245
0.013950783319373612
0.4899817323905178
-0.2747143450480297
1.1849937790452447
0.6704025734785776
-0.6057863692173588
0.6649820191070759
-0.2999548026041156
-0.8514642817022056
1.3461096281881002
-0.7486434054267812
-0.4930601077423022
0.4851500839647443
0.13814274484522962
-0.15741897995299126
0.7219714875263807
-0.40984799233715097
-1.1048242755025683
1.0090191780910143
0.24656231438866585
-1.7172681491564616
-0.34339226047910026
-2.235655422906153
-1.0911752199612321
-0.2808502284489246
1.9333707381493033
-0.8712214513125469
-0.6311324876650692
1.1342218558152615
-0.9787118152760574
-1.3419181973377339
-1.2740850180592296
-1.2700251522320896
-0.03768831051732138
-0.3685053775163052
-1.7848273343431993
-0.053685660480348174
-0.4349660870071269
0.35986386712243357
-0.10732316956351945
2.2253696482011907
-0.16809915388996755
-1.1776573070933338
1.2544337834745432
1.4215108973980721
-0.781225933093761
-0.957084357740353
1.4062268425098212
-0.8923918184144907
-0.5374331119163528
0.49212165226008064
-0.06191070606153823
-0.4259229074955856
1.0473926643691946
0.5561332718198515
-0.27521349020557295
-0.5527862284720408
-2.29114468154938
-0.449581105237431
-1.27557386531535
0.27497816170768974
-0.4868776720818337
-0.4361875325012843
-0.9339624268343237
-2.2478174776698845
-1.4783146916395906
-0.4375446886116797
-0.7042101252819168
1.017512898332227
-1.498611594200997
-0.6010110731357999
-0.13714069394850747
0.06444781645666164
0.015948293225877874
0.756998508562879
-0.15270030765450465
1.0579780096846179
0.44355692866437946
-0.2884244937602812
-0.809900910302976
0.007850498452327437
-0.7753086155218046
-1.04379934682787
0.8518720059210336
-1.0972310817387727
-0.28889621420062295
0.25073430703372396
-0.4783450323832117
-0.11809072281298055
0.03840517888891981
0.4491886505470465
0.27313405528086077
-0.25223115544429514
-0.7290853504531158
0.6700904677277619
0.40210779463549334
0.015155425024810931
1.3492423272065377
1.4722368055072388
-0.9935513756279054
0.23398051960005578
-0.47699838323533966
-0.6165530287331326
-1.0390888964345055
0.6292599719314007
0.670538369494482
-1.0359338712144601
-1.6692127406061301
-0.9103812331960432
0.7698530786987023
-0.7152009313424165
-0.5854167211445607
0.17710454876781034
-0.25030950294033594
-0.12697716149367616
1.9295839614377168
-0.42871165027667124
0.015117344826390933
-0.3072942337029845
0.10540648144277143
-1.6852431199168214
-0.756819422438623
0.18059829372251357
-2.002175205250176
-2.265227791247728
-1.3446227760296527
-0.22562113083776486
-1.6993130026955816
-1.3890891030560009
-1.1849236096776168
-1.6623726285564855
-0.9757003476955477
0.23218209350107633
0.9843918961947229
1.23215278088413
-0.7497988413752618
-0.2727840525714085
-1.0104753812783125
-0.4966721061876099
-1.080986994628249
0.5030991969643916
0.2581940319481507
-1.1549498795175186
-0.6237434966950042
-1.0419817034494234
-1.0853383849144629
-1.433903868616472
1.2911464297435535
0.803563354794208
0.2642747308733665
0.6136164595422671
0.8965763083409235
1.2466971662450574
-1.1328264172493863
1.187373208333584
0.3240482271099477
-0.8647548716653
1.4542935393425933
-1.2708823610752376
0.7840939483989652
-0.3153732224213549
0.49077504577853626
-0.6334571337120494
-0.33808952197117786
-0.7630634791138385
0.8327824270381381
-0.18002185837505033
