1.2994226139950833
1.2781338601381789
0.3410847963106913
1.7108370868552512
1.815755871081815
0.1588034340321614
-0.14824675519612995
1.2599104077158223
0.040719974457456176
0.35299220392953107
0.018397595171606773
-0.41599432414559834
-0.08626924959896076
-0.8092932517802796
0.4165306096782968
-0.8207945491559
0.5946368396812427
-0.22600890541371843
-0.957107540183922
-0.8463154827445447
-0.371382740752486
-1.43687944134502
-0.12715485538547966
0.2478917429190982
0.06723336442420974
1.5226975469943067
0.18778817557730632
1.3584002086319102
0.41090291755545905
0.5410228660465024
0.8786286395508011
0.11994511020388676
-0.0554589310008885
0.7215709851003094
0.376035855858733
-0.7138859267663654
0.7951184366125517
-0.03314857653349837
1.4102014114677524
-0.7663065734891946
0.8417875603435687
0.1416065076423571
0.02874581001703963
1.875063222531161
-0.9497898495188007
1.0211981258373732
-0.6764965100545515
-0.42980601928036555
0.08663483076586154
-0.3287895689463963
-0.058938857415419654
-0.8052590737198181
0.26817490143376244
1.7970571240959798
0.10777077764073657
-0.26082286428883167
0.022702993248361215
0.30257483841670796
1.4737229048335485
-1.114474183316148
-0.24312563970264844
1.3446672372001967
-0.07524336242756838
1.1450220878557762
-0.30488202806404585
-0.5097752494593177
0.3423230924709634
-0.0040709062138944985
-0.1900693392925023
-0.8116017943034743
1.1757817999927305
-0.48428699304877587
-0.06141406637932123
0.016097522574890777
1.9745598396442445
-1.3794251164428637
0.7063631343399184
-0.39323784089029123
-1.087831748321617
-0.39365329466873944
-1.8118428352480993
-0.38573401495520787
0.028310059148218242
-0.8020758236848662
-1.5229498422565997
-0.14153405155109783
-0.5228602506534614
-0.04400284580448474
-1.411443465466717
0.47120806789055203
0.07372314084618094
-2.0440458937417167
2.3554032038240087
0.11126636686898397
0.7774891713113526
-0.7896906160886928
0.30803601199731945
-1.9531660841333371
0.10742789506357103
0.12061027700772861
-0.01528224393934835
-0.12499817044102624
0.5213773109843085
0.23517057707882408
-0.8041851337174417
-0.5291415175309714
-1.2778063057512459
0.05220627546152917
-0.4311156958326183
-0.21889464344987908
-1.1488942752187024
0.5041905951342951
-1.3428125203047645
-1.3710048050777368
-0.1344224097483211
-1.5535306238370827
0.5646031425531874
0.49283058649288
-0.3686187368460604
-0.49290905688244036
0.30327147763080853
-0.8338480962805961
-0.4179215000246374
0.3587440896564727
0.5370864198207945
1.9388566209225129
0.8744252990354174
-0.3720441859515885
-0.2402551742442435
0.8765728628527107
-0.9981869647302692
-0.33995922635660564
0.480671972727144
-0.35193316287253007
-0.35470979233816036
0.2802244297822105
-0.41380026706013406
0.036113498534949384
-0.559904834019352
1.3469035376113119
0.12892522756792874
0.2679703525219414
0.016377253838194772
0.6318877641552465
0.3019027037139975
0.13607997344089107
1.9626412446432204
1.9396001499275055
0.19023332917226166
0.4005167300275839
-0.8275045512449015
-0.6481631385126004
-1.3212997687234143
0.6844752832746223
0.09396923692357756
-1.437216515188043
-0.9778029883281445
-2.435413831012565
-0.5015038616772622
-1.2490581855790976
0.3287097074773151
-1.2145782968204841
0.4867509152951536
-1.5840422342653633
1.1241712042750094
-0.9160323445743581
-0.7529886141883968
-1.2964629097248936
-0.5995916204671617
-1.444820942344729
-1.8451456512450792
-0.2773704040855675
-1.9772994635427958
-1.5647498023054558
-0.19223498331768496
-0.4623286370219912
-0.9261690013233057
-1.8505873930075007
-0.8746318395363109
-1.1395448995780026
-1.0415419790512253
0.07226935958879022
1.2698897290141318
0.9289814035338382
-0.2097668133828897
-1.026121523140319
-1.062763339018305
-0.181884202403099
-1.0922116924187109
1.0735788012248457
1.5994875530760848
-0.37141204355919333
-0.8205838511500747
-1.632812776801555
-2.185945262734072
-1.2951232241940964
0.7736618890343158
0.863653290580062
-0.04119048389544035
0.9965697623460951
0.39635116848194507
1.7123910633153903
-0.20016073977026055
1.4206432346056903
-0.6010665956411045
-0.6721538105833551
0.555241390404779
-2.0377245928113537
-0.5080552572307849
0.18088448550151168
0.6720869277887814
-0.09480845092409028
0.24283565967804466
-0.3190299205949263
-0.5756760196967375
-0.11449783749372412
