0.6218357704764069
0.27775831578661836
0.43217305650687055
1.770401051573259
1.3849760271926683
-0.19010219225206249
0.5946538313736094
0.48696681979476336
1.0402456092798238
-0.027849328815367003
0.028833308504188027
-1.3500244677754112
0.013419390624151706
-1.4223648866445424
0.47003824152113594
-0.026264989304230824
1.7247802472417444
0.19710906461144292
-1.0147333205604734
-2.051970073929523
0.09012565739452066
-1.0416736942525178
0.5326724128403829
0.1391882589895419
-0.11128352145041073
0.6713793935630872
-0.5339153388437273
1.1783585955984794
0.4961373339548837
-0.5805436006186422
0.23595742430033878
-0.18872258598710534
0.006374226585346032
-0.22925079116161173
0.23772059741343055
-1.0101710851541976
-0.6852903139340332
0.6195946229509839
1.5465163980373438
-0.3339372873955392
0.1569932698840536
-0.15699445042675114
0.3468037358937147
1.6791081657530817
-1.2303237593619523
0.556752265417426
0.3793122151658609
-1.001920933046451
-0.9763844032892101
-0.17101599294431985
0.3521608747112498
-0.41288107384472184
0.9310072801589162
1.2260881228926799
-0.1224644347308172
-0.6403653965006824
0.2509646717856318
0.5002607917028926
0.7563278432512013
-1.0665177231568812
-1.1349027503304292
1.4591294017902363
0.055287411710065425
0.8628159137922314
0.16971775861977273
-0.23957471407893877
0.16979145992848732
0.17854893395863924
-0.06753506511945317
-2.3818343366529273
0.21091124046053794
-0.20528420406444192
0.42475109858628435
1.1861304164277149
1.8658601918445912
-1.7543536214313113
0.10329126073583156
1.2747363678893175
-1.2540257609195906
-1.1928601376072847
-0.054800832099322405
-1.7137097775958605
0.45743206535510283
-0.13451920377641252
-0.5033292429343359
0.04827802834192019
-1.7111671482345039
0.8727695606954828
-0.281846470415306
0.845129658519066
0.6759613010176646
-1.345630807207733
1.4288176481054609
-0.169227553730194
1.0050427864082252
-0.23710658937279605
0.16035352254641227
-1.9751040534970454
0.23678043832417403
0.17326349421793988
-0.4678824892992254
-0.6162660017658008
-0.293636208210555
0.7183279119676935
0.6514490751206857
-0.27849677873987533
-0.46022317734064666
-0.0786659500764332
-0.7275048872503521
0.22062224927712493
-0.8563764349462104
0.20635526450061398
-0.7730922928255303
-0.5783252105659008
-1.2301593674160258
-1.1929114871252968
0.6344358571012731
-0.9228374772563328
-1.3556779451230652
-0.12323549048422716
0.8324023631401222
0.9060331723308028
0.0991147387840309
-0.9691545938522421
-0.7037105144676434
1.2222590542060652
0.4550847782856342
-0.6037524604538914
0.19151256703847258
0.5082081036838885
-0.4407371527807653
-0.12052395257796367
0.41204249311860786
-0.4434122529399718
0.4525727000357056
-0.12020573743138693
-0.3964418057143896
-0.30130727308647504
-1.5413998871267278
0.4403255715340741
-0.7558192654910016
0.11686006956244743
0.3710105862135885
-0.25444837801013964
0.6038334531925713
-0.5365805889491679
1.8987023307075175
0.8346540675076147
-0.5065714297409983
0.6018715968130917
-0.9315895113624396
-1.4547674764703757
-1.1446288690139308
2.3690012322853775
0.2960489145312764
-2.2389668043348943
-2.7371437264780694
-2.1641526444329497
-0.29946141641884705
-2.1245949266500865
-0.7884044315187155
-1.0740680791444994
0.8697414364275762
-0.13081418533674816
0.9714189660701167
-0.9487882431542326
-0.059192842643667365
-0.5051049327837261
0.8540820483852894
-1.0104538659064894
-0.5279369419023294
-0.35176392393099193
-1.3260780878182779
-1.441362176739061
0.409363793295494
-0.8358538512615175
-1.5028946783091617
-0.9779610022517765
-1.4699708111432017
-0.8118675568025892
-1.7208966865279054
0.3792484847510574
1.5265370894917336
1.9881605630309434
0.5996883710044385
-0.879450822966108
-0.9960698219316186
-1.2576993612631964
-1.119579738866259
0.8471113622148972
1.2693601132722123
-0.8963798321018928
-0.359611308863267
-0.7373116617005929
-1.542840208507275
-1.2165845883894328
1.3586402094538044
0.8529991995660917
-0.6643835505037577
0.7000579818068909
0.9884616389756394
1.3108880145595057
-0.9045061949170842
0.9630362233588957
-0.5898647602803007
-0.03375369050178978
0.3877554216230489
-1.6957583289861722
0.052787316693639626
-0.5939648418957971
-0.5639057750520406
0.3475297223906958
-0.6857184046474105
-0.5183362295641654
0.3679318835583954
-0.6434701791047772
