0.3717508100497243
0.49047455909931276
-0.42213538501286535
0.7877015549376891
0.8288341111010753
0.9504898732862809
0.3391667952715887
0.9692220376274296
0.7890182955107546
0.918335263400404
0.655975189177939
-1.2913377708207185
-0.09219980118468848
-0.6403843774545274
0.4293118684307262
-0.6326418681301569
0.6096400561414628
-0.45433834000426243
-0.05464854867699531
-2.045087050091415
-0.6481466683846461
-1.8677830379499587
-0.12788879244233642
-0.0968829582983073
0.4537607392631771
0.2716838466882741
-0.9191064175107748
1.1216412900164408
0.8262670826994435
-0.8496128884111007
0.653305576654277
-0.8711550845764358
0.25618209582877965
0.3726510857519287
-0.15065492535541591
-1.2467463650519257
-0.6376677025852642
-0.5946143166391967
0.025416730683118116
-0.4049748062413371
1.0134981553010043
0.18298947382345382
-0.14345329405736867
1.656381994836061
-0.8725919752786899
-0.6526885687971138
1.064819034905678
-0.7881592147565928
-0.33967877241923117
0.46533670924869797
-0.608294707375298
1.7340815800103297
0.4145470198640279
2.0280483434551972
0.014144924237576552
0.9958849964289629
0.5530073298093809
0.22320379087505404
1.3347619844584035
-1.3076584387986412
-0.258310279517887
1.4281882836770534
1.1606808476672588
-0.052167383572063575
0.39021779822758623
0.6945881964428066
0.46976260486385346
0.3474862948331386
-0.3576624374940596
-2.597868730194347
-0.40081167435190085
0.17775097872231604
-0.27829170731574426
-0.22924083981824614
1.400905528784566
-0.9916905261257186
-0.7448839782782406
-0.6556632584139992
-0.9334712325928984
-0.911380471135277
-0.4090188319243601
-1.4072138985736335
-0.376677180718594
0.2548995300178224
-1.3784555082835845
-0.685951643986142
-0.7084148288273807
0.13475169544183171
-0.30496418468207925
1.111552262310492
-0.5385129034752969
-1.4458897397345731
1.2697975412486353
0.36236085433945975
0.49284069561707217
-0.05610836941656461
0.47561052432616713
-1.8262316835821841
2.277387299637327
-0.09432617706258034
-0.010028414539285546
-0.9406517162992809
0.12992448822737415
1.3731060137928264
0.7699698525985456
-0.9856331422368811
-0.9065022306627484
-0.9807615802397982
-0.7706781159003483
0.2695063175365864
-0.4728872890652657
0.3452251835881968
-0.8441890871048018
-0.19903633024405282
-0.9766913520399518
-0.8329923133476891
0.8730391313050141
-0.5495433128429822
-0.7562080225479604
-0.6845723066174858
-0.35807929602762667
-1.061643688525223
1.4913259478464747
0.12713034465706657
-0.09186870164671385
0.8642846795405712
0.21017602553924397
-0.09607945564158511
-0.7422050740197346
0.19788236058258496
0.49027418294543323
-0.3740021780627891
1.1895807885225336
-0.7252753511808071
-0.4576238934927003
-0.6824516750443882
-0.9249839892616785
-0.4614233587485276
-1.3497324835808793
1.1387608359689123
-0.2567791342226729
-1.459458527757394
1.0930223279288513
-0.18023338673158384
0.230005822577716
-0.4927135057841973
1.5275784301669362
1.1344863788771233
-1.3887254452222528
1.126956952805748
-0.9199520128244825
-1.0798058741339833
-1.0254148200887003
0.9404895754960543
-0.24467975747410065
-1.6233290517345504
0.11027245256991614
-0.6245807589007427
-0.2194349502055266
-2.606615105615824
-0.7196439320983667
-1.0556825695671845
1.0742785628738636
-0.5309174908855617
2.102351243368471
-1.3072785098149788
0.061027111793309274
-0.4102932773924559
-0.400440974628285
-1.5746899953181204
-1.3459924656789137
0.30437571493934323
-0.8915255504700959
-0.9207105089775118
0.0360168065989287
0.036347933572233315
-0.4615506471698694
-1.6701626639119898
-0.9175410438191979
-1.4550897554144853
0.15085936004902667
0.24648947608693883
0.07231687177322887
2.1525888024130526
0.6271948761870795
0.003088795710245895
-1.0770632911723412
-0.21992055323561405
-1.8371189689478107
0.39499452849968747
-0.002414914812972291
-0.6511835066513026
-1.1513722386022742
-1.3775832968083301
-1.675137930725906
-0.6311179766592359
1.0108654641672172
0.43659394115106315
-0.7226145842397559
0.15689888756305914
1.687764204292546
2.239657134532077
0.19603681712792764
1.4522497130475611
-0.05708278004920936
-0.4113205286877242
1.4636784191765124
-1.7184103842651075
-0.725947541005785
0.08246686980058446
0.37605976701512156
0.06464380850390777
-0.17952180303168086
-1.6929230620009164
-0.8168232077556684
-0.6302109176964511
