1.5921372171221124
0.7728908695780408
0.617144092891591
0.48342847986160287
0.9293541186443424
0.6884405342469551
0.526640688629961
0.9716018544242901
0.2637352425795901
0.031401055596249394
1.4200278068801753
-0.4481837405548948
0.46206933334652045
-0.8918511326472824
0.3321831644294045
0.10049641082364513
0.8553091256490177
-0.46765666607815093
-0.8154417581041296
-3.3448585963984003
-0.9452651832719836
-1.0007017106750395
0.22134851707176617
-0.11939863418828912
0.797477320175447
0.583782681632174
-0.2052614308266616
2.5575774170391576
0.09461103687554662
-1.0178057173466688
1.077063283181584
-0.3412833763128272
0.93502523638959
-0.4863271321649383
-1.0705166275268143
-1.4413781810239215
-0.5000381422721364
-0.9879555224388195
0.9791059111359091
-0.3105305024940129
0.9296310010190385
0.5777116799254416
-1.0469813736775666
0.8553148746494905
-0.4819986323705316
-8.729318665526287e-05
1.256231080090985
-0.4045044446387137
-1.6497608510335513
-0.18922726839005946
0.4210595934152604
0.19690901912938222
1.945685545438546
0.9254816497076017
-0.3987137747603079
-0.362531506384692
0.13335194005655132
-1.5051967097180259
0.8321833441982187
-1.0143782410339888
0.14211592287925495
0.24509037968410285
-0.07656641588212389
0.07848151311154783
-0.0709206840363609
-0.2729475067384527
0.21855984404657414
1.049941959998636
0.5866740176499861
-2.50855235147925
0.022662218965833134
-0.9297562833591514
-1.1690895184766155
-0.334454831125395
1.2013421788942806
0.40127738814547975
-0.8215083024442729
0.30272414634010286
-0.54725794711727
-1.9903210127766293
0.100819419981926
-2.189319170970942
-0.396263037193452
0.06297441887453145
-0.25304069414558017
-0.2201986628028258
-0.8739846671296213
-0.06846163126580448
-0.4650696451470704
2.007381799624909
0.18972852912559834
-1.2300886340517847
1.9498154926674145
0.3984005123368322
0.36256810073294987
-0.41877719252719947
1.0600200605424779
-2.048801748188873
-0.3222094338824062
0.1650053191004355
0.003705337571909606
-0.9546719016067005
0.9206491388733431
0.2665507698214391
0.04362656873899611
-1.7402974962545017
-2.4846235686226175
-1.149651415258014
-0.18803314222887496
-0.10986918125947903
-0.852332739305589
0.9291666730071659
-0.7579795216493145
0.2299877923032443
-0.7850297739210255
-1.7436375471589067
-0.4008232287993025
-0.4347041213473093
-0.4654910960429339
-0.3757406201011969
0.25650866384172094
-0.6130970339996356
0.3774468498081665
0.6678166792592278
-0.8147450093205006
1.8191411729507112
1.086270523028981
0.49133375243715277
0.07731996033483834
1.3463579061250164
-0.3803115238960577
-0.37852325341947934
0.4438101934207831
-0.83139290640096
0.727154340757569
0.6858669145952053
-0.5574569267989762
-0.6664714339964973
-1.3022598570237045
-0.04009134175690804
-0.13888477046927766
0.3437891513263742
0.4354728919559663
0.2931317177427716
-1.0689510928209645
0.8140868025823238
1.4404499990283952
2.541914409373978
-0.7604869578386843
0.5768667095409229
-0.5749292817648939
-0.5833150390398623
-1.4115652062124577
0.4202333344089931
0.48791781187348104
-0.30698855409016734
-1.075197786583569
-1.1390211321895864
-0.8686155628970296
-1.6550485289459298
-0.8895167264033033
-0.9711731072752633
0.8527392072475037
-0.8375801925140223
0.8804208903088012
-1.1775448445008216
0.24020897914052014
-0.25617744678740045
-1.38536015310271
-1.1475085116790151
-0.9583435079696443
-0.854953962934825
-1.883094452419013
-1.4341915622080237
0.037682850604845
-0.4385306929096708
-2.191028864760638
-1.948372184447122
-0.6288056696306014
-0.7055903576328595
-0.9484688962910435
0.4481036125350301
0.5776460615171363
1.2123093878770426
0.23240404805596343
-1.0976071591583836
-1.3865236910552894
-1.0482021901875904
-0.38900967781608
0.5527509426309958
-0.8028777163880321
-1.0959726455509067
-0.1730289881560385
-0.437178763486072
0.883084298098666
-1.242521084553412
-0.03396804764822803
1.1072764077221402
-0.2522147530859692
1.0555350519160818
0.7124479748589665
1.6449159634773287
-0.4188623447983217
0.41538593450801375
-0.5262821822995583
-0.18891929283876768
0.6966971331105856
-2.4556557744238035
-0.432985676032417
-0.6460713065378013
0.1652711812101787
-1.5744788172344015
-0.017767118531200346
-0.5750452543044098
-0.284524290909516
0.4804683451477255
