1.1826378167594702
1.5811793678554789
0.8314062761684762
1.0160607779859618
0.5334583657210941
0.9464685278927645
-0.153735413750825
0.503868886327843
-0.4247712339064438
-0.291717654661918
0.9949513142435917
-1.2183089686362651
0.012942891764304576
-1.4178024015397686
0.6642855795709188
0.2297416350586533
-0.37615078723899387
-0.3223522171766255
-0.2604570720729719
-1.7369035740758256
-0.6750628962250147
-0.5258936473717062
0.9381688298942683
-0.9795279684506719
-0.3550720858857874
1.0088263296104842
-0.3572615364845838
0.9266824321261535
0.566298486315597
-0.09143115372199345
1.109932338051785
-0.2194555134538912
0.39597281228617265
-0.030187975750750426
-1.3386636418082807
-1.4359878080594863
-0.29655430409685835
-0.2516522961416179
1.3998247402993087
0.15120330088229358
0.9742890793250503
0.07525168720100694
0.2863034134825033
2.0204823248516357
-1.0079113559794464
0.1412999750376788
1.2852455004996985
0.25630754947351886
0.5002114313377392
0.4364531148259836
0.4581944260719658
0.36546940555631796
0.2818112254352999
2.057383777459706
0.1698722200694529
-1.4393759619555722
0.37011895803738115
-0.25822465085003155
0.4527459572575405
-0.5879377123819118
0.0918004702247534
0.5848600621414177
0.5314273236357717
-0.05681568281926641
-0.08592633766766634
0.06431737651044561
-0.17939399085323618
0.5201800393491566
-0.17472828440920757
-1.5903440907438342
-0.12209341056636333
-0.31736603308304123
-0.9310753771489082
-0.6402909479151419
1.4191925342543241
0.014479142164224967
-0.5965089168295881
0.6252233293655289
-0.27634592362130206
-0.8111096851231533
-1.4126409765571004
-2.0358948119988387
-0.23850241970586922
0.8189241854853042
-1.0301193550597736
0.012091231098735222
-0.7821951742419969
-0.30916555367140053
-0.6413412922743295
1.0180447922392852
0.15343535783706835
-1.3420781754014965
1.2987219365012215
0.7188939281425943
0.9076403281702048
-0.7792170037869148
1.1120237477106645
-2.4698305514303
1.067502141667685
0.4036411925117235
-0.06604358927019385
-0.05810705185723275
0.8745495962951312
0.7206954218312955
-0.6048508778949596
-0.9359069144956207
-1.2123357061214661
0.4518173064930207
-0.38094889065642185
0.8513597212605297
0.08605399879021813
0.04894963246944395
-1.3468929083909464
-1.1195821210305852
-0.8610697837955955
-0.7966356823712276
0.36897047017524165
-0.2458837199596968
0.044224062383428464
-1.143428163308152
0.5818384598613429
-0.6204191724243076
0.015279995852085365
0.7924589954164083
-0.9164333924013524
1.5421760042513273
1.4028292395280069
1.1664824531794846
-0.5099212396414907
1.2743544543435896
-0.060622125342598254
0.6628044365657371
0.32563217534600947
-0.31411456323325204
0.6323959027785337
-0.5896583410094427
-0.5798843234454971
-1.6504433532108875
-0.39971552669673566
0.7471739070746837
-0.4252781359907161
1.492609460797106
1.2595356814072216
-0.5612772841981417
0.809008470875219
-0.5936684751760424
0.6865006585155382
0.869206843753993
-0.8645398857520139
0.5976810983209577
-0.33698150071886657
-0.026603558646496814
-0.8661977518542419
1.1353516311544023
0.11885966592809982
-0.3622677946025105
-0.5059319877995908
-1.2894532939780186
0.7319864518868018
-0.6910819482820424
-0.41642432332680995
-1.1805534707254792
1.482716215997984
0.021998501446570895
2.419617711936924
-0.1665455398225838
0.7248736020389719
0.11077709475484154
0.69677697791677
-0.7840179805979629
-0.9325859912419376
0.07914190049970637
-1.0213826115539182
-1.3190652268425695
-0.8356711524653758
-0.6974796091000631
-1.0716987868551724
-1.504499054969191
-1.9309857422776404
-1.5626037079167037
-0.8632722637342944
0.03526140045643472
0.08101596416443047
1.4507799594811728
0.3086234978243295
-0.5410690368421263
-2.246241895346636
-0.2883707447071745
-1.3488616789427774
1.1045790227576069
0.2915473153112378
0.006831303887070317
-0.4318099163684076
-1.1106729950529006
-1.692716343216884
-0.7666570255684932
0.316665983904526
0.2428341104201442
0.09269219591007764
0.6673173711699916
1.1752306131276167
1.5537879757256745
-0.623519229453695
0.9503463834715926
0.8057244009203881
-0.6981224220183873
0.2846839409798576
-2.097455728512668
-0.12804448042788596
0.23766585294793482
0.36162652442060395
-0.5161691214661719
0.5664000495094997
-0.09917094577150842
-0.5512851508491655
-0.7172007957602857
