1.2458646263567004
1.5091675923733596
0.5210418982810942
1.176334155112276
0.486238695347309
0.41993443750561105
0.5553851075577158
0.1757033826277074
-0.44965415718581536
0.2749544679164275
1.757377875522354
-0.7403319638315151
-0.5082774763392912
-0.67089502828811
-1.0203554307728044
-0.5308613908292042
-0.12393740198995828
0.07407851844376148
0.11410542062707463
-1.3306608264448707
-0.2629316728742535
-0.6775412577521311
1.6830449594242491
-0.2286979213972068
-0.030166722382021754
1.218105601466453
-0.39956102026638607
0.7413921831655502
1.1276213874813144
-0.7595808951631873
-0.13060468631207145
-0.23941403329485106
0.2834423067090768
-0.3837885584969725
-0.11959856716863004
-1.565877525705172
0.6413201038869795
-0.16356819155385927
0.9880936834943221
0.09054328290397995
0.26364753704161303
-0.47236126996331446
0.0649805583459859
1.0699973353636711
-0.7029148554733958
0.28434395767028975
0.31103711510850124
0.5810287708446346
0.5864004460085287
-0.1834198547828614
0.6425320171117315
0.04745734195920379
0.7277178395044955
1.7434467014411825
0.8184450188253274
-1.1640707264432502
0.6350234359354557
-0.7865712570202177
1.6545492878938948
-1.2136148099246622
-0.7449323177459267
0.8171777877486088
0.4025711321884677
-0.172564382357012
-0.442420772076759
0.821085241586312
-0.6284344806353195
0.7256730912117184
0.3724475954743587
-2.0999292050780762
-0.14179186556607043
-0.46247010757321083
0.49701754704331713
-0.9012336504012336
1.6676748927468348
-1.109671734571252
-0.4619854850015141
1.3763756034927093
-1.8908339796374132
0.10600418724525151
-0.4560978380769104
-2.3044033092386638
-0.6381520615620082
0.8143527333500261
-0.9840520989615222
-0.7384526829312874
-0.8608035361634185
0.7728997274042788
-0.21517244633720287
2.1924890353131388
-0.08404630042875849
-1.0244677136527753
1.0071999115518366
-0.5471029678241457
0.555051728458934
-0.7548440704930217
-0.12227427930167845
-1.5281063276146867
0.7242855500450677
0.9085059483172848
-0.4297038241174166
-1.031487660571008
0.5943923563032374
0.5628950500796897
0.9835273100949713
-0.7141785501618989
-2.217168443551729
0.16813698408342442
-0.5635863616272258
0.3649115202297606
-0.6002728187925747
-0.5521580149826837
-0.07481882597688372
-0.044012105065257656
-0.48192578522522256
-1.376177790154487
0.09130414279802068
0.04455149946008874
-1.0188913267632085
-0.5921145196198879
0.8318181630644597
0.052417776651156045
-0.27906594761921033
0.8715351733434652
-1.0499544783731998
1.3552743893160604
1.0593876034553602
-0.39263680792215666
0.45600906580210115
0.2652893785260386
0.07645917395681312
0.47128803460021024
0.8967977973989895
-0.8977804583080549
0.7549190661526484
-0.9640224485149761
-0.592753953446473
-0.2847547347637844
-1.282700078335098
-0.5098561552574724
0.23930337105185534
-0.8809399901522834
1.8913069135131602
0.062248519908163144
-0.5037067513625229
0.006971223299265708
1.3383098827290159
1.7994929022559605
-1.0228488177322115
1.1911657119544197
-0.8069840520174297
-0.10514396572254012
-0.6106440054163127
0.9061552488850255
0.7094802929863655
-0.5228634090856625
-1.11399495057515
-0.8327578194631189
-0.6194053157602648
-0.6366666832963492
-0.9927079097698084
-1.3131512419054625
0.7117230535079004
-1.1070217857586706
0.6236528250592471
-0.1643563852147436
0.18569208680112786
-0.7459045348187838
0.3492289017496969
-0.4866004042914598
-0.7199194519759737
0.1552318277739969
-1.8353647330841478
-2.0609333852501126
-1.5309935129148324
-1.4830974391779246
-1.1358986453190563
-1.8765655564335604
-1.2238865118793523
-0.5371018339966349
-1.709280277830325
-1.1284595165169249
0.28969145460868273
1.4292465575389155
-0.5436499664946653
-0.42346371134030664
-0.6805624116330742
-0.34025780465371336
-0.9608738796433707
-0.04512705470690048
-0.05430473122847168
-1.043194310787976
-0.8381341604435799
-0.6755158338027637
-0.4210544811858382
-0.5278582492953707
0.20158720910812433
0.9573148893597736
0.3574460204847287
0.09350646312761779
1.0925825845372568
2.115154750668201
-0.4705928943607397
1.3280242819763588
-0.5977126709128557
-1.1798921128434738
0.36317013329929854
-2.2628980437857966
-0.01555391579643245
0.01658020822731167
0.28366248835455943
-0.41238518442035177
0.38424395457252236
-0.536995881298598
-0.37917907701260195
0.1337828049354655
