0.2828411215619626
1.2332703177782993
1.2285838576195323
1.7677270725514131
1.5189948972940124
1.251163878539824
0.41685996865243957
0.5461581468777392
0.9091579738175647
-0.30944720888349486
1.7218129444828807
-0.20866171822777246
-1.080512387457389
-0.6049945234686005
-0.024297138544621594
0.1780089551416626
0.7681389510800458
1.31217904001991
-0.2464914419356416
-1.5832525782313267
-0.44265712820404923
-1.225375539800721
0.9529684853597089
-0.6000279281949281
-0.9789957246391368
0.2672293473931354
-0.753573280753793
1.602772271085392
0.9797980229186241
0.3136043613772503
2.1458895059126304
0.4616170012104883
1.3349829089331227
1.0217932322137555
-1.3208620501896253
-0.4892536773458668
-0.2399112538470883
-0.7322074120346915
-0.004960863343472788
0.8525561833739917
0.22152467370316448
0.2915870840997505
-0.2261768813400835
0.9137782728252373
-1.3379812261521047
1.3694855016306748
0.11664291344292532
-0.953774152043111
-0.6139417485394815
-0.7614169085601973
-0.17160482827810286
-0.7888771506712736
0.6817193364261058
1.5680837938640626
-0.6201120055571909
-0.764308134820556
0.0591110346566535
0.24498661847814118
1.3771356984306768
-0.8374982770565484
-0.2565357124921147
0.5974026427728795
-0.9222488284774715
-0.16699313325881654
-0.8375735471393158
-0.253855852560406
0.5800930345777563
1.4957661761319445
0.188339477877417
-3.107788813951708
0.29580579555328207
-1.522668034350684
-0.8133873021819763
0.27149163807135823
1.3808456303586596
-1.0227627717499181
0.3184525804546523
0.12576126515127517
-1.3750733186887567
-1.8193401340308561
-0.6519395279093277
-1.2283426473910044
-0.19899399975717577
0.13016666337364238
-0.5034207960123058
0.028791021023760077
-0.6188914373790634
-0.15691865125485388
-0.21555413966238143
1.3735124261577318
-0.4710348219882292
-1.3474351297224212
2.047389642416717
1.1706664892600989
0.3851536441070047
-1.0005946094253702
0.33354261052048007
-2.5430757104656303
0.14495869384668186
-0.2458663800434966
0.7213922087329085
-1.353423678679813
-0.11606430505891488
1.2424278759954928
0.0992595260901959
-1.3357800590332611
-1.8704946639437905
-1.03708382865754
-1.1805713999531502
0.2740546276090108
-1.3119991543020193
-0.5398838197484669
-1.008191293978837
-0.7405636821552161
-1.2702579674940613
-0.7597748980828118
0.3949601715497992
-0.5826657050527944
-1.1994986389443067
0.1556441759111179
-0.36411707792354875
-0.4136798929793395
-0.07325986971950245
0.7208415214879451
-0.1673592048958084
1.872142203848246
0.9553783045761974
0.45301566840184826
-0.03841600296956263
0.26926763647145724
-0.9542391351595739
-1.3007096516370902
0.8417995358307786
0.007683152873964372
-0.14494955371973756
0.5147063346219811
-1.2628785648439165
-0.6666208184231868
-0.1515996515127902
0.45663870175414445
0.3863597464280799
-0.5993486357962295
0.33909788148253966
-0.09464254309048353
0.3812923588337105
0.6597937705608141
3.0085569635259968
0.6293166215004311
-0.6189862516168734
0.5612316205206646
-0.1409350055165025
-0.7283107752408344
-0.7145737641504992
0.013906149559001935
-0.011235943788635572
-0.8175298885592102
-1.91720030143938
-1.0263616715019004
0.10261845373474132
-0.7793786094477521
-0.2870299811073314
0.08069882685963192
-0.22829479311198175
-0.681958497586209
1.289902861312061
-0.3394913977960724
0.17307443967971953
0.07292837326946355
-0.517308973669004
-1.014556349686589
-0.6601717795675917
-0.4206274459447761
-1.4940938004375017
-1.1175874596156823
-0.673555525334566
-1.034990038964678
-0.9602645727061037
-1.5984369329833559
-0.1512370288451207
-1.0497503483476098
-0.2300636920054353
0.6960668368530711
0.9366353919040923
1.0591497494045612
-0.1686879168999146
-0.7069591953427234
-0.6652262883164286
-1.2166085966952935
-0.9565632390456661
1.417556275146298
0.27242526747920126
-0.6744646579690939
-0.4435255223919545
-1.0766556878384292
-1.4462423728710583
-1.4188086430258753
-0.4993096088198554
0.43789361913943686
-0.33388565732722614
0.7655548233080479
0.24499298749365622
1.8691665710610184
0.38951022252763945
1.4744469284901425
0.04235257650613242
-0.7749249543598972
1.2377691941923143
-1.0666322456642914
-0.7232586050768378
0.13744038801952832
0.8899961169106931
-0.14303021093202123
0.1621979625148825
0.16080955029365807
0.7606904713978202
0.4439444560538738
