0.8350647588402684
0.6536688530210064
0.054856454309446245
1.145024247568975
0.01604179274185258
0.4762024886030847
0.18480299020421415
1.2318968461668685
-0.3141887037841937
0.01433021179795163
0.14646750647958098
-0.7487273753768552
0.20107548771625078
-1.3174322377836887
0.20329115500196115
-1.0264629949486657
-0.0704069650839656
0.9401849996556314
-0.4430952716664981
-2.08191796684507
0.5237306422438417
-1.6269546903030627
1.1859514854193538
-0.2555187803879959
-1.0752204329097443
0.32027896646314225
-0.37864490223903174
1.1663152330563544
1.2324874757559514
-0.5525884297436734
1.7772868525823484
-0.5552168835474495
1.028659586351759
-0.3108967858661851
-0.3317680013761983
-2.4642276790077933
0.1270442153018598
0.19992860140345525
0.9680509669915728
0.6918456513986169
1.0436832091413277
0.5528260155790459
0.23024220013604818
0.8624697311921907
-1.086091493455601
0.7415338213892819
0.27272117029520004
-0.9636931974929981
-0.029198412922920414
0.7511602067561118
0.7263308817191096
-1.0696158391881865
0.25507050862356295
1.9524105845572688
1.6818026050434438
0.05781933330563216
0.7370334172913219
0.4047952900035806
0.5682978628964528
-0.8175428590704492
-0.4462165436919545
0.8544379724612473
0.03178172931796276
0.2257220892930234
-0.2442967257819536
1.0870803335207158
0.2844005051836896
0.537461305746742
1.1428040181745758
-2.7049813667324454
-0.0356749209564072
-1.4313805022431643
-1.4432366025753893
0.33212863715887875
2.154097405450507
-1.4764047343202122
-0.11524776302215091
2.3574677062357683
-1.081013956724914
-0.49220938544508275
-1.1097958293108627
-0.9636735573195045
-0.3509474951012675
-0.5682396132543136
-0.7039614836597572
-0.5060449545863751
-0.502854275915317
-1.220569705397219
-0.4936355427364181
0.8447181427999013
-0.19369412256980323
-1.7194862983252033
1.9473289394757813
0.1696112247771864
1.3473526961803821
-0.5098839677822136
-0.6793780507053492
-1.810719487109902
-0.00014494736382539286
0.9095726473331885
-0.4823810451362952
-0.25205654291500845
0.4196386477762462
0.6966556785571344
-0.7031064254349468
-2.152299806101393
-1.145962899411014
-0.1185015971661246
1.0176014379539537
0.6678819954523233
-0.5885842130950313
0.01930353085741693
-1.5922208523013375
-0.6082613589247561
-1.6606318883614355
-1.5764543052158588
-0.7532716632073972
0.7647192827787646
-0.14707138511050327
-0.24195780550284735
0.48349305223218764
-0.5650528670713606
-0.10723795666808958
0.539877377517046
0.6049411504019093
0.3604648177061014
1.23616257643174
1.032121625127087
-0.4973906271066257
0.24362643647753351
-1.1343622017042407
-0.5198942450759759
-0.009588067180230864
-0.3500303545537724
0.9488608954226405
0.07858195151876045
-0.43893466957453275
-0.01193705748370677
-0.9163656932005777
-0.10556779200245126
-0.27954254584450894
-0.7477413027033989
0.6116184161648945
-0.21684596508890203
0.17196808511766054
0.38286061575261837
1.3042089653085485
0.8965435580327555
-1.8163540782924417
0.941564354222606
-0.3865526000089675
-0.5275130039416703
-1.564242473995117
0.8110944724619302
1.1141136473062583
-0.13735418379111142
-1.0673367603025985
-1.176838215125131
-0.1448201709573062
-1.3393350173793854
-0.7469468161457902
-0.11087536252050428
-0.05760581030224654
-1.2138806468955563
1.0337349252892059
-0.9995059279758836
0.4167020670032852
-0.4525437056281024
-1.0579594684105276
-1.6622414213888954
-0.798489112659198
-0.995013573332245
-1.4929976063042139
-2.2991283138900656
-1.2714188071569485
-0.5350616982809071
-1.225079825123197
-1.897049659574927
-2.8302760136690366
-0.8851129747682484
-1.7971221975581009
0.284952388448049
1.2686331314125976
1.956984446127335
0.5931716660064015
-1.1366094382148302
-0.6972782049728388
-0.7902514759745205
-1.453506350249905
0.789650209072239
0.6775008182171249
-0.4034710376322492
-1.2899030613077154
-0.33043267591124814
-0.5224074017630829
-2.427039650875866
0.16289772992942908
0.6845521707178994
-0.8240720472454212
0.7040948031287728
0.7137307159309824
1.2414912395427766
-0.07325454053968514
1.8845700999775352
0.510219073446592
-0.574675567298793
0.6877404554445328
-1.3728988553565786
-0.0797317607204778
0.45769432908995966
-0.19434940422397273
-0.8388237263591733
0.11634318065498618
-0.9592542990369675
1.2979984952252446
-0.2545836598006632
