0.3828099757809005
0.8808453854716854
-0.8408205444566417
1.4342594790214374
0.8145401453202219
0.9447251730293097
1.742617095556547
0.8136355033311274
1.6566158197376675
-0.44855636748543004
0.21727027400729837
-1.165633655946344
-0.7693925841398004
-0.6670072128024708
-0.16990129639988508
-0.5549243422873893
-0.08012150062075862
0.8520415360668476
-0.35574299817002275
-1.008508717527259
0.3884570647269056
-1.031915637822638
-0.05726065969073213
0.45313903831988006
0.6559784275527187
0.013325403885587506
-0.5183009954290622
0.3421184686568193
0.8886039413822409
-0.11013344021333532
1.2471517456412584
-0.32394639529544517
1.8661666644825456
1.2833945668999687
-0.5400219835119309
-1.5419165984971852
0.4920112446164939
-1.1920686408168784
0.03510429232278933
0.1897697658188355
1.222075567279048
-0.682070706946641
0.6326831182666064
0.3355691148002925
-0.6677541789341075
0.09694774889548369
1.2228234937246163
-1.0517406028652168
-0.18519457608924117
-0.2619849854584566
0.9883660798260271
-0.1894856028285606
-0.013156245981261083
1.6806552452423849
0.32045195511030955
-1.550881367843478
-0.6232814995704264
-1.3546832801901454
1.5835133146215778
0.3836220091593848
-0.2396213634365466
1.4563293879663062
0.2683491122536703
0.2042073661944792
-1.308175204189168
1.1128220747624802
0.6868964224217122
0.021055869312182507
-0.3454853012718501
-1.740487642910668
-0.2912509299355458
-1.5598792285874223
-0.3064258664794497
-0.7502505850894577
2.1243024395873373
0.10399035584791183
-0.1745694713648308
0.6871746994565068
-1.44692891973657
-1.0004730062111995
-0.6497861095889647
-1.045563069844299
-0.29973906823983054
-0.2295703688908547
-0.5082990649024162
-0.9421695023667556
-0.583557881579357
-0.6579016279971464
-0.042834528269587974
1.4189148646856145
-0.1755319984590083
-0.708592364188207
0.6891240734223677
0.7423731208899437
-0.03516873630257439
-0.5393461862508417
0.7354333391174457
-1.3365544734710484
0.6618543058076947
0.4521801307138748
0.2863150644460004
-1.1297139416833628
0.8565568406715857
0.7836471521610353
-0.5989897142346636
-1.2570338068641942
-0.9903583778423322
0.1906354544518774
-0.6540377458776682
-0.5367956483880174
0.010176702837205065
0.9495126724854329
-0.5846874015832468
0.4026736221540326
-0.7320278475556056
-0.5762042315630538
0.444332347534068
-0.26879092477256006
0.7011530938536038
-1.1493660727868147
-0.10102457618480126
-0.5354830506528734
-0.7101668862101573
1.4991846130580166
0.4790891782730589
0.5036384112311422
1.6552447167887787
-0.004539023595340459
-1.1761348208182787
0.7409475052872563
-0.49109030879786914
-1.061973693634036
1.2694113294485854
-0.5981968286957697
-0.2247746844878146
-0.5539201683280195
-1.1018513838325905
0.2520164248737523
-1.2076405639702013
0.19229204303182001
0.25542992554693456
-0.21978980806199822
0.22463811199505695
-0.3983085403882372
0.15029591504229461
0.4861797355696958
1.7829332326514946
1.9603074294862677
-0.7861194482613538
0.47356504252611475
-0.20264260327305372
0.8063405538181674
-0.9715559224300062
0.756238080611296
0.2652879880466383
-1.7609770538838625
-1.3428881393072307
-0.845931105316868
-0.7819118337654168
-0.2859392795347617
-0.8657532310604441
0.32377778009609004
0.7221645484985284
-0.6723840462302444
1.0129364649651087
-0.1405970948422508
0.17638057590447048
-0.5748711207137203
-0.3851868837478557
-1.250525868088356
-1.5672481751387273
-0.5877639378390427
-1.59779268582392
-1.3527497812285363
-0.16062689073779646
-0.26846960962816213
-0.945582923999826
-1.8759121094014852
-1.2738225395196991
0.2920626926132185
-0.7467461885375107
0.4279572010915546
1.0980459935264486
0.7175201167504266
-0.900028629402174
-0.34994077642626187
-1.1430736339743262
-0.30546737906219057
-1.5454197173530644
1.4456864425542504
0.7548267098112067
-0.5668977774582916
-1.469443290112684
-1.1396168952784658
-0.755128005754202
-1.4755394160514395
-0.030307581795959382
-0.338742345636485
1.330423631859421
1.5062481677119561
1.3849503186674565
1.9144783856731764
0.32304488461285963
1.8796687590121128
-0.3260150054981437
-1.5214831261592812
-0.08397996810739872
-1.512171952328221
-0.45796483459933257
0.35699111065523237
-0.20458480260678819
0.43420668323443223
0.03618781651539253
0.25713754981898984
0.7078126569361515
0.47304274412603853
