1.043373436904284
0.9502108944068571
1.2039762634978315
1.270982957228831
0.6392530996119062
-0.8807798607370771
0.8365480300374444
0.44277084005915807
0.5255085172173458
0.2583818770317451
-0.06344328754116546
-0.3857267633895293
0.37069528228882553
0.0787569077888497
0.7526625388844762
-1.1935180600939521
0.04401529108248392
-0.027844974239859294
0.054494240597025234
-1.4646021722672646
-0.2427904700741586
-1.3466099203260766
0.20224385072250234
-0.14509156412737487
-0.7347816080027549
0.3477436964575142
-0.5784625694232909
1.4524085218887464
1.4383536398531445
-0.7571700472728119
0.9490703530104561
0.1551912484411237
0.16241232978129277
1.0075761135627865
-1.4848569068887616
-1.2087639923218476
1.5437224367771645
-0.3346094052702479
1.5486554157871786
0.049911397683446296
1.2126661697674228
-1.3329018164641888
0.9597636174555193
0.2139422413358013
0.16834755024572257
-0.07999502830437039
0.3392288904564087
-0.0584829151325128
0.7932238336677487
-0.45565510569425705
0.898774398163163
1.0629820320637136
0.015723590166092927
1.2666755163592942
-0.25817655403118434
0.16199674902602312
0.2523849246679668
-0.5516637923743757
2.125054489822527
-1.7765469165864212
-0.3121447314625281
2.2860219979637755
0.15435546667912492
0.710135465033455
0.04501750853200667
-0.11200600257635038
-0.6466738217400025
0.8337431085461368
0.27593868587752124
-2.681653739863447
-0.9291783996443385
-1.5123874188415307
-0.9290088296927436
0.18781917712041968
1.6143638341136384
-1.0263734977469747
-0.8203283250799078
1.6607579937710326
-0.41584696497536544
-1.9150617184108496
-1.3462821731175647
-1.391431343245381
-0.07492044218935925
-0.5504066888322865
-1.4513278476405855
-0.06896896786333723
-1.4721349892143478
0.265359887294658
-0.8572102237844718
0.8039011262364589
-0.6814268380057392
-2.090074969316606
1.2251871267511243
1.009612964634669
0.034285984630547106
-1.890256780431322
1.2766331073613042
-1.8506221714222764
-0.42103603015435387
-0.07834610010056597
-0.21209961632645033
-0.707918522514637
-0.2702827299369346
0.8543637653948614
-0.420296697662693
-1.909824215861319
-1.400775173213306
-0.8682863813506507
-0.00509323206311707
1.07252104804927
-1.1369524246378073
0.014324952851592687
-1.629822881487513
-0.48988171796126967
-0.14163076750650605
-0.8389887230769575
-0.08959491900775374
-0.30236897417211756
-0.017034171100126838
-0.16508409759602827
0.718237449363181
-0.611079155700194
-0.3713795197489706
1.2414707696508889
0.19239426689364275
1.2512057739808442
1.3131672144299393
1.0268923786995803
-0.4555690229135258
0.5215387316454912
-1.0258731208016807
-0.8438184390056362
0.8929857373556852
-0.11323481747624858
-0.44813041812370547
-0.014943134320233198
-0.4444111771992211
-0.5091813206766715
-0.16375431292153309
0.43284643611477935
0.5816978011708536
-0.6269027582043364
1.2217136628567538
-0.13437287762388328
-0.8275747185292239
-0.16295069127251294
0.7069802413505525
1.068507485643762
-0.32686515871419075
0.5396443327715178
-0.900587108043005
0.0847721124053657
-1.7563317658080642
1.422313926213965
-0.8198994431752784
-0.7555914644111783
-1.527036920717246
-1.094392645970739
0.3911935581389484
-1.6145650034830996
-0.6196804714643508
-1.1419479812329978
1.599028655236646
-0.8409889366393792
1.517493676114091
-0.4249503725021385
-0.39117897593916606
-1.2038310388824596
-0.6206779298269263
-1.4662278550955636
-2.059315348895517
0.09500230747115368
-1.179455855336658
-0.7467670642580224
-1.5671993720969766
-0.5312673857794082
-1.2714347918898392
-2.6237055421248696
-0.5316596890039114
-0.635747375958978
-1.078554849911705
-0.9781268641947818
0.8356892734002641
1.8744840253844672
-0.01581165778695172
-0.8165171261968331
-0.8693557338059107
-0.5545786410150733
-1.0237776172845034
0.10117319841125427
0.418319374069772
-0.2887504355782412
-1.1696671031046117
-0.6942023720276127
-1.488756482979247
-1.0675490650756545
0.09912070584060306
0.735130697298022
0.3395334761465499
1.2257923161444246
-0.3474601411344981
1.182913568089115
-0.44641805046027405
0.854921252735733
1.438287916086965
-0.16840752454851549
1.4162474200838553
-2.731761930482731
0.05749149503309757
-1.5349005143561976
-0.0242109681509049
0.0984057969014121
-0.2512932170086275
-0.3581040692762928
0.1974203120606399
-0.4873325491482856
