0.986611050909777
1.6292647551419641
-0.23181203345916662
-0.29082963191749833
1.4989970759685156
-0.16753740916292414
0.05834530884985867
0.5290644487491639
0.6103227390301722
0.8416322925337724
-0.6038926300678826
-1.5734130844679237
0.5786958133193992
-0.6527794099435887
0.7982645766333322
0.2888343312090558
0.3875604770629313
-0.018786255253731343
-0.2911426841840273
-2.9522046630023615
-0.46044056533369365
-0.6680932477884918
0.6224309094434903
-0.5510800068796483
0.23881080464751447
0.7990940590625801
-0.7413922101857104
1.294798454603622
-0.5531083101586972
0.0331841376681038
0.813580727391965
-1.0135441025585576
0.2946001119526229
0.09204317611501449
-0.917892878200409
-0.8396491070053052
-0.24793716717738726
-0.9270787759459167
0.31647554595350114
-0.5517786695242491
1.4633009485378436
-0.30679418452364426
-0.0105566374793713
1.1068068548460395
-0.3406165455309406
0.5746235218355231
0.45290764791058397
-0.40835871515011685
-1.3803538753749751
0.8558539910700933
-0.3919511893546296
-0.18474947491511143
1.2065916491027644
1.6763383646672736
1.2834739670416528
-0.03388762513691579
-0.3090310207128852
-0.43428217140475306
0.959422625325334
-0.35837960040492367
-0.5697124043020975
1.5159211723274082
0.45196766421419077
0.5147836333067404
0.6344130091267657
-0.25299957964230096
0.06800038273672648
1.4631676515133298
0.799371536327584
-1.6413569923453095
-0.573033360278142
-0.6757816009355528
-0.4115174437764352
0.22739344063858838
1.9334081128146894
-1.195374633972547
0.0018053078320978688
0.14216734960356903
-1.4407433416028543
-0.494057732278985
-1.2368118901910898
-1.6485963737606653
-0.3873104083158244
0.524061723548062
-0.895343317165139
-0.24848945307906428
-0.7242902934460616
-0.4037415982358706
-1.3206329252778297
0.7722546951175142
0.09912961610150041
-2.2752937089373217
1.5888744029001587
0.6406581651704901
-0.815061433056196
-1.185475625925661
1.189040626342183
-1.0334519710335233
0.06093508020127045
1.385818604951499
0.13807080112237669
-1.0966591363085862
-0.2732854713814322
0.5646385870243436
0.5522239443888528
-1.5209578397254941
-1.643047933830916
-0.25908030192625
-0.5269889722185795
0.5080095715980215
0.01566937036716376
0.1467164883079207
-1.0273128788159387
-0.6263313717528805
-0.7940832527388249
-0.3698168232997082
1.313638869049808
-0.2573708072115035
-0.19421479025730276
-0.7724620184062084
-0.5619184371060139
-0.08021357306537757
-0.0029024421294830405
1.04468234801893
0.17102401429897673
1.0576159465067416
0.8851642513050187
-0.16253058587477182
0.16889428045121174
0.7282745190023756
-0.873912331897049
-1.3188030066311514
1.575648791572632
0.6220361912503476
0.21763181847212454
-0.2693919332485035
-0.762456413460666
-0.990755132739936
-0.2735421379343992
0.5393751227088115
0.44854441272774553
-0.13199084030327224
0.304542617681293
0.5491128325114076
0.5405817237469872
0.4130008247491729
1.9538987703855155
2.488000435337231
0.6593225325059149
-0.3743675136691501
-0.553798425670113
0.43241322058533727
-0.6908879977727331
2.819756241232885
0.6533858451650765
-1.1547175639339766
-1.7749219977645052
-1.9103796791748067
0.7569335797893744
-1.2614707367862554
0.7068007510272688
-1.0905448853421928
0.43615313767819863
-1.2333143820654147
1.44757362373601
-0.6795353735768976
-0.9874994917623019
0.22000075889319537
-0.6831565423507722
-1.690205650942993
-1.3761203076992345
-0.9383146462951056
-1.9740810394702906
-1.432301338838013
-1.2721265584335562
0.1862888955328854
-0.9043935778328058
-1.926410059234454
-0.38561993506491493
-0.8117575216561105
-0.5613711299205668
0.25549278243534923
-0.27545858091813025
1.246140232332351
0.8333624008800162
-1.0814693031153353
-1.0078476008287882
-0.28850282939052063
-1.0990310673918335
1.14757801776519
0.3791186642902206
-0.26723803399369483
-2.3362368444529973
-1.1328638323297722
-1.9163252300526512
-1.505063373699072
0.8786577879362518
-0.4400304825268282
-0.216152898451541
0.47874118222436524
1.4351918821113003
1.3020597033595402
0.15160000065113238
0.3569692091911886
0.09087624989921878
-0.492448342153038
0.3960388628250647
-1.9913332078733212
0.729116974223507
0.2684588619196302
0.03460674161309324
0.2614459886576438
-0.6600719972113467
0.27957838718651684
0.5091288727774571
-0.42309602145150316
