0.375289513799536
1.352018337152301
0.6188921708421177
1.2248959466918092
1.5262207243888712
0.9125971044240567
0.22445858747422104
0.9718681197820384
1.6508171801959968
-0.9754624094923471
-0.17032240578320007
-0.5926843547551438
-0.5168040449940453
-1.4088112737419325
0.13910427182125368
-0.8622761009976496
1.0818148034633568
-0.3388806300057324
0.5014684140455951
-3.1093938811644337
-0.8517820772572375
-1.2019776841496694
0.12477142240394262
-0.029925615578628245
0.6648469419654703
0.6352217641970397
-0.30837460499507485
0.9120380109254981
0.4362016788774207
-1.3744196754083764
0.19402344207401906
-0.3597379770213531
0.7519242857380806
0.6882042637733482
-0.4071477529006448
-1.9901217946566816
0.14286392502943682
0.05118242346100205
1.4142892324899763
0.33558998479736146
0.09655706921630314
0.6258228954778713
0.14199603694835833
0.5197649828264144
-0.9636499860048519
1.017793967436932
0.3770485686366314
-0.5768189512882835
-1.2517371764729006
0.7695015532747344
-0.6552330014506749
0.7792140827636402
0.48102622208425294
1.2164903360333872
0.03614625299898557
-0.01131590551585615
0.5235500475975844
-1.0837305724083977
0.7153497801174467
-1.15600359354704
-0.7395891034670807
-0.4867645727265614
0.015204077237773554
-0.08872439065807541
0.31020325321912917
-0.6349586239613579
-0.9516967274350647
1.7831133037447229
0.4064666298726472
-1.9760409822837581
-0.6300069899001168
-0.7357366467854203
0.6905632445902785
-0.21120969534636555
1.747359700641452
-1.0100861230389557
0.4372627166245467
1.9832823174558836
-1.0902184546554048
-1.1192755778707755
-0.9999781390993232
-0.4591701058496819
-0.6444612116881403
-0.1398622161225791
-0.07192529244176915
0.3474389817493936
-1.1585483471624143
0.1669101259300552
0.17998880784089868
1.3347318461331052
0.4704199210385587
-1.4746941015106567
0.7236125683404724
-0.14620395463651964
-0.08900359407386577
-0.6031370644609924
1.1783238369208284
-1.869167282049676
0.4927723246867566
-0.13651651576641344
1.6162746086711586
-0.771070091689032
0.28494894075299737
0.6157448751158086
0.8958933384751939
-1.3148637512721062
-2.0373121226488635
-0.9403322381401733
-1.3889789967986592
1.227687638880508
-0.1814546021393877
-0.2725155798361202
-1.0043579983432
-0.19742917771233753
-0.7401911274330821
-1.5210342680849582
0.8624322082886873
-0.53824798724759
0.21302808876109758
-0.2278751483277836
-0.07783030113049111
0.2092338129925504
0.11814604422131703
-0.8088224618576312
0.03601315730864707
1.8689706000961692
0.5720936870942425
0.3275867130242892
-1.0279196190136486
1.8921195897897267
-1.65215815003647
-1.0902232412183621
0.8284689568748915
-0.5753552134521195
0.20397992509969726
0.23356278808141617
0.32706461578880164
0.07103647542566005
-1.032980118143722
1.2318078205245953
0.2519635358842572
0.18712982035122577
0.28457603822121047
-0.2746298142675277
-0.5375526319719517
-0.3417530035290601
0.48035293482472285
1.8115524606596467
-0.6051485687436821
1.4667975934565343
-0.976467306364897
0.019110758411994028
-1.3836499334829668
0.773788116613113
0.7974671837070123
-0.6413728902842849
-0.8955275167381098
-1.0947654238352926
0.04747592370822146
-1.8528008336563857
0.6083151122481499
-0.7829034968959105
0.6998481130069619
-0.27436854550960865
0.45796708886073434
-0.5072802256793769
-0.057113186854583886
-0.9926856260302849
0.4012367526944406
-1.7902767979022896
-1.1108591584369476
-0.8059232617426186
-1.268947448051686
-1.0910873034098243
-0.4424389188221709
-0.1396970589140401
-1.66198210696525
-1.0018857728305712
-0.2790593156576669
-1.6951930744735602
-0.4024456781457095
0.14885097180239876
1.5096367929014
1.80268623629527
0.6464336023010355
-0.4366830914828201
-1.3328311612729786
-0.26014946374236003
-0.24852436077220363
0.7261589278830832
0.7663685215949303
-0.610019673169079
-1.0133357330105233
-0.5590486765303315
-2.1029495694445695
-1.5132107435326596
1.1058070651877396
0.34841855678149447
-0.1317780320258403
0.11800238345481195
0.12144015813116693
0.8884715101588357
0.2444020417298136
1.6682382098551776
-0.040071611235513116
0.2986971260050052
1.4877724536068841
-1.977544019047102
0.3766198172136813
-0.11840489372254373
0.006964440371742264
-0.07580383926880621
-1.4668467823093594
-0.611259570475094
0.036729533860303074
-0.46887484921322065
