0.2930097946714143
0.5031740774138012
0.4268533707878644
1.4945003897711093
0.7844285111178713
0.5534594763728907
0.7307742681700731
0.6493276926426643
0.9825730328543215
1.186540196827942
-0.2191820654345536
-1.1028959629267576
0.5819607500349615
-1.3662774825670527
-0.368762153847467
-0.09365498721640575
1.0116475827221327
-0.8132072310945699
-0.4549892902586038
-1.944348514563898
-1.0918955154574288
-0.22628709234136124
-0.8054022511167007
0.6255418944246032
0.06209736218030751
-0.03078078361791381
-0.9581416336056104
0.4846573297976824
0.9222204091535957
-0.194693722720588
0.9854607707652908
0.12270906888625906
-0.04398087979973331
0.12110810191456389
-0.9861628574225989
-1.2737557180344043
0.6325729688884686
-0.711909208149175
0.7753035234067551
-0.29667703103806853
0.5545232938204359
0.024611688209566912
0.9696308031993253
2.4441020175563346
-0.8993753313390512
-0.18443615216117143
1.3133662205090104
-0.23815503253838846
-0.33351764463342837
1.0583868919104733
0.2596524900113472
-0.5256851801308764
0.7264787412394469
0.7405554167557631
0.6429160654683233
-0.7300685112758276
-0.6033016769318561
-0.5340830533607616
0.6725258096508351
-1.4077198874580517
-0.2785200040306687
0.7973250208303136
-0.6093987060879211
0.4614778767732134
0.7051208918881282
-0.8513990940453301
0.17134631542759438
0.965686625584331
-0.8678394257543025
-2.4946667498006514
0.9015939616457491
-0.5954261747364643
-0.1780152834212979
0.9694472219866139
1.5005257279947288
-1.305000930493223
0.3895170029229514
0.9048325298892084
-0.8210684772638204
-1.7166016237843773
0.391333412503045
-1.4648668449331206
-0.9488835480858412
-0.3544388125414793
-0.44240832448722794
-0.9364841175446926
-1.2030289392829574
0.3924442810927389
-0.03431361306976774
1.2408933621778062
-0.22245854426198242
-1.6777257109871233
2.658517730080322
1.2643829349054685
-0.10076912551465012
-0.220940915275946
1.4077587386913515
-1.9692258059475543
-0.520894714869983
-0.17026188237862327
0.2620716039267204
-1.2138930822351277
0.24259249848098843
0.516180924480061
-0.2085095322120281
-1.195714622048087
-0.8098593137238179
0.3710184201279187
-1.4548516521000239
-0.549672248844473
-0.2772864520227133
-0.4032937832297957
-0.17605421544840838
-0.988802487892691
-0.4014387091764814
-1.1862146045641897
0.5573453886860537
-1.5408509750815054
0.09551013926796792
-0.8627736934819565
0.03026564707724881
-1.9296175506123705
0.6568684461140328
1.9758144070918089
-0.7104180798358399
1.7083650288485142
1.2427985895945106
-0.27041262747538053
0.22736390228168457
-0.7672640954112582
0.12665325203950273
-0.2256436516376279
1.2751970037300648
0.03784122834829573
0.2412945259060496
-0.40269942276448395
0.030831530243639382
-0.5984723779989198
-1.3018484213245007
0.6372911172990043
0.37609518864862035
-0.2039994273769964
0.7220737108490763
0.2882348263821057
0.49555833390554566
0.5129940506257629
1.0973291244179846
2.198428762109646
1.4946538684189428
0.6056259011777546
-0.4931804347743651
0.4994533906950659
-1.4389083543524563
0.9431316874420201
0.5913355540441095
-1.0467672668968755
-1.9224041086965178
-1.641228511341462
0.33075875241049235
-1.8915426652937102
-0.43038486924571434
-0.5692624784889182
0.741290912574317
-0.05058626548062145
1.5393124630131536
-1.0460944619245611
-0.6144271462781228
-0.2905875720773551
-0.40544314259570136
-1.184177493204757
-0.9653720388950864
-0.23512873763582692
-0.9674111661892622
-2.1055466511666725
-0.13474313118737413
-0.607221717067772
-1.9709987645610902
-1.4958013541169306
-0.053872112850179565
-1.3448779698182625
-1.3036905856431962
0.25358597449185283
1.0680942146639107
2.256438212721458
-0.14401151634485237
-0.06338331633063554
-0.47678639012074764
-1.0717082971183944
-0.8940416007551074
0.6764716210378503
0.25612155713544593
-0.6611926231244687
-0.4821169164607928
-1.9627036350439115
-0.6175796457374727
-0.9112132097206598
0.8270863576789403
1.0690043907375575
-0.09229849344837979
1.1024340566835864
0.5137939974399498
1.2313691150926858
-1.069788384882091
1.0456615260826991
-0.0982127829242096
0.7684081775158661
0.5872229145344402
-1.3501055378501974
-0.36830844684434483
0.9779193087874457
-0.5429225440622414
-0.4206914742691545
0.3661465067313453
0.19513949568430067
-0.060196669435971684
-0.024467313213092496
