0.38880094761703876
0.8232115516326797
0.44018658886019757
1.0281426290760307
1.3372576381023282
1.0623207000883612
0.39008285758868655
1.105327734208572
0.17782361440335004
0.5905023663299878
0.2172371283809072
-0.6766192340343257
-0.3977139036166847
-1.7484417473537301
0.0750444227185518
-0.9339145078703585
1.0090898105909902
0.44008890393552785
-0.30546355815324916
-2.1702097519835934
-0.2530869966574077
-0.5765059201421217
1.3027908905644132
0.17278632278628225
-0.40651342835803717
0.9473185920256996
-0.6218786360005043
1.8593025982156297
-0.08265413872932806
-0.10786580421514874
0.6613096956448561
0.06473566760049651
0.016866348052234414
-0.4471314759747269
-0.15278509010418828
-2.003050419109981
-0.12217023332710189
-0.039627758966343324
0.8866943152619076
-0.23881826327802497
1.8219209176914317
0.03928437661106832
0.4392178268530627
0.8704711012370672
-0.9871058243846027
0.6120737300918075
-0.05025821984491513
0.16420954029745283
0.13331941654836021
-0.2723402228158346
0.346282852248478
-0.6329032481372762
0.7056443872472418
0.47897162896521295
-0.16322772053343879
-0.7441593902961526
-0.5302902895199737
0.3521195443405274
0.29206227527135165
-1.019091725494581
-0.8512549162618437
0.6893358100919269
-0.03330531166822048
-0.3862415850468497
-0.251171869513202
-1.5944914513489243
0.00947754610032267
1.1332677192599654
0.9683446474948192
-2.090271366330789
-0.6826579909721188
-0.6151910523800932
-0.3415823482141862
-0.29551478869024694
2.6097324984643175
0.3245101453070357
-0.06111778242289704
-0.0955335197670214
-1.3185151279918748
-1.171026157027947
0.0915175118934396
-1.4201625389367267
-0.26574758522445285
-0.5088377874892437
-0.8772291361048962
-1.4159324759954153
-1.8643943991811245
0.7449180166426126
-0.15731251057288348
1.9551752683460482
0.951650420425824
-1.5512943125423562
2.3257382238597106
0.07901610605535803
-0.21190045234943972
0.6624397698522633
0.9915758678410995
-1.329374689936575
-1.6048982116609611
-0.3190967966402597
-0.08363907115189731
-0.3332820251585897
0.6357286008581227
0.4900419759217266
0.8225476579630152
-0.9153817551065573
-1.0807684547987617
-0.23177183252594902
-0.5702607024284632
0.3997161552890576
-1.1612389522736697
1.0189892095300381
-0.7724691828047912
-1.2650329465906691
-1.151991323938526
-0.48598501137478756
0.44227361842354257
0.10301943420284626
-0.7004370833332811
-0.9688990076844929
1.0350348034743118
0.5483447673830297
-0.015953656479338607
0.2542065554776514
0.2802471301630833
1.9297083345715698
0.4238674684990126
-1.0499887262618963
0.09506208119914661
0.5029809901392946
-0.3703896810050299
-0.08723020829275785
0.7023801974983728
0.49855528148594086
0.8817902093322996
-0.18243244272622705
-1.3633721011020865
0.42063708037734593
-0.9325707667480954
0.7248371972617
0.21282520373480315
0.6590861184966645
-0.6635517098907482
1.2753916879501859
-0.3905711018232995
-0.3524638632921966
1.5536800231777506
1.2667477603132191
-0.1719992982680204
1.786651499366004
-1.150647650794188
0.17465451667686918
0.20976453231161052
0.6954043387884936
0.3578217833727698
0.12655797292315507
-1.9653855369039925
-1.0096707396827704
-0.25551803839009124
-1.32759709692837
-0.7514250580271242
-0.9366491671754675
0.7281845418382172
-1.58285083728673
0.6147110887276557
-0.5651429522818794
-0.9718108943671104
0.08055734339608267
-0.7269573272316753
-0.5815244766004142
-1.1290009319133032
-0.8185899730943124
-2.3213091533718178
-3.3660420116914542
-1.6269568585271026
-0.8715246200861548
-1.1574701394624454
-2.2151851419211623
-0.45754240939187074
-0.9455599771761579
-0.08676704053960149
-0.8081938093316663
0.5640039981640808
0.5938235828109796
-0.1714295177654624
-0.7838546785919569
-1.1719933845236667
-1.2827283440396537
-1.200076670767812
0.6992477461768961
0.41628860530438727
-0.2960437807905988
-2.2989431601128003
-0.7750803165752423
-1.6256524493971087
-0.6070759860960744
1.5703740881784571
0.6191783135080551
-1.1907577931585291
0.8338102673757671
0.8092048228611801
1.8613354952091028
-0.563030484990823
1.732080032719268
-0.7516152389054449
-0.8676414806863243
0.7611195641645684
-2.9274490560418145
-0.6438010576349577
-0.24079859129794956
0.6602997762557834
0.9432238402965286
-0.09916995633964575
-1.0700011361664319
0.43852843036485695
0.36512315859450606
