0.7347235752050765
0.3565607096699679
0.40756010923945246
1.4915206316909269
0.6785982235091211
0.32719855072880133
0.3224863652625407
1.3553250617070844
0.5398008604067003
-0.7343439726735655
0.16905826523939724
-1.5025533547416607
-0.09932584036893172
-1.1188129806050326
-0.13674786782943235
-1.4568398818125892
0.5253460509418315
0.44962580871416163
0.3362790063017036
-1.8049825684320635
0.11162908981384134
-1.0174838848012853
-0.06568088347809209
0.08601173389897415
0.08783311167219748
1.6848949325337221
-0.9390887179990874
0.910781720958915
0.5996362825045798
-0.7583444271756238
0.6730590884626301
0.2027786354963237
1.7909119846883437
-0.6821013160482922
-1.0540538018962353
-1.9290963005663444
0.8638261768469203
-0.7323304404196129
0.2594096109869909
-0.3543695512218006
0.415104396036054
-0.15636290005296827
0.9671027648897386
1.983698145018936
-0.10287737751006809
-0.27324627054956285
0.526545706214862
0.5096745566048666
-0.2660351952927949
-0.49876064212363613
-0.2976979715447846
0.3846066911240556
0.9947737966618833
0.5804043131343894
0.6755515428258065
-0.3483583243642948
0.5273080682687464
-0.3396614476699071
1.3102228856164495
-0.9159997059730671
-0.6603594349724337
1.1980507032865924
-0.6689660276255337
0.2789969955162747
-0.3183178787920295
0.9271118314461336
-0.09340275161249981
0.4641821589474736
0.08688534206875198
-2.718413835466206
0.29154327644342465
-1.0764888175747882
-0.4481583867552448
-0.759833255200588
2.5248832807080985
0.05523333909921391
0.6232165781444521
1.298720706286598
-0.6114920485692883
-0.8697430403018165
-1.5749349272646016
-1.3826083000355693
-0.38201411867648444
-0.9185080519065525
-1.8532387616676251
-0.42191900847548475
-0.03256702326408112
0.7101997729344174
-0.5067679499138837
1.1861799669815607
0.057217394376393095
-1.782768790631626
1.952179689658859
-0.0188477340852376
0.08516808394541331
-0.7963460361920224
1.079133155466622
-1.1456859272315958
0.7268357644957009
0.6002682260610095
-0.1334263987407431
-0.932889982938727
-0.3793327591632354
0.31727219046924926
0.6187764676024317
-2.8457665919912425
-0.9919740324625137
0.03520243614755775
-0.711204740340266
0.23216881201227108
-0.5786818207730596
0.9208390406417803
-0.5979804325421472
-1.4664784696227966
-1.0719517069887694
-0.6007603471178118
0.6866819439563177
-0.4762449383202349
-0.9722193942022939
0.17279076525552106
-0.6210988571459277
-0.9177667055520649
0.4870324887529443
0.1649063545530544
0.07418663453554081
0.695399863835294
1.891510881055718
0.9100893309110751
0.8277937381456688
0.14189036699625796
-0.9930200160914875
-0.2523962442809379
1.2132485719086263
-1.359608595651221
0.3605360467800177
0.5183137700425808
-0.9534842922424237
0.13408050861600773
-1.1981870040462463
1.1011528298241973
0.3415696599974077
-0.3982109374092385
-0.19135035122501837
0.6976984106697175
0.774391085730955
1.1410287692476477
2.2953118185822743
2.0025776731609004
-0.06706650175265094
0.24185573814488776
-1.6463547866534476
0.9032791551915134
-1.2667005453518871
1.0181280788487341
1.5833020552961672
-0.9768687154837066
-0.49899302714062066
-1.60714146436103
-0.36504081700654734
-1.3801189975944845
-0.5606897831923594
-0.9969782712251872
1.2106556824406505
0.17553512257217552
0.45577116810802865
-0.9626740618397658
-0.958717537780758
-0.6354593910966715
-0.11540725142079325
-1.292043270818532
-2.041619695520283
-0.590000815315013
-1.0202042269265057
-1.7660843093791747
0.6608984008311581
-0.7561000041370185
-0.2839243650698985
-0.8578432911960985
-0.8918846273505703
-0.43438951034416756
-1.2122001556375295
0.6165907177615895
1.3226796153162017
1.3682807591255146
0.28950981462444536
0.40346536545712497
-0.6982944486384159
-0.8438895274099197
-1.108154992908032
1.23292138699333
0.24982194429904492
-0.5276027394751347
-0.4689559242975319
-1.2205058474958415
-0.07834667566543274
-1.0119636105260024
1.46460456464139
0.9992258317039043
0.6648237599847329
-0.3153337972713849
1.1482101191520262
1.1811837173723647
1.237430200511477
1.560513682502572
-0.3152211613981673
-0.8712729129857462
1.3245834804831689
-1.5090830944476972
1.159441276686007
-0.22188013928928826
0.8802583282667729
-0.5517734367792505
1.0504708882412561
-0.526063844993162
0.9897557218525374
0.033686713384217026
