0.6569079868651293
0.5518337909629448
0.7932570581450962
0.4458210965472166
0.5920794782391068
1.1881470911274858
0.2964562029019405
0.0435837591085797
0.5754605351314677
-0.5328327617866019
0.41620287561914837
-1.0821249504381902
-1.1300523538217206
-0.9516341837417766
-0.4940855332394547
-0.24759132851036147
0.02112732218131519
-0.13609533787668898
0.47550767856563747
-1.36050754831059
-0.2824113857389292
-1.008848213644917
0.5238631256197063
-0.6742326598325827
0.13080377340314248
0.423515367578852
-0.6033949552346249
0.8481342558414892
-0.9446883200977959
0.03599559182526041
0.22718654491218626
-0.3449709829322514
0.7060195945975627
0.10208000696233742
-0.7313307803044661
-0.8547474223778241
1.4115948157527165
-0.5578212627106296
1.0723203273543187
-0.6825753637350291
1.2310977325794603
-0.8637581189945027
0.23849551800497792
1.2675619213818008
-0.3224233162101812
0.3186203423684032
0.7772519892401528
-0.5096193932561037
-0.3373891949929645
-0.6058895231466919
0.2110714193995873
0.9130140008171589
0.76304678704658
1.4306784912667878
-0.17873663371930337
-0.3211434579272944
0.7412495229823696
0.8617913585305045
0.5086519810393304
-1.6136020018009027
0.3272095600551152
1.8894853723801064
-0.5946638895149582
-0.9209397188027068
0.9872399863349803
0.06184443384416152
0.30364805985215015
1.570891625753
0.9635647370337266
-2.4468825242633945
-0.6992615987420907
-0.09527427704673719
-0.3504357064645731
0.4803699344129967
1.777417202838622
-0.46487459768725287
0.8039881895557583
0.2648660066881702
-1.770405023911635
-1.3734906918771164
-1.2703807318647635
-1.408733932946381
0.24598739988488974
-0.4428841217137741
-0.3401078505253703
-0.6692007005341943
-1.4187033557440871
0.5151496191513927
-0.8669731243424768
1.292459846829556
-0.06528476508807803
-1.7565235991413646
1.6341402780669074
1.0068992390756089
-0.5107210126525296
-1.3557202104688715
0.1663405818712363
-1.4938626071444874
-0.2401184489965181
1.37416831755981
1.0107302358236272
-0.5383876866365754
0.5324510650471685
1.0462040626646374
0.11893210454444489
-1.075303169105186
-0.9287730688239311
0.033199344645316264
0.3492763566020467
0.46288706317392386
-1.0776240494404923
0.04718086350697126
0.3757836088879619
-0.8001146950815412
-1.6440116760307206
-1.9638683324637722
0.2887182782844818
-1.1774841527576372
0.21114411412744527
-0.12724267665096645
-0.26357577007451294
0.07874790188081077
-0.9855243482199543
-0.5522250790036727
0.10544167030314289
2.4306184146634626
1.246279791227053
0.17672984893637755
-0.4302744170936139
-0.1784096378731666
0.2563912622768745
-0.279853796789576
0.764193600495079
-0.5347836900643221
0.810560725973718
-0.3399511504748389
-1.7181514045685025
-0.62870262737735
-1.611121425118824
2.099636268959956
0.47597675071304624
-0.06231087927016342
0.6027068101051544
0.10234495984604774
-0.3341767676174894
0.35069679587194547
1.4368532440006332
2.0145949491324933
0.460324523581059
1.1834943637202604
-2.002599911074003
0.6780633683176656
-0.32600320768434976
1.348325170619367
0.4241943216816628
-0.799762588429514
-1.082309540870997
-1.1749804669237767
1.0534421984883204
-1.83098842412238
-0.46233868071415635
1.265454983448219
0.46428381365701277
-0.8490481652441622
1.6811258931813944
-0.3255990323272092
-0.5444731869930749
-1.1475416928855326
-0.7473315043059743
-1.7393905758596098
-0.7372947533737924
-1.1916414169965437
-0.6447388131091613
-2.6982128424982745
-0.12330677852648753
-0.04365935576009072
-1.8850109345156838
-2.059692584269017
-1.4570602794046985
-1.1262072182584473
-1.621155456627716
-0.8114995817040844
1.1107464940658334
1.663302923812309
-0.05002709130039054
-0.9884104522500758
-0.6515232674373751
-0.4517310254053021
-1.396951198162438
0.3083108726324264
1.671944160861285
-1.4214171116034438
-1.9525709257170876
-0.9572285170516374
-1.070857613578124
-1.6123021581409223
1.2083356057918975
1.1109388235848385
0.025375877698768742
1.1507926349936644
0.449182335703087
1.7141622542765862
-0.7638481293745638
0.7713730624732251
-0.39251138391254065
-1.7854132597328318
0.1372784396989465
-2.5644578827381217
0.5473752836138673
0.5014938790896551
0.19813245800371243
-0.4334043540074629
0.4995520829653119
-1.2598189144422132
-1.0415218239541841
-0.394820158748705
