0.5334163987172236
1.888607214673359
1.6636930277537159
0.8421959372689483
1.9651837867077095
-1.0632918730468224
1.3868899824213021
0.6555024892137
1.7714789671792772
-0.3419341110024734
0.19007252747161416
-0.8568030239524481
0.272619433859288
-1.2647405538135956
0.44443548903199703
-0.5971268374453299
1.0459119810706614
0.5335173828064959
-1.8760509155413407
-2.8846144263103413
-1.3007507800485483
-0.8255210779073814
1.1181774248910545
-0.1613505434361255
0.12461217519717765
-0.15979271188565336
0.0031937867267979314
0.8662924209506577
-0.4108271283512347
-0.6609021838557941
1.8352702710693531
0.9472851131707323
1.2750605316984585
0.9064374429552058
-0.8461761583433202
-1.4208945328143174
1.3178352179747388
-0.16725961005427534
0.8362180656538005
-0.8405296977863024
-0.11705035266121011
0.12665968554594548
0.06252340491730882
1.437144384629494
0.46134230731325987
0.932142021418579
0.7688970652922591
0.37189994989670616
-1.1569257843599967
0.4808455670981836
0.13935529286223758
-0.8891208210396397
0.9443631206065715
1.626751373612617
-1.4569510399118861
-1.7061928183832362
-0.6855871649702191
-1.196872625694082
0.08545602250356599
0.691334542027393
-1.2233263892417787
1.2994147905477342
-1.0506164166883483
-0.08197080300734921
-1.1774852850343596
-0.5825902749772718
-0.39658920705263145
0.7247648986825659
-0.5440579402755601
-2.862029439119288
0.5423244296415777
-0.37889746846650324
-0.8411139319372367
-0.4989014695536669
2.2113870988380313
-0.7370952228288018
-0.8797938340574254
0.2774008415710758
-1.8796372482557215
-0.6017451577920774
-0.20920740008679883
-0.9440639531264992
0.29355658961531317
-0.23355642811918922
-1.221488454789603
0.43707465196312734
-0.9556759826322956
0.1746458366109235
-0.23489859221665552
0.14961784413281232
-0.358546243944168
-0.706025922566838
1.3208545497318602
0.532002074833975
-0.005362358119639421
-0.6459534037759136
0.9092301785266395
-2.2485324484085916
-0.44323758525483503
-0.4214487566537616
-0.5774052996574732
-0.2183489388248953
0.3843670325924343
-0.7347021140138131
-0.5022139934634094
-1.0276669222687451
-0.938168956858604
-0.051798001929742626
1.116828303568777
-0.09620912406359411
-0.6353794870397724
-0.15785414432848133
0.19004666191259567
-0.6457033424721049
-0.8298165848105653
-0.718243037511755
-0.6602113373676537
-1.23781776183617
-0.7696514097008347
-1.351979081157091
0.2880430646656196
0.5501081570424606
-0.45513819483817647
0.5022179678819363
-0.04914574220676218
2.3460197620542855
0.8955895125151205
-0.12823181548394513
-0.3208404283703513
1.2257110778138118
-0.5275648375031248
0.23602042574600818
0.937140875190147
-0.5247489732734587
-0.779051694246402
-0.04168647332495862
-1.2061070797422755
-0.44950014043592834
-0.7444190092104093
0.6321979496577045
0.4938504726674534
0.881792211498302
0.09226318299401856
0.5695497674848408
-0.4814213056391096
0.8561643900495559
2.102552639666046
2.25575133825562
-0.8641093077791417
0.2923811693825065
-0.03742116531107165
-0.04760093465872536
-0.8298774664326654
0.8108935987585116
0.29706331169833283
-0.5593070657523518
-1.2812419305031435
-1.2018257465447866
0.9843744866791807
-2.181003464200776
0.5945234741779967
-1.349176289375353
0.5831006999463552
-0.5733025932001908
1.2957503167105462
-0.46550728262910657
-0.8420461496073905
-1.2106062809341886
-0.2570698094593288
-1.6032511945162997
-0.30915466423718696
-1.5839128169527392
-1.9560729635428622
-1.9693402861395573
-0.362764630276495
-1.70733027598123
-1.816063324924032
-0.8636437937024942
-1.6464058159601382
-1.0290845386390295
-0.3128274126492281
-0.058929810862721865
1.5416166509634195
0.5717723516163615
0.6747034332461853
-1.7190061412451774
-0.7402402408570288
-1.555452527388667
-0.7295823394447374
-0.09012511408060497
1.2647681310865682
-1.102321000613963
-1.2119559671688602
-0.3340434664071922
-1.078362389633282
-1.1297525146922314
1.2761283417163747
0.5705220924573532
-0.18835490688605533
0.8807642481039957
0.059651388756377766
1.3291372956613414
0.1855873840839361
1.4988209846152867
0.3312053648758372
-0.3004838015049066
0.16535452846371435
-2.1318785272988316
0.6706142980182437
-0.39656406977686576
0.22289296092326116
0.31035858537737815
-0.07887394558855902
-0.0782679501395358
-0.18483959483531928
0.20965435311077993
