1.308656773156182
1.0855214733353717
-0.20121215733255143
2.2460554433656825
1.088417842260866
0.08349923224207378
1.0267742281272563
0.24139151025842615
1.4614691313351835
0.2778207454842429
0.15164442158559152
-0.8542882558210615
-0.8107120186227548
-0.5078833906678731
0.5849038220112232
-0.8978283881054849
1.4376222101434322
-0.2890619299473542
-0.4527437793626703
-2.5826108254528117
0.14856280714866116
-1.9393191420096496
0.787882541285313
-0.6895946305712719
0.4295882851977572
-0.09636296120323118
-0.6537189677268824
2.049136449533846
0.33884536849946134
0.21240447177269078
0.19363516662988228
-0.6964871393480699
0.23480124041026218
0.16961433142102253
-1.266052468713403
-1.2000291890593242
0.9336241325973308
0.49988975932488905
1.3895568090192985
0.07350559907901763
0.5886293381629278
-0.226700072437478
-0.1366801907642629
1.2198916345729907
-0.8070044451728159
-0.5119564674980218
0.3689310032032881
0.02394980707936234
-1.16511886467842
-0.5608520901131411
0.5171229463710628
-0.8568707131037537
1.244059203067676
0.1941610635123543
0.3931719574898458
-0.9285196280383103
-0.28518972524647995
-0.45570991750097267
1.4899286847779476
0.7033279873461441
-0.5412952185632532
0.5597450649997328
0.059704312084870946
-0.015174432245080971
0.6140856252010065
-0.1466416866491646
-0.29074596145378545
1.448900039597794
0.16704084003623182
-1.3781966855029713
-0.17331190233865978
-0.5918366717569742
-0.21745219858493176
-0.8723799178281576
1.6161894437271782
-0.8887599874438297
0.28219301157300775
1.3134880950382353
-1.1209815302413508
-1.0948900627307852
-0.21941851013306907
-1.4291595780107325
-0.6601593768724267
-0.519439687486632
-0.6321871978810061
1.0162172873999418
-0.2120588504592975
-0.37335685539747515
0.36502332066772136
1.2514925038007694
0.6290952441792967
-1.2068664287794397
2.0001499378578047
0.832181332986321
0.6959520931698796
-0.21496251045515846
0.4113088078725322
-1.0119630493929663
0.37271931953335596
0.8372020045670316
0.8797399857286005
-0.06350374723588648
0.18801092790735402
-0.05307995376133584
-0.32683777201200925
-1.7483441855185449
-1.388026626594759
-0.6101097124062038
-0.49872272169577087
0.3639042814714309
0.7363937711434264
0.23894933851130606
-1.3375087712543712
0.3008214396009252
-0.8149968479028461
-1.0051845666120347
-0.5463110191881386
-0.40037175100230843
-1.9409677241584835
-0.5981965490182791
0.040750217017066055
-0.4795914942108833
-0.31951237475963745
1.694834294111706
0.01869619690679014
1.1382345839296983
1.912758875432044
-0.43909104640698127
0.1848560298456428
0.8570610972836333
-0.7029867726950834
-0.6229462391730973
1.9017866733711888
-0.22941071645150535
-0.9841857937116112
-0.16121227932239085
-1.2446655010726393
-0.014005746424369192
-0.8977665893358073
0.8279895418168066
0.07142217471510433
0.6577955450114631
1.3309993918915555
0.20896682695481594
0.2583845763450376
0.20066505962727793
2.2237942892189455
1.971598029202049
-0.6914641363902267
1.1124695177498434
-1.475436382308217
-0.902453075199402
-0.7203441226028545
1.633742016193539
0.5991882475645006
-0.5051164301803068
-1.0794232609812626
-1.5305362492470933
-0.20476642537179918
-0.7391987938186438
-0.9317416757595178
-0.8847841124810221
0.5148197147761663
-0.764788858132381
1.7762779431766664
-0.9346661941879244
-0.22506523198086842
-1.5864734054792708
-1.1673926235373249
-1.186846430596712
-1.2598561628845877
-1.039962375774949
-1.5692064876478284
-2.187461444999278
-0.5351753564762809
0.2703916904432261
-0.8865992860517405
-2.1023333291440185
0.43242403533377327
-0.510218629468755
-0.7024163974997021
0.2977244326360646
0.9671824993705765
1.5755117658520454
0.7014723313814958
0.18682088927471296
-1.5078188348297021
-1.2989881299461685
-0.5712077053512217
0.7001647442993607
1.1528554819707435
-0.9928211963662494
-0.6579336569497871
-2.2203588491311677
-1.1836583907308205
-0.78192255975249
1.2969647695628403
1.3223562014477972
-0.34209711942090687
0.054391609952790576
-0.4061021387764501
0.8879432854833783
0.6428965242191367
0.5128948882396702
-0.154388659074506
0.35969492720389606
0.9067487406397505
-1.3440817863141552
0.1671849538979706
0.5072287576475937
0.8067830363008617
-0.36171818021723456
0.6247456461289437
-0.36028958170059594
-1.2055980893351295
0.14768855206572082
