0.46021792548189355
2.0220329177898533
0.18484466108524858
1.4393119075093836
1.5898013048490278
0.8149166382876172
0.6817577572953964
0.6756785197658538
1.0882908089131162
-0.42886078266987115
0.8800083106373373
-0.43178577703669013
-0.3200823672819757
-0.46247899656999514
-1.0953974969020819
-0.5735521501309866
0.042995455397618565
-0.04159405613888914
-0.02308021857346587
-2.5757005803451625
-0.00790862361807293
-0.43557335653203977
0.015245927252323543
0.243262339845496
-0.48488330460577744
-0.14537419035151233
-0.4185892265371045
1.9315269534417006
0.2605557049354365
0.1436533711363343
0.8653626166909411
-0.21663688705664402
0.8440239187109637
0.6973969092234688
-0.6996132550446443
-1.0655751394555415
0.3036315415011161
0.17498059538635546
0.7743051436929553
0.19257809327959877
0.35304783359953834
-1.083972897866062
-0.5967530683245117
2.2575144324216057
-1.4602731836328875
-0.12625629177490466
-0.6417703501592311
0.3975336075338297
-0.5845284705893503
-0.4515325734002189
0.6623492240626354
0.21082380374504872
-0.35079429496130365
1.5980602255763456
0.505978697837894
-0.6259580868672476
0.6761622683445054
0.3912885243303582
-0.19718903811811883
-0.5853584074622815
-1.2436079981562198
-0.013960337904791897
0.28527442396218367
0.3838839958302286
-0.18913246471269585
0.05807850747294624
-0.8125793533624103
1.0092539574199426
0.7463177659999247
-2.52118007524532
0.5163236320545971
-1.2068796352915747
-0.6412369975051718
0.4075598318718737
0.8465686834995131
-0.9710233032889433
-0.6272967269751843
0.01952742565440757
0.014526007636276095
-1.759405118976543
-0.7465053605318861
-1.633775328282835
-0.41937303756516503
0.34507929181736485
-0.720411915330548
0.2678891472256121
-0.10908775730403786
0.18466023024556832
-0.5888872558517493
1.6661548272972002
-1.1161837370532515
-1.2898725219010132
1.5862965894759133
-0.41949288749287644
1.0851495850529402
-1.5114933158764314
0.9360948257727463
-2.5213371936272186
0.6314353044694888
0.470005620338793
1.5234500772332304
-0.358464912915011
0.5990352782164544
1.2353729329842835
0.38248896474250926
-0.881868006881778
-0.6805939216866076
0.251833225741442
-0.06968346863583197
-0.39874384377065003
-0.7282719329942259
-0.20888136586820705
-2.153337455817512
-0.5823161376994471
-1.7564981558680093
-1.1556525553958032
0.6015585879381576
-0.7885062441017205
-0.9092633457898273
-1.563288154859726
0.7188238786790265
-0.1282195080675321
-0.11947698828329442
0.2541275986490141
-1.6900191078391331
2.5356546269927183
-0.19503184883109825
0.25142359505613
-0.5894387401121389
1.9588878851163034
-0.28293135107537254
0.01184455678572821
0.6131933724897559
-0.029845571208143795
-0.11160334878115374
-0.674433458448886
-0.3560218401973493
-0.44958278032564053
-0.8925252268737425
-0.4703347587075537
0.23992480056812132
-0.1284278981757277
0.13733948467414592
-0.2020666530284116
-0.309594919607871
-0.37566786033210237
1.1248281679713679
1.4306687848661246
-0.9940113087038732
0.34677785658015164
-1.3892604410556433
-1.1345973945919863
-1.499325279750204
1.2461024461465278
0.12835661388397218
-0.8288084456582404
-0.8351724230047259
-1.2970153242489126
-0.8838938157199476
-0.5356934773864259
-0.05450869607277148
0.3277031565541637
-0.1625603380944658
-0.1334225143931772
1.6508523904746157
-0.496171988864369
0.32460480366996997
-0.13833046903230756
-0.391506009151854
-1.2904433304494154
-1.0348110785362374
0.5745255841993477
-0.6270432030573805
-1.2563014218483566
-0.024673223807638367
-1.9656599228731766
-1.8939278666840513
-0.9294341566609855
-1.2824017398376304
-1.101156953231798
-0.37525801455761604
0.7959280841734719
1.2711119418044206
1.5142062289024163
-0.5067897425866713
-0.5963194255762291
-1.7819235840158414
-1.037401607228252
-0.7804469117668908
-0.12067953688127342
0.8144537265022916
-0.3848059503342469
-0.6650634193532254
0.3106996808089242
-1.0105436806705321
-1.271533525860228
0.29966483433952995
0.8933412239282306
-0.26199052070581386
1.4890477884630617
0.5777948262018683
1.4937122446096631
0.2912080371615914
0.2061073929526407
0.0660979883087568
-0.8030965199596631
1.0639316433065515
-1.206550276845682
0.50536176113437
-0.13965068430480293
0.10104090688990519
0.7184380558087883
0.5750956727119736
-0.7515679748928612
0.044472879566684595
-0.20141218217335255
