1.212615164298676
1.0605760723791469
1.7136666778786718
1.1026325043180825
1.1089466033449582
-0.6773576600505287
0.9495337528992217
1.55527182986481
0.6057414646413714
0.25986859642427773
1.9130743958837464
-0.967132097731281
-0.19405118466244453
-1.1451321116192488
0.14132095448579277
-1.3790708124638484
0.765918140905411
0.26274855869601615
0.6721590034764188
-1.4160124418557005
-0.8600125730243857
-1.4969317513991705
0.17229567824533232
-0.4877316425015155
-0.3315074185397118
0.7817072004752886
0.29070881107892665
1.3642595204069403
-0.1548478972773558
-0.08504415943091576
1.2535638858120475
0.9438384007294336
0.9143949329313503
-0.6393660052569748
0.11588720811779307
-1.7428299847272606
-0.2550986287405519
-0.20018448220830018
-0.11188416599112161
0.10761665165376988
1.170783234073536
0.24078237166743954
0.06900924330794955
1.6600485754619407
-2.0171141807217277
-0.11365937988969144
-0.626265561596572
-0.8841408369785897
-0.13960794966925288
0.05600833162047804
-0.031069467026945297
-1.0112853630062069
0.20918584451682032
1.4076449367018415
-0.8512747110856145
-2.2104658809435653
-0.3781419353093869
-0.012496803633038844
1.9042517849125908
-1.339978332065307
-0.8074541776922846
0.7691679879522109
-1.4066561257232018
0.7915460467545797
-1.034483256441603
-0.4556549453700366
-0.40410033439312343
1.2152467986940403
0.6275820975531019
-1.8856328448142645
0.47410548152254195
-1.2558947674862542
-1.6571487563355833
1.2233914885648016
1.153603224568108
0.2697552625858972
0.4600186864262387
0.5755484753752762
-1.5519289633686284
-0.8069518003709776
-1.0011919430137006
-0.6158170925006797
0.8688648941308824
-0.42011282491058594
-1.1101590160093682
-1.1802873900410837
-1.2509867846152989
0.9013913504172149
-0.986689142489235
0.4989672954368982
0.10383616596983519
-1.7302025369356682
1.8238320032728061
0.5701250134846594
0.6963923328425092
-0.8646602410577233
0.8560444114591725
-2.5186537911835454
0.48616262784794395
1.1396544157287973
0.14679653173588236
-0.3173633857696153
-0.387904880091426
-0.15932122212109456
-0.0041283690926115085
-2.115619499861011
-1.6255128729670294
-0.6072796712746222
-0.2886455442532009
-0.14892301383326073
-0.806746397230185
0.7345123425346859
-0.38928657613518153
-0.31252119107856796
-0.6197667146233601
-0.6959099318301201
0.6943349264557229
-0.730895786117247
-1.0191523885930107
-1.1099108364568426
-0.6895613127216392
0.28604151688821283
0.48125214567791413
0.4601888347179352
-0.3470707580342193
1.7663375167443474
1.7881575447287779
0.3093844721548518
-0.5073409560495052
0.298189571417077
-0.8085322457980187
-0.13176909247108703
0.4133578960789151
-0.7505247341257397
-0.06229847141151229
0.11777515813328003
-0.8958044090443272
-1.0731184838702874
-1.1217375077297682
-0.06295011581342502
0.4845123257602989
-0.22158219616681063
0.1648813004255349
-0.16524072801220469
-0.03412087434155367
-0.16047130939162266
1.3995253920078097
2.9283987832110254
-1.5099325199683742
0.5589493324934695
-0.7259082098040496
-0.4852472550661554
-0.741766491364155
1.3235655268469952
0.2298074269528807
-1.1079044347493554
-0.8050181221498833
-1.1477089549392654
-0.16758242571358622
-1.9514971031926753
-0.4884052073049171
-0.44883754260046804
0.7309962576210923
0.161482034718624
1.5495081790239529
-0.8533938757366067
-1.3433170383683481
-0.45683815196428146
0.22008294299334374
-1.333990413877903
-1.3533975570776746
-0.8209964449887154
-1.5803738884105976
-1.4378674568145038
-0.6177108457985444
-0.8153426453615249
-0.3354488890721198
-1.4200092339008066
-0.7177985616518326
-1.2308923567037189
-0.8573236769508629
0.18344278037903844
0.898801512573112
0.5134867631866503
-0.5881160234214682
-0.7523629292299703
-0.7278677171525636
-0.8459475970712196
-1.292744013466021
1.7981450500659668
0.4077243560242735
-0.47110258236972125
0.19381399240532493
-0.9642373600616
-1.5640669662468911
-1.3166329466033195
0.7092693000897599
1.1829861146889664
-0.1774481533379343
0.6090780252972974
0.10827611329211467
1.7295471607162067
-0.04118123078133601
2.149146954391946
0.04043680083582615
-0.5340441132896139
0.6324380236337713
-1.9117476486717366
-0.21155682328032135
-0.1726849606404672
-0.9920388648644536
-0.28997569541709045
-0.3189456673225782
-0.36912484183946537
-0.13198647441602598
-0.6942816338649102
