0.8157489362370554
1.7738992108396525
0.30466637571768607
1.2935451572379815
1.075030683483321
0.9831047056446899
0.11551398799451096
1.6298812239547589
0.1210116680162176
0.5072828856184048
-0.10727943435844195
-1.095253913724078
0.4501994592510885
-1.2988561916427677
1.007294131713827
-1.012104908415894
0.3163222865599917
-1.233315807584661
-1.3452140123602436
-2.1633095572464756
0.5642141671990546
-1.0817028958294663
0.21670991412157903
-0.7629896949712391
-1.010201860600653
0.6812927556422466
-1.4970961997768715
0.6357733165288422
0.23353451039906567
-0.3229840568397632
1.3985418204422584
-0.32413306202628844
0.5339881558542996
-0.6123080841477251
-1.3805073587776682
-1.1744150440882617
0.6459386571168092
-0.4253072265264014
1.8338369887741544
-0.7678208294178932
1.405228785980007
-0.5482715830485574
0.29682361024496295
2.2705892773889707
-0.4564170314885953
1.4767421751846785
1.2349239406513255
-0.5155192435441771
-0.07894862407072334
-0.15945657767225932
0.5395194087509202
-0.2877384692092411
0.5969585808976299
0.5579048610166563
1.5176742768511284
-2.012887922533599
-0.11714134199464064
-0.3605608608837356
0.7988844726721038
-0.7953434410751941
-0.9240442990376312
0.9653492903854688
0.6191503711044117
0.251123552936174
-0.34139531800233913
-0.046440033176937096
-1.2282055000327163
1.2280347278070116
-0.29857212163085695
-2.312311753572589
0.4492895336520726
-0.6893026263406777
-0.5228417889538801
-0.1303188839018146
2.0637541887273496
-0.9816778565565878
-0.8239133927814304
1.0584924171191863
-0.7535019213217056
-0.8624959097702452
-1.0416522095256924
-0.9171719112836773
-0.17515942994098893
0.8092292211182942
-0.5157930967623943
-0.44819731244094363
-0.4787167713030768
0.7546138273600682
-0.11163128777454351
1.3412001513024572
0.44322808690284476
-1.3473423097739572
3.013887394705347
-0.5743192605746243
0.03942581790441252
-0.639798276845336
0.5087487338707537
-2.413094497504714
0.4995651658143252
0.9157029573257053
0.6407748262721102
-0.9469507958572165
-0.37849313659534567
-0.28927067180482935
1.010051181017958
-1.583347479705556
-1.2073941198489473
-0.285721777186814
-0.6362638476386865
0.12935097867114886
-1.2664876563707117
0.9875267317457047
-0.44543260369565557
0.45162341620469737
-0.7637452447028177
-0.9955243433924884
0.1250022545378316
-0.033168278171915255
-0.27659222278023743
-1.459215026194081
-0.18610540520517008
-0.33497104403411726
-1.375268173717589
-0.24473015570833873
0.006854947184387561
1.8953922478168037
1.7874509762019
1.1206430934026466
0.5686302736500277
0.4672748275329362
-0.5823594563252152
-0.15687435825983498
0.9900974175936313
-0.786857958692456
0.7745239911377957
-0.28965945739989096
-0.6412124110181081
-0.8360094839059808
-0.6296204430225059
0.813175730741881
0.4511555184328837
-0.7521223710846624
-0.666020787941535
0.3483940878567413
-0.44512768478543757
-0.2581766077656547
1.8217496943298124
2.015308304866995
0.18402913927274112
0.5152899462955702
-0.2308837105397742
-0.16330909385421752
-1.3199543745955287
1.0037865782022863
0.8902924225045319
-1.2691955727263164
-1.3445779575355894
-2.0207493050889904
0.01158888894442553
-1.038684554774715
-0.2961034489099033
-0.1425104218380685
1.2052616071400768
-0.9071373627506003
1.5688979369792315
-0.7204510914403743
-1.111432935695581
-0.6956748856288365
-1.1836988454395527
-0.8532724203962719
-0.9080071292142646
-0.6379890090032632
-0.8819528514060027
-1.8328480674222531
-1.8688776452520828
-0.5952568048373293
-1.573389312518928
-1.4827044060351253
-0.36106947785377735
-1.0410382057372383
0.3595300428696543
0.22167097925602575
1.0468388901194843
2.6072354346126696
-0.18325056881092935
-0.7691420766957238
-0.9711103776241442
-0.48862371908086905
-1.2787344885489857
-0.10171981243153327
0.4086018145008833
-0.8013361618904905
-1.436574822201591
-1.6226075130940947
-0.5030218440994003
-1.0236611971580483
-0.3725487670809269
0.5642339630659858
-0.09903192217323892
0.7384964578884665
1.4487395540631511
0.5614554644754863
-0.7445396706357388
2.1826395045104325
-0.4921843125237713
-0.9435696422170667
0.8551137354688253
-2.3559508412919596
0.6454148773878375
0.0683721256308984
0.19204058806532331
-0.08467180893190605
0.15588161366625697
-0.3250436317715712
-0.16921693141530475
-0.04108670730509055
