1.1382087804446182
0.1274596972743599
-0.34310317672799046
1.2945172855884273
1.226001551466494
0.9445168633677448
0.654242906235339
1.3043166745770078
0.7911914283841688
-0.33109238476064085
-0.17227949635550238
-0.7917856502139615
-0.08277942975394681
-0.6022295656906373
0.160062218062804
-0.1397945979339107
0.8616068935559275
0.09539587096374932
-0.8881505795301606
-2.2171625147072525
-0.4021286045887891
-0.84530993025805
0.9952104800824786
0.26760810315532735
-0.6780372941087844
-0.10375938325199652
-0.9868099291417499
0.951395258498364
0.2760752840864293
-0.19562505974798947
1.7653045274275838
-0.04736264823830469
0.32073665989335914
0.6583529926258997
-0.4812213802227413
-2.687219463841614
-0.6957280429865474
-1.2004681637814456
1.1379828655962598
-0.33309839735892866
0.17889127692878937
0.1585832093927964
0.8307259303745538
1.273876219506191
-1.5068640958879553
0.2635787443123098
-0.5119301056170853
0.6434051787203569
-1.1865252010130676
0.1975810996651911
-0.7548668718836329
-0.1667235777174899
1.1645125985914537
1.231895512869921
-0.16108899421162037
0.03700761715780598
0.6680918096799902
-0.8548924043659465
1.898592923097631
0.08269370207425786
-0.09355795203836303
0.9796623366879365
0.4009028503872175
-0.1300155173164888
0.4090778932560583
0.18403621405216522
0.08080990722185755
0.3401508906057871
0.20812043426890436
-1.6487517421012772
0.7262418573342407
-1.3544868687684406
-0.5622700819545596
0.010108623668454997
1.0006952291717757
-0.010029215312015505
0.1743271748850891
0.6386556222008573
-0.6962256273216316
-0.708202830673625
-0.9769157717515324
-1.1026811826217189
-0.2527562787994181
-1.4101255161593664
-0.3382414673765147
-1.3227460057868643
-0.9106352805793463
0.35794929970391115
0.3940150437897536
1.6905163809945458
0.60315665820212
-1.4203384759892033
1.5902169191727795
0.798869655885211
-0.9134260622310209
0.0839891592949259
1.6937168079858975
-1.819476854688432
-0.4624474704530519
1.0184589983807304
-0.005585685077756614
-0.7303745961184439
-0.02487884293281789
-0.37153395012499035
-0.08665700155008656
-1.8026070235612581
-0.7138375007036651
0.05689236582719498
-0.23459429546088795
-0.687996091857159
-1.689867109351497
-0.560752416440838
-0.874824344812776
-0.12659761429896654
-1.9474317802328736
-0.6817216661950738
0.023847924247722363
-1.2732254220045094
-1.003970492501912
-0.9610942799757599
0.3500879497562367
-0.0030229052146754642
-0.8077372273000616
0.07320891680814284
0.4125230482538382
2.0630366207033854
2.005453517602047
0.4015919856835263
-0.10538192311312923
0.7452633970804268
-0.4505932129457647
-0.6580431567410556
-0.09788397468744292
-0.9760320449623014
-0.6962487768146194
-0.05916931649037092
-0.3076854708669007
-1.228512731062493
-0.32899408201958
0.19701790381734408
0.05580111380996716
-0.07477766755020987
0.46734436116338385
-0.5366515043098361
0.20901708165593572
-0.15700322303168937
2.01290197249327
2.457376003067856
-0.49032839604246914
0.7372175882854086
-1.4316094529075358
0.7878756830676181
-2.12605499514138
0.36592774276073603
0.8007518133378236
-0.7298651586922319
-0.45812970471855774
-1.5487062318341753
-0.012107232384638317
-1.12995192491281
-0.3417157457004287
-1.3740959029486108
0.11040751527064752
-0.6680246745616552
0.699316020913497
-0.5542019917456346
-0.6904071495835531
-0.7081912622182392
-0.7544439468981445
-1.6659983203470639
-1.1747514967447958
-0.18537339575430112
-1.8829196234446863
-0.9569340847048092
-0.8717682522997066
-0.9732147086660108
-0.9427496616512054
-1.073955710609979
-0.7302414476548439
-1.0961014203273263
0.07533153098948786
-0.12918801757852122
1.536898400980348
0.6909756889393031
-0.2807459193337406
-0.7381834080246564
-0.9358211938211696
-1.2325389683069061
-0.9282356530523423
1.137778824514183
0.7145215047152893
0.13796166611644045
-1.41431105659035
-1.2608095456801067
-1.4337964074663978
-2.1408764622131113
1.0148382712046122
1.0277008711261244
-0.35801518455072456
0.5829891464654704
0.23422355073723122
1.538377427399789
0.778531815422182
1.3222065650522314
-0.03437332878661292
-0.3525206079589838
0.24279075445393605
-0.810852479639746
0.08429992551553847
-0.4538620421352699
-0.4985765820284596
-0.23296448060979652
-0.7591070879647115
0.2370712126293968
-0.13920215095039631
1.2128069026918997
