0.9811614486165875
1.9648023549528135
-0.6757179775572288
-0.04814593998841832
1.3137244029310227
0.23098996758403717
0.08769233129550258
0.4903669555268405
0.8913636498924156
-0.6470607017767985
0.6033371927701017
-0.5451699517366868
-0.7013218372451004
-1.0943811362619407
0.27852787263276463
-1.1982707731326074
0.6003610259442986
1.0680175041067108
0.8932853740033012
-2.582129256785945
-0.9139059960485061
-0.7337319181151523
-0.2700975609105891
0.2407233150988886
-0.2973183799454994
0.17049200565022077
-0.24127493690892682
1.3038788162621537
1.3307412855569123
1.5054388736482769
0.3016435642050666
0.495057259432294
0.3516392375146398
-0.593172025343426
-2.0222324603246116
-1.0285605040810601
0.06647478102725843
0.089698021291581
1.3775910100794113
-0.041679948041386625
0.7842994519164845
-0.2893923580852072
0.2470090048179385
1.313807348241046
0.43138667272540454
0.7326937158691602
0.09193598583624762
-0.882128956186766
-0.889467112518902
0.1199272286345186
1.342324286020307
0.01866783151748632
0.47424290435660577
1.6119532376051464
-0.19939293030470742
-1.5512815395647108
-0.09365774419394475
-0.8608101957983121
0.34402798595051864
0.005284328566644181
-2.1477262906298833
0.2644810094241786
0.3373897834104161
0.7868121458682777
-0.05800491553462764
-0.6550385208108442
-0.8320491985276112
0.31928327968979486
0.06636086188517971
-1.7165853828227084
-0.36587170688922704
-0.9205887389483627
0.5834533581989687
-0.22413569369753386
1.8980906229359986
0.05405668829170862
1.1510841008224084
0.9016821313106985
-1.3092206126834587
-1.8105290423572113
-0.7324587788152018
-1.0270258374542967
-1.6328428028569744
-0.8826640571458529
-0.08818833566976358
0.05309865485653731
-1.6364909096482152
1.012790193860086
-0.24517243031706612
2.118955359818348
-0.4879002412060787
-1.2618398060025882
1.5755642174958346
1.3865311619280056
-0.931855013735331
-1.1730954210131765
0.49197830947326804
-1.6246794483568576
0.5463397764893915
0.7012531489911094
0.2661697843348376
-1.42407828898231
0.6979718446227783
0.8631995230263756
-0.3904495417647836
-1.5426919236815164
-2.0152119209558186
-0.707549853361527
-1.107631700541245
-1.0970318332732687
-0.5390171257899234
-0.42173256584769936
-1.0309997499526942
-0.5162459641851818
-1.2182454531607378
-0.20710526882091285
0.5539180525406389
-0.7284531782516663
-0.2729341629310219
0.6168692258697501
-0.42169811752338127
-0.37998001694171674
1.2096776980227195
0.4948681929727103
-0.5553587791455996
1.0765607898464573
-0.12265124479434952
0.5980010024010742
-0.017455066853173357
-0.5082175424680919
-0.6550597739899644
-0.8347007529794821
0.7001219084845296
0.08783244005973889
0.3014853771948236
0.8553203172593677
-0.8404575320113996
-0.4754439941777196
-1.0740475786228176
0.715873418629198
-0.21299931274086537
0.4770916810588383
0.7782826813424415
-0.5032548842778024
-0.5606889993117203
0.7620406206446317
1.6309844369302309
1.0755131868138017
-0.6409420155051333
1.0788856523141848
0.1445322408452856
0.08033950686657179
-0.7673158612724564
1.3851771962350243
0.7393161376629735
-0.6450118740531594
-1.4396497621285596
-1.2304521738783156
-0.8166560948814297
-1.474000988533303
-0.4071181804423332
-0.5932624496430714
0.7740332967737348
-0.7836696078947755
1.061144919406877
-0.9329300027569376
-1.014852492739963
-1.0977933009012684
-0.40854580771607346
-1.8362298378103166
-0.48428129893511973
-0.21562253889822658
-0.1433015632137271
-0.919197290425059
-0.13692557500015679
-0.2544475077360282
-1.024687160980205
-1.0102642392804064
-0.7064258434459482
-0.612795876692738
-0.10738841465165028
-0.3218315514519592
0.4400596474941119
0.6826643990420341
0.26018856566357834
-0.8344642224984604
-0.7782671780892163
-0.4174211039996603
-0.9690772524332083
-0.04994073385177089
0.3399347433236348
-0.6824703003766007
-0.9479750763996934
-1.3695696180744144
-1.1104526263198917
-1.0438487409727255
-0.00158618297530988
0.364571334475448
0.0347118712103031
1.7481447516143676
1.1734377339758706
0.9481544747151048
0.015662764010511088
1.1204318858056983
0.38806180624476216
-0.150317089615566
1.4150933124601073
-1.4097184052691802
-0.7568465473740894
-0.7000799966697002
0.08309257135743336
0.027934527138705117
0.20015832511218312
0.0830867019324234
-0.6392260691313931
0.8452172985587498
