0.23618331271924986
1.6720178518329853
0.2301610351377757
0.9032515857622663
1.6551743710531412
1.2716453984618408
0.9856744736866658
0.8470169058874338
-0.053830969445318955
-0.7090296628778405
0.7057177226029705
-0.6683497926943716
-0.6062387737447332
-0.68023950572828
0.9398990434273118
-1.0474113072467959
-0.7106547275003264
-0.0539841164015903
-1.7587903116180081
-1.3323557979739666
-0.552683092745178
-1.9171292971099294
0.07238068810337234
-0.5724916203974832
-0.5940737763768587
0.8727837993791008
-1.5423309064306459
0.73797696095539
0.39420440609403745
-1.2553820567783647
0.9042012942203195
-0.4675901080792376
0.06261807658485102
-0.11375288532437507
-1.6952319731882344
-1.2587254642145511
-0.013812261056468461
-1.2144035396982948
1.4991945249972198
0.28033241734507286
0.6343466504675976
-0.7914788510883215
0.1478404133112271
0.393207954859338
-0.34562146969423313
0.16339034781234507
0.7747493992725134
-0.5038243042615017
-0.5459182993398394
-1.3392811312277124
0.6800036117943049
0.1699761112700249
1.2294961467674095
0.32774249190084137
0.2513927221191109
-0.241263788993762
-0.3590869722282809
-1.3329728537761323
0.9079245881105941
0.02480494272850331
-0.9058250287488341
0.9107090084802228
-0.2320111412975876
1.5173369473112293
0.44966985868843284
-0.3966412102717384
0.4114229653849637
1.1628166096767547
0.9982335629883923
-1.6050246373019252
0.16526501785869147
0.21907610378329667
0.29013437336217973
0.4611100585963872
2.0439941379226862
-0.6746122049904983
-0.6854103997480243
0.8746560056826385
-2.537570965287428
-0.6230653644903253
-0.8657124125910131
-2.003802434202873
-0.009400814242082611
-0.1940925932972311
-0.5019675669026165
0.05035736609897845
-0.43736972449270606
-0.9423468270277273
0.20217156935676442
0.5630632806608966
-0.3697725581208405
-2.5351873719738887
1.2831088408051823
0.5118847181611674
0.12558511953808746
0.6845833110666806
0.5930552031336199
-1.8256491673509159
0.07202406402368754
-0.33339715416846316
-0.13982730550971748
0.3683430695736727
-0.0671841882772709
0.5696286885477229
0.17145837005833736
0.16157773595000324
-1.1423093246359826
0.2132084951978948
0.09122259274189848
0.4757872803249672
-1.0584540622899206
1.9502474572033264
-0.7539275653415877
-0.38851264445472056
-1.3633198087894591
-0.771390599048507
0.1636301862302501
-0.4149419953172504
-0.358292934123857
-0.2843499065122666
0.18564388795548786
-0.6315589879367927
-0.791007229708139
0.7951563974764939
-0.5305889398656887
0.27890953147513575
2.188835354462656
-0.3051136532578648
-0.9672595789108636
-0.4732587318646831
-0.7922147975989906
-1.0050969736523985
1.09675770364496
-0.5564798434009377
-0.29346252010695617
-0.32144186208466496
-0.7979021576894104
0.4155111372325586
-0.6223182698944594
-0.19060459392978024
0.4317665379303553
0.30181013062069
-0.24727609003280432
-0.6184578778779473
0.2780848126761284
0.18784851040354802
2.0143582399796216
0.6910554043460555
-2.320657343464073
-0.3465013194780009
-0.9976008550892118
0.4295350275045927
-0.2339308469961452
1.102959810161828
0.08305441823909443
-0.7913254978017478
-1.4674276634120118
-2.231057560692483
0.14525151671100223
-1.6883186311171094
0.6850722937672281
-0.6236327118330182
1.1032189012258313
-0.2987368544143705
0.9970289710064275
-2.0240324383344035
-0.5008680059297406
0.253542049761881
0.19894305269864287
-1.8200866452820423
-0.9515546006837439
-0.07459082063550881
-1.370374298204961
-1.9851666479208763
-1.7363222810199959
0.02241862213986967
-1.6503000306012157
-0.4571341273234111
-0.04700009366498126
-0.3687872197068978
-1.1052308792733443
0.47016431689433963
1.218981299783871
1.7747091026429196
0.6176537239958683
-0.9026994008399767
-0.4279570235608892
-0.4980198739750925
-0.06450403123725801
0.2422127028974857
0.09117327838254607
-0.013189313440022943
-1.1749266760900148
-0.7576979587246528
-0.008684274800421665
-1.6741785293387819
0.6054628157869878
0.1370168647951553
0.4134432778960852
1.2857735697052153
0.7093343394005757
1.0955733659265523
-0.030464125038792922
0.579184595016755
0.5396162465200858
-1.646919235852617
0.46891443595412585
-2.4380799887692937
0.24707309435139266
0.08323309724881728
-0.6230853251226538
-0.07133212596516246
-0.04895966493702758
-0.7350786753403147
0.38084906617174563
-0.24499564640426783
