0.48389479831690696
1.5237185472477515
0.6035651566775642
2.4896893375679268
1.2220699834609963
0.8878297170751217
0.29412352586246926
1.4312500134377122
0.2030695902915673
-0.6331478875643244
0.6926119474705235
-0.43857210945564346
0.7682651038886179
-0.4914055103405592
-0.3591532845330375
-1.1737070495012074
0.653746887672424
0.7312606683766695
-0.7326620566462163
-2.273724243422775
-0.1332641790585461
-0.40534702949026424
0.8434997819736454
0.5769572836478549
0.6164108601415881
0.26095121147173833
-0.46568623865028164
0.87701008402987
0.2398788848153606
-0.207354657515168
2.2371180566466933
-0.8146355976100118
1.510532677420258
-0.3303036175789403
-0.8817293895130629
-1.9693950085504222
0.3276757360030208
-1.0719820802745201
2.2726728609472113
0.27899050184754093
0.5782498625310124
0.4939468341178766
0.07863862226339849
2.087861046929708
-0.9882823135158896
0.5863232754785301
-0.35201258541452934
-0.43689610772620563
-0.37529745183773555
-0.7622771088521494
0.3809749852661215
-0.2561227540817695
0.30616200398544474
0.9035501786435408
0.12983802286153495
-0.09200695471430914
0.3041828620805072
0.13125832146148297
1.4671820166675178
-1.4612496033156472
0.3117113564194653
1.227874047504075
-0.7475558741595559
0.772919629240247
-1.497739790912268
0.07956688697758454
-0.8020317052001261
1.1476599373457002
0.004290207521769354
-2.42289976996692
0.2787899174073047
-2.084711012212032
-0.4870707870232015
0.4845199783275782
2.127410182698823
-1.2485292724053132
0.2662846236248902
0.42661774913127154
-0.8551265683520337
-0.45075426205624747
-0.0998243953902237
-0.9876805012559313
0.28407939623302003
0.2788013573086606
-1.088975039257191
0.24611888857643927
-0.72839593966405
-0.04006435223669613
0.5538284380719369
1.6080072264512923
-0.02871723494334618
-1.3723566088317767
1.5427861901919104
1.0792003888317816
0.2779435227728369
-0.5851770990449436
0.8077694789931911
-0.8401777594543727
-0.6874520269728386
0.2828532112555029
0.18103395231622724
-0.10719049057522267
0.369392024621312
1.4862621023321263
-0.47019878057733444
-1.100094409857981
-0.7111159968840348
-0.2070295190643165
-1.1255558387251468
-0.25392372826028003
-1.69883464999876
0.8955402221759339
-0.9385068329000952
-1.120249460994231
-2.3069585636471537
-1.0879067057347989
0.8039766199402144
-1.6960846796004219
0.1590746440063424
-0.0874485461156419
-0.4036108242218085
-1.3181381497926399
-0.9213265881409636
0.34459720233161295
-1.2696823822688699
1.281957758849073
1.2971148850934657
0.3097934847497054
-0.26141431473125815
0.006610713448348071
-1.3634237938665166
-0.28748596021800304
0.7177529737222338
-1.0158078613444137
-0.153189362949495
-0.5506029245964557
-1.3973163870180736
-0.4233959120672327
-0.6629448851784746
-0.06509019254115789
0.2761565248665892
0.6531589600999863
0.3057382913153961
-0.7181724116831036
0.495923106360319
-0.11206895396511758
1.7519502315083215
1.9191623663178647
-1.1302711506289418
0.6460622400593306
-1.426984901109436
-0.11379245737035383
-0.7388366166179351
0.48660180428729793
1.0065435591700183
0.14543402635550362
-0.7276081503777927
-0.7067129873932193
0.28577688575837273
-0.20879273989756197
0.008616704924444663
-1.4535668176619327
0.7181173673691942
-0.3399936571843528
2.1855290395898077
-0.21065276791698123
-0.7647211401066024
0.29664260626752714
-0.7484975793404569
-0.7770822011266698
-0.8048169691788951
-0.9748092451808803
-0.857263445397121
-1.2282768410694613
-0.4346899387037942
0.233713065808846
0.18991005058933963
-0.41975532318777686
0.14291370222547417
-1.344415127165505
-0.7791862650914757
1.034162773681796
1.1087261594592366
1.2356683802279014
-0.5650222931246099
-0.35056052801157944
-0.9124212036286264
-0.6031909206011824
-1.6303822733521596
0.8082137294057226
0.41867701395080165
0.07986780504837865
-1.223236503792953
-0.14722755494132922
-0.3233155395827404
-0.2627590597709384
1.2402388275029093
1.350163296829114
0.09151939485880191
1.7463171644392084
0.21204979813415176
0.8729014057671476
-1.8416218961801523
2.0691141341981494
0.1718609482137284
-0.6799532141600029
0.535118793398744
-2.2467948966931925
-0.6353240597568645
1.121324959843271
-0.04360727804887754
-0.42484270127957224
-1.2443143790578042
-1.5898626573041859
0.9467525186117
-0.16774208243600874
