1.3591751844243736
0.9882903862619608
0.032785701529219724
0.24110244418395044
1.4494580129260575
1.9932682624582359
-0.5741330489235899
-0.5853718921281214
0.37875159700179317
0.3064508488120627
0.7179571987520037
-0.8050635272315163
0.15579946923752663
-1.0700705920207407
-0.1989902796021906
-0.6644140475701537
0.6197003761157047
-0.5011806026505005
-0.9100814107327289
-1.3971568018158547
-0.33616562592494453
-0.7528345044786225
0.6894160307615212
0.48567082371605513
-1.5268888797420321
0.8123311597183358
-0.5004142251140185
1.9398878587340764
0.4747653345834927
0.24177564910065924
1.39899359506192
-0.40605960779898237
2.089929113622278
0.06313728199870913
-0.3629802501337229
-1.6776913140171885
-0.21975745086421708
-1.1942921172621301
1.3998611679313646
-0.04633221770666958
0.5369542617341004
0.044584035658103816
0.14175341637977884
1.3564820621549079
-1.1946804333172625
0.6433917535981326
0.1916834287537627
0.26414019431521374
-1.4209478995976195
0.1309464217792505
-0.055339249122949186
0.8499044344133556
1.1215323087227917
0.5954525063196774
-0.2038527578124758
-1.0939142213295068
0.18337137157764233
-0.5250782022989036
1.1246334803504747
-1.1651844069467268
-0.0975394135588617
0.9786252197155736
-1.4807059128780606
-0.37991409913393304
-1.1777969498964904
-0.7684906647045062
-0.26572136788159206
0.09517973066062257
-1.4683580085687127
-2.2004067693884943
0.16906746953466406
-0.6432235589745146
-0.07628278712509418
0.6423234891919669
1.9287281507427587
-0.6107673842115168
0.18052203883032292
1.137420341532792
-0.8939193334274704
-1.1641529230898535
-0.6433975355398261
-1.9944935251976461
-0.4005736172510606
0.16620037210228764
-1.0787147778327129
-0.9813601926566609
-1.0050355111301768
0.5392998285084327
-0.8693138456906551
0.9436870491035889
-0.17832741883321007
-1.129130808143937
0.8150035300040168
0.8959798889071704
0.8999154025544495
-0.8832978688143616
0.9508892766437362
-1.0013213152644207
0.6202011512559522
-0.2721864912195997
-0.26314009979286923
-0.20898884810510532
-0.22758653435961398
0.7058268583268752
-0.7568775982154304
-1.319688928533537
-1.0146229769849704
-0.059017843206943754
-0.4187968710695755
0.4700465356845286
-0.669560885058113
0.6311431448062366
-0.523788315374874
-0.2607279382938221
-0.35161572769544935
-0.6140958135297523
0.4704205510025117
-0.1262939381771085
-0.2964108554490127
-0.40120043867660304
0.5718734920191774
-0.3128506323084382
0.08399799116675197
-0.1825603337185207
-1.0030088204628975
0.5057925881128249
1.2986082938577193
0.030523131659841524
-0.10653965831407394
0.5348442152262902
0.6609307824576517
-0.06208649534467231
0.3121059773769335
-2.01525452567082
0.16513017614598646
-0.23568074065294237
-0.39044656794535454
-0.3859644633688463
-2.2037176787097423
1.4149721369001464
-0.13325347028151752
0.027907471149044204
-0.04760564332414374
-0.5934320732797569
-0.08063100329325998
-0.29962282660173906
0.604168048320838
1.3431754820868496
-0.6665947170269512
1.3943221630591989
-0.5860836362788262
-0.3152390351750729
-0.42640923639192896
1.5242177575651659
0.7558097628014003
-0.17612404264283243
-1.441121383126423
-1.0348903929737558
0.43762233923991933
-2.0267492301929435
-0.5862821516936528
-1.092355745735686
-0.19737580531187193
-0.03958825856662129
1.898328297698973
-2.0350685607680257
-1.3513138527020954
0.14219411218890565
-0.49547271774257495
-2.6204659566539448
-1.1741605936528048
-1.4456834565300851
-1.4052621547824482
-1.0239502307570323
-1.0645646804563542
-0.82980531229839
-1.1531294535871908
-1.2994524334293243
-1.733266009283975
-0.8853496331098336
-1.1268117222018517
-0.6059677157842664
0.6518721022042862
0.8885521106749719
-0.023234281790818795
-1.7320709502379814
-2.0496082625189915
-0.33304516702000586
-1.0262421017635486
0.32429951075932223
1.8219669399694833
-0.8639596942078672
0.10872286049265878
-1.1378928864875428
-1.454061917589046
-1.5802997061274873
0.274843323171089
0.58915072838463
-0.11598993085724955
1.0101075330445735
0.7957051901767722
1.0521342252564216
0.22159011931201045
1.1690499955633094
-0.05330835744847545
-0.13324339051805212
0.974183855726356
-2.3323975540806914
0.7314714664793277
-0.7646673076948154
-0.09665140477128437
-0.9841408836305728
0.5078198126197165
-0.5208159469195195
-0.19699936520836062
0.14086576073914867
