0.1961051092030206
0.44610986211877024
0.06319859055832688
2.0451246082309558
1.7413833631564508
0.6628378885518944
0.02413141985554057
1.4148385357313105
0.34660274812605507
-0.8129117690868943
-0.6478183016232122
-1.9614408753293837
-0.6088937189549911
-0.5687419427224751
-0.37236253528198215
-1.0202092545494321
1.105183399897066
-0.21684868133873625
-0.26067262294459814
-1.5488167995270388
0.2111304064939568
0.19969489034177368
0.023247221486648595
-0.7709628928041132
-0.7578791552310091
1.0554621862551579
-0.559459901104865
0.5298895349972377
0.691969392428695
-0.19597164769662861
1.4487281972201567
0.6913705009815622
-0.16994237105261623
0.7176293955669837
-1.4507599245053655
-1.755245304127143
-1.1813039720413254
0.06441164029695462
0.13001859703512253
0.14258402104579443
2.2122948950846975
0.48865232325463287
-0.4175632124855962
1.9979446019898153
-0.9813364808954379
0.6379688983325429
0.8678528362774232
0.42809648642573694
-0.3988127893998317
0.4490871762358497
0.6734918335348342
0.09873331911496705
0.9259961617559511
2.200792278915087
-0.4870483680696685
-0.23551017360295234
0.5363839625864617
-1.0520045988652542
0.43499398288344127
-0.6468437962831116
0.19057768832102745
0.3182709090540149
0.9472686494423593
0.18667807315494567
-1.264487368142
-0.15146429608059503
-0.34002732151101034
0.5026680318169543
0.16402036992847596
-1.9427593763794464
-0.532755195085735
-1.8685918047845527
0.1627505962123934
0.0369570401999199
1.0249388040223435
-1.12289953072202
0.3942988867780407
0.9108357108010449
-0.5265190191923445
-1.4508369117050455
-0.8134702407440437
-1.3457909753190171
-0.6464123375591929
-0.25272650925899975
-1.4385809343250635
-0.8737385197230612
-0.00814403308375844
0.5430895712617975
-0.6964897952314401
1.3157526409300464
-0.17883554429489135
-0.41479678965776046
1.432398044444328
-0.03449993679828761
0.13441267271724067
0.69206879842393
1.2095497715588004
-2.0475694939164404
-0.10158315466448922
1.4673253712577468
0.7729254777273258
-1.0777932100566734
0.48682722174384696
0.7686442087980573
-0.030687676578227196
-1.653425033144197
-1.786506967320968
0.2577171660271988
-0.498373455912637
1.3160192625645997
0.5380759734896486
-0.17996581484338503
-0.2726882079088899
1.0522922425049424
-1.3790497356664704
-0.947607834849463
-0.7443174859923771
0.03814127197052514
-2.2494294948363787
-0.5117325609707688
0.6513296943430594
-0.574364756037484
0.14026978679730673
0.048678798072495366
-0.1650958427109741
1.7326174064956765
1.2476878879779096
-1.3010878549670222
0.682082463618287
0.4466135115008534
0.0003723849203524088
-0.7534973400143523
0.8541638531708342
-0.5075084822131465
-0.9372962019499897
0.34629860034065935
-0.1418737145096628
0.5185921981061768
-0.6936331794359986
0.7651380158013035
0.07284646506589669
0.18904886864825776
0.727993340507185
0.5582651636335889
1.1307795728523127
-0.7931430708054406
1.9401813706371143
1.6302247686764733
0.36111015209483355
0.2913474230999016
-0.6342570791599468
-0.25191382353388925
-1.6960115023052191
0.8522840061124091
0.8227415737015177
-0.43579162307063035
-1.0521983523136833
-0.9023748918480534
-0.5195884325791091
-0.5674784018267036
0.19846547259580172
-0.3746301102380287
0.1052125750493107
-1.9110601398005593
1.3973460135794036
-0.7582592571749222
-0.12756389513057392
0.2845653257467081
-0.5931109603843137
-1.6823069788868183
-1.8148395513270166
-0.6534185944549017
-0.8674303283397293
-1.8697012340671613
-0.702075767198782
-0.49960680944901237
-1.0155789885269204
-1.5155112414693315
-1.437936497021758
-0.6700149987661638
-0.3723607245555995
-1.024560604865321
-0.44160314548935053
1.0329021192206054
-0.32710733926348
-0.837838382992431
-0.4871578911626152
0.6998685890807106
-1.0947617522541517
1.0699795234183285
0.5382638840667744
-0.8461001003056816
-0.8475714543067168
-1.2463203853746605
0.3552055104700067
-1.478016519623733
1.1320008418575123
0.3014572369244444
-0.4263524881550879
0.13105466730150506
0.9250604148530693
1.4008351702354949
-0.5885666119719529
1.2525825511684732
0.01282609364242715
-1.4238418204316212
0.6915592510738304
-0.8621788414819964
0.08767913083123943
0.6218627943772836
0.5113059088326997
-0.07028658992979633
0.8386684892944911
-0.5680295286314809
0.29258142805937504
-1.4323535261272502
