0.9367056015721955
1.8072043352340232
0.7018422886609545
0.6622775774426657
1.2481579513543242
0.1862667234311895
0.3857175454682453
0.9981462926677362
0.7372403796671773
1.0334022606875422
1.584424378805944
-0.7675304971154925
-0.6712268412825033
-0.5280434994471689
0.15385126796426868
-0.17249238980701903
0.7042010121942883
-0.2285291037342312
-1.1356744762945081
-2.748715937767746
0.5508246665889935
-1.5572260913466094
0.620970440229758
-0.5384869539041703
-0.8778097915196788
-0.10297715486930348
-0.6636358518418439
0.8515429772690486
0.8453302317426991
-0.7043083376108745
0.21409872273745767
0.21527794576518483
1.4072594032562127
0.4265333766596305
-0.3214281902028593
-0.47085988994795414
0.6060232973560148
-0.7022346286999077
0.38104554933357215
-0.6304746687521688
1.8767682383722097
-0.3731268073942162
0.13658230452053843
0.9792401542471807
-1.2293907769714671
1.0489555724325998
0.5357743145035894
-0.37744320559165745
-0.26383219346703407
0.22619641045220787
0.4518435678203259
0.1150327420996481
-0.20324720518793138
0.9163824464149324
0.17321029424995682
-0.7032278725045675
0.13126042646913674
0.47724480098543076
0.9262518692741133
-1.280609269844938
-0.583663307841994
1.5201515570171185
-0.09799761578586949
1.6921417896685846
-0.3977140723766698
-0.3776824931679753
0.02238129793337168
1.1837645824407705
-0.1392745657667036
-2.8774718554475305
-0.08626049893941683
-0.05238255837231243
-0.5851219190863927
0.6257229368117908
1.464986467987398
0.3146972916026406
-0.5294511403722992
-0.15617820391649906
-0.3531733807964029
-0.39917714591861486
-0.899889525015438
-2.1855011537319884
-0.43757023678810875
-1.2335359767948666
0.23633925546670598
-0.7277777813638401
-1.2271351880911907
1.0842370716578784
-0.6940015208179268
0.688021289273255
-0.028676204202660573
-1.2891272776169795
1.95644103585124
0.6453190519478706
0.8431672181342005
-0.7965069474862517
0.10025845808372869
-1.7285681097281458
0.6241544934994379
-0.34531338941805256
-0.8378834091269439
0.10242175322302804
0.5128241208526054
-0.16918585012132348
0.3484972471380992
-1.3192229660395247
-1.1534885026469872
-0.4528709422181727
0.302677907350395
-1.0903541898314457
-1.3892287063256807
1.0030688325733292
-0.0946255274338208
-0.5654371113872606
-1.9426056091105388
-0.7573924801644045
0.4078555258077598
-0.3671843374916064
-0.9191301802489441
-0.7185364693692019
0.7554171388093492
-0.5140136997420772
0.010435814454438141
0.686312765181162
-0.16332530040252735
1.2043963342748474
0.7676974411580998
-0.4303207752996883
-0.0745525408693542
0.15616051599718428
-0.5150779916973451
0.09287733224636846
1.0069437706880964
-2.1465961548626176
0.08998188047374756
0.06593455209622402
-1.7215949122802936
-0.9403449464776303
-0.9616073987941018
1.7488412391960226
0.3359768411593621
0.7340102158987938
0.62621912609895
-0.32344187570603095
-0.13578328042205148
-0.4957759774926922
0.9345546016470268
1.3980989284613907
-0.22295402874021125
0.6647633670854205
-0.1272059056140925
0.23636037934762308
0.0929655281899634
1.233265634286582
0.543241808124227
-0.5813059697963361
-1.205557294074272
-0.6374638214492915
1.5664185372173582
-1.5692504226559802
-0.16564851786885582
-1.0125810556294725
0.23888525638985408
-0.5554072004900648
1.3270173176797766
-1.5706969334565446
0.39318330463641576
-0.7838960492824443
0.3347206760894107
-1.518214937811306
-0.9594099851559224
-0.5521398667369477
-1.3293445601295564
-0.8225812544488169
-0.8979976906663723
0.08817235948319735
-1.0670070766967708
-1.622270921451445
-1.068810640343001
-0.8154954830717578
-1.4114165592718195
0.8687448749139732
1.2680461201898687
1.8746393863514639
0.20137739857565173
-0.6197498904730556
-0.9704091231996104
-0.07364225202612706
-0.5175519713446971
2.4739970317932958e-06
-0.14300626702632724
-0.9325534606267533
-0.9082637816912944
-1.6269520631841248
-2.0325661799430117
-1.851056522109861
-0.43455258296237265
0.506166028404088
-0.3039384366247824
0.5472110576059079
0.4422338620608621
0.7438925587432724
0.46647126102909264
0.6999476133268232
0.9927190047937162
-0.9914642721901787
0.7223225463167032
-0.7628230873959503
-0.368295549634321
-0.3928110733940333
0.9572973827693709
0.01978719878022986
0.18025818399172483
-1.200998503770935
-0.31207056190960136
-1.7522274414540286
