0.7827646729493415
1.0293862628236303
0.27694362853338017
1.3162642075194226
1.1257985448081584
-1.0817653877970923
-0.4855856147742794
1.0599881140968548
1.1448383048181747
0.14018512340156478
0.23255784877634642
-0.7928566228927388
-1.1173835109071262
-0.7167005901566795
-0.28635601105960184
-1.05320810795017
0.35371409813162213
-0.11746584735767482
-0.17586948877246594
-2.228418081293533
-0.6158545930000145
-1.5153857651470155
0.10526224750170932
-0.07690141356665268
0.521912149538091
0.8527804104052198
-0.9964979054609198
1.583276515577531
0.24040697612045497
-0.7909527540028471
-0.252153835359919
-0.9116072501426327
1.0867760820869588
-0.4843518170611757
-0.5708267910312667
-0.9695126744806061
0.22536656322805865
0.08567677988165323
1.1063778291234019
1.0998869706868462
0.2826640733720884
-0.3364108949891432
-0.9472393882939831
1.186986589988803
-2.2454421821276007
0.46854933973582724
0.4115776031671142
0.32635861318727677
0.08013216501867282
0.3004716929845338
-0.5705551535114666
-0.44376240129109606
1.763638282197692
0.60634895373088
-0.45951134030255475
-0.06177732415420484
-1.3194560250961174
-0.4806100991636325
1.2574109567221754
-0.8774253161853739
-0.8406527082512041
0.9931853496926177
0.12499422507074165
1.2518077478338028
0.4072035966192746
0.3106230632842839
1.0681874944183845
-0.08037825100354123
-0.5414782903618196
-1.8066236674788578
-0.7610960990246619
-0.036883384626844706
0.6919169264353642
-0.8235297811885618
2.6953886919822496
-0.2990790363991586
-0.4305860427929255
0.7913022941663554
-1.483698202841036
-1.8149607752035979
-1.6726636988114745
-0.24616046168065253
0.9062630345152248
-0.4512817550831679
-1.8978773533190116
-0.9896261005247128
-1.0452559886090103
0.5610774527394826
-0.04541468635189949
0.15539183579227878
1.7467196590925649
-2.291016540461005
1.468875574939636
0.9939016963055776
0.24537793657417134
0.35712833977376013
0.5970520465550397
-1.4641797123627656
-0.11931566630888543
0.6654038545774114
0.1475177380043144
0.21992963146552946
0.8047552847176658
0.9346912794418369
-0.11827636636466907
-2.176287843812676
-0.9942266838486201
-0.742854263343
-0.8558541072513104
0.9810136659753936
-0.11702786789609854
1.0235091736494517
0.9770949229439782
0.05775803200615881
-0.628901335094409
-0.04560138836471972
0.30072332659579626
-1.0310836114561173
-0.7546640205682991
-0.9334194929186082
-0.5284159549798385
0.6169577876517129
-0.18179956053132118
1.0406787315400556
-0.9610495379169774
1.7319092839937806
0.7216799448366409
0.09672971770803944
-1.0689215673875223
0.532885527248289
-1.3298823032184917
-0.6437663632014252
1.204763785784303
-0.7459785753980417
-0.43776000128228854
0.23856287390338143
-1.2205733748364604
-0.5975683411568096
-1.9678874754825988
1.0707619243766486
-0.25542184822779196
0.8962156233701737
-0.25357549250113115
0.07304076394012811
0.20776642772482415
-0.787677143372135
1.1092673497511556
1.44219437506209
-0.6778157415379394
0.43676703727405664
-0.4524051619414962
0.23290818781165015
-0.9411543276760205
1.1188599090031535
0.7278953232193118
-0.7512394114888999
-1.7953303073983808
-1.855789196173069
-1.3875400420713082
-1.4489923232321806
0.3393359832956965
-0.5165996989507546
0.5062693103090801
-0.38307444772458066
1.4988326851885967
0.4489234066307788
-0.518803583386248
-0.6331235834820116
-0.6457680222592304
-0.7741281799669587
-0.6974509789236065
-0.7293629956277996
-2.0181544959446285
-1.1912393401370494
-0.6612661638463747
0.12030385949561351
-1.106732934258432
-2.2841041593089173
-0.04993520511799343
-1.7584737643019714
-0.5059309456380889
0.4067518043838056
1.739608254596705
0.4740810389040039
-0.2460108488632222
-0.5270813759584759
-0.23520367617100224
0.1318932448841572
-0.3526420826543497
-0.014369031980552838
0.9349631848040535
-0.7612334774631709
-0.8394828910864551
-1.1366928995278351
-1.201892281080848
-1.358336526804678
0.07529188817265331
1.1918776543867553
-0.4347275558653444
1.584217377712841
-0.024498121974769416
1.7844425268847257
-1.2812951971232909
1.0695913443481968
0.6750863733508075
0.06077812414992578
0.34421748360422355
-1.078220402597696
-0.834028700167129
0.3246284046671245
-0.1497759238587396
-0.4270659902088759
-0.6113835888200321
-1.83276755225994
0.04130681818227656
0.48754275226307175
