1.2815852314794858
0.9056526213736915
-1.005724930473037
1.7787546751280279
1.4553857892854543
-0.5305219229080307
0.47917815185275425
1.19315950946949
0.30525210803296154
-1.1838755837601782
0.2357682613753066
0.07453394657226231
0.5217233440387601
-1.0215430603312488
-0.3364084471990937
-0.36500100282821846
1.339095309236398
0.05945818757260149
0.0989649929955001
-2.0809449575858707
-0.10684106875429442
-0.9211773991930885
0.6260011467004867
-0.9282186269053894
-0.013123641452701118
0.6306838452396448
-0.07538202893124957
1.621394835202246
-0.3296666999583706
-0.39331157208106815
0.777483074808345
-0.7155203644941343
0.07329033674220953
-0.8441233199167796
-0.7972470922845112
-0.4394914965300717
1.3108013693827891
-0.49799567271108225
1.8011581969197878
1.1571913019017936
0.18380402611411983
0.3154153035944807
1.0516366725542117
1.8507363178283245
-0.167623565801314
0.9128906304035812
0.31208210547786247
-0.4823318443905165
-0.07843689872552173
0.19729425335741377
1.2523052058486794
0.25548184614189495
-0.44913485425212185
-0.0018612234030983554
-0.28236127943478717
0.5904993792655602
0.4252843627927077
-1.211496421782916
0.574434275332768
-1.0397355155097905
-0.47218218083009633
0.6271257830081098
0.11203949137596997
-0.20610538311968485
-0.8973239476301718
0.1253507480966395
0.2513487319845507
1.5702408882151935
0.12865684971667668
-2.10860474001692
0.690994244887257
-0.576720151302187
-0.571977580255158
-0.029796580385094695
1.413065819181722
-1.4746769277476068
0.5692495729478764
0.3834634569599274
-1.5458861287637606
-1.3197102202321267
-1.0338733903777717
-0.4877466838668968
0.20835338488942626
0.6647846935411338
-1.6682058149887662
0.20687038735707985
-1.008179750727298
-0.12348548515069324
-0.4818820738194971
1.9811932414249207
0.37527040122573363
-1.0256718186793912
2.1777991640802643
0.668739333270109
-1.5355156549889257
-0.7871240277361999
1.519216986165438
-1.740652843301374
0.26818081901804625
0.22881914627036165
1.094696662171076
-1.100589400140994
0.4142744484879789
1.3996779700052655
-0.9939148673394582
-1.1994335633827486
-2.1097182952908677
-0.31981818308801613
-0.3873228895721309
-0.08401653798024838
-0.5277126295718718
-0.4398092759074701
-1.2502727755129983
-0.4670444666374486
-0.8937480106469694
-1.547363298186161
0.35382878324741923
0.5850096493626258
-1.2713064640076874
-0.4370480706460428
-0.9606293032646076
0.5251539519863639
0.6471118139475847
0.16771085768378585
0.05411959783619369
1.240373304595598
0.7924972284468959
0.5506804027859258
0.7252388277040098
0.6407704985617553
-0.4494647300438622
-0.5491954043806205
1.098609297562421
-1.6377964505840172
-0.3434321826531227
-0.4371409502153458
-1.0519170931970039
-1.3383020174701028
-1.0079267797596732
0.3334621993012215
0.33529190417072197
-0.5070395805703989
0.8224575052534631
-0.3823632688938173
0.12435782592486386
0.011205292404453164
1.5009343157264885
2.231600113211352
-0.34441500669561703
0.9366517925765743
-0.5949442180093896
-0.4706686135674264
-0.0753800006484261
0.9534254005798953
0.770311560592293
-1.1225526936350068
-1.327642588841832
-0.9723800537461165
1.6266395978123536
-1.6009937151815679
-0.39039023274832896
-0.031061882095147986
1.3309307920789406
-0.20490083996563258
1.8087397375309324
-0.7841356141839867
-0.46306149058318896
-1.1891864115743416
0.049725296512521444
-1.1016115439588128
0.039443610596207934
-0.11384182104787821
-0.17886150927866384
-1.4497631108415563
-0.3730189863190468
0.11211907048515701
-1.008762566058994
-0.851331174567383
-1.5033291146947247
0.1360805120590417
-0.7703234518455746
0.7542259360763608
0.7061792279953315
1.390292290652634
-0.2928117588090998
-1.8118838620439623
-1.1836835407290058
-0.36374834472489437
-0.6860687104487992
0.02002382700245664
0.9445618952838574
-0.6279969367588198
-1.473216745819205
-1.097907759903837
-0.3984301116961426
-1.4603559703630387
0.6429121451802101
1.3380745458644676
0.04898420323417228
0.28175529699563884
0.7850694814740474
1.0361762280431095
-0.9775197570372466
2.018471236913011
0.45278988807485887
-1.8713139292679535
0.8342682878996448
-1.9275230590373256
0.17436553176660968
0.21656870767520406
0.4446486528423025
-0.011585646023270502
0.5970369441472285
-0.9271084736310836
0.18422633935559823
-0.7259771590325904
