1.0359500329957108
0.8534765724808556
0.4946895695591148
0.9979671199926219
0.437692883809334
1.0371376891099906
-0.5859771515477994
0.6103890440156705
1.6047610599447553
0.5294169798496074
-0.2802468879011171
-1.9181224393358138
-0.08735741979010175
-0.7613538086951479
0.5285071109958271
-0.3257890481874231
0.49608748185289814
-0.516159177252413
0.2881174251038917
-3.057916819628055
-0.24125833790059126
0.09459204970751589
0.9404200012074937
-1.3339633721985786
-0.4378969393176828
0.12893772643775236
-0.9698828340337193
1.8525663078568975
0.1553557633965555
-1.4812494140970025
0.9894713782664926
0.5306402570301041
0.16832371867204576
0.06351980289766107
-0.445444288022039
-1.802350878993427
-0.184210053995267
0.45494322684248684
1.5092718102094973
0.0035803267842069303
0.7267635504717045
0.046734935153634805
-0.5716076375608554
1.6029318164219326
-0.707655393323469
0.45423020094809063
0.726328296150254
0.13273836337123424
-1.1446371085601141
0.1881236295149164
0.3423782109974687
-0.3566370390605937
0.6492338844648867
1.295103555368447
0.5768764533307906
-0.5374760746806365
0.6718501538434386
-0.8141299377982005
-0.029995300615489495
-1.24873538225151
0.24088642884528816
1.9232408345974208
0.40136503142787333
0.24790353219223604
0.23823794182576574
-0.19124229918327768
-0.5134370228117429
0.8304995920048961
1.1056020999832072
-2.474086912678065
1.0514109494930248
-0.33563912597490014
-0.6516520796851553
0.03262703218029414
1.5304615948023095
-0.10612185153631093
-0.0856553478181748
0.6998475537377025
-1.6679276147491024
-2.142362905085199
-0.879324746546104
-1.1831116390439205
0.36293824586308765
-0.6144272255174769
-0.7453670428275441
-0.4139659124971518
-0.3326039868309465
0.23549749630221084
-0.481171857801342
1.845396570808448
0.11710496760358621
-1.7573712454673496
1.8823424847306995
1.083222163584682
0.91096271177978
-1.1042130528302778
-0.8101603305263864
-1.233599893009061
-0.19701584006140024
0.7298100153290096
0.43760711649022976
0.5173070832908508
-0.30832664060162773
-0.5284983240876495
1.6245890022500493
-3.1237666325746707
-1.9585886385069227
-0.17818594800614096
-1.3787875483396985
-0.06877881074917366
-1.7229186740632847
1.4001734688322234
-1.088417464801413
-0.8333688528803266
-1.433358344808675
-1.259519646420042
0.24302281760460195
-0.08755937025563282
-1.0434349846195001
-0.8677232474934637
-0.46555526869831887
0.18328537960694846
-0.17248574229075328
0.46448248960826394
-0.3445114748902095
1.47138041038843
1.0561261460359905
0.1648263535113991
-0.4995999662968875
0.20916565930918032
-0.5503623820961848
0.31230636307928256
0.826211310407141
-1.7831889673213221
-0.9781866966773869
0.7280717593582422
-1.2954093356984375
-0.5233841056179553
-1.4686413101874827
0.27169744386258154
1.4182263768817702
-0.4119578270711099
0.3289041186893323
0.5675809985563607
-0.2528604589156733
-0.0975212719336865
1.6241929196393388
2.0123051114659294
-0.6853098310540682
2.3278508653993684
-0.567780521047937
-0.6894380569879293
-1.811446348280254
0.893627518802819
0.8214029792953862
-0.08266779067052488
-2.1271053142794205
-1.908192910821699
0.5805161058871721
-1.1988216802343494
-0.4354009044311322
-1.5660851676689074
0.16312003553225785
-0.5363480371956646
1.8984445205085292
0.20984289762266406
-0.24788185372497773
-0.8755027770043359
-1.4075099101792952
-0.3024536190251663
-1.3149356970834893
-0.6768555937980181
-1.3194248758961158
-2.6538434920766028
-1.402572764277806
-0.8027199037939161
-1.4907552615187125
-1.752605637282456
-0.846785734116983
-0.6825237223327931
-1.1256712344774313
0.13121732880488746
1.0740798669812393
1.981512955148891
-0.8347345636102861
-0.8475345532573498
-0.5145313732314899
-1.8573863410635483
-1.2746787475354857
0.9644530129347957
1.021905117494072
-0.7377822785141434
-0.342224895851335
-0.8940541386170712
-0.6580388711858123
-0.8766537699693606
0.41291565277170594
0.4810897041302331
0.3650384125432732
0.8062127515151095
0.33327872714440615
1.2730190765194145
-0.05484173799059788
1.470987820151982
0.9404751512760521
-0.23342027929322795
0.5325285282669245
-1.4258581217212392
0.04364843672285161
-0.29613223231291663
-0.13405424266807342
-0.8869009145649316
0.7937656593302367
-0.33978944018404883
-1.1593810876572477
0.01798988318457899
