1.5927953647981667
0.9176768443966782
0.31506226609845733
0.8981309202840134
0.7718383211761447
1.1422863507396364
-0.18878297441420322
-0.2836904056347712
0.37615444061883074
0.19429482503247414
0.403336570358352
-0.20889448006072198
-0.4563881784004561
-0.9669415270375452
0.08359278371340667
-0.44483287430254626
0.8396880566935023
-0.06655532598837587
0.19867161044036574
-2.2316149102383873
-1.364558367477026
-0.822503206691908
0.6487934383985359
0.35890716663341904
-0.9120180351653906
0.8515141391022973
-0.4097996706172618
0.7556497640612743
-0.2513318962016191
-0.3842837618031708
1.3349706113779782
0.7134909501758552
0.289108321240517
0.20337547127885025
-0.42753939032338956
-0.7801695639369466
0.01595144601529705
-0.31083098821655886
1.2369423931641
0.5141059153132828
0.8557364860884107
-0.10459838233071371
0.4161538793422421
0.5291386804814817
-0.9199907081222751
0.1592345084259867
0.7388615870890157
-0.7216839975738921
-1.005485558072687
-0.5215367446780824
1.204111403012274
0.3863957956758678
0.6844315196092315
1.0011299500250612
0.5380856356031751
0.4968922080781242
-0.5871650634317298
-0.3970771278338641
1.3831388269515914
-0.6275116819461898
-0.8582871658743336
-0.07537371195218767
0.1287381224117169
0.6087516612912074
0.32802372306747035
0.5287414925510385
-0.6139311197861702
1.3527772678532408
0.17658279821570125
-2.170524289865521
-1.1396087672805866
-0.9028028190685167
-1.4499292193007856
0.197227446671903
1.7605403971460922
-0.17028124077891615
-0.10211986226597278
1.594892194387659
-1.5212510356924374
-2.083364516023309
-0.7971593598587318
-1.5837746161339923
-0.2307860613497969
0.6363065993749176
-0.7133726525048224
0.9623676022809988
-0.23417094746699463
1.5186979493486186
-0.8269059951737557
1.5717589984484999
-0.10413180670586315
-1.5555511972403573
0.9228235452159711
0.2853229959564646
-0.14956634742468944
0.32505294250804906
0.9853985618823571
-1.3614843580069529
0.23054393175212706
1.1503320592355109
0.4949754310132839
-0.18658478017608543
0.8851605743240648
0.3088724925881684
-0.07108009831477685
-1.4529803738056437
-1.0719342813891073
-0.1756520776486224
0.8089464867861318
0.19598078679274028
-0.8843975379108459
0.38620773983168244
-1.4460318293362167
-0.9588088339127337
-1.3650217530197322
-1.262500891812011
0.896148761485376
0.5555598612279262
-0.5987371958674108
-1.1880801231443419
0.2008673185513726
0.9816648267347461
-0.1987393546713826
0.4634914817898211
0.3876156865635039
0.7279312722868845
1.3283315195031704
-0.258869029029521
-0.08382615909294809
1.5766275992020644
-1.0766533001879455
-1.2607641477569362
0.9809940848645882
0.29373565875480634
0.12890908320498345
0.2186422803758678
-0.12930722699743213
-1.4015713259152487
-2.3231782620012207
0.9107993120516191
-0.1313883568008994
0.041291717030647664
-0.5692579033748857
0.7183144654738289
1.016017616126915
0.23864404203563894
1.1854010806544477
2.288031601011836
-0.9435604909309072
0.19686778777681024
-0.7253406315544761
0.04921012337050104
-2.032420813143901
0.9057899611171549
0.14756131361876568
-1.1793598755402575
-0.928033747082139
-2.3066638039069423
0.41689396514692456
-1.8082813155660062
-0.767040790827437
-1.2607250269498547
1.0561691551486803
-0.2748996897523852
2.090040097041575
-0.9331052976954957
-0.8481329315348565
0.628728430638473
0.05764440269769466
-1.8176527316290667
-1.8295381759256397
-1.4589647381552777
-2.101641621684747
-0.9900633347374882
-1.279068985088722
-0.25311357034236565
-1.320424622551005
-1.3684122587544214
0.3549995166748331
-1.5181443107102366
-1.0073896593887552
0.2167987811369822
0.5819387683868877
1.239282214797963
-0.3790033216938282
0.07563281941811828
-0.9099808139553941
-0.43840121812880833
-1.4219088966197169
0.8486258467252188
1.4318602513812801
0.5648512070866758
-1.2352947291854626
-1.6755671449240115
-2.269681258868937
-0.551649422374405
0.9732738449169449
1.146049857321608
-0.17551621173162574
0.7240709558976486
-0.6649642540579404
1.1686644759365596
0.2576523448141669
1.581460755740364
-0.2915240076671726
0.865622033848806
0.3879563712555002
-2.0525826786004853
-0.2729909005445741
-0.5482665439317211
0.7471374399475323
0.41719507368885855
0.019005154295655323
-1.4105342940394965
-0.9691437736415207
-0.6142044620869375
