1.2185380462714184
1.8770112365721838
0.3757024004629228
1.3439042651914763
1.3013789813576135
1.441636989259586
1.1859101156873832
0.8987105221892293
0.6860698490824235
0.31250657939974824
0.8142984269988505
-0.0526546905517401
1.295480057963
-1.0977374198448129
0.5789557838058024
0.14950281530093934
-0.4748826516112752
-0.14359066134050744
0.33874097025073147
-1.845573121280805
0.4921638099449885
-1.6460060679857205
1.4222610692149196
-0.2690723910816354
-0.4302244068016929
0.1158763899619703
-1.084699609092679
0.8757723758561722
0.03367737995985526
-0.6096087459947394
1.3115231598796213
-0.0946218320229956
0.6596654362016793
0.2088786557684648
-0.5476122817590229
-1.4432616471607822
0.7247637218247094
0.37182584859190254
1.1557620849075232
-0.23525998631936007
0.01714369599082144
-0.4406121675472985
1.2229006868674088
1.0412517925046654
0.7737479816559483
-0.3254693077645622
1.090848091784991
-0.7434010898334511
-0.28606340822609716
-0.6400887144354642
-0.31881254806879444
-0.8071676070055751
0.9660850088979314
0.8530779434835909
-1.0494277079035819
-0.6161457313185432
0.3336071073457196
0.9227523296541867
1.2302681896375562
-2.027320634363517
-0.9839471819690642
0.46085343034069215
-0.35355156001435056
0.38703257130468416
0.1607950316064552
0.8928419823193392
0.334721509976708
0.6066635124950512
-0.40159434168179703
-1.5995174717016583
0.8450109517120089
-0.8622636904486298
0.3013011453160416
-0.051732374225193445
1.9662415219692406
-0.7543556087219623
-0.6864322127717124
1.4295004175158394
-1.856551896661731
-0.5928369304157902
0.23096247899088163
-1.8469741041952699
0.3149786285698388
-1.1098140843745112
-0.9008993719298048
-0.18251820746679576
-0.41583008487788287
-0.004611116922334985
0.5945101370962722
0.13582978892488173
0.35586573308718095
-1.57336199127852
1.489471613398128
0.11611801551662401
-0.2928293380168379
-1.10148054491627
0.10338351160102743
-1.4440231174827138
0.8808285487341758
0.3801737848270318
0.2072972035354618
-0.3119298669420319
0.17110034486050005
0.3196185767768789
-0.8508153248373908
-1.1988911052641533
-2.712359467179353
0.676519453565603
-0.5792318897533019
-0.6068948925079656
-0.6526488440312861
-0.3728425431809742
0.384542940585869
-0.3960614136812195
-0.9390413769311061
-1.3763924310559326
-0.01804395851017293
-0.9031555199594129
-1.2381517992081794
-0.8536550080005328
-0.1895174596797122
0.18200363252511098
-0.0474511796722418
0.23682042347028523
-1.2374895139106465
1.7419158552752736
0.5957649207556449
-0.6465549704192232
0.16401196739387297
-0.12111846469860005
-0.6052904391278349
-0.8053601101223069
0.7724402856793696
-1.0680128244834863
1.075078828802631
-0.9066691384276858
-1.2453109856001208
-0.756167148418883
-0.9643284176986089
0.781702724100001
0.33589905292971506
0.9743092428000739
0.23811106487051903
0.029492137197558888
0.5322857599732231
0.2975262354194437
1.785823314015492
2.3203487928423696
-0.5998933265001966
1.3026953780267374
-1.3139476753043682
0.4825808308831042
-1.7354305164692163
0.979646053846066
0.03219984094009898
-1.1134562194519058
-0.29527892261627553
-0.7503226238602182
0.06313063913254224
-0.7276353514729219
-1.3614031076128814
-1.3511259396568245
0.7423692717655876
-0.3796368382779176
2.081166654966971
-0.04721561072929481
-0.6955557838997759
-0.9427881052254108
-0.2316777326958045
-1.362320518394365
-0.28368059623069786
-1.2360351016965214
-0.8528073038719597
-0.9001037155459429
-0.4146946391658022
-0.1919963602116191
-0.392901920663284
-1.8803584386190448
-0.9662355930690373
-1.3625856199919133
-1.5624776554964517
-1.3769421895486937
1.4852017268534414
1.8275645813966674
0.8924435218016066
0.00018265384887428127
-0.6617636178419123
-1.3256100875792094
0.1304581061937815
2.1771879465143082
1.2941171850948086
-0.9473377064241634
-0.5375221633943241
-0.44107499558682195
-1.2454516738586818
-1.8121763661720607
0.7219444321328518
0.7427703165223044
-0.6387841480348907
0.8622672040067094
0.009019353921232987
2.6120685544546025
-0.7579028937130112
0.9403956292047346
-0.22675844259378847
-0.40824054691919
1.4845105277358737
-2.368865913529957
0.8457919101354227
0.5901033431010425
0.17206251572807685
0.2691611297685622
0.009317868551194498
-1.08121526123494
0.5987771353079487
0.11413935770024722
