1.4365141002142066
1.9985312920927671
0.021224071162789238
1.358455067417076
0.7762375990665648
2.102854404634231
1.8157000372498338
1.715631722733694
1.1662279397277022
0.30781230442035246
1.1124950356099805
-1.2189006258983828
-1.2143810129030197
-1.0319493798519468
-0.41009477230898195
-0.2802167491633461
0.4682086884612012
-0.22189938489031075
-1.6930208031006537
-2.0156303017410173
-0.7617883526458362
-0.7474816132065194
1.016679137182528
0.5315327354442461
0.05888456556452257
-0.14467859704641894
-1.2938883946707085
1.5226713257025115
0.6519971607178048
-0.014902611673694333
0.5515694014188349
0.5708743827169063
2.233672438044863
0.7595345575557514
-1.5990036956349134
-1.385139753033049
0.7953664677525714
-0.3687460267532545
1.9616439789611508
0.05738574743727502
0.29165193021612
-0.3614662325481265
0.8405232572186749
1.341993839433492
-0.9968871094597108
-0.2910705751729292
0.32891299300065924
-1.0534713106858216
-1.157816261946025
-0.7757206230814805
0.6763752275510815
0.06998255992636987
-0.06883485578412085
1.5274440048619564
0.29783717964909995
-0.026676870144493936
-0.12294679565341395
-0.2122205855930114
1.1783955401355757
-0.9828146869748997
0.21826247380534075
1.0856530840764942
0.7257400990143084
0.20991496274384536
0.38246695124949043
-0.07200795978146118
0.18596235462467536
-0.5202558152904466
-0.46710835896465513
-2.889223250302918
-0.36169751620781704
-0.7756695609290516
-1.1069744610254535
0.0859565492151133
2.1583418633363096
0.23009258552953504
-0.4624537276437753
0.7346519232840518
-1.4921761360327601
-1.8910604120147188
-0.9070311600192162
-0.6474063016086061
-1.5722929039872966
0.23160697582891374
-0.8243709358284872
-0.5887953443475453
-0.9158051116050241
0.2019539528451562
-1.452689738096339
1.5924247652960013
0.5495630197480718
-1.4353939547524142
2.509830544486387
-0.2551245599792629
0.17939334613117133
-0.4758468219782795
0.1562640049778754
-1.5868050020300946
0.13171588836200213
0.43211135017816016
-0.2913762581160738
0.42471128884525
-0.3856567020104408
0.7194338164040379
-0.25694630728275625
-0.5556015663748515
-0.3984241333650719
0.35772112198957445
-1.0591787954723209
0.5465654041262602
-1.2475802567904033
-0.36698226692886526
-0.6219786405536682
-0.6456684632261926
-0.7781416929291347
-0.9438875943814999
-0.4437093915833337
-0.18613508462277767
-0.3534451027695481
-0.01579034103901955
0.750698876908857
-0.7712925445416554
-0.00978119620203996
0.13347701780243437
0.2887324177947294
1.790130941206531
2.666841923751193
-0.18168736424786394
-1.2632276824872535
-0.16396449368314786
-0.5522883248436469
-0.2208989509266508
0.5488355462898632
-0.08763323358964864
-0.5965321881797078
-0.046466439329751294
-0.7985317500785406
-0.05734625588571185
-2.3598839199243997
0.6171169425173295
-0.44281897362339356
0.6065376495868644
0.3189068938378729
1.0823218372316514
0.03752888026715946
0.18676930460068683
1.3505595534388817
1.0715342411505744
-0.759166691198111
0.5090825601111507
-1.0636265939269027
-0.3525343019505608
-0.9905279779403316
1.9348718768667554
1.3627061975121693
-0.6162592263244958
-1.4162594066559864
-1.5387116830188816
0.4927211666437655
-1.3477668265274698
-0.42717148683542416
-0.2338612711673877
0.056525502627374546
-0.3262807337616025
1.3683134506697996
0.29877673336546917
-0.3925248405041767
-0.4037400394126305
-0.36180717679565255
-0.5569574081542173
-1.533019835847007
-1.9134596744443413
-1.602180808411199
-1.0442023511225074
0.42965077662236595
-1.0804351488359667
-1.8279125409193346
-1.6875653320639468
-0.41961241290403345
-0.19265636753996307
-1.1190009921690334
-0.9979443159065429
1.3177441654016149
2.08762241704835
0.34178693489693857
0.35530347818420427
-0.4800007810129808
-0.20364774314816664
-0.8768505761961396
1.213563900931129
0.92083689764314
-0.7983250568866956
-1.1668281583797475
-1.3839667551579802
-0.9054244855419783
-1.4519503878955138
1.0379003857912599
0.521470947194854
-0.38775011181256097
1.0998351366209747
0.6415067366112382
1.0964848342925624
-0.0026824095095942524
1.4028829587355716
1.1360003607615454
-0.5912234477258911
0.24654150392961544
-2.0343364794159062
0.9044339986601861
-0.5660718448626653
0.0659630244298004
-0.7845356112228674
0.1685541586462977
-0.4796626201914319
-0.012063706145078356
-0.6235473203267178
