1.2945962518090648
0.05134051318886901
0.6469726113263401
1.765075708779902
0.690246360405398
1.6587792403144077
0.6077895925173613
1.0204017308039746
2.0181042354010623
0.05869897673441732
-0.08595840742738414
-1.124975666083214
-0.20599091513432732
-0.003442477608109562
0.4554294985709758
-0.5711459509434917
0.42808135075066883
-1.0334290463601206
-0.47827813819608916
-1.2559383610532433
-0.6198704188323267
-0.8752195388298833
0.24050594602158176
-0.7198136132390787
-1.2898395770163882
0.740230856693739
0.16840564887142961
0.9366907370910522
0.18899386198448
-2.2068593303560005
1.5574346219002002
-1.7233349052701066
1.373636192360694
-0.5040187713132809
-0.8594286354907827
-1.0176812792063479
0.9607543707509233
0.7429960286617041
-0.3019142262556318
-0.43261416506188954
-0.14653556804222
0.2936765928739387
1.0091030098349947
-0.06892126014758615
-1.2044519107578606
0.0522914631124268
0.19706800402802288
-0.3101657170250178
-0.019433846480023553
-1.4851397836860332
0.39228473420943455
0.14627670911406607
0.8652741790805586
1.0280386022223087
1.1473311237060384
-0.03789530954365178
-0.07255953502052699
-1.0959012493725684
1.6482812384200134
-1.4880513594631837
-0.47356561472448355
1.3312397054457101
0.5949680570538304
0.10529062017934801
-0.8860528140027244
-0.7160875731605123
-0.7360834279656425
0.7357438113667418
0.006951735644056378
-1.7511407110752173
-1.1089852684305277
-2.5114234805225246
-0.47578378711239355
-0.5331828861759401
2.6922686116967194
-0.5341004863441633
-0.457293682823667
0.4875879083641269
-0.46854952472010725
-0.8564866286501107
-0.31009862338275596
-1.574233903084071
-0.3656390918071598
-0.21732769172891664
-0.3257613337168793
-0.1574377640644904
-1.3684792730746396
0.521613045601569
-1.3031101031103065
1.9190812837889322
0.1420657553442689
-1.8648997545053936
1.1716062246053984
1.1705616241907286
0.30449075035863654
-0.21402870611196778
0.22068549988444341
-1.5992994855563236
0.42348972418606295
0.36618838113559926
0.35385828498444416
-1.0637269103987705
0.7487964700838449
0.22575014484422384
-0.38617790588128026
-0.8932024955446574
-1.3187482661359353
-0.12091621130421426
-0.5456410721173238
0.1199791784918823
-1.297150565610588
0.7304146187139178
-0.9439207342214757
-0.3132987442525737
-1.2838132178804633
-1.4472623692352165
0.8998207934600941
-0.16976277408901852
-0.22833998879873657
-1.2560761991706562
-0.008898198712867456
-0.06841628075806185
0.5754136933629304
0.8574209787860216
0.3414897425088545
2.6008956079466765
1.2262846213949707
-0.22097188319123995
-0.5954446240676532
0.6508371288434605
-1.1229163999668414
-0.894725124857126
0.4400589199304214
0.4693076181913374
0.2970876699166347
-0.21695839150982857
-1.1615757616070455
-0.925365938591482
-0.09966869332956185
0.3289105883865376
-0.9837441875197794
-0.003754669818780498
0.27918576594029404
0.10927816500939168
-0.053507505601665506
0.49950889396756454
1.6851423977949431
2.4481085533824847
-0.3561167833979063
0.41172078900521714
-1.529926065953554
1.0124022442236376
-0.7948779017351935
0.6058572861955809
0.809181330627049
-1.0088379999476176
-0.9070927411405223
-0.7607975164598695
0.48447583507616193
-1.101922941115886
0.2804038821055267
-1.1296279300300855
0.5187466743676519
-1.107346467824597
1.2336810463132784
-0.4744147642583486
-0.7773471124281865
0.18651115916549144
0.5617518432566712
-1.6428647928784796
-0.5896951335558271
-0.9776975334377452
-1.142646737997683
-1.1872219300551201
-2.1367817678849033
-1.4470087745282287
-2.0206312672296134
-1.163979980940796
-0.8119640181758786
-0.5086360525544471
-0.4940622408707402
0.6533964267032994
0.933846135956117
1.477058764551662
0.47969253032819625
-0.8420006284462618
-1.3997610262386833
-0.3716361503769078
-0.8373664324400121
0.5854711787155102
0.6228349815619885
-0.5881834307922442
-0.7287386224295489
-0.6383969583010921
-1.7141702942469603
-0.8017997363191401
-0.07344962952247558
0.8148295184816166
0.2389844224278347
1.7448061332747313
-0.12642681483864182
0.8001692392021287
0.3103614158653124
1.2708142134456322
0.4096641839635885
-1.4785029053077152
0.7419459405582494
-1.9111108548154327
1.0474899559722728
0.7725351155244534
0.7657584091349131
0.3336060600425612
0.1470964799851192
-0.22703218678490333
-0.15284885126390074
0.3569945684964777
