0.9607256500996086
2.746845279234859
0.10894076752105275
1.0444056832677717
0.7032766384730696
0.2499415262997492
1.1449096793472924
0.9317750553301307
1.0642746904328506
0.9359933118481193
0.37303165454225695
-0.10460896107817408
0.41847452935896046
-1.394215617623439
0.623824770438366
1.2786753354311464
1.7849313755125644
0.4195338763120856
-0.4085633644900407
-1.9298944640002549
-0.46963344489144276
-1.2017310224265165
0.11285732825002337
-0.9571185956877077
-0.28391348873094746
0.659790892489418
-0.6633705000738709
0.0006794274417056823
-0.6038448469689572
-0.4742841286873514
-0.07830745201489109
-0.027443684741322992
0.5054236289488856
-0.9298082517498721
-1.571426025972574
-0.8614659192690234
0.49690006374692575
-0.9891396060528346
1.6766912887733936
-0.6823725278084133
1.2773769901413468
-0.3286234086953681
-0.2329484678490058
1.0401153076899647
-0.3875064939911162
1.7407305323211362
0.2289998569419923
-0.3562111094452589
-0.7323397527016442
-0.4344412522409602
1.1403810518228217
0.4400106148389346
0.11208196438459694
0.2814797224637572
1.3755775640628014
-1.1949196831372997
-0.8030787413454298
-0.9983790757569851
0.9175819094445932
-1.357291668075105
-1.179530876790818
0.927692972782611
-0.4204147601676452
0.13880147003582838
-1.2016268578588418
0.04718812452036161
0.16729384860391278
-0.14883575802243798
0.38248949040439834
-1.2765706967814785
-0.07037856004228407
-1.7744832284998777
-1.127008845181595
0.6264406631704369
0.3072356457176595
-0.37936596499956277
-0.19464386414415294
0.6336407226740716
-1.090516137388958
-1.639640464008962
-1.4521812697379723
-1.4186601840871826
0.6306522044280726
-0.04312533703119753
-1.7256839160437294
0.17763976713334362
-0.5984602546924864
-0.6376183453289075
-0.6536910883702626
1.090361290774023
-0.8793779341529856
-0.8964518292181676
2.189822207501649
0.07751812702024097
0.2650616458104854
-0.3244591599837492
1.34725407538957
-1.307148680429754
0.11817206659532141
0.6832322537639625
0.8887492591598674
-0.09726850537896858
-0.7146571201387513
0.2937856465328713
-0.5181249693030254
-1.7559926050204309
-1.4028685326686532
-0.7648312907456807
-0.616972194895949
-0.6263509542254688
-1.6717319265937165
0.42506567125067174
-1.7817632359086581
-0.4768147016042366
-0.43931235934250756
-0.6176429224253999
-0.42273222241093705
-0.09805756664135445
-0.5104631253470754
0.014028425853431448
0.21809279173911852
0.199408584387807
-1.4609236257475524
-0.9517786691775849
-1.4950368613722813
1.4383352889267036
1.2325062875025297
0.1736336099176086
-0.30519526611781767
0.20593962415871359
-0.5516983500004142
-1.1653097622659148
0.08727237860827264
-0.9700151616272632
0.8836896019504074
0.10668888832528205
-0.8902536958365985
-0.36672731305776674
-1.070504099170285
-0.1662054015804404
0.27039136059099467
-0.06090602829853926
0.8865904711885741
0.5925151397925256
-0.2384594689957864
0.5261043282468594
2.2841913828984097
1.8330429149487628
-0.17288916381505864
0.551543850654244
-0.3013541748124774
-0.4071136977036256
-0.9168197224640238
0.30721262267309724
0.14688115083352216
-0.20827546578857692
-0.3309925251115343
-1.192398985069889
-0.1159984654583342
-1.8705105976602596
-0.6261314439250049
0.5725623363886774
0.5677059017297326
-0.18761135305898474
0.9509813689182439
-0.9364613676274147
0.1849578011166581
-0.7058474990294549
-0.736284082663933
-1.3159040488141536
-0.41005670774051084
-0.4173393495231337
-1.244511745069661
-0.8831219552788938
-2.0017556115672988
-1.538616975191446
-1.3912794376899174
-1.4612627939684557
-1.2489112466508554
-1.052922581196419
-0.18763902006654565
-0.3137782261039865
1.243351408537525
0.21127803450104743
0.381085820767593
-1.1167678425118135
-0.7886060890656013
-1.134440903481205
-1.0041331454943934
1.2079636181868367
0.8092787672407832
-0.9566272422359494
-0.5311180381585661
-0.6222850162002782
-1.3625989090275792
-0.3276706761267978
-0.17737901435653303
-0.1972026330644523
0.6035882871230625
0.31494009255917454
0.7010404975103877
1.2856638080580325
-0.6063900546186676
0.8613774918883567
1.7449993907925958
-0.6208351741118446
0.26757907909346496
-1.443430331074701
1.202089770838679
0.07851444215543027
1.0532020741758714
-0.34879649033594584
-0.2670494839815835
-1.3895822403104479
0.4283543216690343
-1.2317792441111324
