0.4442613776503864
1.540300605726012
0.47317644987686414
0.889186002432161
0.7663833575202796
-0.2082910806735343
1.4171429142190628
0.8084125897575413
0.7715155411234054
0.28458344276294234
-0.02342887754833156
-1.30131293232644
0.11024867397376853
-0.3905918847005114
0.1148975047099927
-0.5007490866298477
-0.7015390083821146
-0.13959595513623796
-0.8852827585121363
-1.3733687663950525
-1.0729479463705411
-0.4189683332600459
0.35794183900059895
1.0198284259662178
-0.4516922249593964
0.8709293386559589
-0.5861317280556964
0.7476826065576597
-0.36761625239278106
-1.1127148207203335
0.9957965734433532
0.9146726072570746
1.3625618681360065
1.269073665878275
0.19747398405185312
-1.048926262515863
0.2539821834787266
-0.6311736389226398
0.2732623429435107
0.6572030451914898
1.4718756248699836
-0.2419741794202054
0.6542312430343173
1.6813451513714244
-0.9074342530467516
-0.22927830772707525
1.0433290641490192
0.6692579099474761
-0.65641774916869
-0.2519469541438511
0.2430905055676041
0.10682875635278367
1.2481322817777971
0.8533468582272012
-0.8440341493584382
-0.08625403109458385
0.016640040267603694
-0.7743153514099284
0.8202521739534104
-1.3401233404726445
-0.3359196442256184
0.8598889979555078
0.6297017087179312
1.7689352296919854
-0.7276657604310108
-0.08131809808801149
-0.03449324314551486
1.1728455954663366
-0.1157488732762354
-2.4971046396866603
0.724145350483113
0.22378766893731228
-1.0761800506249324
0.29055889730674667
1.4594259333687152
0.23219251935272855
0.5099670200562829
1.3685675954716827
-0.26137640727358313
-1.2511148501609586
-0.28833355774296476
-1.041873006624404
0.07078351982872685
0.4378563930809559
-0.6470423465692232
-1.1939970273117653
-1.3397024844664256
-0.09255332306870157
-0.3003152980711026
1.3984825385205433
-0.7521304197111512
-2.1262539863851533
2.41667933705834
0.0575733180652932
-0.6237113821923437
-0.829405816311001
1.2004646677180555
-1.5850594949886847
0.08886991023812148
-1.0198785121282528
0.332779264533742
-0.05439730329844772
-0.687457078646404
0.45711556953506105
-0.2306119637965928
-0.536804777452954
-0.7602681909106755
0.5260561325773838
0.06187598155287877
0.16962998114395605
-0.376461566852761
-0.07652633512939255
-1.3032661116900186
-0.5495252815851248
-1.2905525884695146
-1.1586152706513617
0.873461093990894
0.11275529007971458
-0.49361138529225335
0.15143898489669183
-0.5835844897070201
-0.885895683369339
0.08935968949406137
0.6940338954289076
-0.9965734026981157
1.058087552758597
0.9115082152669851
-0.08604605945406045
-0.11748624233859069
1.2994977751754297
0.31148969647441294
0.13679407770176782
0.597291117256871
-0.6570001882814284
-0.5303556929898443
0.22363132979999278
-0.3730277401074758
-0.4937393198204042
-0.9737175990474193
0.7025674400370463
0.8459551430979042
0.8134011942986761
0.7663781111582788
1.070426621413944
0.3544442886539654
0.4427528908143149
0.6181645806841997
1.4589775874092685
-0.4525687036628766
0.9328037209949989
-1.0523440502035895
0.06934129898594371
-0.1093237592092473
-0.15976128142731638
0.5316087854552344
-2.274751758916689
-1.3829783729858134
-1.6610038641027391
0.8095990052749803
-2.333453373920295
-0.0005623140427056805
-0.16933023694357197
1.4573511457092017
-0.7120425938237757
1.2773161599658058
-0.7432261992923945
-0.11642375611877831
0.35883517673699517
-0.35313079649696066
-1.7659135201983975
-1.0296574327387482
-0.42011725052560256
-0.71645357736478
-1.8585453041454807
-1.1797382450418483
-0.5158473810520426
-0.41157339731369813
-0.8711710178015473
-1.5411961105167356
-0.2597452582786216
-0.33879772874531
0.07254166217162511
0.8410047354654857
1.3026490639663333
0.517706395077189
-0.540485457231577
-0.42747594196513683
0.037782675131392995
-0.7083225015591579
0.5575598586002714
1.3196609269006685
-0.0611002836224519
-1.117169805872048
0.03829095990344644
-1.0736856590762236
-1.1930222134192607
-0.25001073266625784
-0.3637969168649082
-0.1257795344034101
0.8286560407057808
0.5438168958263014
0.9532795928126052
0.5063241353673119
0.9611489316431943
0.37292043165540073
-0.34453283407757085
1.0574195020966006
-2.0105010866417747
0.5852321774756686
-0.06209731610892191
0.40396510203059793
-0.6365886027966962
0.14567224203293594
-0.8126236437954139
-0.8697990094815498
-0.47306146934589477
