2.1352704287182473
1.0807263744352553
0.668256854712262
1.1751342418803559
1.3231330572434783
0.7666562889367322
0.6627232193832389
1.4327399628561412
0.4788775559835811
-0.42549663099055524
-0.5010817388680227
-0.7547204788084363
0.1972468622191808
-0.19645896648832517
-0.0285144156619076
-0.5864820715950605
0.6674283030626541
-0.011931632628312074
-0.5349374636304969
-1.1812804171670364
-0.27697842708425113
-1.0657501179463431
1.4168694768803562
0.1637547743851409
0.4695228741873632
-0.18180113252929664
0.2636528860881501
1.6193385969532144
-0.09170988981132114
0.3843923200512383
1.0047848907085781
0.8435733593081752
0.4473818948828786
1.2098921097084137
0.07029129967367864
-1.24299955683387
-0.6653023431197117
0.27256193689582503
1.0421217916513825
-0.7923281411773511
-0.09004974674094102
0.12698211638283763
0.5260419206535384
1.1605990620652393
-0.7272215205585694
1.5051061204464125
-0.5763702862166604
-1.2524066940340672
0.47805238771012526
0.15435838145224115
0.6302982329535999
0.8172670212928227
-0.043519244234371035
1.2183575766204942
-0.6065604673870009
-0.7020028910499767
-1.0636116360231136
0.9529758031958483
0.7722784804099179
-0.5204038189076978
-0.4394142267877339
0.9870901468519978
0.2790506472170462
0.3365063448896656
0.9374577552324852
-0.24774508330601985
0.5921588083661309
0.3687524387733232
0.1843488969459799
-2.6968310048901185
0.9256047163736475
-0.6552162628701047
-0.4952101398817915
-0.4839055781609056
1.1227774921122746
-0.685590335852031
-0.06498128160319129
1.3274891592075122
-1.4526012405127646
-1.2917149161363615
-0.9531534992679973
-1.1370040026216337
-0.6708084563879159
-0.8162462826338307
-0.6965850595580554
-1.3348577284382763
-1.1295071999792579
0.024136744583059117
0.6649399697802908
1.7144868679540313
-0.024596055730764323
-0.9265870400910315
0.3849301695737417
1.0261576365006984
0.9778779576575373
-0.6406644264310322
0.9369634532974753
-1.4081799229613674
1.0801679402416076
-0.7637120090094125
1.0058140702840561
-0.0789217074547206
-0.3485735095168748
1.6760685299692968
-0.10177410352835883
-1.9190283199694447
-1.783735562365834
0.08825766338037605
-1.2260155361124476
0.11150457581096195
-0.4772129127639973
-0.36549310304727844
-1.5057280825161683
-0.21571464708764287
-0.8934682821876898
-1.4658024542247885
-0.08339280330206872
-0.12289162362962452
-0.645590305916259
0.38438378346377267
0.3177116366189346
-0.4021614770215677
-0.3590195397576246
-0.05377961964475425
0.40664561488871426
1.2441997801168738
0.10221671028422663
-0.28339631928938275
-0.28213062906839137
-0.3491250888028506
-1.4100686543680947
-0.49206421081856283
-0.14688346033255995
-1.0898433565529357
0.7845030855672795
0.31352592733917756
-1.4405574075960055
-0.5955027445577199
-0.48299142760130187
0.832175296277621
0.9165272965144569
0.17406678699222178
-0.350659333043532
-0.15052587048156107
-0.06655315932782882
-0.0220326361539167
1.3089006991362662
2.0450080228512015
-0.6410403789456436
0.9008370640421014
-0.43346043910879634
0.6211299780564458
-1.918893519092264
1.6263725505340036
1.8706556967392047
-1.3301078341068604
-2.054423324997403
-0.8464514543988231
0.4833034540678431
-1.6791770303805227
-0.8018055307786782
0.3116882554253092
0.2298683435506934
-0.5757544549755725
1.1306200074805324
-0.2054490925337495
0.94171364050749
-0.7880100058808739
-0.6935922612646959
-2.298881641939709
-0.9839529085078945
-1.0607519449235823
-0.9411121237159431
-2.7312941640993493
-0.6945811649568376
-0.8645424149376453
-0.8750536466341612
-1.9465143462620527
-0.54420264147266
-1.4029893038568262
-0.46410605362082447
0.8657119134195459
1.6753334027443847
0.8293825974128648
0.5944398841132721
-1.2626403939034376
-1.1878881870535762
-0.7243713281989326
-1.338623124985431
1.2761865001862702
0.8433248486762537
-0.39279970068574965
-0.9388360130635639
-0.5659458747608367
-0.6596578754851598
-0.9170510526196636
0.9512457827889249
-0.5308075756299058
0.34931098349816
1.4844249821855815
1.446869225156526
1.3448420518248556
-0.7316898781504908
1.4669460047323675
-0.47748757620266097
-0.30153959666723246
1.2150728861546622
-1.2983620826630131
0.2505983849063508
-0.14345727811307285
0.2770381491835806
1.2218218637585356
-0.1350828865750734
-0.1078933563093909
0.5633712359107286
0.05470213913198524
