0.8038790581921507
0.9303194168764152
0.13425257637930882
1.2401974366414499
0.32329031238375483
0.8751071271451312
0.5780957774032404
0.9865723755676178
0.10638788096680363
0.2756032823404513
0.29152670292899474
-1.7649025697743905
-0.11754154471892533
-1.467160108976933
-0.3614735633934725
-1.8643735501334144
1.251668631728932
0.6605433213894817
0.3572136656367879
-1.8364752758208274
-1.216411148418782
-1.5723353541952436
0.4195788428491546
-0.8932900477061723
0.0070699876203693945
0.36907226805794946
-0.8256137874438175
2.618808699463839
-0.4014803028571141
-0.522602344311513
1.5662389186966044
-0.6761772547638308
0.8744378132414692
-0.21616944419539746
-1.697951544453026
-1.3892384894289904
-0.239445232561138
-0.01872783176539622
1.6150994748943894
-0.3408474448241986
0.11049978344917111
-0.5143030620662106
0.7127645634091094
0.4091488277793386
-0.9005414250658348
0.4497232987050842
0.04079707864355531
-0.05753289077305662
-2.4671022093560815
-1.1060510756994135
0.9324892949567599
-0.6283205074275384
-0.04068107194268822
1.5826149528872406
0.27841947993355753
-0.5618917163623576
0.7779013331436421
-0.836241911491901
1.6323121373997176
-0.29078683285256224
-0.6004397790915601
1.5865944773095428
0.20965312140877532
0.5365303960481248
0.8497922121169648
-0.5813514650981398
-0.419677335119786
0.5807845015206148
-0.8648929292962939
-2.2535224380222254
0.2595654920105395
-1.188831923683144
-0.19365294894164414
0.2046094141737815
0.9799808169287911
-0.7008764301570615
-0.8933628588923075
0.9046522641968029
-0.6020246210910996
-1.2098844472016381
-0.34578575214087565
-2.0703378613930417
-0.3273231224405808
0.23531896246935965
-1.3742313691968229
0.29677644692699623
-0.8217309916680656
-0.19973507909055177
-0.37034121222862615
1.4115909414913257
-0.3529038803885381
-1.2482382578390319
1.952915754748067
0.4341225832843983
-0.19651742379171366
-0.4905710962633224
0.34230006908613375
-2.2810726207572136
0.4749197343487068
-0.18479326323339584
0.932458178912348
0.22103445739297234
0.7359525131617805
1.1375128621897597
0.12511835338788602
-0.8484817692545582
-0.7226454360382144
-0.035174068368147904
-0.13156923644632623
-0.5872950190370729
-0.5841953514900746
0.447465693884896
0.07222491680433374
0.12001592747263545
-1.8137530950039928
-0.2189299707810024
0.16595039783261814
-0.40282813563371656
-1.1050406258163437
-1.3510998223825623
-1.0601483495069095
-0.5646732274263006
-0.1397608654107885
-0.08462908930553187
-0.2398076688767207
1.0776548352707747
2.016268002003869
0.28642112285446536
1.2387176147701098
0.36574053013559127
-1.3980852792983107
-0.2776580621600857
0.3953196794788893
-0.5765679658671299
0.6096141996290589
0.17869157422777165
-0.4591825483878776
-0.11460217212185847
-1.1536435102324853
0.7776324525279622
-0.06649043017927966
0.003449734119377196
0.7413987323710781
-0.49168419740682084
0.713301405896622
0.5172398244379146
1.5600223273384397
1.8178844375064982
-0.773344258225835
1.0096764249143189
-0.9366217513983672
-0.5165753628061662
-0.9528518450217235
1.2080637923970645
1.2675442278864164
-0.5063862060314182
-1.875053343483583
-2.216827547370003
-0.0650723722767047
-1.544770783192993
0.15227396234233126
-1.6541439881924112
1.3621920869750404
-0.6771530098370513
0.5754038095930557
-0.5313155374701231
-0.13561466836398167
1.0946652160137607
-0.9952484423708672
-1.1457591092888095
-0.5434666721251832
-0.41720640912554585
-0.9625538014605881
-2.2822853264773713
-0.8562430595784204
-0.7599942129221822
-1.0935108269182854
-1.568263658414687
-0.20149908327931865
-0.36963763107500114
-0.4226950675411905
0.09439106717813883
0.01730594382709172
0.9210767452736179
-0.46076041291230574
-0.8994108653201888
-1.237800498338586
-1.622360020598266
-0.5699594265056036
1.988721793697045
0.9230537253335475
-0.22931855559368824
-1.000334459196021
-0.7962976756799638
-0.9501399669216639
-1.6161942998521157
-1.133343667612473
0.49854401302807777
0.4875938542029205
0.5489048816071431
1.7870212829769225
2.060425743302764
-0.5818439073202667
2.071797083975642
-0.5675875641645785
-0.8335251398302805
0.8776024027263896
-2.2755516224340604
-0.11597442080129206
-0.06390981575736898
0.32937804030412576
0.3762794344573124
0.6999705736852475
-0.09058324596277545
-0.10173015856640039
0.12758403093123905
