1.4002970106339876
0.6299154002669545
-0.1850522917449003
1.129139827162911
0.6688396693786578
1.026350931007968
1.1089183479761489
1.2943744425510362
1.271411026279475
1.0292242414561932
0.06649215132767117
0.4845843623311342
0.20080395208221202
-0.13876276085885464
-0.38057426832346974
-0.6953121420013785
0.1569661531227185
0.6347098689719503
0.3715911761379521
-2.6751848192255006
-0.9052855492397853
-0.6223310676143337
-0.20634519942067786
-0.5395635921106995
-0.5575258581935145
-0.919818862680253
-0.7369854154584627
0.8371231793769012
-0.6048411891871349
-0.5228620168683407
0.9020089741552237
1.013299798130305
0.5808681525489208
0.8342250657062174
-1.041488909236381
-1.0147182718591112
-0.24038836189754167
-0.28899188972437956
0.8390223732910944
-0.26035933329455363
1.390765088315927
0.07602023122581386
-0.36219370798146616
1.2329141526116332
-0.8119355951508928
0.8309577399074867
-0.3013139728131687
0.5213909215264515
-0.45865082773838234
0.2527313093022743
0.5519838319813758
-0.08243865924564903
0.16915974855031884
0.895737570823262
0.6554456385384064
-1.82450646170129
-0.6961191985985398
-0.39036492503640596
0.7697327616585462
-1.0290997592547109
0.47340731079814186
1.1378373958136165
-0.690601974494851
1.1148575507100902
1.3149303122088563
-0.12038321691036423
0.4999371501451677
0.6558637723072274
-1.3731134414844366
-3.125152585001137
-0.12145266046585251
-0.4836775634510255
-1.0604325850807714
0.03530972477128588
1.9563030297906945
0.13861251711347566
0.21691520900036182
0.9637340544258884
-0.30756441712432847
-0.9427892360045271
0.604408573302506
-2.2311610567658695
-1.5296586485580999
0.17109873917827204
-1.8669410846800998
-0.16659964518086173
-0.32522400548232105
-0.1767260140014149
-0.8814265600233931
1.5500402122780905
0.22244572974248167
-0.8520624513142707
3.2579596293759097
1.6162686759433158
0.519545639114248
-0.8316505802428228
0.2322857124325416
-1.7887199584443116
0.31947743248055366
0.08365594382044433
0.5365063036552563
0.34618053234563084
-0.46438701189361375
0.7964823204214162
0.7157280060286118
-2.9519718991385115
-1.2934547574136512
-0.21047137782164388
0.5240506154961742
-0.06677453531693231
-1.0063832564860844
0.8364139281411556
-1.7348814574617362
-1.1048284561193855
-0.2505661966197208
-1.2358983618208512
0.7842350755384986
-0.18139391970615837
-1.8678577173444517
-0.14802960768721746
0.37832460305255533
0.37258231252391344
1.1735018304925322
-0.5684654308799044
-0.018747960618394593
1.9901626202929708
1.834878301103541
0.5754850702924633
-0.12891886856862872
-0.31886387220386486
-0.08627254501116394
-0.35932918569372707
1.1869842218528053
-0.5079515973214271
1.0621404994536752
-0.10090708800372387
-0.9850753622748579
-0.05654128514165402
-1.4683244296854152
-0.3681489053446052
0.7082163297137194
-0.4116916602873382
0.13572462811776956
0.5055137072887212
0.11915954976631171
0.8847492375570913
1.061015594338518
1.4081530981376058
0.18658537727413382
1.2146218121433834
-0.7193017738520693
0.29430492557443866
-1.7338714798151278
1.1498237528498483
0.03960207314024344
-1.0271081183733457
-1.6006058906324578
-1.392397256523842
1.2074206112330348
-1.774863330660352
-0.6963006215314888
-1.2134346101498399
1.3920505283861373
-0.21869392454034042
2.1969514496693723
-0.6866871340273505
0.428003975334101
-0.5308145606087737
-0.146691992820353
-1.3323693432636246
-0.7376430087682857
-0.9580221909739475
-0.8119668115606071
-2.440556056227889
-0.45624480797184647
-0.057240163978447
-1.5492365138747233
-1.6049071537901483
-2.0252247308563893
-0.4327252081671232
-1.089995937535408
-0.0564440378090805
1.454253133381664
0.8552291159838539
-0.2554629325678015
0.07352657430995102
-0.7554777945046908
-1.9413266615176306
-1.6738095384612746
0.8411684739586651
0.3038590350842376
0.6089650572223284
-1.0918351764990137
-0.6167927266736699
-1.3591474809823734
-1.1536259930610762
0.734872594411051
1.7050177387919494
-0.9458230206596406
1.244028527882391
1.1581185475574691
1.1985655222512603
0.08251402855527318
1.1892930499978918
0.6828140219794923
-0.2318774939215359
1.159887737648243
-2.765145360769949
0.5194471819295173
0.6768408762493919
0.2627166862099494
-0.11772951359767427
0.0896373962545113
-1.763981892909766
1.1734471941388482
-0.7583596367505157
