1.0542308441559947
1.454846387606892
0.9408604396567584
1.6572157236201077
0.8807285350878753
0.2527704398134255
1.0145701680587664
-0.11746708659818172
0.2573106734449146
-0.5292474715418145
0.809488153179597
-1.0657233325948023
0.2767431735597903
-1.2071055489628777
0.6530440107911977
-0.6801473907249117
0.446131691105875
-0.4372638630530777
-0.664041567785216
-1.2253164305044342
-0.14063132179397397
0.2380165418184681
1.9070442789143747
-0.6652889635527364
-1.1068342446380006
-0.26612283343898047
-0.6664156931122531
0.39389749991552836
0.32772315586357015
-0.8051745865645394
1.3037551669617566
0.5446598242192968
0.6780729168901347
-0.3853227646382088
0.4013638265581648
-1.4536408541716042
-0.6405270849077539
-1.7401257357714193
0.8587741078944892
-1.3450638893539095
0.9833283471724632
-1.1476199844511756
0.5323009559571052
1.513995399513005
-0.7630714712844118
0.7902239691868278
-1.0925310810810769
-0.5155691059377345
-0.5869635781897178
0.05626358496791768
0.7488005438241971
0.1876147992433523
1.9645498494567502
1.5291822443033616
-0.16059688981688017
-0.6705649564288896
-1.0024565241659973
-1.244238940578632
0.24747391925896445
-1.2226671091837271
0.061179796722022284
0.16553997773650675
0.2843200244463991
0.011327521622160275
-0.8970140878218074
-0.41857670514597656
-0.305249981130313
1.5483844363989834
-0.5107331409137426
-2.674565297397836
-0.43450133192796386
-2.4231425682371177
-1.8765677216690164
-0.00813073042417195
1.5082691827982295
-0.6174251244082017
-0.12473606918812316
0.5198122877225826
-1.9313147884607393
-0.49764028206527355
-0.774738456913272
-1.2713255466732272
0.25380182799286977
0.33236235302394657
-1.9816637501560703
-0.5746365067076741
-0.9342754284692625
0.9999412162082544
-0.42971441930641974
0.550235945862496
-0.13496262322028024
-0.9368953945822437
1.0318490865260577
-0.6310537727302483
0.22508740752797196
-1.2860404453803453
1.1295078372043883
-2.004605521195709
1.229187573704136
-0.1342539099349574
0.2927862062941341
-0.11638448268462498
0.31094085860595755
0.5813362987414479
-0.128380974057919
-2.101152706878641
-1.3156274055720116
-1.171507756695855
-0.7221877473788643
-0.9078471103248844
-1.7524099731928366
0.3875050694514826
-1.841318665783066
-0.6042248289355963
-0.6217640985302224
-0.7051426102799468
0.8825566991196359
-0.22130150879440263
-0.45597660092933434
-0.831297304278513
-0.22719877135746544
-0.07392397794620145
-0.47537013751960605
0.5868888616696935
0.6890896981452568
0.5535771900100941
1.1931120733271237
-0.4017932079330833
-0.05201823232530042
0.08645800005893678
-0.6173727643288999
-0.3123511662599188
1.376111470630403
-0.7989899280017158
0.3508340639758236
-0.17662843038190335
-0.9414585911198656
-0.9504800650117683
-0.7616856541926846
-0.04779282357181747
-0.5140647096659938
0.6195905605755901
0.5948177044357853
0.18348575780727122
0.05373018958145658
-0.23395274449833528
0.8162412015038608
0.6591769433360268
-0.36291299371018465
1.3077465828768207
-0.7839721283417066
-0.40610037394780385
-0.7404413456177594
2.2148212939586047
0.8895283943119088
-0.8602156042066447
-0.8128722719009407
-0.8202659378099988
0.11445918587069756
-1.708357889726424
-0.32569619083224166
-0.8375669718634069
0.45437063707865194
-0.7843581544986533
1.394270895243055
-0.36807869593115733
-0.8000432504693447
0.3191837496217207
-0.1430887473416745
-1.1467177880791215
-1.113013691002134
-0.6189980359580838
-1.6864485055577934
-1.544988132292524
-1.6498734355025981
-0.38767080017560296
-1.3467948074400413
-0.9694034905170902
0.17613301809235904
-1.2562373451760576
-0.6527396913107766
0.24363130421748186
1.3727762926293905
0.6031445378588115
0.2894663448266424
-1.0409499893415677
-0.7490781619497049
-0.9426651355708102
-1.818151581510031
0.4375230026553168
0.6500974722101448
0.04304391222234938
-1.3687903244955377
-1.3032498547176963
0.19443801237458458
-1.9702085571567802
0.074604127781426
0.32959377999568873
-0.25665314673962825
0.7047489469402953
1.2246943115810378
0.6383538027958685
-0.10569104702065338
0.5705549055522778
0.24503060364532897
-0.5938407149901695
0.66190368018863
-2.699239301374123
0.48971938365624923
-0.8047346893437282
-0.12427168065523725
-0.08739517525794882
0.20200529294632452
-0.5234487338245819
0.9013027431855516
0.19752087326925513
