1.5058510433421575
0.41186211789902116
0.29969927397574553
1.0804549985157754
0.9469317949656045
0.5815854451268551
0.5542704888682465
0.14909189990838012
1.0332888346569122
-0.22808527415779803
0.07393328321531834
-1.856744333873721
-1.5547768545289251
-0.13117961955162494
0.37894599146311836
-0.2803608053859689
0.6138914010482786
-0.1294733934957939
-0.8057845308565686
-1.5121866207517947
-0.6678169611680465
-2.5527376592044346
0.13734004115410314
0.19944653347797997
-1.042213305845836
0.3284164186665517
-0.06071431008887973
1.5156001115332514
1.2478992952144592
0.25350743342320875
0.30485189385730316
-0.48504856771728105
0.4886731041328201
-0.22345372241346323
-1.216706003661896
-1.856114842621917
0.407348370984441
0.007254769743810285
0.6584569138964916
-0.5649535823939763
1.1163188783742033
0.6720235111892663
0.04530171904408431
0.5164737958456319
-1.288093462215541
1.2402002503434484
1.164579302197107
-0.9271897469437989
0.08504348553524488
-0.7469566290343818
-0.7116390919515332
-0.5261218115257832
0.34374190257073656
2.0013676349645695
-0.4329882347930478
0.021988766760240197
0.29074961457009907
-0.3088749053968596
1.3646846778908994
-1.2555040450805917
0.36687266488783904
0.09698419782802936
0.10489423186777813
0.030737740394697843
0.7288521109160082
0.1125774699807216
0.39198360119340536
1.4636978016249995
0.15052639211765428
-1.170636673911623
-0.28653534725034835
-1.5431428544037198
-0.9000845585190936
1.057090961802791
2.6461729928021187
-0.8401927785221228
-0.09119608663831451
0.9950950413616623
-1.6179058298847342
-2.0287697943143246
-0.19881674361904078
-1.332440903030908
-0.01703704322136204
0.12991045565558926
-0.18919007204937222
-0.7717012409129085
-0.11045971135348887
0.5015417337419699
-0.5275729389116455
0.9223766887343161
-0.19560819281983882
-1.475563634705026
2.9278675018311153
1.0475719927331193
0.6481334280239731
-0.435529520183213
1.4893080284900153
-1.5948409845308267
-0.35006952583159
-0.5278001481432743
-0.155515083779711
-0.9722695654429269
0.4246380432809531
0.4697237108828867
-0.8469034928255321
-1.171113192742308
-0.9172315765324037
0.14581024877020243
-1.693123462885282
0.1394067013255426
-1.333647388956255
-0.30407682365087574
-0.08253421497078361
-0.8769225383482542
-0.9356824443402714
-0.9572767513112249
0.5515095683100425
0.13947590547766414
-1.0570937718753588
-0.11978459812455189
-0.7757328423056951
0.9864349774812902
-1.2142103582409525
1.6239867860095787
-1.2759605278140485
1.330297116642111
0.6953374160799642
0.6120061303495266
-0.28606182953457227
1.1242801144633696
-0.05642721558990438
-0.8961259976707905
1.3873986722829095
-0.31067440532212803
0.13746841108633215
-0.4995097899276029
-0.7479329735712136
-0.20692083791381682
-0.3250941586546875
0.6372013023913659
0.7332601287786413
-0.4835471372761293
0.35740148096582586
0.4040997739118056
0.4876487670702542
-0.28535608068096485
1.6848061869418018
2.074863774076926
-0.41959234250872646
0.846765839708201
-0.16649389369628254
-0.9764951149769601
0.15221005851178104
0.37688886512752384
0.8652261793289023
-0.9212976416758866
-1.6970463234842508
-2.2317326300744003
0.1424526784513861
-1.08095962671846
-0.28934628643840415
-0.4024032933129145
1.4737174308641499
-1.0316616341259772
1.3499628997440012
-1.5931614754653365
-0.8606395450666305
-1.2375621610968488
0.04194753767730269
-1.4009920952899844
-1.0320232285298314
-1.7443786243689234
-1.0846317247941717
-1.369977423324786
0.08077558993468947
-0.3141734667629829
-2.058253708703449
-2.225239801692159
-0.7949406577432716
-0.15454005892162015
-0.9380198332639094
-0.9997408493216615
0.6937716426680197
0.6783257910903219
-0.19332526069083192
0.46951274374303753
-1.3451914061205383
0.1187921735685794
-1.0053507453204205
0.41464134609597414
0.14410847332482135
0.3317224666022732
-1.082746637726103
-0.5630900549107063
-0.5696463744728915
-1.2146400889858655
0.7590649939432088
0.41605258412460533
-0.15637164847495671
0.6503327362716629
0.8989180834092574
2.318098279082801
-0.7629258025704141
0.6209917212777502
1.1644818364511202
-0.531001334734984
0.9748587294075071
-1.3745144281604706
-0.6742461783729063
-0.06482804850603627
-0.3408008082515273
0.0508017495734239
-0.09113084003030511
-0.704497402839175
-0.35272410195585246
-0.3429148157004309
