1.7612799402010015
0.9009433032974593
-0.03050254079749093
2.583753207315647
0.937305410498207
-0.46165832375636817
0.19583123139784142
-0.17029213897292217
0.8087890503256205
-0.8185112535044975
0.9184048613806228
-1.6060934288320399
-0.8918546264461082
-0.9204707901304846
0.5754735416866145
-1.6208831984427094
0.9697882762999901
-0.11749241949556127
-1.3036755939804658
-2.087211050491739
-1.1717935280981921
-1.7153725280501004
1.3875310679461705
0.25249587173294075
-0.7710384074525596
0.44007875902176474
0.23406569702576163
2.361750736448041
1.000180147935349
-0.5209201968267175
1.2290049742636924
-1.6497603093951871
0.6754508683411308
0.11904096282532994
-1.0248201514714033
-1.6488812369227335
0.5445716103333665
-0.1951492991193403
1.0447725367932685
-0.1488099225644062
0.8676823192420033
-0.3408349037088029
0.21811256976724536
1.4187719471713587
-0.6466113022777775
-0.6877537275014961
0.2984840414894022
-0.41940483305617776
-1.0930377211141011
-0.40194121233305247
1.1264835990797235
-0.9088784370348634
0.4427468830603878
0.672344866186536
0.06579342505022118
-0.19012820481964027
-0.8565404490300085
-1.0998831733061296
0.8430331212894494
-1.4907457426689212
0.043581510032015824
-0.08709284851635479
0.4250176711680721
0.6837713535555112
1.1819994323825336
0.7346563013887907
0.6795310156608911
-0.45175519411309795
1.0486898294251725
-3.0299747619223756
0.24498364943289197
-0.6311415074703633
0.3571956658461102
1.04108650492193
1.9182500860967353
-1.2443007036583666
-0.1489058725302534
0.07007617303225988
-1.1175942269147334
-0.034365748606945745
-0.5241713728841264
-1.6386511721162555
-1.2205394512033012
-0.0910105622201987
-1.7596400092131428
-0.9865285997067418
-0.5173291267797857
0.3821240274091714
-0.05833717344610237
1.8041428977610834
0.28238135507923284
-1.4824077484732139
1.86658944587063
0.5080793184243825
0.5893498000314037
0.09844105676830128
-0.9474750203716559
-1.929993613618962
-0.03287295939532631
0.08269163027587673
0.09235993031639389
0.5232871172424107
0.11521417256520566
0.45802980018320505
-0.6499625120561887
-2.048507902765606
-1.5983112044006273
-0.9505581049771341
-1.3150194741879067
1.2699191110828831
0.055195694749237356
-0.4779816028562103
-1.002913348663547
-0.05573820027330301
0.08110881932491076
-1.2885672170429125
1.316690706633169
-0.14260427834514156
-1.0671801783527641
-0.514158008205648
0.05110888842091057
-0.9191880416129348
-1.346257292434053
1.130612314843794
-0.5039005930316334
1.8646782677159295
0.11129991053979105
-0.6685196980992653
0.6402262885264494
1.2876064740759048
-1.0594930449737703
-0.7341462150971568
1.014429315779405
-0.962640575500576
-0.29886867646663284
-0.017597030780920703
-1.8284615485800582
-1.3278754494126126
-1.033838700931657
0.8465761115533632
0.8940041130792273
0.8383366402850494
0.657099363651571
0.07529659142609266
0.46312027299710573
0.06080502405235608
1.8028131593453802
1.2887929504226536
-0.38738115307312615
0.3720994103189036
-1.396007616515227
0.5293006744755335
-0.8821404199210681
1.1805409255938906
0.9050678985683405
-0.32017670001428655
-0.784740267358915
-1.9415551099404398
0.3247379674150658
-0.9070693148585445
0.17233834907931778
-0.9930003448624811
1.3502616275422654
-0.9597548295135777
1.8844185433485816
-0.8651932955359218
0.6774173606400204
-1.035532959804015
-0.6268068661725605
-1.369772173253445
-0.5344129485674276
-0.9118506952075385
-1.6956673987517525
-2.2493029367277515
-1.939265013342848
-0.7502552921748037
-1.6203025752829827
-1.4602189208508292
-1.1722112654478622
-0.8381863254832661
-0.6585884820281817
0.22534843709044977
0.7373706307032638
1.460917188318266
-0.23909360339177058
-0.850119122672751
-0.37886383920057665
-1.5119245789491051
-0.09539460258327803
0.6826690110695323
-0.8373774278640618
-0.9328505274617642
-1.0380582983312963
0.30323585164701083
-1.3341979562764363
-1.6973841760050075
1.423284568940676
0.46399417237215945
0.3740865219394721
0.3288021000621309
1.3886432278915066
1.9014810320833675
0.38536096215304494
1.4352396866805164
-0.8794203394605522
-1.2912955985009082
0.6861060929956496
-1.5111240266609638
0.25943296192076826
0.7671591327449485
1.1257794275191866
0.05211078129040722
-0.7512476516607723
-1.0631104847503179
0.31476742643132005
-0.10886794407640624
