0.9936242523221683
2.3815756726601625
0.7730633398513462
1.6455353679554747
1.5701615047876207
0.3905877805417294
0.3439930445961107
0.6105998967826355
0.7992573442340045
0.7698399194158241
-0.522383248305083
-1.2891293483658597
1.0400287560481256
-0.9495801373747473
1.1241614459606188
0.06829838141288391
-0.6096285671978655
0.11400911062482985
-1.0090352174228707
-1.871066184249718
-0.6102182046922799
-0.5358823238871351
0.03444000380027923
-0.8100436583021073
-0.3248358652823532
-0.3358090248335819
-0.7119099994462708
1.6437089834695366
1.0241201590948195
0.37077725899626385
0.7798464662608758
0.9679605155541788
1.6365998287963115
0.3806707797075966
-0.11027597824732005
-0.9452049411624213
-0.2401416044171336
0.5968365630329262
0.7585714342170098
-0.00891492747225884
0.1656689359461752
-0.19501368673885305
-0.1701605596618948
0.9982808726795538
-0.6894919634179929
-0.13592830092583513
0.42841379828113463
-0.2625351245349546
-0.14848460403374514
0.055409413568922664
0.31324192492057923
0.219218330986966
-0.1772494929727242
0.37467597815082954
0.5681402261423623
-0.9852486366040052
0.16780246691579748
-0.32991034152691834
1.7172362174685927
-0.9984485818885339
-1.7757414770668831
0.5200277633776432
-0.04646513272636556
0.8435453815471493
0.5087722698823043
0.93734935533045
-1.0900027287228833
1.2671052613433575
0.22308665656102525
-2.746465783508338
-0.5577316714191438
-0.17510037468106765
-0.34885060993057004
0.1562968182185702
2.2986607766562885
0.6111167263957623
0.5856287951635395
0.8299760777628418
-1.914160028075365
-2.218024819705004
-1.319651034727419
-1.788359287459922
-0.5827375806905476
-0.5770472688077215
-0.4362570191262553
-1.0743772164026093
-0.4444564705174879
0.09735216735894466
-0.5056214377492314
0.5142145950434415
-0.6115913185532693
-1.3713619201865384
1.8341464178832068
0.852771601398602
-0.0028714396139284115
-1.3526001561156917
0.47016847399104156
-1.3089211209751748
-0.6739703463532721
0.5415305194828886
1.4544324194144866
-0.4977094351181407
-0.3410613795168407
0.7900178884288727
0.8571459444327152
-0.959899865019499
-1.4067577156524405
0.4014705509828142
-0.11800811379059056
0.6430169452750434
0.627116655135508
-0.38404395406420144
-1.762449982944855
-0.011019088904813346
-1.4255962996164837
-0.24793382822003251
0.2919889037326868
-0.5411908448315527
-0.4923480286292084
-0.4009636036538995
0.19395995221235723
0.3541953151870613
-0.23434000519627535
-0.15978743919681654
0.34243755300038753
2.0798271045353776
0.8644080756508137
-1.2651931896499267
0.24246709337351025
0.5649789944801181
-0.18206165273201602
0.01575645125598507
1.7698891753892614
-0.6667662191416069
-0.41223449918208055
0.31229817386978825
-1.2212323350577172
-0.6568683136842287
-1.4776174933015498
0.9643206946235737
0.7371098692033273
-0.19133907635674274
0.0978415751990438
0.10397315346736855
-0.3075802289895204
-0.38810415743075993
1.7835036555423152
0.9612019068061448
-1.0293601329215636
0.4673425914984525
-0.13356907592391953
-0.38980414959182075
-1.2223294497879107
0.9025384368646989
1.2439691393343943
-1.6441292221959718
-0.4175494618991802
-0.8339796834526445
0.2176577323990943
-1.3944662512404713
-0.377875233412352
-2.094825257807656
0.9103404614270899
-1.507802278310597
1.2954543458886798
-0.8453874375857374
-0.5114242275616961
-1.5985189203139116
-0.13019894897314177
-1.6369300545745715
-1.2138501596558966
-0.6638500036354232
-1.0001144646861724
-2.0802626574037006
-0.048326565573298286
-0.8390577974339142
-0.7138378545265315
-1.21870132371143
-0.17666901211727903
-0.9005846444885928
-0.7783286379749517
-0.06819487591231405
1.268815250672913
1.6981772371475454
-0.01937662205640546
0.7924182230171914
-0.687947880431156
-0.5761210810007191
-0.7906685094828474
1.263239589698169
1.8867569836060112
-0.9221164856013697
-1.5341146105020755
-0.6836683696785939
-0.3783485588909269
-1.3259097594378277
1.1965949631383404
-0.5063329355179882
-0.20276652168158665
1.0342709931551117
0.09839657427115578
0.6334713599311409
-0.876940832356546
1.962602736590103
-0.3051438853608535
-0.4280707072239577
1.1269820744758625
-1.7597190612300109
0.27388412890331215
-0.09281751905772975
0.6142569859734296
-0.02643236924359335
-0.3078948222674557
-0.2813509871619183
-1.2174008255710174
0.3771791815542649
