1.282224437016569
0.8978249598546676
0.7882252750241152
0.42356504194836564
1.2648585191712665
0.6963393444740833
-0.08243470487565008
0.5315406212525716
0.5509514353989547
0.18020816022535313
0.06907776475564009
-0.7509761101843545
-0.19206683745249314
-0.409101857347199
0.4225049301797681
-0.710551470575713
1.0696955997913649
-0.008943161315968048
-1.051072675080054
-2.0044174478535575
1.884434686174964
-0.5738074106874755
0.8553814950396915
-0.5591017451323514
-0.4415087377684929
0.24215579269484871
-0.6543919024857491
1.3155686189128175
-0.09191160274853402
-1.3626774271165079
1.2677180541495383
0.29453896898759396
1.0144733052753745
-0.13050508602523903
-0.634034251495958
-0.726590545139532
-0.019915059231588844
0.3503346074463151
1.010461739343767
0.12929859100626512
1.4053610376588912
0.3193067227492155
0.31225211898762006
1.4149123643735961
-0.2513027869873309
0.5362004943939692
0.8425592021441681
-0.6788076038958656
0.7140115722196639
-0.9397808164860878
0.7012097181204231
-0.0374286333338198
0.6849348394198459
0.7656826310920426
1.0201199931485103
-0.4171900550756163
-0.08627628927488575
-1.7793214058934983
1.2482104664742115
-0.6077294560047333
-0.4687781472997241
1.3254234588051976
-0.8163376885969622
-0.12815372040850176
-0.4049336062717177
-0.04126670180218102
0.782920548623682
0.6999149978923688
0.13274701992101073
-3.1247033255905823
0.3295189796253647
0.28345823034282447
0.42997948974555156
1.200533288680468
2.309656997437383
-0.9469868154726757
-0.4213824174032526
0.9292542209780504
-1.6161044204402983
-1.559797828165352
-0.5399919106307609
-2.3715234380112715
-0.1823037208032386
-0.1454259514470551
-1.2115740516311209
-0.7247635944474464
-1.2463101245718615
-0.2167113343414822
0.3428500933842047
1.5894462791314656
-0.8997208753626424
-0.9715577325354297
1.96671307467457
0.44972948161750104
0.5255538104230313
-1.4269657505525486
-0.13464633760215194
-0.8647356394279084
-0.23118622245617912
0.08508036893045054
-0.19039506636764433
-0.09373518564631877
0.0695974854783049
0.8732783893847664
-0.39136050369651104
-1.455590106876082
-0.9964071032429875
-0.22648514923756202
-0.6942134632714041
-0.7799879276938131
-0.6897149192691235
0.6707542989488917
-1.1132133416081602
-1.5527212930048853
0.07329942302310122
-1.3719533655542597
-0.29217760200537096
-0.19979434896711062
-0.6483947291359443
-0.03467989559757356
-0.9323495360357066
-0.22619649578426254
0.36373475200702027
0.6338198320846004
-0.6559510337454939
2.71410418349805
1.3474668345946672
0.9009100951534179
-0.5697090008401556
0.9557011863035114
0.12609539293106775
-0.14254055944803184
1.3158321190294064
-1.0612906908749469
0.346667829264888
-0.48403217817210725
-0.9932699460408632
-0.09303300966184275
-0.1463794514936375
0.43657233368780507
-0.548350065548556
0.48361273015862827
0.8789235534219428
0.0035396491730249058
0.11174990849498
-0.57521366399931
2.19375151205495
1.5490101244418444
-1.0218205010093
0.2963429563877664
-2.192882020543248
0.1917264313027833
-1.201631609497494
0.4551175265629587
-0.2665448576624624
-0.9291142558462022
-0.8621546900624949
-1.6137480940702915
0.32606523589208913
-1.110482365212186
-0.9733910029855022
-1.8623915813979364
0.9345097784781975
-0.7368081403068101
2.258438393864655
-0.9287821441312614
0.11731166972023105
-1.304955381772444
-0.2953659141370654
-1.2395412945986697
-0.7766580356939479
-0.01223940075818808
-0.7720315109011007
-1.5885987812029465
-1.2218740206949925
-0.31549941042555923
-0.5309456198197272
-1.9606373087085003
-1.2387855880016763
-0.6491502295736921
-0.7531831007044648
-0.5405698357090323
0.179008470370711
0.8285807639420122
-0.6438525483757094
-0.36111628127784395
-0.1551174170725318
-0.9204250236188337
-0.6899858093367491
1.547325289049395
0.4499846739467889
-0.19399260553826453
-0.877177330378493
-0.6216012212321418
-0.3462604330848401
-1.368908937562108
1.2792923533100962
1.0491848288982126
-0.12718082376263
0.8061699729856212
1.3357734848539118
0.9207066697254755
-1.2680772585755498
1.6514135948026718
0.10377679623592767
-0.7609362477942637
0.8855564232142552
-1.9392541379767572
0.323682782798076
-0.9860413502233724
0.6026604612851967
0.3018559061247219
0.3115442143355523
-1.3065593087204004
-0.6771328114644631
0.554954252870631
