0.989146664396315
-0.45541334108090525
0.3747589713608998
0.6846319689566914
1.720575094184388
-0.2839409272644824
0.5246800183543785
0.4818633443028971
1.1000651659898661
0.5386190497848985
-0.37967951820994056
-1.028598664685552
0.4799983451473382
-0.00982478253329766
1.0887866518920508
-1.9728575947728153
0.9743933967984227
-0.14203460748061983
-1.0622697091811688
-1.6268317709468123
-0.5509995434309476
-0.5954409848870648
0.45463317426504857
-0.4953802517049974
-0.9681869860573242
-0.24789298186747932
-0.7588833063039344
0.9858145572052854
1.0206422285902375
-0.7891741501455602
0.755181091697936
-0.23569476529804556
0.40167225266839324
0.2928926743071247
-0.11151195878139475
-1.721687301290882
-0.05650577572663784
-0.7613495529915938
1.3004771769814494
-0.8294284884394143
0.3684621604103271
0.7130545522594045
0.47586846111906667
1.5167197282889362
-1.0892899821173256
0.33847573694899424
0.8869390252729391
-0.21409504542019014
-0.44344344543908965
0.7043044382138965
0.17567242955847945
0.22522396492334928
0.0749032549083477
1.7811589570369537
-0.2305440057142371
-0.7022275387744812
0.5025625028973045
-0.07744329782392989
0.5264921708278214
-1.3881582486023358
-0.21360290273201707
2.0407591955028974
-0.6299859051617415
0.4386591821598119
-0.41896195912915213
-0.9380329260428858
-0.8311391596286629
1.4265040394293402
0.7924984349767314
-2.420552302280956
-0.9278005710472738
-0.4467051699120096
-0.661994456076742
0.0005291822719003525
0.8675800170235899
-0.5516072168679045
-0.46890909867341174
0.5813609907329077
-0.9448996100352904
-1.9731804838256406
-0.48076747294152333
-0.9865990685438877
-0.8068387264450676
0.0557245809728634
-0.2598137797239609
-0.6153165918955115
0.11156319966530537
0.42211955360284137
-0.4296212808890355
1.0671033903406801
0.6017069028257522
-0.23564049190684022
1.0273337961647704
0.4334003989573087
0.336066326149507
0.4722829736357774
0.8306287139802095
-1.142528688154483
-0.14728555308803307
0.40789886612297943
-0.3008072773628895
-0.8933825110806162
-0.3313188463257567
0.44149933549445497
-1.0809327647765627
-1.4682644268232792
-1.9701357106126165
-0.6708837707859046
-0.39033387017032456
0.28947032849228815
-1.2840242504971744
0.7874604315949235
-0.8039183106513845
-0.07743946428537773
-0.9307376446169469
-0.9987347411989835
0.5033645385433878
0.013847798375481501
-0.6966164767963866
-0.6090034298003625
-0.06933538821357696
0.08378997142086242
0.10551118002977511
1.516599788276775
0.137444696636715
1.1119047520707928
1.0737424006913252
0.7112954962727548
0.17458542026090573
1.1003181210487256
-0.6746705899955403
-1.1939954779329123
0.2328097568630234
-0.36556291481599046
-0.1158107201778876
-0.462810276588909
0.042407663047162036
0.15176978990277745
-0.614455634082758
-0.06620878338545433
-0.04236618805460357
0.19224456648315996
1.737636740950264
0.06310940654597029
0.7092907499214434
-0.0074236896369342005
2.082875931792037
1.1141573724922487
-0.371948158603814
1.4541972379503862
-0.5438701615211644
-0.9565533672032669
-2.4149934938120414
2.163952400409224
-0.6301822227782203
-0.5073297124600711
-1.3541050123686598
-1.0954377673975326
1.07178038870979
-1.114002650342978
-0.41922058183978433
-0.25239704084940895
0.8911029837148018
-0.35180442032519815
1.6211500763699949
-0.2409484190831136
-0.49565676477277054
-0.36233841439932213
-0.6953601848381656
-0.8981861793565666
-1.235085377359105
0.9186066473595498
-1.4051439911329153
-1.7950037924453346
-0.5190505157031691
0.2979883473030519
-0.6804473700435333
-1.3563352161282973
-0.9984980273503534
-0.7379271780272539
-1.4244180386270897
-1.2701905557068682
0.3792708188888708
0.9930377332864987
-0.4612447634864574
0.19500217665468944
-0.29204987727848697
-1.2863363997274513
0.043308135719022145
0.8493148206410444
0.49062065312454495
-0.9005401677958679
-0.5579423396963188
-1.421529057720609
-1.165254825222819
-1.2402633381085237
0.7349932089480156
0.9316530573944826
-0.6613226809382869
1.0564114411999164
-0.7206592308709818
1.931774678246362
0.07199684093171288
0.8640036747658022
0.572016900527812
-1.4187232685838502
1.1311231172794471
-1.397333995458786
0.7039584741224624
-1.0018763682611111
0.14174079953788524
1.1949646714443811
-0.4073064502748156
-1.4688699823281963
0.12050845582162437
-0.7542623038091735
