1.2292701813051856
0.03810047404070471
0.8728572438273587
1.0745062375451633
1.5609220923955114
0.36359349169926114
0.014936516914210274
-0.6565845292212314
0.7947949416841978
-0.5765989668025191
0.8486862298993763
-1.1178551085104715
-0.07555488225789286
-1.131707623859517
-0.17691073571503338
-0.5659977209396043
0.3652907205525457
0.5016709606322085
-0.9027784936668044
-1.1363389613374038
-0.5644593091330484
-0.9291845250515018
0.8209667154059316
-1.1401229836160722
-0.8387953349505273
0.777053250202184
-0.7038853042696337
1.6880902166120308
-0.15478493054250822
-0.014960932632079316
0.6277698089408982
0.8105604000003486
0.3712457666590766
-0.4351770613591909
-1.7024878271070074
-0.5128521204164753
0.8543948725384636
0.5203194755884768
0.6371759806478403
0.6354490337810821
0.8557201232780962
-0.3594477155657083
0.4341641519187298
-0.11836972633616161
-0.7867517170311775
-0.6697352669937037
-0.15519834200044907
0.2948191492540121
-0.8146305348110721
-0.20703897970469462
1.3524680241077771
-0.9279103618232933
0.3828374562777231
1.3603532070842652
0.11144822750131014
-0.30461451081551844
-0.08992861448992122
-0.7664416471319239
0.6002203676872823
-0.33349934855829877
-0.12110860459660755
2.3023367610408805
-0.05493122255228432
-0.46675539909181507
-0.5136137076457334
-0.2940171513665223
-0.9998956163909768
1.1232387954865923
0.7835109062484846
-1.2175670250634762
-0.5399315990861744
-0.5508632629419828
-0.5690973932775876
1.2006419665035009
0.8392340706811734
-1.1505669309423703
-0.24344940677863058
0.6026129585909826
-0.9464582461160109
-0.5603709285537584
-1.6465044054524327
-1.6249125769527109
0.31292731509520544
0.20454683547208105
-0.7106920982410334
-1.443025061385979
-2.047491421801983
0.33473452020211003
0.389767016305116
1.7815870392919368
0.30045565978898087
-2.1748176877292122
1.4053848483561895
0.5893499597970938
0.9783349621754784
-1.5603510757107801
-0.06247849520065063
-1.8073696377331432
-1.3443253516238423
-0.1332048010899315
0.8622759511453955
-0.8748016285697457
-0.5503831277323035
0.030243676185200963
0.5476826838627704
-0.7723617108380179
-1.6291016191125047
0.15766514266149573
-1.1669822332591027
0.9753964559331763
0.6912171585294361
0.8589519113376328
-1.3330493060042352
0.4575463100053947
-0.41186157123968753
-0.9471551934669552
0.1827652345541135
0.6501263914173465
-0.7869050251726855
-0.6957537333879336
0.332302475991053
0.9095409310505687
-0.05769836102215327
-0.30358503618573623
-0.3407437551715658
1.6042459692579407
-0.22168263515670206
0.6346851650443699
-0.04414672026124272
0.2803824917751325
-0.8153964244044838
0.013268020625629873
0.6069429001504146
0.8235117822804612
0.8492099817040042
0.33475614182319285
-0.5040521934078273
0.26513625207378555
-0.3979325273156463
0.7311601652066266
0.5510938666492251
0.20484078067769212
0.07479513447684474
0.19853985604099803
0.2550277635621766
-1.1823715285852159
1.3138631625266992
2.528806555998929
0.25057497348737234
0.46993935644074203
-0.4297799883725518
-0.7116725010281325
-0.751104121271162
0.09472560242234696
0.9819213851101819
-1.1707406608261193
-0.9244981913774201
-0.10161044344909897
0.6366883511699694
-1.885537606219832
-0.4946679390825917
-1.0538881433572533
1.6180729855957903
-0.25533266417260025
2.0583112491578763
-1.5062011287773787
-0.8282286456501072
-1.0815843195640267
0.005107865287092339
-0.7063063873462331
-0.12418203796885219
-0.8076904486609282
-0.10644524861493365
-1.4561457111163452
-1.7041740332264266
-0.6783514898925453
-1.8747339204529019
-2.3887548769985703
-0.31822039135106445
-1.4740073000900944
-0.5929061646814493
-0.7168086746653282
0.6011219023484639
1.181295845875552
1.298279098468777
-0.48259532429049934
-0.5169655025162618
-0.2660646851310714
-1.095550631286848
0.687410133494732
1.0359621234090193
-1.2014228994885687
-0.8796531620425175
-1.4177094208636696
-1.1984874742620164
-1.260411425895711
0.41237670365611256
0.48040947283756963
0.3537592839455881
0.2566954237392278
0.8325469251683965
1.485818520893134
0.3309148134955764
1.4518554048611285
-1.3543557736204392
-0.051264327796642806
0.7982396865353308
-1.1969568562995736
-0.08884577215756284
-0.4752814529087114
0.008454491482482285
-0.7206964374908068
-0.5452654190660623
-0.1366696133747881
0.024757187918780205
-0.18910480334747784
