0.966395980332059
0.6609713637686272
0.06980888765720239
0.993835355819969
-0.4303305030923439
1.2671428650221388
1.256537618744645
0.10149513936710719
-0.015880547496618158
-0.331372149856889
-0.12348113892228613
-1.3230988417778384
-0.030782519267778252
-0.5953226038655596
0.33343978289803344
-0.21653772862021908
0.9702500216857687
0.039134975651459625
-1.192820327188459
-1.1046301872032447
-0.5364290542588539
-0.9060068599175035
-0.08670041093208469
-0.5345600511479529
-0.1107627584937477
0.0348865013340619
-1.4862959329699694
0.21996477398719405
0.1514299683192834
0.4422702872994813
1.316465817122431
-0.10868677374337875
-0.08016060039425477
0.39708547490954255
-1.8337192294921643
-1.446321074867843
-0.2641567372736445
0.10714109354153933
1.1026956475108765
-0.20869829789203767
-0.1727802827984275
0.30165148784250023
0.3862432181471481
1.2507857566187282
-0.28021633317261607
-0.5149346933055466
1.1112884971264514
0.2863365493436646
-0.28204079556998274
0.00849083990470495
-0.4254588937074485
0.3251717248494564
0.046015253180191173
1.2856799761152098
-0.1941816926771313
-0.4017316171053088
0.4062238112033595
-0.683591132417519
1.7376377648731025
-0.08500243953659825
0.023010434899070953
0.18934242753068609
-0.1359719038823622
-0.0004481330865051536
0.050021841272151535
-0.331145585239886
0.8880996883887211
0.6011708958051677
0.5101729699372329
-2.618035539386159
-0.3411419059865637
-0.14842876332029564
-1.1772550461153979
-0.7051803642913438
2.0531751994951097
-0.08747669436579131
0.5291274024583645
0.5797562569509519
-1.86556550790169
-2.208809742718732
-0.9653215290258454
-1.2474659770927574
-0.8181587948692269
-0.13566983449404524
-0.7267352789305832
-0.6932665853681232
-0.14148480741746183
0.7478486616577831
-0.4166101112686784
0.9109028291005278
0.3327230746911999
-1.1153281067795509
1.6998282582052389
0.39527993449420223
0.41112325343502737
-0.5343684111564302
0.4057498591216212
-1.5388595930313849
0.3257908824051306
0.7162576952627657
-0.7023851684655251
-2.0052049849958475
0.10353182109864693
0.7951760037552316
-0.4057087063002034
-1.8586987406636069
-1.214525353312278
-1.1174504460798316
-1.2560435605366396
0.5098887727984839
-0.9173776663089264
0.5324728124796559
-0.9499267652038318
0.5985209344242627
-0.37250525618147057
-1.249287563507855
1.3011561108272334
-0.3945849218613596
0.6113257821574541
-0.687566086113391
0.303671642358625
0.46441789881751677
-0.08236500671757102
0.9106539369150866
1.0717315935808016
1.4801157753906493
0.3318316653839768
-0.31204144565498765
-0.38133950570514746
0.486860752574159
-0.7871616937066584
-0.6649026878986133
0.8734585125688547
-0.6742708335344404
-0.6280417811750514
-1.0076189275587866
-1.4364336673111646
-0.04641976807229864
-1.40624056291328
0.41772003777375205
0.946057877758294
-0.2689235402632151
-0.1994674691389286
-0.018014643639790273
0.8877960938452047
0.23846033634432295
0.7067428746805892
1.0503760334640344
0.32147414531670926
0.1692025674250599
-2.3655171799580836
0.12389796479041285
-1.4276704497386987
-0.2922961386640255
0.5956606624095195
-0.38726257180706486
-0.43158863030070527
-0.7677963747045102
0.048605200543803545
-1.3179097004000486
0.6921632172481383
-1.0211613141323386
0.8633087277937163
-0.49883253710619824
1.4815181147020244
-0.009324554174112376
-0.443064779167921
-0.4980240399095357
-0.6834144161503798
-0.6160149293039491
-0.8043125879087125
-0.7742026439344745
-0.3794256395492581
-1.3485729035706653
-0.059682285208385255
-0.6655043455118769
-1.1871111192532504
-1.4565405699325784
-0.8301492112266522
-0.2841964933791271
-1.0031506775925103
0.10238707781468254
1.5709529724633908
1.7833757859271362
-0.20150046807152658
-0.5941591158900006
-0.8138730580219783
-1.0494720194663594
-2.666106273315612
0.9604624893699847
-0.29873854979109193
-0.6484255722558578
-0.18448392711235717
-1.263069222807071
-0.7130837558490928
-0.968236116041459
0.48069035285030776
0.24239817345649034
0.5802919056173136
0.5374693756433393
0.30590003434170937
1.0466925245797962
-0.6215758009393775
0.8722420124712258
1.8658900964301444
-0.7850487305647114
0.6634541465511162
-1.8691299860168795
0.1554603521705452
0.2904255385740724
0.21859102849377487
0.8805448213776409
-0.13581533366098814
-0.9163572188732768
0.5874856974831978
0.25257354701613033
