0.6875645592090835
0.4844796164409379
0.5569833691668156
0.8074534289050355
1.0749378340727425
1.8031322326224033
0.6825942766893939
0.3788334656917341
0.4898172479788145
0.37002530570973424
1.0126172479524198
-0.8872852803232758
0.36642722454797794
-1.489847311297484
-0.5531871725468073
-1.0448645814742137
1.388721403458344
-1.0821368838095324
-0.49367685659266863
-1.769759121373795
0.13765261895028663
-0.67538216581326
0.15107379357318595
-0.27258579911564107
-0.5269197128251645
0.6549874739285363
-0.4341716670105176
2.087094733168087
-0.546675926757454
-0.18049310557755646
1.2958221860391443
-1.2396581481931581
0.5792890707552528
0.17001443982450565
-0.9761794263594096
-0.9523717333500783
0.6184449260687842
-0.044514512474782414
-0.3642342834001906
-0.7398743303544087
0.3730653598615055
-0.5459897781345664
-0.3722937005412071
0.35871824722650436
-0.10863474696150377
0.005155953673355723
0.37541170096314036
-0.7908176599528531
-0.7398042845803903
0.27454488413910993
0.42961115499195707
0.9864622290643299
0.6029222452917928
1.4970027625031121
-0.46271093323484974
-0.6282078636542533
-0.11789729208335577
-0.2963013708440895
0.45787918308397113
-1.3740389704524212
-0.11299813572425427
1.1183749659035078
-0.6501343359703897
0.18277486273823224
-0.33296432962836586
0.7065657530686891
-0.6631133165190152
0.9472150319360582
0.156726192953665
-1.3381634611578572
-0.38693485545784334
-1.0520385054229044
0.3278560148151173
0.13282678390682684
1.5093857981228385
-0.3378819324409892
-0.745123896100959
0.5784961585634458
-1.4678113723253612
-0.8538317651234402
-0.24976359742091997
-1.9940186470043764
-1.4875165924577476
-0.010578636634804184
-1.650939624677423
-0.4700467040365484
-1.126527702231561
1.28568696579578
-0.16563220253822192
0.7696434048707053
-0.010422805602996552
-0.8338172989332682
1.0000957712146148
0.689641303572579
0.7665813801336555
-0.15894386588257048
0.9263373444973735
-1.5922480712276497
0.8157752464425935
0.3659651409950754
0.1476461820692137
-1.2834759998535006
-0.08623194477885796
0.9599422587936639
-0.025958823691175734
-1.8320289553897697
-0.6288818791711469
-0.16906718447837066
-0.5458855773093602
-0.5009661383660782
-0.3585343626980332
1.0786183515743206
-1.1409839187131476
-0.736302074864914
0.22487855495220033
-1.394648787886569
0.4144886908245614
-1.6170990739764333
0.3547493990505698
-0.0899490761033892
0.6973042035100555
0.6716904439486
0.05492123033646085
-0.49818737895482773
0.3332028749631269
1.793649118987621
2.4558117489996283
-0.2746128221835467
0.015072241264735525
1.4292118153518425
-0.18257216230207096
-1.0208400402203224
1.7129497862428527
-0.08874519078046256
-0.7666165900327281
0.08982621451536064
-1.6202108019741324
-0.33854786265489517
-1.407868008578089
0.3322990441183361
0.1785768568941507
-0.21098750318800963
0.22405834388818907
0.15098560058130728
-0.14890761711234202
0.46799858763769225
1.6758686838588812
1.1201370741395298
0.09309849326412667
-0.2477759666748175
-1.369785177202685
-0.6379483995229128
-0.8113711111819337
0.6053931975183675
1.2201312871307843
0.3736910446594658
-1.6511093098813507
-1.4730727077507206
-0.22421285414782216
-0.7850429675088433
0.0837446996200526
-1.5534548885401736
0.6886752323027965
-0.7825868851054052
2.739139176439084
-0.9578604424652978
-0.5738177613348195
-1.7787966938586828
-0.11884503584340608
-0.6859013656838251
-1.5689300993213244
-1.5537989686630338
-0.6991862592391402
-1.6022194192047607
-1.259679348488484
-0.32484466738615786
-0.09374022905928392
-1.606078588307604
-0.24548678626002318
-0.29291907410970275
0.24893296545567256
-0.4567246634709832
0.5007490251370972
1.575625844078784
-0.014225034724533278
-0.33393008859755746
-0.49124379188032935
-0.7414441442400124
-1.4928492662154866
0.7304130646402582
1.8542766366203571
-0.9349249863359177
-1.4182067287621372
-0.7686007838739894
-0.8579828639232977
-1.0276368511642673
1.2973079287034763
1.7999078488850064
-0.2904047006657669
1.281038270014629
1.4579895362272226
0.8206584861062339
-0.05218230157882153
1.6239588352428223
0.033508612336011906
-0.21866086683885683
0.24575321686091145
-3.229713240913724
-0.39065185921613255
0.06718914580571098
0.014651323984033127
0.3469797980569166
0.49217158710052633
-0.5403664091194946
-0.8613451638162255
-0.9136449658228029
