0.7880145131622867
0.1304642323951778
0.37731103882745626
1.7600580159053716
0.8385798156251526
0.6440639112354212
0.07203593316271911
1.1333246539656612
0.3250114993585641
-0.6779638528199226
0.9086221070342191
-0.0596276191472922
0.0004589251918331039
-0.8413251995099594
-0.16007809768814288
-0.2083216989870949
1.6971120469603984
-0.34531717346997964
0.35795873008617185
-2.911501383506949
-0.23881160371849158
-0.8128614812538084
0.5056451772160182
-0.35562676464189424
-1.111255011638853
0.7067271978925224
-0.8263790783107381
0.7294572974310085
0.8276267714669893
-0.7698058931371304
0.47676835658284555
0.4796010599412353
0.8494590693802531
-1.0241834816474802
-1.5736953594282936
-1.5459902513960748
0.2939516160012814
-0.5282079476418056
1.5225694629899178
1.2857261248067178
0.5778699491679876
0.049990876301620246
-0.8531066992861172
1.0226492833832357
-0.8499697043161989
-0.4219281685789823
0.5597818490667037
-0.9458257510243352
-1.5714716025263962
0.43398241506283775
0.6883882654371236
1.51755882195706
0.5341435664018892
1.582258779280077
0.821254786776898
-0.7086591022884937
-0.25942378728230864
-1.0485053303831942
0.5205968175987762
0.581192750028999
0.1736376125871038
0.42635033178813886
0.42302198752631565
1.1565200583547264
-0.6459863110425448
-0.32614622345060174
0.6049131445048263
1.3696820426227823
0.7693161768506067
-2.554266006742611
1.2478209275031418
-0.5200901269848965
-0.7163306724954193
0.26359652999680244
1.3158385056295572
-0.9453674819035116
0.24846992955436698
0.28789256777702865
-0.6205086479853887
-1.6088131584099816
-0.36032506973130884
-0.4183213496737992
0.23017083186794776
0.470803113464591
-0.7069367679507292
0.11859537658914598
-0.2523067814402341
0.4896419593453179
-0.023560676143256715
2.176242890438022
0.3106709632964517
-1.1556739561442848
1.3384135800921224
0.9546766495425709
1.4129328005080366
-0.7352689567199884
0.592779488667953
-0.99528993184
0.3181775999080436
1.6363049729239452
-0.5517470591735651
-0.384318474399965
1.1995743446821374
0.6067272953665976
-0.14978500372538692
-1.329674564534672
-0.8496443275470054
-0.6823689202606762
0.6781920925818954
0.26225286767578376
-1.2829876980083803
0.02651851138119865
-0.8998031281643594
-1.2274652516265043
-0.9494224516135058
-0.5717012901301086
0.5058294323648905
0.12468257685204226
-0.7758734605965212
-0.4281334505356579
-1.4366278000671617
-0.9912490615311729
0.6262254564533221
1.1905793042751156
0.023984023542924116
0.47135341553621535
0.9562447995219527
-0.4811684344424745
0.11556858912629481
0.7665043098003033
0.3227037930199381
-0.1523573182472588
0.11387319053889011
0.07430624745874659
-0.006162272304899297
0.7263437756033642
-1.1474630141549613
-1.1893213336853157
-0.7340849404234535
0.7545165469562523
-0.2287003133772092
-0.5901769758147138
1.5590314094292943
-0.4677195758850832
0.08298251009666648
1.06775616026419
0.2930286065446175
1.5695527318714257
-0.5712585031841619
0.6056797398346485
-0.32787246601134146
0.029919860026563314
-0.4049553511221031
0.8587693736509365
0.389960408898555
-0.43614219168205864
-0.6813542063371223
-2.420715265451765
-0.5759983190450775
-0.21867553196814904
0.20542579985134557
-0.7995028399388134
-0.8356608921582033
-0.9611068989061469
1.900344594336942
-0.4534950860624783
0.6957798458346527
0.17674845431106057
-0.6492264507178801
-1.3102378528802547
-0.9981372802121813
-0.6191010108497151
-0.5261098543412185
-0.7442736470919435
0.3743844933814363
0.7290574026559414
-1.4129998604114602
-0.6064811374789059
-0.6873596761807349
-1.4351721883400552
-0.7958981405864203
0.062463525878164505
0.7957132696959491
2.122631189875669
-0.15038588324123778
-0.6735564799833125
-1.3381453144008626
0.11522241621830343
-0.5400054552711656
-0.2846772682017207
1.5993844709198681
-0.5467761300897122
-0.5040743319927705
-1.477965822455704
-1.5113818140629733
-0.4731748686976417
0.4247307928371073
1.1289133996764251
0.20638518101053294
0.8520940708612513
0.12131244497609117
1.5177196833006246
0.16282300374546038
2.0097500735946188
0.8258600480038927
-1.9626217917306295
0.7049216160522407
-1.5801888729445535
-0.11377714472901698
0.2612016242039752
-0.23667492113736704
1.0463836990702076
0.5978269450733001
-0.9859637592264172
0.664882935464988
0.6198577241288316
