1.1014600824579592
2.0562014439530927
1.011504306833402
0.8744907092229222
0.6162488820910055
1.0468868984499835
0.34935722452300144
0.7065284898718729
1.6114440402089016
-0.2671713481050405
0.04358054018499047
-0.825778951957555
-0.5386674769322872
-0.6268052400548318
0.23798830949157196
0.018934900932417897
-0.7645648961687491
-0.7629771202137858
0.10965509448648258
-2.1078360756785552
0.44316739005531863
-1.2804456718037587
0.5930799010068896
0.46977746129682846
-0.0024427651298462583
0.44501577488680033
-0.6962659308468576
0.7398427377919179
0.10279364287649162
-0.8384296994451224
1.158762444220423
-0.41046233780996755
-0.09209438652976942
-0.0219009364444996
-1.1997012640744813
-0.20525797582928107
0.13194543922142404
-0.29861212313723523
1.016445988373597
0.19624696776505643
0.9763015864947667
-0.2510455647621533
0.7578693128782816
1.1857383996414175
-0.5716493519735606
1.225498449536552
1.5271259597635316
-0.16696599233185216
-0.018850372846534624
-0.1922426859699073
0.07108326946563209
-0.7036888436593561
1.2000403960426924
1.415682472107584
-0.3268714604814772
0.38269874425717254
-0.2793605289313994
-1.050776981054049
0.564938998930773
-0.29254661072053345
-0.7529468570103235
1.2967085344566076
-0.34266554599457916
-0.21074755294858682
-0.670210843841688
0.7529865397460077
-0.8890336157375982
0.639370630212117
0.05896023829759918
-2.7680584978471217
-0.04261682801210391
-0.0395735823666451
-0.5560842934361716
0.8994385786725808
2.0845370935100473
-1.3596486105153152
0.3668361255834074
0.6708547278256713
-1.811042229415713
-1.0737244031106283
-0.6819018935134546
-0.9771769001771109
0.38316606332412495
0.2117490957955904
-0.5840443678563858
-1.5181570427929558
0.06568740563409292
0.2054848097714704
-0.1695792911975481
0.8036900931439905
-0.6524663532305591
-1.5698774403473912
0.42709859429131636
-0.016152022356291318
-0.6534717552066303
-0.09901157432973579
0.154931784757519
-2.3057777739629524
0.31646121763173213
1.2366939679882127
0.09601801767620011
-1.001812547221622
-0.37904838605272617
0.3097075660402313
-0.13656427071196084
-1.2003247457787292
-0.18287575325753913
-0.8026995078525521
-0.4029251234009168
0.7426307995351507
-1.7167113405915466
-0.3954665843825361
-1.7236026849054005
-0.05510987966324998
-2.2468946254462887
-1.2924764620720899
-0.006528780992024752
0.36357321833587536
-0.6116979213507123
-1.5262675596595083
-0.4113651587402385
0.04218305043209439
-0.08769211288719327
0.923345737648094
0.5903592509129092
1.333235780260306
0.6498741567357336
0.442807742296452
0.29356106183501
1.1252784869144783
-0.34426165155303146
-0.23463849164648637
0.5307416486115721
-1.069301028995696
-0.6479607217147666
-0.8119408973587477
-0.39482365852059875
0.7501482802640338
-1.2715577629118406
-0.14666539131548428
-0.9114436478023067
-0.4083502016800426
0.8212132334211337
-0.7678740544002334
0.15658927388387778
-0.19375592613769785
1.1757078778286112
1.9231996501015913
0.13153586850056287
0.4212536203208099
-0.6738162400785664
0.40447458025898064
-0.7822757436930845
-0.0051211983995269605
1.0119186892458518
-0.7950996020152787
-1.3022663438052073
-1.8386056968497515
-0.09604687436253972
-1.4550363432408302
-1.0855168539681046
0.35316256943029123
-0.0023593553922851562
-0.5710882600939502
1.9404719945830213
-0.7349944115881923
-0.8740648746638546
-0.4759654219897853
-0.3492816744217907
-1.3407347627008632
-0.40784789845773206
-0.4609232272824634
-0.9516183897135395
-1.1443542426349824
-0.4405925957415583
-0.1474303650992188
-1.3713336428796994
-2.6340474902694324
-0.8278392357249472
-0.6645827959927687
-1.003819020427792
-0.12718815310337722
1.8608014650232882
1.4516174132947297
0.9280253396887898
-1.065959509834872
-1.1296874218028763
-1.1217041547427942
-1.4534304048812576
0.6382334733735479
0.769835645968389
0.009194859797403088
-0.17744452285865164
-1.2414132979343242
0.0091207274380245
-1.0977330004321184
0.1360976437992808
0.8975248596204295
0.3782496092906405
0.8516823164918025
-0.9077223180298064
2.197170906387164
-0.631460314184007
1.5952853275943435
-0.2773140665870502
0.40388760249322
1.397728853810552
-1.8473606627479175
0.10625036016140431
0.4952529216755036
-0.5546177756611448
-0.5034824053557871
0.058811767880657055
-1.278365959771456
-1.1111146968752947
0.1460807122566832
