0.6600176504719442
1.3609021008408477
0.040491348362441615
0.711724140562658
1.712692331552745
-0.05222297166908063
1.1661861007231171
-0.047164339376812636
0.31368700441137803
0.6711758155841537
-0.17642578647689594
-0.5451914190561136
-1.0441325487212443
-0.0845350084155595
0.3590188239425669
0.3355749864638111
0.6750520158595708
0.12930763796738498
0.08031924388663814
-2.8386257903561543
0.2009844757987212
-1.0678153642580983
1.018462849940291
-0.8391155185455799
-1.0487701468933481
0.24768293782501036
0.9161876584976447
1.1996812816376818
0.14023073159496727
-0.6704382953615451
-0.1161582425065163
-0.3414475571151744
0.5969790826930003
0.1903034045970475
-0.7761102649792119
-1.1308731473220788
-0.8093588619896039
-1.05805828999549
0.25531748971001933
0.747381657357643
0.6925438383481861
0.20803594283812143
0.04433500546702232
2.147784522745325
-1.0906200104340553
1.298469098133474
-0.3525167599184846
-0.480197207253516
-1.5418776563386785
0.4706924593043229
1.0168412703437806
0.20088341904994322
1.352804577452801
2.0143423372680282
-0.293905283809938
-1.0499522570536315
0.024439478519880514
-0.5636499863955784
1.8127590733841994
-0.2336985613609246
-1.3736259664756612
0.6081317990664649
-0.19106799966506038
0.32546880654088284
-0.0229672162463537
0.7981040010211318
0.25639239122565505
0.0007357775428549207
0.4641185365098092
-1.9752510901063758
-0.1388155686279183
-0.6519460797161551
-0.06023411341337559
0.4122250901850111
2.0691136913710735
-0.36384420404376366
0.28941579479472096
0.7365890492992013
-0.3138045062451392
0.05043588935804144
-1.3749222657282032
-2.035116350676599
0.218784265657861
-0.9454720594893886
-1.2286495975130982
0.21885125768677538
-0.9763283608414512
0.4550510615140917
0.857368547296325
2.0489688163478297
0.20023096346186264
-1.888196003394714
1.4000371154688105
-1.0151693026374944
0.7483984317287166
-0.9167508348297515
0.7618698373964092
-1.7560218811501973
0.1861437550571874
0.7308224943418635
1.2582345470494452
-0.9670587137450563
-0.14699763034903554
1.3944128965766334
-0.6122564026671423
-0.6229492526069716
-0.5782774079161421
-0.9050950003119442
0.0038576914255676886
0.9780860838785381
-0.6575682590261518
0.2854422264589528
-0.2877324703702987
-0.9148976851958165
-0.8523829319586513
-0.20140185029697588
1.2054486107594384
-0.015600259979633047
0.01916933322705705
0.46926016248504165
-0.47083087294574943
0.642505851392777
-0.635524158158522
-0.060943991793703245
0.07601331422301177
0.8195228893013247
0.8449915317319494
0.9793062958243924
-0.7550108786820593
0.11887960321777419
-0.4409271773183605
-0.4460163465933176
0.15853501733125397
-0.3591928955519323
0.18499486044417385
0.6138386458352818
-1.1135324253799386
0.9406211840608982
-1.171183818504852
0.44399517173435205
-0.21281007026172266
-0.31855284140060525
0.1542638831796283
0.7572463766303348
0.4093374457347499
0.6647217263672813
1.755627552104385
2.065127130270713
0.017907377668253843
0.23096446389615327
-0.4526503221984807
0.17125537416154588
-0.7387938332495583
0.43396607991146924
1.0388891358752292
-1.0229427153126545
-1.1577371772386342
-1.3644749175158588
-0.9578798067120116
-1.9422366606448356
-0.8605480607786624
-0.24274460506416357
0.5287555508589274
0.2609513228707243
2.0887070089948603
-1.0070711206213299
0.13915519939141469
-1.6164404999798205
-0.7036294910716769
-0.9404291108336886
-0.7420591240030086
-1.2108263099922802
-1.694764527120622
-0.834010582776037
-1.4275056808846078
-0.596505575806642
-0.9515069150080182
-0.8215708527766274
-1.9997964763096947
-0.4197963460258177
-0.4862876182699735
-1.398670826284677
1.4511729753504008
1.6998235822421588
-0.20625246927647892
-1.0960289802633554
-0.5053482547589566
0.32652530708536176
-0.7761001078592401
0.9304804578099661
0.5184992822484045
-0.5971328669311745
-1.2235943396350102
-1.6216789962059817
-0.5668995837937242
-1.1456868102189288
0.6266346155697622
1.370039354481115
-0.04995439775150461
0.5424895913159923
0.2652810087186837
2.492766771035278
-1.2389755578751014
0.7189106915056629
1.2658607787641216
-0.31437163717229294
0.6017990475046711
-1.4424349065094366
0.4456091441955914
-0.7837635237298641
0.7275520715119579
0.4525387622566911
0.5422746289078048
-0.39699342392439674
0.3137457148806367
-1.1190705028620715
