1.4364729522908148
1.4178825638775576
0.5289742971125805
0.6255561272084755
0.5539917838518043
1.0787267021932734
0.14664921500221267
0.5843450959448061
0.4091032847312379
0.15033864680225872
1.2359286669400078
-0.36840365671427583
0.9825027613589139
-1.8282264071417613
0.46831278481150274
-0.39288763644210184
1.4675782365035297
0.47959697266889506
-0.08809264268786793
-2.7416874548183165
-0.22625167362880233
-1.3437443384579262
0.7822869016844046
-0.2074944511974864
-0.5298030501464993
-0.4239455840673443
-0.27936122591618384
2.1349337264140886
0.10655966826891508
-0.510220986888144
0.7570943370711755
0.25971311238215616
0.6233702268737671
0.5487056784412244
0.26769787195500916
-1.7467503289795459
-0.47500814686721093
-0.04508000930181094
1.1562012010047462
-0.9978667207018991
0.3442580114311375
-0.24985692638835547
0.6431793977253504
0.9674197527757433
-0.8611768144456202
0.7205643009071253
0.7573788113476254
-1.2722422938298543
0.18100498841957824
0.20210145604919275
0.15913129191484304
-1.113813108433783
0.7544128373796266
1.999565491301264
-0.08423088377879148
-0.8996137836967055
0.14639097647308646
-0.7135724825972269
1.7042413096177418
-0.016887609875206766
0.224967013950434
1.4724974813982517
-0.06955301474278612
0.3930044510441508
-0.8967974540582293
-0.8666328084449014
-0.3673806125501159
2.1769368191340988
-0.40151810009556826
-2.657574227784143
-0.5526938282420495
-1.8040132800115938
-0.05737113840676311
-0.26136292835664154
2.491847145769321
0.2973366252527957
-0.7635643551504567
0.25674726617856825
-0.2925393018473539
-1.4425277492222652
-1.0458824995852514
-1.0618887483813093
-0.5419253212811356
0.4216033960980957
-0.894933135054718
0.935422409657531
-0.3360381577266369
0.276030444716121
0.06511664136172599
1.435342838268058
0.6452403498156851
-1.125020349513603
1.5371959983606605
0.04628979850262821
0.19271175921261505
0.3151652039329239
-0.42474439706206224
-1.72617783711856
0.39597428443820615
-0.29698217662720916
-0.5417678597801646
-0.4254123769649194
0.3919457726754412
0.6067640580972841
-0.30409473224510875
-0.5922544426112698
-1.8004215271644037
-1.0386176611444249
-0.31955585989682994
0.26006660993886743
-1.5539233967466113
0.34549171114309923
-0.46579543706973175
-0.5543697345082358
-0.7479226786295735
-0.8418070038901303
0.4215212712003397
0.573552767012443
0.13395356166401484
-0.3907611371845161
-0.70898988139695
-0.35678392715810026
-0.5447948501444455
0.7531297912379664
-0.6209065513076962
1.4119535526045714
1.9318710286618346
0.8312912282600055
-0.43453423794380835
0.6651840328157155
-1.5854323490464943
-0.5022994964129198
0.25319050246353403
-0.33232107126406374
0.6029187365524412
0.5685441774794846
-1.1534762789882895
-0.7768841278566113
-0.9365707883718478
-0.08751754082866336
1.3392884163431995
-0.08863540581372736
0.9867145170972935
0.845081904556956
-0.6420410633188154
-0.5915366538437132
1.8276101307518238
1.9767591010655337
-0.4056574749440275
1.123901325767567
-0.701094612950906
-0.23186989742739478
-2.3119136178337416
0.6152327669124203
0.2697303395540427
-0.4711772398116553
-1.5315628743089045
-1.129280807101782
0.039290046621258984
-1.7046769855288528
-0.06264270894809243
-0.44304818902098325
0.009354858353639917
-1.0680235265668392
1.248804608166446
-1.5232917084861217
-0.34252061878451057
-0.30945888122849863
-0.9780832749477022
-1.5303950060982716
-0.40345071090448403
0.043726450385978555
-1.1841321872021877
-2.4176605151982913
-0.5548140050553839
-0.655980044638085
-0.8633357526249232
-0.8567439019256917
-1.1258750743418955
-0.4550676697925794
0.12111429134730223
-0.37305062719228077
1.2285598008465095
0.7029486887776208
0.39648089781146634
0.13384485781381228
-1.3252852927824308
-1.3917519572025148
-1.5863237993648034
0.9220303902383754
1.3566122548520378
-0.6349243196202157
-0.5548226435195991
-1.5641829846843565
-0.8363336939094552
-1.2158216481762922
1.6521604579440343
0.3324752993313601
-0.48804370001553316
0.5931378834450359
0.18593023338481257
2.239602430973557
-0.9792122161520411
0.43510452572417624
-0.3655904489801473
-0.4821836322483277
1.0885058822814142
-1.4511107631306066
1.1617065244728306
-0.3840827941933981
-0.4246973583972225
-0.4796033889034324
0.7682036457087268
-1.05414772197942
-0.0703600321113365
0.08885346821141415
