1.1775735251307897
1.0795668414262223
0.5987453284391161
0.8570941158540707
1.4193513379436264
0.9533766841572797
0.020705383005593103
1.3563843681055694
0.4191208669380468
0.22705775495915176
0.0622979821790125
-0.06456499963912965
-0.7087654027315726
-0.727568663801327
0.96358680587017
-0.14594399185228824
0.05427092443738579
-0.2718127962316846
-0.34552293894698827
-2.8434863551466334
-0.9316732552977554
-0.12617367304703075
0.0008423035843295734
0.30956135312487726
-1.1721181027280378
0.20629429237609687
-0.2510029862518302
0.3298781541685788
0.4449790462267518
-0.27509970219537927
1.0840697173834273
0.7271845142273972
0.8812060834524762
-0.4780658653242541
-0.8020741184323793
-2.413821180337621
0.03834406502803625
-0.19372881894461982
0.7776597076770493
-0.5549133747675427
0.40271334194063
-0.18007505488702846
0.3063424175409291
1.1969855823914832
-1.3706598249664925
0.6639609310704473
0.9061522776562836
-0.2835778721106
0.2733642535095264
1.3457805034268657
0.2172411612916878
0.14510342066319992
-1.0514090069500541
0.9013597729450058
0.8426280882617005
-0.0306257872859248
-0.07603145862589425
-0.17445721398208902
0.7681860277453556
-0.9979781989579141
-1.3442441803148424
-0.4078019011520778
-0.5295667498383629
1.0851266690126715
-1.0296632466642044
-0.4755736762995695
0.36757230140744424
0.6870702077639248
0.6377771363450575
-1.7971451927213742
0.28739500217699177
-0.27022149421945285
-0.6883114721009318
-0.3768122260136815
1.8572189419513192
-0.7124568177751721
-0.5015198143070246
0.9195852375981904
-1.7595067436143266
-0.936767089597601
-0.38503283741151345
-1.0749794790882388
-1.100262621675532
0.1274053024611381
-0.2270937781269362
-0.4253089876338114
0.1300161684932537
-0.910943705898122
-0.7870728800254625
1.3076061344097003
-0.632946734021513
-1.380054454877589
2.2090229366232816
0.13465686262311255
-0.21469685458384047
-0.732006873591549
0.059623868867404894
-1.397536874244367
0.16270817045890484
-0.20786528404125415
0.190758620553197
-1.4009287582509886
0.4883001475448151
1.1398062030170224
-0.2571978860167012
-1.1034834676671617
-0.7713985720003644
-0.35299360673106756
-1.5459005808000543
0.0028325896903460823
-1.3992565184224588
-0.7642283361584774
-0.8467346587598535
-0.21023414294179615
-0.5099012674478287
0.16710067261029538
1.0475694538178635
-0.7955998106827673
-1.1379753900757303
-0.6795522004274628
0.3008766413194684
-0.6334294301231871
0.6345265832330116
1.3543350344942378
0.11272416328620327
2.051490954133219
0.5252409372008989
0.45153894789613397
-0.19028916023691808
0.18577447061288105
-0.6007913438992155
-0.3049433324245161
0.40309505258074557
-0.772564460503474
0.0725720224239075
-0.2613407545004929
-0.9576217264856746
-1.398995823323336
-1.7927640544866033
-0.01354768646816451
1.2087611736236339
-1.089748931594341
-0.10835105562980979
1.2616594331480744
0.7162117268147234
-0.12680090802746535
1.2449994197187082
1.6975089444644522
-0.8925942410314469
0.21491916500034858
-0.5893703373781949
-0.5486269274268999
-0.7061734190447497
0.7053392559222535
-0.10837732386646848
-1.4583186017712124
-0.43006723292382687
-1.2788089696468032
-0.37758257442467047
-0.56257966859788
0.3679582964740571
-0.48998851986204917
0.9768526943642992
-0.2440624675376148
0.4337554769321601
-0.6366365603234064
0.23738626663072532
0.14878469331238675
-0.26610552828403683
-0.9754228411447042
-1.2869711920845335
-0.4342200039053614
-1.209808066859286
-1.600278528397723
-0.6555588969838669
-0.30121409983617553
-1.3201040139048283
-1.3970018041875893
-0.21224245106105322
-0.5850501554018397
-0.3739136539940667
-0.049696024106045567
0.38017849072678733
2.205110402569313
-0.02570427533391481
-1.2431304889574615
-0.39154863175765897
-0.6541455220340531
-0.8276962212741509
0.9898187603629227
1.7010259282843245
0.19935338875905528
-1.7536128040337036
-1.7481320912033669
-1.1472178277233465
-1.1363115473095018
0.09089160073437003
0.23291366865171187
0.5985010161577018
0.8252513023541297
1.0402027207825457
1.0827392240775644
0.029477706474337284
2.129377716931171
1.0842862443342451
-0.6118091503046834
0.34414568184101324
-1.9916616723301837
0.7847747231354014
0.5667005963943067
-0.26320274608415534
0.5825980848869533
0.11236504238650696
-1.1379854153963447
-0.6369664442296697
0.3407175590986685
