0.4841470737502861
0.6361263010846236
0.6236070836997768
1.3191941656214095
1.6175548508476187
-1.2806210641880302
0.5498670634995905
0.18072098451407848
0.0061392468406394896
-0.44865971208607625
0.15470349493115135
-0.6526306923561555
-0.48467275792727516
-1.3633258054000632
-0.12758405413070104
0.4353936591623959
1.1643785844819223
0.4004494436575983
-1.5126026258584235
-1.6087641446011975
-0.9369059177553356
-0.8257622233071122
0.414880308737697
-0.11195339305404181
-0.1592043885945251
0.29850075717260466
0.6363720938644712
-0.39868163174111726
-0.060802362841904684
-0.33571998250508206
-0.5696054815639772
0.8005173138486628
0.31606613060406386
-0.11456074120194555
0.07553334679109369
-0.9987942445088862
-0.26882581116670656
-0.2795751323226464
1.7421687103228876
1.2005887501253985
0.4536903018704709
-0.8538548381136613
0.17681118027901474
0.4240771718401638
-0.15302977265693396
-0.012078392557093476
1.8955216177640706
-1.5466297284335457
-1.1713511716518021
-0.11232919277749893
0.34041177550753654
0.3906322510095949
0.8304366794818373
0.3456878069453182
0.9113217870980743
-1.0861681130244194
0.13128354986534918
-0.8723437177908278
1.3100775645390523
-1.1088499883208953
-0.210052898276555
0.36931726314567803
0.375498985401895
0.8283194002538921
0.12992603351070053
-0.5933164600440504
-1.0526015364548875
0.493676480233446
0.9713111820836324
-2.312533297352573
-0.24901460322245245
0.1363593760761007
-1.2598202649975836
0.7924334819064152
0.9682448338036441
-0.5329068248339354
0.26036422097427386
1.2859889588636277
-1.7232134422918026
-0.6873679034028433
-1.369646869320944
-1.1736456168986467
-0.3381292939702163
0.23140879733946604
-1.82205982508969
-0.3568779890930467
-1.8142577265901703
1.2646678308968107
-0.9243298125963533
0.6092444144395326
-0.3019376199239597
-0.8894117286296734
0.8395896428420364
1.0390025950922268
-0.040941483039946214
-0.6945180415583223
0.044334326745461006
-1.9441027400452489
0.5688467696292315
1.322227016354173
0.31203099302597326
-0.6705221256006797
0.20322251035537703
0.5059802293893945
0.300114217988367
-1.2346354648084485
-1.198261082717376
-0.49829617838699203
-0.04142190632806214
-0.643863757831854
-0.10539993739649411
0.1630886764758434
-0.5551812224501775
-0.7740479966279102
-0.3565488416176512
-1.035328255159878
0.4584122444443797
-0.4939762423827053
-0.3596325602635748
-0.8276239890048883
-0.6147061029462506
-0.7409009293913094
-0.8904415458042823
0.32005138380102993
-0.7659192373267214
1.546404586832391
1.0613512158781704
0.0422849645036327
-0.26376837005022874
0.4614263496486482
-1.4627495222467708
-1.2386806504742722
-0.6900678820828894
-0.011922440929730493
-0.34815177565748123
-0.13780036544159213
-1.1407631863799068
-0.572997137416282
-0.955374694050867
0.8097005981934956
-0.43493332614439867
-0.21338867672807782
0.7657060169627508
1.1082096166711304
0.026418474606960257
-0.21581305523732477
1.5538916985330002
1.7249797817581711
-0.5385257739986843
0.8504133746399323
-0.775424108591562
0.17065332568698685
-1.332283144047106
0.8248012771140725
1.2668576969714946
-1.9944834391042976
-2.319744387222332
-1.5667837831727423
0.44171432631353635
-1.508079970219384
0.15969137819781565
0.07537583293954508
0.578648196901502
-0.4825237930318941
1.2071160079556646
-1.1131511410614516
-0.9499841843129004
-1.130733278491102
-0.6286766323474215
-1.8288280886898138
-0.926558927023693
-0.30244806566386784
-1.2865713238836505
-1.711778354503016
-0.6178843615006628
-1.0031269970618304
-0.988703988395461
-0.5422084557472453
-0.22599028625084738
-0.9164599122392748
-1.2086497605461233
-0.5087011784182118
1.1735719646157232
1.2511104132167086
-0.612719707091912
-0.3307552544192919
-0.23981928606579772
-0.9164267039200273
-1.8502742623058337
0.3960195736462126
1.376559840265576
-0.25717908273564494
-1.0424949167056163
-0.9429912531461953
-1.9910019492453412
-1.1067385464327937
-0.19522976893741406
1.1218055762331554
-0.4733824538137481
0.309055960406975
1.1110353879636081
1.5899059397840265
-0.8441690502971314
1.8674738593342686
0.7414601248848309
-0.35496777771446475
1.037021161216696
-2.8490716160066736
-0.2266614873807226
-0.6521922936759051
0.24044583673198072
0.15502100052145412
-0.2304066545111797
-0.7950823479021994
0.4597341217026404
0.5991738639829924
