1.2854999786293158
0.2021516991198925
-0.835423601843672
0.8321148997442621
0.8522854820054157
-0.2947693757094938
1.1552227053289332
0.8853506803947795
1.4279515869250634
-0.45232647254762015
0.9697773427282996
-0.44565355487157926
-0.13000233201191425
-0.5861379139865328
0.7451669529911085
-0.729224883887263
0.06730619347183014
-0.36175636697211855
-0.5581265059317453
-1.330240738366158
0.07263401265060604
-1.3187458298290582
1.2804624392699537
-1.253278026619517
0.2781058173324926
0.8062390485148283
0.2685421021883918
1.524323139772247
0.5243646451943047
-0.18957881568177434
0.35842035366290353
-1.0740974927723521
0.8995984804250933
0.44886651227844393
-1.0938225606387562
-0.8351712381586767
-0.5046046019152451
-1.0791222617086202
0.9262090517822139
0.42114762409071294
1.25242257219499
-0.1567973828047432
0.4882556325616379
2.186552994891746
-1.267868558356711
-0.07189484984012873
0.062305884374131426
-0.4418987291942196
-0.02632095288465769
-1.160344197702032
1.4552914348950308
-0.39562060271870675
0.800250603164335
0.508924913840205
0.17816126776875837
-0.30944019972211234
-0.5322446762821893
-0.7924629734305597
-0.8179776026393207
-0.8414836032884896
-0.19378683052832926
1.6025073166341812
0.9196577779349616
0.9300965986756491
-1.3963595011880885
0.0696238557665578
-0.2519550673400646
1.8315916198086188
-0.3266148983082185
-1.654959248046066
0.056623907913626204
-0.5731966779501616
0.6291570927617851
-0.2302531337773228
1.3126768170788794
-1.283681778193377
-0.20029772868721135
-0.35860115925462077
-0.953758480195438
-0.9134991623803215
-0.23041548493455483
-1.221733199319743
-0.13718776315041253
-0.35550908901586464
-1.037067399945634
-1.1051815531464544
-0.42964199512551526
0.10496201808462848
0.11678405722644578
0.7637235340068116
0.2855913716279739
-2.369167338210741
1.7470809288440567
0.6065127210047059
1.585198423769846
-1.358355744166206
1.0246570176073198
-1.5587059339571194
0.9281105274153055
0.7135120377296902
-0.4645992904282338
-1.0746349853493693
0.5850710356694201
-0.48006718742923704
-0.5513525988662124
-2.4365598460033455
-1.2509222172226624
0.16581889736672473
0.29175757487914455
-0.8131168525074093
-1.1248393467477884
0.6507259605136939
-1.0513587759278626
0.2918212607954769
-0.38155391261220717
-0.325530784070151
0.2655934154566029
-0.13194519182085396
-1.2211717096322336
-0.5035806790729452
-0.4940726958786872
0.9675745399839595
-1.3675815196354022
1.1580382966039326
-1.4962340137719823
0.6588830906490768
0.6893115489165031
-0.29192811622880005
-0.2383448573496705
0.024307072341918146
-0.8642840546851595
0.47550781566560124
0.8026262177925295
-0.5214203879117372
-1.0776408333022682
0.024157646076931313
-1.1892417306761192
-0.10850928720399217
-0.9499294516038275
0.9957784395451346
1.504849065676527
-0.5108726783705367
0.38446274899772326
0.778671576029325
1.3300035444753036
-0.45622729496127334
1.28005673495852
1.4042299437502979
-1.1891784994641705
0.9350335557693795
-1.2150219291211495
-0.06435573155248937
-0.9902599842983661
0.6602194188499697
-0.6470746188424781
-0.42328874086790114
-1.1135702743873745
-2.363513362678335
0.2782435418186249
-0.8887539114205542
0.17854814312012068
0.10959257432049463
1.3073181702235166
-0.7758235064357089
1.26115541229772
-0.5448076207926991
-1.0018344152004346
-0.5439319521018295
0.25729574347510964
-2.4359890804072384
-0.4316021577290553
-0.5717516542296287
-1.978819678117469
-1.2272801200325865
-1.3697725910724678
-0.15508274400513555
-1.185133529515442
-2.0275895084853204
0.7678091871254468
-0.1886725889216091
-0.1681047187630066
0.8132594418128076
0.9795301720557648
0.9458710914261863
-0.323323436454489
0.44534022450843835
-0.11588803806592829
-0.4531356852117549
-0.5853011475622549
1.0631344319150273
0.4592145014722353
-1.2344520014672553
-1.0259216095926864
0.13816633344839446
-1.3554481814803891
-1.0912049058897502
0.9278136989667047
0.8020065553227407
-0.9724096461969105
1.2513029276594327
1.2408872980213657
1.4172911124545255
0.03339931100560295
1.282401402322731
-0.34265900701827706
-0.07580947513831982
0.7959833607945856
-2.025432474430896
-1.0633194762265368
0.2542305995448405
0.07563332226013231
-0.1255547510340635
0.502771547879311
-0.8460234137778672
-0.25711678874372645
-0.4794699501998444
