1.6354826009707675
0.3386751601847696
0.17123933580832568
1.0534240793680687
0.9581584780856817
1.1501900777262013
0.4400613637453856
0.3191516909716007
-0.20704850108335537
0.6214394364002749
1.3791310910851127
-0.39911894380042917
-0.531603758635839
-1.1103984895102268
-0.9381474597809335
-1.8618685524850451
-0.3649994234724313
-0.3922837932210646
-0.3534148310935679
-1.0967236101140863
0.535241290429606
-1.552990870256242
0.030360252761242656
0.8773868894755033
-0.6748118877038187
1.1741751159763423
-0.6466674665890522
0.793494226476458
0.551609007835244
-1.0282103037298729
-0.3647546723404226
0.7742063821822442
1.413457161519554
-0.14892487332685034
-1.1363896946417158
-0.19161659025825617
0.2516839013648562
-0.5961865983197436
1.3902838477395867
0.22191532051119114
0.8630530409869654
-0.3677444206920807
-0.2792960545188475
1.0172612282115818
0.3794472439370591
-0.039242949531104965
0.6868075075718255
0.027165202384395792
-0.690691246308299
-0.7795289554654183
-0.7618590812888535
0.268324078259896
0.545317689083215
2.3364692773111235
-0.4004022033050656
-0.36620484789827795
0.02214974489301409
-1.031147417702594
-0.07219661928720511
-1.2423170273177688
-0.02043255062476962
0.9858432843824358
-1.2353158976750778
-0.01124663058480685
-0.29823489454410285
-0.21928850018936777
-0.4774404071949127
0.7101444918476463
-0.4147294375841057
-2.1309008637825078
-0.13484449859203484
-0.6199573079670315
-0.08870964570349432
0.1760156741905742
2.4665774041525834
-0.9973146644312938
-0.0016364646018938167
-0.19496921907343512
-1.0084610790852686
-1.4135417439503337
-1.0378104834269233
-1.115627558680309
-0.8038195945457424
0.046252099781052325
-0.9067976719044788
0.23817758194486272
-1.0953009600053845
-0.39438274323927364
-0.12965930601341222
0.7732513837631224
-0.6410445384300596
-1.2151189083662777
1.363990068787318
1.5904778445850107
0.6794549098318394
-0.3406041964839436
1.0641251359297492
-1.918554575037409
0.7784770410620259
0.2504816148525038
-1.3552191627104861
-1.3380173622040545
0.3297713361153092
0.4145715225955853
-1.4473316956132596
-1.8703269230083455
-1.6193275170110373
0.2571504901465292
-1.6908795349286045
0.6455407466401768
-0.645961710767365
0.9002447056867163
-0.8370128135202305
0.16385568866545497
-0.98209734091125
-0.43843611551831574
0.7388233591799334
-1.1457032055930327
0.6910667541806194
-0.7566810118765726
-1.1534621928873756
0.48586898830259934
0.6167681615988636
0.6498287800190515
-0.20744837650982864
1.1967394724333815
1.4252231470148486
-0.20133266446053355
-0.629523109128983
0.4633308799931255
-0.22491958330942158
-0.708265076413771
1.296350831787922
-0.30302052788121786
0.6857197232350827
-0.14421083089730047
-1.6150977971859704
-0.2261945544311661
-0.8458019376761149
1.2075628319982636
-1.8241976182693673
-0.466817139168717
0.7209651163925764
1.4836470709083946
0.00970187593140727
1.4038246254861477
0.7341078820646776
0.9600656215358352
0.04458509252741849
0.0044352058850056775
-0.32798168600173816
-0.14278729192091458
-1.1660467113045583
1.3498488753794842
0.8795244107834819
-1.0168024022201034
-1.874945942591617
-0.91264978919185
-0.17486521263064708
-1.7738018174344006
-1.4158045180015117
-1.2336006617092465
1.3330082320377636
-0.3277801579236457
1.4742818782099834
0.60318306204341
0.2341822933248256
-1.179676687707794
-0.2451344430330416
-1.6322501655731703
-1.4378567992766422
-0.6724002839238794
-1.4410132602060624
-2.425356250749801
-1.1926013259461008
-0.6054819279161239
-1.8057112733522311
-0.4776005181352445
-0.7788632649272511
0.14423031851941126
-0.06224069221663053
0.1682731943699789
1.380323650188457
1.3071035345521873
0.7445869816307008
0.18252629204680748
-0.5069329950142848
-0.995878058296817
-1.402709441215186
1.8035544191603519
0.6292043858415889
-0.8568928915808011
-0.5803125587502949
-1.1313893776810386
-1.0144611326553044
-0.9143262166434096
1.3243028918399347
0.7144937465611907
-0.4677637449975019
0.6733645852054833
1.2737318625788288
2.0020652709888416
-0.16647671140460835
0.9650904711467008
-0.015070373940283432
-0.36469793090272185
-0.46416252473719066
-2.438146606682208
-0.6324918703637912
-0.2726998357657513
1.1164092352745967
0.3200623112971831
-0.17704745375991016
-0.7639596625729494
1.2244082638206908
-0.3089578496574723
