1.394491027922725
1.3977984623246835
0.8685292309423751
1.7756274117398865
0.26781493287362235
1.2573811747008845
0.6134413498302016
1.1751582604976392
0.0994321004102201
-0.7938895277632416
1.2082228708382894
-1.3958218245345608
0.02503939182993703
-0.761389117255275
0.3089263363719032
-0.035768975496131894
0.6871241339304521
0.8410556041266924
-0.9861330410128795
-1.716384830100162
-0.33264668953708254
0.013304917679836992
0.3958081435555393
0.1612071133533195
-0.5048774581501612
0.14175269042569627
-0.4287801059840741
2.3196826151216916
0.49835459064694965
-0.798293758220016
0.40904559106221855
0.025673036296595647
0.5363839057094751
0.4617066863414375
-0.8814518264019289
-0.7524722639625183
-0.16582019776977383
0.011701780473667878
0.7247915810852994
-0.7334810935105476
0.24309510288778174
0.3032897455446509
0.7898394293268989
1.9643001364382173
-0.24840368608094665
0.8243291105274784
1.3184682011948148
0.3686583323801601
-1.1129956399013519
0.3245280131441175
-0.01997522738142088
0.06141938253668359
0.5283901048340207
1.0922243277220143
1.1430229231671996
-1.2263202274620661
-0.24286093331578273
-0.285802654284855
0.07151593678025003
0.28422902484886936
0.0769037876291832
1.0218869352497857
1.249046852599515
0.12886314209432895
-1.1771075285839574
-0.2919377121287085
-0.6266054953159681
0.1295072293004469
0.1395269863537297
-1.886797874309821
-0.09634551516208123
-0.8641770268729891
-1.109370362999531
-0.3584567847511747
2.652288265900091
-0.7874741073989829
-0.8144534622835358
1.3197047244934403
-1.9731657118209507
-2.3229198642858107
-0.7707923886551903
-0.953234273772724
-0.6921240248448209
-0.028088222803484303
-0.3067767070091
-0.3211984048501343
-0.35688879660739464
1.1526803010511235
-0.19911800417738126
0.2936399821686684
0.052265832680193906
-0.5710345901974306
2.013855008116987
0.8742759644558902
0.7009933249989411
-1.34525898106015
0.7691093528796078
-1.3920270571633944
-0.673787690938125
0.5328257803536003
0.41595958881393486
-1.736558489597093
0.8290372207273891
0.4585816171615586
0.15942031481476338
-2.1086303529404797
-1.1872046394785187
-0.5718469210954986
-1.0920231458422935
0.5402622360835603
0.11965887467554726
0.8903438862794503
-1.0706721140293691
-0.4321487995627397
-1.3011255816595675
-1.2081226192649015
1.7947367424776
-0.04535509447041186
-0.7910352380391983
-0.2818133934225604
0.14110083003685905
0.5960448242460077
-1.2896616999197223
0.342491275839555
-0.8724411597361059
1.21730336330846
0.4560778593437689
0.13051408966892628
0.468763179453263
-0.06822562340413035
-0.7118083894259726
-0.1821345727400303
0.49610448454724176
-1.0792474165025043
0.1714332168426944
-0.3142418991217492
-1.4207033845604793
-0.42289028233170967
-0.5867376103018751
0.5978278830155862
-0.5407386500678639
0.2807550742158675
-0.028057676505168216
0.6263390470267651
0.3850496113176725
0.16205160255455753
1.774811554483964
1.853544985135353
-0.5824610587154481
0.6585817997661886
-1.0031515740176427
-0.5564513165871628
-1.8025147362277403
1.5862307435908827
0.8563049591373484
-1.1432395829296467
-0.9651826662519809
-1.2709389234925241
0.34500955960078283
-0.7593438955442622
0.9208293484406357
-0.5941543237196536
0.6240103431779781
-0.9783713192450465
1.5452455139414996
-0.11573206633375577
-0.6081000392091863
-0.7932932481770897
-0.6025824274229592
-0.9207498380969367
-0.8144238918106748
0.23736419779921947
-1.031550131322869
-1.2898841518437862
-1.7625896760493311
-1.4646596971126233
-1.1494725442165157
-1.517131956897948
-0.638021842468921
-0.7164352190014457
-1.6056641337041029
1.0610199459563914
1.069247803897852
0.5917872459282685
0.03033608650926714
-1.7475358468691895
-2.1322670279482328
-0.6301593774859311
-1.2476482060757177
0.8661952426313299
-0.3554351090620822
-0.13774231095000933
0.13507762601858353
-1.2993930011419592
-0.8000961754492264
-0.8038441896331965
-0.5708097215254773
0.6569290480054661
1.1330457119491784
0.3433260728610301
0.6653590073827232
1.8387887274003456
0.34407266447334184
1.113147567445896
-0.6682594377932736
-0.5977826405442526
0.289506022792257
-0.7745580673998429
-0.8074064327113775
0.2549480957939917
0.15868197450036178
0.1661242743031463
0.10728300088707927
-0.3759267145761818
-0.0023804136501349993
0.1258731123397511
