1.7942763082330693
1.5923504703505011
0.2738797467661945
0.5819803780694173
0.6783909184002747
0.22861732681614488
-0.11692129572506083
0.7146921073447514
1.1814747345965584
0.2108981385241716
0.9849558524242228
-0.46500045385784033
-0.6238568782692127
-1.3554919871555318
0.19320381221221905
-1.653704791030322
0.7982985851054992
0.23403137719913308
-0.2141135250499
-2.8463092877106093
0.5099351568221693
-0.8696173149561884
0.36253001644938415
-0.19098136846757602
-0.4804729080446221
0.060134836313870565
-1.4914880005232185
1.6316677165957232
0.2393054130909324
0.006409339088417287
1.0550120934944092
-0.8417554099786195
1.047513970901063
-0.1258430340020542
0.11091189455450046
-1.3762104618245607
0.6562114287553436
-0.3265172584279494
2.0175098052723435
1.0168855091788351
0.8044373620711763
-0.3658088345347224
0.5214013566575147
1.3352538888539547
-0.425258695463771
0.9607689687900567
1.3980329567350476
0.1229284861339483
-0.1949564258721772
0.024015074960440266
-0.4787694732097071
-0.5342060950471701
0.3142048019123142
1.4454612138295417
-0.3689891040739536
-0.764999180118809
1.2053671722925894
-1.0880505910979807
1.1417907007923633
-1.6068858050575217
-0.8670993976782579
0.8920959126902865
-1.3197671663442738
0.1405699035991039
1.0891918016878035
0.37226247404123036
-0.9249687457266407
0.6402634760182183
-0.753607392688721
-1.7111306720809658
0.6536072343930622
-0.839498958239624
0.127464175355417
-0.04375455223543728
1.4754831166800442
-0.9216127243142953
0.20018221005463693
0.3597405350785822
-1.6253763719982888
-0.804873400178491
-1.087795362731161
-2.052879650801095
-0.4105137122213266
-0.2525191408054638
-0.4958492323051233
-0.44944986922512103
-1.0055098156675673
0.7964240271101966
-0.10839754895614628
1.949859727879672
-0.09386362937980108
-1.6657207011369395
1.1302219923820844
0.9438945278983297
-0.03696534138992463
-1.2695418093754447
0.8631629746940368
-1.4039595933513263
0.6070750296032474
1.0361168781575927
0.2639287898846043
-0.8712246725445112
-0.12510074698618465
0.04066778084005396
-1.3168979944140833
-2.191164376892699
-2.2158591635173606
-1.5857103857894808
-1.1644330183632974
-0.3129735895253972
-1.9224538020074444
-0.130592187006016
-1.3463602961491394
-0.5952572274996943
-0.5367261215677059
-1.244250053626366
0.722384048296772
-0.9764200850378872
-0.5253310330740085
-1.074600382674468
0.5695424360207986
0.21975037307273437
-0.3359279030726384
-0.4523505610874465
-0.06909616641544489
1.5077205080378557
2.342748665939217
-1.1715520764981924
-0.1743037540717523
0.19568981976381516
-1.0592829261601175
-1.2744002110861847
0.20501954228296249
-0.3820577842285716
-0.92148767446945
-0.9788401843220458
-0.2991325332843018
-0.6217145932259405
-0.03204529104360998
0.8305411933835081
0.7308050603680594
0.07010980022940384
0.19914394311874492
0.7009680297892593
0.12220555705292094
-0.09286891167165082
0.3639253882519031
1.4363909635671879
0.47208571303251756
-0.7570779750356085
-0.7534570541384491
-0.00598250951192178
-1.7251231451903002
0.9853751293249783
1.0060998620157386
-0.8166733627491494
-0.8590939036041177
-1.2380187549283799
-0.09319009471400264
-2.3022246022198205
0.13638222302433078
-0.30290012417284023
0.4821757732431643
0.5358315308453572
2.3351856604723253
-0.02522715067337178
-1.2404889034058386
-0.31220483232136187
-0.0055707281299524625
-1.360884799390735
-0.3142641752035279
-2.087740950187571
-1.170307994700072
-1.921816324141937
-0.8185135679547813
-0.9852830640205114
-0.4180715601223133
-1.4003435666511408
-0.10422726225090495
-0.6695083011288676
-0.6841357667922466
-0.6468570853640929
1.053213053420103
0.9522913262908802
0.2799091680618334
-0.8083618934242078
-1.8204027145863044
-1.4938255847993904
-0.7084027007241976
1.2715301709997338
0.6540025362785316
0.1444053041625709
-1.0135563595562223
-0.9945300347307311
-0.9734772872486444
-1.4407900385100856
0.71744562026263
0.6076715423874703
-0.6688536913131953
1.0855706090323962
0.3877209452967395
1.9265781141391887
-0.9606857415323339
0.9739715110659612
0.60877731581933
-0.13804215376459628
0.13893569864278776
-2.1087620310650204
0.6142513974561843
0.09611457620851721
0.3114000994887061
0.5114113916074225
-0.7728882017928054
-1.1858038187893296
-0.5521269690626981
0.13551433267682822
