1.3925564953181075
0.2009968682607286
0.32139914436008954
1.2094305968646482
1.4807910020272772
1.101616757139551
0.3133629984616292
0.87408153620701
-0.03243290282022104
-0.7101748251532727
0.33827105572759963
-0.7000718959940034
-1.5479225326704436
-0.4479064668861986
0.8403796587881038
-0.7651894620048876
0.8695279731850079
-0.14822000052401677
-0.7945769011628019
-2.195241862505279
-1.0714654584037635
-0.6693992071721008
-0.7580234939261181
0.08336011287061684
-1.147690635908053
0.8966992958089286
-0.6757154195173485
1.4444282100708994
-0.8621104014297568
-1.3873564246904
1.1467958827657767
-0.2182777105251374
0.3797095286652443
0.04309757408895734
0.20486791495179768
-1.3282494652548025
0.44160183860959024
-0.5508082831900624
0.901381875406831
0.05695675344305061
1.4011237898231637
-0.780682023160715
0.4268771132121592
1.0052705485213451
-0.7873911863916483
0.3169488251528523
0.9409028064809488
-1.0354851567560663
-0.3600062821999293
0.7149046271083211
0.6274854333450299
-0.3937685186368768
0.37042161854697914
1.0485206088689263
-0.2652919036447918
-0.2717527258175389
-1.1841545552333568
0.7822467701500285
0.7682626029796867
-0.26079460008054434
-1.2948384142320015
1.7226303890047319
1.1127525007272399
0.6661472860759234
0.09516128364895654
0.4185049560784192
0.6487885362427582
0.49850644502124875
0.2867267462243331
-2.4776268121475535
-0.41839295681030364
-0.3557332312840145
-1.135616948168356
0.6845835806093024
1.8364341990937367
-0.7953768998169344
-1.014858065435053
0.6441308229949446
-1.813366989261119
-1.9363397300675071
0.8165511406870436
-1.3510294214557927
-0.1446861669876726
0.4566300868817411
-1.0839138543976743
-1.1255297419669867
-0.27307300491637054
1.736060497002424
0.027827158017302817
0.9351494919059752
0.173270968738519
-2.0999128679524626
1.4143373400031372
1.5894382628499806
0.5076993326592115
-0.2705752217479944
1.8808200888496112
-1.929482872294688
-0.21760190824002865
-0.22925823415331437
-0.13708805373138952
-0.8120474827788391
1.2159033502409884
0.878337202436524
0.40107202184280577
-2.575524066142213
-2.3924509109850804
-0.6579542787270258
0.06656284977813276
0.2650613670913486
-0.2588302724254725
0.5812708135750236
-0.5108780294976586
-0.06465735721074739
-1.6417158015180227
-0.8547894735243513
0.15616529210933966
-0.1580961094210085
-0.6794030986272446
-0.2640181994359579
-0.3767960168568818
-0.43936131606239326
-0.5877642290084799
-0.426802204749486
0.19161148965351799
1.9248523352986213
0.7584015159429609
-0.7164971238427443
0.1201949872901587
-0.2727382831795148
-0.3007068116092556
-1.9350363157322423
-0.1854232048610669
-0.41493485930873175
0.48870305292040017
0.05220378862766285
-0.34222718223016596
-0.01385946091898721
-1.1633372272687246
0.2891179629004456
-0.26325206722493993
0.9350523978838527
0.605004587388926
0.742684022329857
0.8761302522294956
0.8666892516668299
2.145679841932153
2.0441251276938353
-0.31736715384044256
1.5718896853442224
-1.2973065865265505
0.26028134011499193
-1.6163392939940322
0.25841825298767485
0.3258774132482683
-0.6677746726542989
-1.6336066806559988
-1.9021368616339793
-0.26220006520005457
-0.7037214394096456
0.008299486825430247
-0.5564586893329809
-0.10728236673778913
-0.5136589442952182
1.7885988987295616
-1.0211950234635414
-0.20015047429636362
0.02053791831214613
-0.2574402796331732
-1.2149411329239959
-1.1472370221038177
-0.4109566671288507
-1.8041727266189258
-1.1043264275088975
-1.17441478621716
0.12446117989564442
-1.9278321008421802
-1.6407832869780643
-0.4501995612728797
-1.2641677755048168
-1.5941633475137214
-0.029773573332977032
1.3494299755660282
1.214579629763357
1.0778743601116878
-0.5114029925503164
-0.6103488788988221
-0.6590864237104681
-0.20655285724009553
0.31472551823631106
0.9442647576797939
-0.45418218163667845
-0.9296887906681235
-1.732065149327655
-0.9237025120543514
-2.1223621711616905
0.23055756192921545
0.41918133741847446
0.20245944315588787
1.3235019638997287
0.807739587824746
1.2612788746329058
-0.710035308016513
1.4218609456434206
0.6092952677316501
-1.5472365961868921
-0.19098059816892154
-2.3077220253464383
0.024520004424787085
-0.6850116777867753
0.04723044531109327
-0.7600349010312855
0.6807623282783483
0.41095365367633596
-0.5778541972403193
0.4538187041050129
