1.149761993934091
1.593231132876056
-0.5014924858175343
0.92889760665047
0.7753368437971523
0.28808183892699596
0.1522310960553412
-0.4313517322902559
0.3487633901642154
-0.13143298158109254
0.07579651196666376
-0.4858798143008916
-1.385154294651888
-0.11815830577072728
0.017639205073309433
-1.347582415713227
-0.12187497063463859
0.20794380208814434
-0.08330714451454446
-1.6852515491533133
-0.8263534340173546
0.3689256501828746
0.3177187006396477
-0.3227329138011157
0.4987422535370392
0.8591262118004592
-0.44259696153667405
2.249964816638228
-0.032193879645387585
-0.43139193908988105
-0.2276494425614235
0.5678828994911215
-0.4231908439248111
-0.2952701561221107
-1.2161677806809557
-1.726548961534684
1.3637486020474796
-0.6622148580075082
1.5883991021556856
0.6723416220042381
0.10031899469124506
-0.027767728636279743
0.2476888421480853
0.7572975493200913
-0.9852029236258812
0.02380459885233069
0.042844987502240695
-0.6182291386181862
-0.6079126987409966
0.7369510134682773
-0.22220184445043734
-0.6667441942286162
-0.15748061440253036
1.451526486656567
0.5373684847853039
-0.546508123246831
0.7908654603517018
-0.9818819588741337
1.1245909639310143
-1.1608180025665615
-0.4106733491289392
1.0053230582711354
0.6554465564111415
0.9206532405979783
0.14262970918154222
-0.31688256677063653
-0.7530909562772308
1.0978189034686108
0.1461895873652001
-2.4254861794118985
-0.4240333685105882
-0.6318815309939291
-0.3668550709522571
-0.2306821861581688
2.2524657627389155
-2.472338308415621
0.5357086355282663
1.2766216542121605
-1.3632808781430679
-1.0066053362289766
0.5864678394363314
-1.499781376797975
-0.23556810507464412
-0.18225479817699156
-1.10833525288433
0.28580008011175917
0.7088305343036735
0.6592592948698067
-0.21166696239940802
1.5144516312521237
0.1388027191135784
-0.9920382130691108
1.5628280512245065
0.3629418984133173
-0.10876713682702882
0.062045487311800485
0.6453783908475014
-2.3487714970963225
-0.2198891830744216
0.838322739850851
-0.32357717548934417
-1.3404770197548375
0.8995509822528017
1.8160269384933714
-0.4617616428954819
-0.8606134179549153
-2.150936910940544
-0.6720557349263906
-0.9461430637636787
-0.24666823501964058
-1.9488051106148458
0.020619905112760295
-1.1275603602038586
-0.6842330227763502
-0.3037357586815119
-1.3191693524764263
-0.36736962648170074
0.02872670330765137
-0.6556172181169124
-0.4005668744197812
0.6552239216561885
-0.9872695107695468
-0.18548535553365197
0.38770333351823794
-0.5221504369121006
2.1735413401348347
0.6830721346661948
0.42003467559574315
-0.655091141477326
0.2777405220135646
-0.30960666867765546
-1.2207151657266877
1.116335915862489
-0.2643801137726082
-0.31567082946720926
-0.32001559401099255
-0.24948270441666232
0.1197406424307973
-0.5890380185068427
1.3332420934788378
-0.06638219069917584
-0.699470627466712
0.2570694752262569
-0.6931708770563016
0.8264580458437447
0.7444447415597375
0.4846948344463544
0.9496122372621298
-0.6032683036227215
1.41458912627288
-0.7653885056868028
-0.8792734355628646
-0.24213630513585993
0.8863466235907028
1.178275299956349
-0.9570762636042395
-1.235374996816917
-1.4739355360557334
0.028536315597763234
-1.2042578046224537
-1.5222024010712794
-0.6102493520032627
1.599527104447513
-0.6024684679824471
1.3198407954674907
-0.2739306832231551
-0.45192367243547255
-0.5782839620289283
-0.1410723568611582
-1.7286455346106866
-2.627654796006591
-0.7539573762264172
-0.7556323894809462
-1.2728482708334685
-0.843126652896796
-1.0002509459069016
-0.6645019499896838
-1.3457012690917711
0.16272563978727228
-1.5865810310301902
-0.9788120074753699
0.10314825019087048
1.0149421187400334
1.57142255746039
-0.07757329980138725
-0.5264056683990792
-0.7618108910747085
0.5343949083494184
-1.6530683077756183
0.8430309474164175
-0.11447558374458922
-1.0894695905411107
-1.7696917237833532
-0.5732095047728172
-1.9192622903931191
-1.2440527454570383
0.5927524053480752
0.5625081367153727
-0.15823177873025432
1.8074826084125581
1.220911634245474
0.7268605997695161
-0.9696067975491419
0.45983326420556003
0.18970718692038593
-0.45489314950426524
-0.3818757569877812
-1.3251281085907651
0.7867614340454874
-0.1138232639389964
0.504042349914418
-0.09005208509687997
0.3894995026571764
-0.31943222621061745
-0.7100033929372085
-0.6567803250891774
