0.8802379212985583
1.6842738400400703
-0.3704942935046864
1.212257168671531
0.8486802773812668
1.4661045711994016
0.36189824760864997
1.0080821296347864
-0.11610281015091073
-0.7108898137866808
-0.08839566788816117
-1.882274068531161
-0.2505713120353432
-0.11121212607186237
0.28103186488677273
-1.1421150366299453
-0.2609490264324952
-0.031072003386371075
-0.35535217989040224
-1.9658856485588059
-0.0933397711888363
-1.1905997260536914
0.2534210098856144
-0.19674724175291813
-0.6338960871376045
0.46239220682834276
-1.7563772075368245
0.7666267476413886
-0.21755566139845864
-0.33129694453518277
0.5310791369001987
0.01349791500448245
0.32151170144980085
1.0701103434276982
-0.6402688721629365
-1.1905395826419252
-0.5161298454285138
-0.03635804238769619
0.9038739637862079
-0.6038018126465848
0.4574942835593973
-0.0828448529024785
0.2633728198412335
1.0195835263448698
-1.2808835145468684
0.24380313619660776
0.9325213256151994
0.10052570065870514
-1.146849138072985
0.08984669542571627
1.7524344120429833
0.22065535760991387
1.2359654690269108
0.24893276527349562
0.3635240297625784
-1.3855408404598601
0.6110630025527195
0.23219865021920894
1.7893067709204362
-1.4355456117455991
-1.277987418631888
0.5425619700245097
-0.01843875743750792
0.20052513908312528
0.05850981016361226
-0.21148574835861927
-1.008433344408034
1.38639185791383
0.6491782264908186
-1.9573753926347357
-0.48087799858984054
-0.2248214482280234
-1.3361126671281522
-0.027850646787272226
2.417205409637266
-0.17767872014900266
0.038330661753291695
0.9743085508759387
-1.1475805351154058
-0.22122609996367493
0.02744796133077909
-1.6361089571308651
0.03361449789867174
0.2935609718431491
-0.8227272280257166
-0.21248029019640546
-0.590179084859928
0.32201671648036223
-0.11188479170149182
1.1965527078225724
1.0546063962182166
-2.0448301170036074
0.8394443773698408
0.5379420815313152
0.32523425403102957
-0.5104938604187953
0.7668349848699796
-1.9283302604244574
-0.1011757600754016
0.3907159021721169
0.5039121141057437
-0.5212195667698242
-0.5956716511295191
0.6675569128728066
-0.6571350693692063
-1.742179371731367
-0.4756194561485576
-0.21584186218467183
0.05062803959239537
0.7937775616179121
-0.06586796242536486
1.0707789374577459
-1.1425521266803567
-0.41602530807706883
-0.5493212741070661
-1.5864384933002316
-0.12680748421917815
0.034202118086242184
-0.06840612396854873
-0.8731518580411131
-0.35371947757276956
-0.16972394914759023
0.5518811530411538
0.8337727192486781
-0.36542244514009514
1.3802878296341046
0.7499341185245161
0.8654814773388262
-1.1126461834789128
1.1238207997321867
-0.014943425584605707
-0.8970075582118668
0.3139780177795009
-0.31645610023359494
1.0783213546181718
0.4343448606526885
-1.4129478282016037
-1.570407513889272
-0.319523501276463
0.46131458944537396
-0.539281470818102
-0.5774916907597363
0.3897347361620999
0.7032325407842275
0.29944857531474944
0.10699439249694961
1.6109988912864543
2.488867569888689
-1.4002294561418265
0.5917949993965893
-0.04898029426196415
0.3236739649185735
-1.0160762724365362
0.6990294413856716
0.9899569922966136
-0.8210214668704525
-0.5975293152962871
-2.1813637166041606
0.07730080285212235
-1.3140849781356458
-0.18667697319432563
-1.021972194925012
0.7898316126922535
-0.1965313811703352
1.6341929943619538
0.48990585784012275
-1.759359248443078
-0.3138489528716593
-0.4503230151413263
-0.5305656682613106
-1.2546533627825067
-0.5972114339039062
-1.1245542280428058
-2.5057487222199324
-1.711715301009444
-0.43105752389550533
-1.348994382783475
-1.9146391946935852
-1.226687165916688
-0.37572813567702806
-0.9696933719212584
-0.6007045731849475
0.4624904765915082
0.7982472055312251
0.5110351025984825
-1.1525195599182037
-1.6463208667184728
-2.244683557760206
0.013073235848607534
0.2534248950102568
0.5531169612674549
-0.2716495277519635
-1.0246208428167471
-0.9160667995738282
-1.2954031587788952
-2.008102375497116
0.4643222894916606
0.15656564885404806
0.48211129815360915
0.31261394714571733
0.2358946556465214
1.8422381576137314
-1.0556493779197829
2.075145132997756
0.2836579262128076
-1.0327252615374758
2.1349112587145522
-1.3201714148065753
0.6555168292636288
-0.5045423444939656
0.025040041475177577
-0.6353666265339531
0.4838775677624436
-1.1800446063319896
0.2538177710898192
0.17558842391953444
