0.39219719807000974
1.53420171460645
1.3185081525487112
0.7685847702381147
0.6399701619751605
-0.4404374059763071
-0.2651043675737009
0.8260389386302707
-0.021291592700073192
-0.10745980977914868
0.9725563397135184
-1.0465939410832512
-0.7430900083503893
-1.2888787494206915
0.9329052093285367
-1.3265540327460248
-0.10979232339797784
-0.0007427055106426841
-1.5455208348828289
-2.091271655948717
0.01833952117039317
-1.1619858103616143
0.9631265083452177
0.5120248595224817
-0.7197059981037572
1.6865652397428903
-0.434385027406167
1.6170437429987885
-0.369900206477457
-0.6748389373238172
0.23178029190930716
0.4983108993350749
0.21797663719349075
0.41994024827524357
0.32773133901455254
-1.5606352614360488
-0.7048012421696751
0.04842724062463838
1.2339790674957165
0.1275859880581238
0.4632766467832932
0.07205865046900456
0.17123429539311727
1.8413972289064524
-0.02257694775287955
-0.323601838889332
0.7522284853650058
-0.3968774557711715
0.35414879673659416
-0.8222424927022007
-0.4202869035759904
-0.6801066240255548
1.5845149451328147
0.07728287980704707
-1.0364314827336345
-0.8380938139397951
-0.2521084431741496
-0.80112156383522
0.9264402857049383
-0.4703019388333463
0.6714204958356691
0.14827301843813245
0.9912872991195448
0.7754311557032565
-0.17593180576080264
0.33719082651061094
-0.31217569155022823
1.5060908744301797
0.009198133120736807
-2.497819569060198
-0.7268835535672881
-0.1744226927035557
-0.8041418087144979
-0.7942078244886844
1.1083835255820307
-1.3802516983593907
0.15192959553382923
0.0967965716903143
-0.601115810475777
-1.2467847670311583
-0.025606446170395758
-1.2379220679987577
-0.08341036371703328
0.5172976947874264
-1.255584577023684
-0.6590337303218694
-0.808367625819958
0.3748390596594013
-0.920396905298015
0.43579346206905145
-0.519172563837751
-1.839284852056543
1.5864875496215125
-0.5506549454082978
-0.10974622218268276
-0.4930099078625159
0.7671715273557618
-2.063503724560416
0.3716933735718151
1.0562128766155356
0.3936851090194865
-1.0852398146452584
-0.14619143271468857
0.7376177809160522
-1.0977985422164271
-2.0251634740461353
-0.9417768018693347
-0.9077469278579724
0.24283851950541746
0.1430448524937144
-1.0483482960726955
-0.14103215865521196
-1.3035352218273584
0.385397353925509
0.06229633388219702
-0.7477837360725653
0.05872591048817899
-0.7109634693933649
-0.14892454888421824
0.10775696856787964
1.0403830962974954
0.4655977559556261
-1.2630906643298858
0.22053349822228183
0.4527923122949538
1.4042107387844125
2.087966124807621
0.28813105067860767
-0.7954313572338063
0.7114709506385993
-0.23722328851355967
-0.8621935517478279
-0.26060117607997535
-1.557881952456924
0.3418096786161209
0.12453154643907029
-0.5169090913560309
-0.515864913827213
-1.7192092692840064
-0.6431926556313163
0.7444704221434575
-0.4109801024738298
-0.017245718402523258
0.41326152700006125
0.4185518701140353
-0.056608870158230636
1.402984815830556
0.943889830349164
-0.7507349128601394
0.5101881688770415
-1.0355075659625208
-0.9262258354153431
-0.6458400345430062
0.06357752122480564
0.6617815524309899
-0.09999158006833797
-1.2338901521902348
-1.2588111965734619
0.29963829704371253
-1.0765005676619697
-1.2421569836313469
-0.43495571565572766
0.9356353793548101
-0.782242601416364
1.3883283613344224
-0.6388556363670496
-0.753793467428751
-0.6961596152982842
-0.33477655501967596
-0.3926404095410152
-1.3508936548735835
-0.8243004759548158
-1.9131049058141198
-1.4336118354105314
-1.889196588074812
-0.7684176158900677
-1.7879112920043725
-1.9069178356906489
-0.3349277403308346
-1.847800171597732
-1.159703691386586
-0.6560998487636355
1.5797753846385054
0.45915320695775685
-1.1320219482159173
0.4870593185097212
-1.5916215035278896
0.15825696350464402
-0.6478932820195882
1.0950396343402349
0.3561741715934245
-0.5632452307908921
-1.4721088155596465
-0.4946806603700446
-1.0665952804129275
-1.2602326309589815
0.6516759217339414
-0.38300652295999216
-0.6292898577402057
0.8011148647939228
0.386392626170497
0.4034711076001112
-0.2622767295386409
1.146758502589627
1.5234143447048767
-1.641726271261188
0.424311048734317
-1.5542908915154334
0.3432804891983984
0.16095839813111626
-0.21332822502482157
-0.09135102570245741
0.6849667528583452
0.5309988792202555
0.16227968707878718
0.5707166677614075
