-0.13893231693649155
1.1187920877964308
0.5563981999784494
1.394340735154707
0.053323802820716915
1.3590429973556901
0.5954914203193536
0.9217817561060682
0.9120493021579827
0.23906249642408697
0.6777600828378827
-1.0119520727405122
-1.0214396744426895
-1.3845494658681285
0.16050055207633493
-0.7189015638178342
0.39126472492342224
-0.06113873677507162
-1.254435703705548
-2.232424248338458
-0.42735632154839087
-0.3128372213054178
0.6597734225601704
-0.212911436441861
-0.03533294612101209
0.2317309601097304
-1.3186286702870413
1.8600177904000772
0.3894011379352287
-1.6386095269497176
0.27050966337489846
-0.6103908751447665
1.3967998602768064
-0.3956686807490306
-0.2851305619608164
-0.4093324872708741
-0.46375941734161563
-0.7581135468718987
0.35757842476684487
-0.5352462261804611
0.03370653481797525
-0.6420322176626592
0.9799311809744875
1.3673996592002868
-0.6229978570594458
-0.759865715292134
0.13332956625739495
-1.3979029597496955
-0.6758112121891509
0.2346072390554194
-0.3447286394746113
0.187037282383611
-0.15419744669455282
1.333678116996941
0.8314366013988266
-0.5504551005084414
0.2413031411094419
-0.6955411527886799
0.9044637465378961
-1.4088231306585821
-0.9322802953040104
2.0722749892474
0.5640020180935092
-1.2504636620743335
-1.3115265908837874
0.37277863594815386
-0.2014901344299115
1.6593396787314538
1.2811000329887359
-1.184218801375471
-1.0174179000199461
-0.9003532455446809
-1.5967606457039778
-0.46648594802713417
1.8099560472007739
-0.9842547177637131
-0.31885239573035573
0.4352110870153357
-1.2115176071168552
-0.9123662294122964
-1.2298134397058154
-0.8512736254002984
0.3926621227377729
0.0427986751609897
0.42019951070521155
-1.4916535006370188
-0.0971136031041614
0.07451197203998408
-0.5479573226925283
0.7979090636203643
-0.0546222087715948
-0.545596800790948
1.6077321257628159
1.2612694648320044
0.3521650947295124
-0.09334647914145927
0.2966887261349795
-0.40023007770397334
0.726933748963462
0.8493379060489876
-0.1856578141113727
0.4711779725436507
0.790164521061345
-0.5117823611776117
-0.023043848664711215
-0.8025739573156195
-0.40161482538406623
-0.4690660279580119
-0.16557772743014149
0.45597329131953207
-0.43553688280070685
0.1385921692928036
-0.895844290308609
-0.007353590600850057
-0.37601365864424907
-0.32997166216720275
0.3196792823962113
0.15085500739407448
-0.2761532949987262
-0.7783308815331026
-0.03513156464450859
-0.18696876998733877
0.06085990023190463
-0.01647066189087054
0.4136101446316632
1.6422606242091957
0.8533338706114705
-0.2134578747083248
0.5933957853711114
0.3053376072676311
-1.3555472949512364
-0.12266437301632921
1.595394376862623
0.2150720658394789
-0.6498904649381245
-0.8315070191983788
-0.9954988386689113
-0.5612744552196497
-0.45674805752876174
-0.2292573894130412
-0.4860106431695563
0.4320563454812382
1.1740040281315542
-0.6046457226227999
-0.1217072246891355
-0.07766211036542842
1.2888671517688308
2.448023024216073
-0.7816154330645699
0.9544616980345266
-0.6465274740029618
0.5192721916584656
-0.8408370810600294
1.142033806946016
0.8375727483190383
-1.2899797892688412
-0.19663097863139112
-1.4519727250126149
0.5561802473127195
-1.4854422408983814
-0.7914366300102487
0.6058182357279953
0.5989071981734223
-0.505291647400858
1.267316303250904
0.22776444631063997
-0.9942153484723126
-0.2695734984128876
-0.7501985467845467
-1.5957315714575144
-0.20991037278003255
-1.4088895636424432
-0.5920754358162555
-0.6443512701284335
-0.4597108848209136
-0.34836414527763415
-1.102472340560044
-1.0986913145563004
-0.2767217454709472
-0.5768225392952037
0.08859460092904092
-0.18710223917217117
1.0078731478183587
1.329565088586141
0.49972696025913077
-0.68099653288154
-0.33640744667305866
-1.303936216871524
-1.078196893101206
1.3226944281822597
0.9520474176103273
-1.0309979834189908
-1.0436316391206533
-1.0345705858185479
-1.9146016527887797
-1.6412053126025687
0.6443558688689207
0.4641692628437447
-0.27962900054549433
-0.08959576891141063
0.9268828867399473
1.1173802139094067
-0.9838737578606233
0.5300742778295203
-0.5619199905616754
-0.8834213469700347
1.220687379042943
-1.9039778009202468
-0.06276221311445387
-0.04366405875195574
-0.8921819345627986
-1.0048442572771084
0.30133745330938666
0.15040076710555428
0.5060911161031786
0.5377210421901121
