1.2513638355188568
0.3154168241494857
0.3539473004897265
1.0505545654514332
0.6592542443659348
1.0021178023714736
0.5585338853542742
0.8521827232597965
0.06776936702392344
-0.006356707097902037
0.5563265105509674
-0.9226083971965164
-0.6389722353734052
0.5613837863017037
1.0501796445554945
-0.9943362486577434
-0.27967642065336995
-0.03928010918979545
-0.35172615420690856
-1.7082554581104614
0.15094237027650126
-0.32107020113728624
0.07586802475135307
0.42837279671822154
0.49141000532094775
0.34729479833828825
-0.20898751965857326
-0.2530652693503499
0.3533227776375614
0.2572450727268167
1.2867539302071036
0.8551214068438376
0.9058955703325425
0.41770915258036695
-1.6205580248279257
-1.0081120299105284
-0.3243745808961551
-0.24285910991223567
0.47596923643164046
0.3379479984695444
0.3549212976823384
-1.3770829661284225
0.7802808428064734
1.7253647234159781
-0.631246541083094
0.6636085720355966
1.1983867575461367
0.0682034368525456
-0.8307950030215105
-0.39047930452068824
0.8356324602862297
0.0025723660539944196
0.7142871947329688
0.3861208519917474
-1.2491970066340206
-1.3670372467706933
0.6352738745139641
-0.42906206694194526
0.4976600803649296
-0.40730555356535125
-1.026358886115884
0.08100238164593454
-0.008232157037578179
1.0116585196604262
-0.08670903731805875
0.15401870192020892
-0.47561425448267897
0.7102207518493262
0.1616869742473503
-1.6173160900222898
0.15162805908863958
-0.2106461067393417
-0.7245921620943836
-0.2252460082032808
2.790030466367095
-0.23232485435843375
-0.5032018160601126
1.8802117924859456
-1.777117619846937
-1.6836445230908201
-0.933727932961285
-0.3098311813558965
-0.5844687700442978
0.859644847758031
-0.43626453824672795
-1.5740579860730926
-0.12387014607393121
0.10328003281015882
-0.1510619437858613
1.9959241043891447
0.9272943051513887
-2.0437811550294755
0.8851687274524267
-0.060582380213975995
0.3930162019750921
-0.7724097717700427
-0.1450275666199432
-0.5427603206541554
-0.16565938348239564
0.4266847661897991
0.1707824453267921
-0.9781738618333522
0.4745622396217146
0.11665915429418278
0.14531214506207973
-1.4025304955871851
-1.3391448956978667
-0.22387401006951263
-0.8939138029973541
0.37328988971696947
-1.72290240812945
0.6331396556918729
-1.1427375469247216
0.04724400772838688
-1.4448268661311219
-0.6318114261102887
0.701051742968932
-0.3293895260080351
0.09020319686177469
-0.36944835801102177
0.8850878892169914
-0.04670377020956393
-0.22960566210296018
0.6906005003308076
0.45671653475208357
1.4567073141665832
1.0276744300405873
-0.6814258673717797
0.05950668099828976
0.05124930704894154
-0.8122337250482508
-0.20397812328939846
1.0347896924836484
-0.43750383636006174
0.07095008857267701
0.04780024197949605
-1.6151714948915878
-0.1414140975523931
-0.792235105994066
0.4221675949841687
1.5653320866442864
-0.3443928740988099
1.1855730837606027
-0.05086761031883902
-0.008667492536365756
0.2521828883488988
2.1453034516439202
2.393537061607097
0.3794389573199084
0.6161559431150911
-2.008936479514884
-0.9889741614624278
0.3549175140600197
1.2670459537155374
0.165814153179572
-1.161118339860789
-1.054058596799138
-1.612381653221901
0.23614612570305182
-1.3898903177828683
-0.03075115679784801
-0.22960665641511951
0.5170199852372391
-0.052140238994793975
2.5226291509922327
-0.7536516848572349
-0.02664584827784877
-1.164858467858791
-0.6826321542265883
-1.1270620566396317
-1.3090784284117332
-1.666523641367791
-0.8962362756352499
-1.0051640711487988
-1.1245818796289502
-0.4863984743412483
-2.7181669711332233
-1.6402393372835522
-1.086021754846417
-1.346797875010909
-1.0233299140991
0.6325394333368957
-0.21479324251926135
0.9835813863914706
0.2579331512535372
-1.6322834806087994
-1.979331975648446
-0.7381684182491253
-0.6744542809666247
1.1032522953118418
0.2918310873449692
-0.3189196737176051
-2.235003506395645
-0.33693203442315567
-0.5837096256829839
-1.0489927187019088
0.5163886979443854
0.052087612257314286
0.5327065905789514
1.9677196921400464
0.3560972064185798
1.6294079565676
-0.7243655344939999
1.6114926643039726
-0.37852633251711515
-0.2984257688565306
-0.14678879028093805
-1.6660203912609153
0.1608780632573859
0.5054116279484245
-0.07774125066799298
-0.6709676040567105
-0.21575832060669786
-0.2540690264857215
0.3891743569780755
0.5063267699098484
