1.0866664678304614
0.8004332838557673
1.0014519057504745
1.6687563506578864
0.5304825164419986
-0.014731962134315935
0.8829583093235516
0.2814114472279749
1.0823486182830935
1.0418145323624084
-0.3237500644665831
-0.6517883014473476
-0.5326769244272029
-0.9348975364196739
0.1324660807528176
-1.4938127105946015
0.5031136732617426
0.5140320284596209
-0.26394632664938505
-1.6971380777044116
-0.825129317190672
-0.8976460447815815
1.6738171714468841
0.14360800054351136
-0.42119382993406074
0.7604297640251931
0.8243108678844955
1.0443778583609855
0.6296922060991589
-0.23329647487301763
0.6599097079092188
0.44390503191082037
-0.13510556432229093
0.6924348332344848
-0.8362372130377298
-0.7449221755776074
0.35964667097631675
-0.9576451061399536
1.6600355715387543
-0.3526035890278443
0.2003762075859507
0.37949074941849786
-0.8703556212500556
1.6395695348551806
-0.9801359313289739
0.3310320330233476
0.15152648421671577
-1.2862346818113566
0.07119272208403782
-0.2494454765349054
0.6736952201913753
-1.0267893187811912
0.8878282017465664
1.8428476482100806
0.27165431051721106
-0.07071444538813165
0.46466953568765307
-0.8936616168703004
1.3727555795812612
-1.4611138986246588
-0.06041679005686379
0.6812092133272004
1.160330607403477
-0.6556319659550232
0.631708261441869
-0.08780094049290488
-0.8891103736012952
0.3746510926422856
0.11162404965391416
-1.940959054757684
0.11113195266662007
-0.687729024314877
-0.5578808944570651
-0.9300446378718651
2.2372739113554987
-1.1526401788225773
-0.4270584573541149
-0.06683760238307612
-1.9141435708271919
-2.250767388072104
-0.5769159696581383
-1.1378233939301867
-0.37625256614795033
-0.08933344170992462
-1.7003672732050317
0.31119938613984266
-1.2211605902031075
0.7020542146457793
-0.05885521750444475
1.4243337573465924
0.7664024321251126
-1.6710707377265666
0.25111249569842675
-0.515922446970086
0.028695392438308626
-1.3439020469377212
-0.18720097225667953
-1.9238758076726938
-0.0014689447876342632
0.8810021138696374
-0.8403010723135086
-0.4378909110218909
-0.10050907005507678
0.18296838582404706
0.3770683832635083
-1.1463187239477186
-0.5745694184031614
0.2505421464071372
-0.802925347284002
0.4174211384857999
-0.9153581597657813
-0.6998305719622173
-0.6137047599414063
-0.8895808060222405
-1.2407073976928022
-0.8486482321640252
0.5981005524943751
-0.5926968414122995
-0.610365332005672
0.3207896710952829
0.4169705113081146
0.7695173068107415
-0.19162067629244764
-0.17187564796470617
-0.5636389048294392
1.4222434954522754
0.5019462479947784
0.10823318440817722
0.030123447969303774
0.5088744695966493
0.5386552447455614
-0.7901210456516141
0.888038114368786
-0.27089948876367287
-0.22310962451254548
-0.39580179994281084
-2.0346672497998535
0.49701182776039443
-0.13139404111964248
0.5314215225562257
-0.6345555527774096
0.1525416379092796
0.23462445485386113
-0.7326398801298832
0.866125361587325
0.624698832672673
1.7225860717797694
1.6733340586883518
-0.3239097741950362
-0.25490658652590015
-0.34361090730590804
-0.040356402800677975
-0.04433294450142522
-0.0010339033142591214
-0.12568230290872628
-0.43693706667211235
-0.23534970112646125
-1.7704213835539795
0.178979141029504
-1.2459581329457516
-0.7996293331803028
-0.2396835550305511
0.626099806154012
-0.5480572401139158
2.2306068661630682
-0.7682269112893305
-0.348007106327545
0.3480255251821337
-0.4012957919343688
-1.050225291111534
-2.0114984924418584
-0.5761834745228955
-0.9098546548780609
-2.0165323985498933
-1.8877109188132688
-0.16829806681003284
-0.7327727263979571
-1.6583401365383674
0.2841234875105957
-0.17688813310457152
-1.221848125419372
-0.7017617309659065
0.018203953035313303
1.9871405969122478
0.1015195414790497
-0.25385471820671995
-0.9861437617423735
-0.14829281086925072
-1.1779049377471456
0.3986280004770611
0.4863429335425236
-1.7492817312199986
-0.6761071763647662
-0.6932833713177586
-0.7405909132524082
-0.5393245112156829
1.1691765494566182
0.5197265106536646
0.7148007305102604
0.9334876329164737
0.6153436220238518
1.4798835686159628
-0.5966657569997399
1.3526696183512383
-0.20126815251686153
-0.6567856494110881
-0.2875043934015572
-1.197146208564113
0.8781891771834434
-0.07984804261870652
0.9162215409164647
0.4253880297316308
0.1276596846963266
-0.759365615239341
1.3404422797345936
-0.10049373681640633
