0.6478112472281639
0.5963959283774307
0.42534427954378806
1.1723670830891024
0.7290487863182804
0.3049127807586197
-0.09769885572391712
0.08472117409800128
0.31731485837886697
0.447101547076613
0.7895355941294617
-0.3944941783149589
0.5299746115594874
-0.9146226747427335
-0.3556088214687726
-0.4748489905993497
1.5422614523369513
0.0021113080212583415
0.7609191609403753
-1.6361342919601625
-1.2699278616825247
-0.9636917556762679
0.15456419594766785
-0.5088981126308508
0.5237720332778151
-0.5052608187669274
-0.14847085404194255
2.0029977462134596
-0.4177533105923429
-0.654975825973451
0.992041652218465
-0.27924481332823126
0.3117625186761589
1.1711819638112337
-1.8036099987436343
-0.6536291911575716
0.7344674344646727
-0.10805093916586689
1.9588506868858957
-1.1649036290471315
1.4466957918084282
1.099493313325345
0.20871941689523157
0.8821528344783756
-0.8003745878653427
0.23125644852919006
-0.010250969975333313
-1.8753630416080913
-0.2069971539763596
-0.40496802768309914
1.017526250088463
0.29241316119844807
0.21810215196424387
1.5832734107740951
-0.046155423133309795
-1.265759361696416
0.39700899241295573
0.4221981798316343
1.0527269328036433
-0.5390192564624725
0.9105941963962692
0.9569705123032668
0.7283377253653881
-0.24473170647771114
-0.13007233444434063
-0.3374560054054381
-0.24410283547467088
0.3846857429225328
0.07694195426396809
-2.0927142071140623
0.5708346122789362
-0.9171475228009855
-0.9187588600282202
-0.9014586957828322
2.3448140891956246
0.7229229475202986
0.2781492965326504
0.833665378469419
-2.164013088144209
0.2090867350587864
-0.15768905501234276
-1.5168571857131927
0.05806326487545957
0.35840559400610605
-2.0332038235374084
-0.114802419336066
-1.4040932904636296
0.6446138975746356
0.2937387755482046
0.6540831343052842
-0.38067869338368154
-1.1807245062619538
2.383819488904881
0.603073416116561
-0.01901755181477996
-0.9304623457368683
0.7938282141562736
-1.7681564517847366
-0.003695114565459817
0.12391349047178934
0.0015348307703501596
-0.8586266391329902
-0.43602368162215244
0.20857159433601824
-0.8321749076769989
-1.1824317627662886
-0.4154640042955602
0.4485500526807607
-0.23822844093455048
0.4381759092323664
-1.1189505986174615
0.30029954515698065
-0.5712375576334283
0.28941918356430074
-1.3015262116981792
0.030779161424565715
0.5133693062209785
-0.6986353903223912
-0.8235909741524353
0.3581104534111086
0.3638996067051037
0.06845961729547462
-1.3012810829078438
0.569364897579425
-0.15581314063639343
0.2559641864951421
0.33284072530962017
0.5413642230424428
-0.05948382942643543
0.3032451004630414
0.23305554517162308
0.3506202199989877
0.5759957759848429
0.4535976386237579
0.027627493553401078
-0.9473121718452994
0.7307037806309483
-1.6221296123812332
-1.5640928741097988
0.21650332762099775
1.1876791231715758
0.9358359263255236
1.9037907804838972
0.12931947610259162
-0.18690808054315056
-1.1085589788919077
2.295927275388202
0.39666562713010145
0.3332959592743726
1.610839663536698
-1.3049311746775278
0.9117700321279891
-0.4258385546123489
0.96813659755113
0.5176302040759867
-1.3275333663214564
-1.3626087543583472
0.18929906697130128
0.27519849868169305
-1.5482468879051403
-0.7843347401460959
-0.49955920279330107
0.8940972025024702
-0.13465694313065557
2.1831012511799024
-2.052946584309576
-0.016242172164222246
-0.13232278831945904
0.14308968989957044
-0.7862980618867796
-1.9738012386219577
-0.16865567253971286
-1.5437856084600088
-1.6710202942196875
-1.12267025595684
0.04810404209424346
-0.7457894453853395
-2.0994761982612262
-0.8352933886019115
-0.9852899230678865
-0.7811695533935002
0.278335195420424
1.6684297328137667
2.1146268543898
-0.6673300010072124
0.47055586860170195
-0.7111687329731097
-0.46370578469869617
0.05483002904715284
0.6905105009076621
0.272127534943032
-0.8713587617697828
-1.265928875883129
-0.6484851912267249
-0.6652072407167544
-1.572517887027875
1.0427379372797367
0.33441607542662477
-0.39042968235460324
0.9891392322556884
0.4954713437211176
1.7523963160218736
0.298517646690028
0.5193598077496027
0.6572290436487795
0.18063565143318394
0.8576626417678503
-1.9187142109536852
0.5578560531816424
0.4232269589142007
1.316966667656309
-0.7277008697301347
0.5822215245043635
-0.7547854381564051
0.13874003888188766
0.3515915543718938
