1.4872187921236737
1.6086126231400972
-0.11048474998328545
1.8376234254804098
0.6746818752118912
1.531853058622796
-0.08368700859831701
0.597277876136001
0.0941886093082957
1.1095696938078423
0.08223011772511046
-0.9384523345414194
-0.2746832137895737
-1.0252994934650026
-0.11786759301321667
-1.6338926722045535
0.4647446381893919
0.940353594010555
-0.6787660510686138
-1.341434983590126
0.18825938756116295
-0.0895375461332073
0.7412261980416488
-0.3023221955833647
0.046668046825865256
0.5387329101577575
-1.1766330476370084
0.8272320780152826
0.19313071049434413
-0.8138065655435444
0.37062238701094585
-0.5070320232124208
1.749141351209989
0.5169761114286905
-1.6342742147286347
-0.9521735197910353
-0.25115988626017016
0.026778291089379458
0.8584063141628282
-0.19152252692345925
0.5346794603005501
0.7266612918389002
0.5367729074477202
1.2447926898484831
-0.942778957915348
-1.1480224205538012
0.9589454413002085
-0.4594303586515198
-1.1047701621443982
-0.3449334268722216
0.8300953997567543
-0.6066265113658339
1.934344304764389
0.7023254327399882
0.09137020702203905
-0.3070142863157199
0.3905326096914079
-0.6374243314574387
0.41297461160442184
-1.8682056205154265
-0.16261692661198845
1.0934331601667036
-0.17396679519142427
0.7731120675507402
0.18459794814016356
0.6013993001953676
-0.190976166832225
0.17896871699986372
0.23228617722033937
-2.1666043418865613
-0.6272171352752873
-0.3999941506578432
-0.341138274975606
-0.697589574176049
1.603756965971877
-0.9629069699988285
0.14631589677718404
2.193256964644142
-2.004563954718725
-2.13261071487843
-1.4402769987920483
-0.7921151966420589
0.13142798950092346
-0.8408741379603496
-0.7856450775289778
-0.3229048668830926
-1.9851774488042242
-1.5122401117853639
0.37319610450076046
1.8593418959833152
-0.5981799680924866
-1.5607141567013805
2.241397680974165
-0.13821788817576075
0.6687928436914212
0.38819183732174234
-0.14528538689797243
-1.9952011259577924
-0.33134314910646956
-0.3983058883717301
0.37256344790674306
-0.60223907811524
0.9587803557232499
-0.14289450765468947
-0.29666113560143376
-2.3032555955220673
-2.661651182488865
-0.31942656283221355
0.03310762561354641
0.9325057619773842
-0.8490312127755258
0.4657069449710767
-0.6040073070996816
-1.0559536476081304
-0.6988015671407898
-0.03510169558642695
-0.13367680560659095
-0.5703273290862517
-0.6072655144850116
-0.19018833540930086
0.583103028868688
-0.6431512409415887
0.06230569503951297
1.8822724567475244
-1.0256473829018269
1.41678101144009
1.338192449341443
0.05969274010173086
0.2728613306561665
0.8719194262700712
-1.5301848439612966
0.2758612061180455
0.8504321137169087
-0.25019169164775346
-0.12445186020625729
0.5199321268401381
-0.3833983429261134
-0.7548878631506946
-1.5080656430968697
0.5013121064580073
-0.25846728412390574
0.7109788820604624
0.7030147481109914
0.6527763088021201
0.6528934698247035
0.4687811677286529
1.1891258916262692
1.4928880365006676
-1.0036138614629726
0.6378435630372892
-0.9312473069056588
0.30297996172056285
-1.3727586895542252
1.3312112925695931
1.6590017417188838
0.17446957657328066
-1.7635219821828954
-1.913435663737951
0.21737746340362102
-1.1358634386439033
0.20314861246275806
-1.0188046837013793
1.993692576826815
-0.22708072240466504
2.1162247731782777
-0.6035709080714223
-0.41133704608502947
-0.5017916947303463
-0.6391522109995107
-1.4557287413127316
-1.2819308417596025
-0.8870004729092092
-0.8793965740454137
-2.0925758973793207
-1.413401683345592
-1.4075178082470332
-2.00230297126691
-3.1549935013186055
-0.786469568944844
-0.9759948296844159
-0.26709545927958345
-0.16653433559956432
1.2576893944590108
1.183794276318028
-1.6563956493403054
0.11258457949108547
-0.5851421827345167
-0.5197977934588954
-1.6025948200553453
0.44548230432721125
1.4149593532752607
-0.42209665272635555
-0.23563641751374187
-2.5415021105015727
-1.3193366055663387
-0.9812856711829319
0.8799770226029102
0.008256313054976983
-0.27119169846412966
2.2558768968806957
0.5762342233058412
1.6950481231082064
-0.5693314121447866
1.5857446453462132
0.02345086723728146
-0.8086179466216042
0.6394256826262916
-2.1669514053588004
1.0170772194625315
-0.5178743052397986
-0.33684828310846354
-0.29665582953719205
-0.18723962169711095
-0.500311890599125
-0.4664006342945793
-0.11516595336000832
