0.7537615184794111
0.7070650415284431
1.1265704297429389
1.5261242036640454
1.1975820934691608
-0.03965646749192264
0.7249963818146412
0.6395962086954804
0.22405602328343494
-0.15483594648491386
0.9489617636835515
-0.5896723981335799
-1.0395841506872556
-0.638693801428273
-0.11467946133379367
-0.23361277248019907
-0.6779827030272151
-1.605546305714578
-1.2904472457012128
-1.6578590504867925
-1.0221908570502074
-0.18004176717764986
-0.03806340048232648
-0.9741402273468691
0.8458050214138275
-0.07292451558999935
-0.23024694371925664
1.8317902029332298
0.7690672043648515
-0.3242019098086472
-0.15116229295354022
0.05476448482361016
1.595005285832623
-0.6758963827867512
-1.5087253429988134
-2.6890518104150956
-0.04986995247331699
0.039948463552913704
1.977438030199064
0.4675967282605048
0.4526539728715876
-0.830242670925244
0.31188504417038554
0.9786486573582116
-0.2796259134948935
1.115527354789958
0.8252237020201381
0.23394584090802262
-1.215977378656751
-0.4306397042855651
0.5733656246962539
-0.572471389110142
0.22154859580774205
1.256524548722777
0.7116034417759141
-0.15630250813850644
-0.28568987278340163
-0.7715496054533862
0.37159611030524453
-1.0742453994034868
-0.5129582834090579
0.4529115740921324
0.7304180093816085
0.4805695539664841
0.947376468509183
0.7323322806934774
-0.424046249272798
0.10321606893509327
0.39786127635394647
-2.0684152477314486
-0.24966898568744675
-1.1764754676594988
-0.21252801280874162
-0.33288876578327686
2.616910433276951
-1.036741537860951
-0.5873586980208083
0.477859623500908
-0.8709389469119864
-0.840945470187216
-1.2101052092427753
-2.917866365037141
-0.10841689358732715
-0.7599880523736048
-0.5205633784868833
-0.3154405929296247
-0.8523720614448317
-0.06234539210565418
-0.2897162371553909
1.4029115667984655
-0.19230809952097228
-0.991428708503049
1.823821207617037
0.26392387633332254
-0.3004204694958783
-0.9019671760474803
1.5041462536911336
-1.6444465875737009
0.9662208607757224
-0.12205160397014181
0.4016233011271897
-1.0361940156024658
-0.17832941871543975
0.8363995707457719
0.4554990870385631
-1.5748059793750468
-1.3042725506407822
-0.9171328384271171
-0.9503879523811027
0.5133077069456373
-0.7257793131751124
0.839103866052854
-1.2078348401013783
-0.21396131546058714
-1.0467034075836474
-1.4761640328548458
0.5488907566233951
0.013379701632830865
-0.39864104840416337
-0.6803801875664813
-0.3938679269201011
0.12507295734173107
-0.2777927542019307
0.6586697683538564
-0.16085323587534456
1.8231076605520142
1.1137483895120543
-0.18078830478435112
0.5213440059855072
0.6293468035303322
-0.0916012106113685
-0.24142121400936054
0.41469077807340604
-0.3988207286329949
-0.2357741401974052
-0.1887919892020535
-1.791120857789248
0.12184055698524654
-0.845436865349792
0.05556776221060444
0.8646726513391432
0.10985395104426722
0.11983577109166954
0.9405020592106934
0.7016771284013288
-1.0178480042369193
1.232054941021879
2.8777660773468217
-1.5681164484900916
0.8631323998013363
-0.4684440826009496
-1.0782848948576245
-0.3909773017449103
1.28637983319032
0.5449530320382752
-0.3467221932290024
-1.1846197053481395
-0.3810374145137675
-0.3286127982307684
-0.9275898678597593
-0.8062492005403006
-0.20863781692396594
1.72311055137527
-0.7329426804351541
0.6208030599148093
-0.554114901385124
-1.5065298439215624
-0.19476309953667126
-1.3000433905355742
-1.1590133139371466
-1.3450607173412785
-0.5737818902125328
-1.6402770505348212
-1.074114043731191
-1.2624498073813661
-0.7023269047828247
-0.5997997478189322
-0.2091859100736575
-0.6970832687154256
-1.196374491715074
-0.5591509475046785
0.5518474843233256
0.8250133817601714
1.471279471548046
1.2698080290344265
-1.1581678781928924
-1.600362181901391
0.7325155904156033
-0.9498739042553993
1.2944745730452838
0.007325535394939298
-0.49775915909305823
-0.4691077524447106
-2.054518354558175
-0.3233016277405145
-1.0397181071928139
1.0315573521163142
0.7901096370936609
0.4114701484299496
0.7239395585525488
0.6583235954511445
1.3121138897284075
-0.2718731472029538
1.197827473283163
0.31433489191585356
-1.4659958849709338
0.2752305616306977
-1.8393496779587142
-0.15087861775357236
0.20989069606556762
0.6738101076785412
-0.8890075982890544
0.5019537973162036
-1.483659785409872
0.05344147613106165
-0.815550578730885
