1.977284102739214
-0.2610126891245711
1.110124517063147
0.6758273861406872
0.8871282215903883
1.150367068836756
1.4612238957142067
-0.2287821897052037
0.7454931657533899
0.4971716132643441
0.9874756501897448
-0.940491240329138
0.45776485197779326
-0.8240843671025911
0.9911638475543206
-0.15199846215216228
0.16762961483685468
-0.8490108441319321
0.09780365993842133
-2.0798132209559776
0.18022082125023764
-1.5700976607462616
-0.07607665863739577
-0.03527152679447411
-0.0428242297994494
0.5966436880840578
-0.05288921038637662
1.0715656369304125
-0.22958656437084077
-1.1490936387058441
2.039553133958607
0.4475866444108644
0.6403939743282429
0.3736075990604978
-1.2501891535330114
-1.1186034429381755
0.7833454917706515
-1.2484853607542952
0.7810043220702005
-0.16444805868659293
0.3737846146535452
0.3944866764565736
-0.4024734902080666
1.0038800042662335
0.5343342581976314
0.1839872550105225
1.37102808511864
-0.22072614187103778
-0.627011459249064
-0.10369227003823078
0.525148419926408
0.07440212718277843
0.32178390243652044
1.8442677487885588
-0.4391723219388769
-0.2558283951577576
-0.12399915646882166
-0.5235957901765982
0.8672193844293365
-0.8435404505264322
-0.07134032137446655
1.0962333058401792
-0.5725446616374065
-0.48898137599972
-1.972093440438591
-1.0236790256034667
0.008556915901513557
-0.32646425241278454
-0.2083018941765658
-3.480711395522299
0.2570207842674268
-0.3950359727631131
-0.96420827911713
0.958840698104064
1.9460018905656409
-0.05818486528987121
0.5536519939998439
0.3168569919041446
-1.0388627480609605
-1.0181875456743692
0.3550907264023444
-1.1016330799498366
0.29980091335738557
-0.1948369922468184
-0.9358073186672338
-0.7192694953834009
-0.943081383333147
1.3641964547241594
-0.5567810241519642
0.5824654036853472
-1.285457527862489
-1.134926792521446
1.2010152583631168
0.3776946009509902
0.8942718822718713
-0.8666927079863227
1.0243901372396524
-0.6801801211246881
0.44946148144916953
0.35581974054909893
-0.6075257497311495
-2.3823933126777375
0.7193949971327084
-0.12218261744395886
-0.6605404940196746
-1.1233317166096592
-1.439462555611675
0.41436518134761086
-0.8095309210764362
0.6087253213816779
-1.072462482351326
-0.5122054567039954
-1.4909141716063299
-0.6588572355585258
-0.7012234639224029
-0.6024155523222222
0.9110515645770192
-0.34328514015666156
0.14618810520650194
-0.43268452498360294
0.1576241768288587
-0.4991237672063105
-0.16513918674784187
0.22929924483271508
-0.03812255335165904
2.100761652688728
1.7173962257255857
-0.4895702780184826
-0.23250219535098432
0.7383568084009482
-1.041204193358772
-1.62983525011213
1.2868370182766966
-0.8778392345546641
-0.6436304153633418
0.5908664774473892
-1.295049094465738
-0.23189334074870346
-1.371037703999309
0.956973529476275
-0.15729571482166643
0.5955901472858148
0.6944751154644853
-1.416008780850435
-0.40625982294579427
-0.6433020757868411
1.651341103631003
1.9698672435063551
-0.3152219930739891
-0.4946695233249545
-1.3633699986853447
0.050773202103407744
-1.5365954793487595
1.123263074237519
0.7770357632337306
-1.0429214869864802
-1.5707904599513665
-1.2927107597420864
-0.41402877303726693
-0.6898188055989043
-0.4942307745595514
0.12582623581774943
0.8689766244804493
-0.6673755242758608
1.2437149407494537
-0.6826845170617837
-0.38840175026983437
-0.49701055584381487
-0.6355686140185615
-2.5526966295184117
-1.02036478819797
-2.0081534844431115
-1.0355368118067036
-2.0131754844381886
-1.6492605078709008
-1.571791856972578
-1.0837904862344006
-0.7920371462204943
-0.49441657971491754
0.22065816374842806
-0.6322496097683945
-1.1073738475496429
0.46868293642082526
1.0153201379337682
0.8796896997326888
-0.6335251377430445
-1.3446507974912842
-1.175079810273584
-0.5807997723974969
0.08425047187158352
1.2755607511667741
0.22476386331411224
-0.5890941804533645
-0.5682056133089728
-0.5883686190053437
-1.1272897065117717
0.6723953546549896
1.1166870040690207
-1.005514186117408
1.5574085786835932
0.6425368065195496
1.9164575916519697
-0.6542408550058388
0.6376992879248582
0.46739608341968897
-0.719236358727116
-0.006509038059174577
-1.7086363964874098
0.027041908223571984
0.20307127322476112
0.6912779332244265
-0.47105041117551794
-0.08224072680213657
0.14614208616299196
-0.29018225726020463
-0.4333960765318037
