0.7894655863835023
0.647422626280904
0.8200645225684672
2.263508023697459
0.17677968181149228
-0.2816238412926555
0.24357990642904392
0.773376655015869
0.6394169582931825
0.14735440969114325
-0.17638509722523016
-1.0994666613538224
0.045983099239474634
0.12172425968569556
0.4709822334034206
-0.5888593581594593
0.356998543311574
-0.6327463628405418
0.37349777918038896
-1.6310383459859705
0.5894525691040875
-0.6931557418634163
0.11244312084606634
0.026423004071070594
-0.3004472214790863
0.10192032125925965
-1.2895436964993992
1.1958920953622103
-0.9307570009893255
-1.6463658821665517
1.5807750091316337
-0.28747016180143725
-0.20986251649361776
0.9090808519512443
-1.0071765909767219
-0.8519506917255979
-0.3645910678039068
0.5569718979569702
0.8985247301825792
-0.3228651203962437
0.8355765371015194
-0.328106188411286
0.2831991183384894
0.6545949692847266
-0.8243329359644775
0.5555230561522655
-0.3973480304856502
-1.3554484292331592
-0.30218661208519704
0.2533909279687121
-0.6250104104730603
0.187806372009617
0.6245079992694986
0.887436452376308
0.29526474260141244
-0.7526512035962479
0.2378457703165428
-1.2568899470892234
2.164807537318017
-0.8181002535018037
-0.6820882830909407
1.2289745040595488
-0.37819218621532535
0.2740537008634817
0.10589920810031322
-0.8720251296691038
0.1485065094996743
0.09576399558082693
-0.10951108226302525
-2.48011363577807
0.8958333012912737
-0.8056994747322703
-0.7613495333780809
-0.8373674998807735
1.2685850451127256
-0.2626562052573644
0.6345001140869422
1.3279811041324825
-1.3734035433167207
-1.124783501410067
-0.8166680562144751
-1.472298009939769
-0.9401775321954884
0.4552089404547053
-1.762568275843438
-1.2750960211048197
-1.3875059583163978
-0.378993355548447
0.8375803994911314
1.108931242766676
0.03538348974680788
-2.2065343569156015
0.6169952107920407
-0.3601391249292644
-0.15775513239882694
-0.8314611241911404
0.7623367397552463
-1.1409137481832994
0.8938815524098174
0.19025093165240053
-0.8273067640913027
0.4137672893768809
1.0368644140369077
0.2903067517511346
-0.1572644351303865
-0.5022015724447555
-1.1214201775089905
-0.3391243885338159
-0.793134825670746
-0.2044215437624356
-0.7692392776600874
0.07704368970031783
-1.2876571733485647
-0.3763679769576431
-0.6479636236987043
-0.8256242769869886
-0.7448707602888793
0.020328573316423793
-0.2772193070813818
-0.4939567661623195
0.502862726051114
-0.35881692541385424
-0.2282355796260567
0.5656657413021049
-1.249027634777779
1.0304294234365876
-0.15726100959592948
0.5036919002485724
-0.4980940621533376
0.39035217930740684
0.46403787030524735
-0.21968853185218096
0.6884518998675653
-0.3957234680968267
-0.4143881823992155
0.7729632242628357
-1.2165281934060463
-0.24042410859116548
-1.9868105686088846
-0.9036949322221377
0.7260611882570747
-0.8465156159160255
0.1906322523629675
1.1025436828401023
-0.260950754057787
-0.0780240537213078
1.251283241400641
1.8541660695368947
-0.49787505146244193
0.1596994669049978
-0.7577564837623794
-0.9004758387789334
-1.106715786498318
0.3444743729624483
1.0353150890325995
-0.7970675875694023
-0.9827966585703637
-1.5960438758486233
-0.20983210228844645
-1.778873866995142
-0.4491795609791546
-1.7311458171570837
0.3425608476149495
-0.3953303727911627
0.44363030895617594
-0.3688914762980929
-0.8281733008048007
0.2106096766511517
0.5236629093435134
-0.5819956909107357
-1.2964736676307886
-0.45968569615883564
-1.7266264511887588
-2.0184912991175623
-1.0255649657713726
-0.22026237792943004
-1.0530598007441745
-1.7518966960296785
-0.7645859554921557
-0.38755233621406915
-0.5002696518799641
-0.5603094162655982
0.37536006198157446
0.6687348529494239
-0.11272930913826781
-1.1229732248633235
-1.007344552060844
-1.5144907477996004
-2.0601179069356403
1.0141745715393005
0.4242274372355366
0.41115810542641973
-0.8406031771444348
-0.5524211225725026
-0.9625749946598067
-1.4580568983844415
0.5092547834047689
0.4594776151306065
-0.7464526383629316
1.9665554281675397
-0.47595817594551293
2.0331217293628643
-1.0946291874948875
1.2859062202888434
0.77669993072366
-0.7348592090259197
1.061627926509825
-2.007443318940949
-0.5424374616608806
0.4902474044320677
-0.5957617241928395
-0.8446338955828749
-0.0712927338260886
-0.500162730680866
-0.19430076505061056
-0.27898121457226577
