0.007781813287180084
0.26883932664043153
0.7427700656261587
1.2782021177322074
0.7867089065901844
1.6110547121826535
-0.7692413572197414
0.5277486843320494
0.6389155927021242
1.2655520992395048
-0.334376449219487
-1.1760998420022595
-0.10208643186802513
-1.1590090338097592
0.05805201823876047
-0.8985934892888116
0.43595626646261526
1.8736504770064375
-0.9239885403828159
-0.7758035411044362
0.8406225685568505
-0.6591457777378671
-1.3411405270122352
0.05234520017514216
0.46064849400024616
0.16722758109836416
-0.7650564259212086
1.8113230168489842
-0.6663349884459546
-0.4716869085364863
0.4622994926839178
-0.07820971871901733
0.5567958189454143
-0.0010996140691224288
0.6248434664800876
-2.209841869359936
0.231505782972994
0.21460705877394198
0.8385757902345917
0.6779735128300336
1.183975777593027
-0.28846546060805034
-0.5787034868002581
1.9711385600401
-0.026765900592721437
-0.0752693110279517
-0.6029772769788981
-0.6271737353170082
-0.4358672516184138
-0.05257447629872733
0.37373480517782587
0.1611293744904197
0.46824034024953676
1.5318135647619906
0.06627379397791729
-0.05479416981215779
-0.38904265164286905
-1.2848511513998266
2.1032167555452164
-0.4726171746648975
-0.3117784464416447
0.3563489588998857
-0.9274454868307442
-0.014832399177497069
0.2687201554526933
-0.7376499913695669
0.3761820716412092
0.5360257428534672
-0.6166984762265237
-2.4643272066347355
0.32233701334368847
-1.3278953072591058
0.045620081478910834
0.2894564238668683
1.9283569420242799
-0.8842599975556034
0.43783727940817857
0.5785396734743282
0.07386402256659363
-0.6928093056418148
-0.960175905846651
-0.981739766792022
-0.7174211341825047
-0.20157148693126664
-0.7225081430564263
0.07323099608588779
-0.9670908289940165
0.5137168421607328
-0.43255498657638836
1.1884012543799276
0.7723403382423046
-2.869977032802751
2.3419709105264954
0.4542130179385983
-0.12347010863424884
-1.3471919787612427
0.5930371782560175
-1.4074755230739253
0.49465617805971673
0.11286799204583983
0.4303979517887351
-1.2090388581042835
0.9735658676289572
0.37389576236587035
-0.12800118935335425
-1.2241034859438602
-0.3645000441820765
-0.3607216781792698
-0.6862541964014252
0.18106105360718894
-0.6682777235900129
0.7583025221826979
-0.46675572496644646
-0.9611811140721862
-1.9475317817626203
-2.0967979851511207
0.5574501752788293
-1.1146276585845358
0.05458254264180873
-0.128848722920959
0.15278418775678754
-0.05509937106648216
-0.21088075068443776
1.041857785499778
-0.8309086448051963
1.6752572989862
1.4894292771445627
-0.4462795421347813
0.08037983350480798
0.6254673358721602
-0.8114981423575662
-0.24203029124863465
1.097367021478988
-0.5544699977881274
0.5426412095549827
-0.17106991772495989
-1.541242635428107
-1.219681428928698
-0.06947521814883317
-0.043965605415481
-0.08295986874572492
0.011804372036788364
0.3782831083421268
-0.2940477880454235
-0.2382313101758743
0.027056268443455142
1.8724796910375818
1.432101245370364
-0.8403963825432813
1.063152486491378
-1.4160122408329339
-0.6125228416156441
-0.710709955203535
0.12054543460747358
-0.024176489551212543
-0.7433192728353238
-2.3888560175262414
-2.1533545743168263
-0.16460476563037596
-2.5281262656654304
-1.2073332215713544
-0.017365453686935484
0.5678744813758992
-0.35194765911124737
1.9179575023550548
0.15334137110894663
-0.09803808531724212
-1.2026890234748797
0.22943813275605518
-2.048862441394325
-1.6823538101350208
-0.587975211300842
-0.2935469851280027
-1.7310991944667435
-1.2093556305071826
-0.4316895295016528
-1.6188512614545223
-1.5199292213047761
-0.6273536805664885
-0.8016868585628087
-0.23344223170584588
0.48670953944311085
0.038260977239185645
1.0951583910104183
-0.33252312363019465
-0.8127574803131441
-0.2954972729330443
-1.2546846072762636
-1.5442544543279109
0.7396392108566131
0.7287024043870175
-0.16384300672038765
-1.131568715366463
-1.4845492968128957
-1.915757409032199
-0.2867158986293823
0.39841207427835523
1.663168682179766
0.07633110771121125
0.49743314588269627
0.8266024553289868
2.8932909065636876
-0.6945240403507493
0.8008480260807787
0.2048365240225848
-0.3198257135558456
0.25570413040392637
-1.6877917326545
0.6553726369205405
0.22219880206712503
0.662676144659498
-0.14632892912809703
0.11310186652186612
-1.0583812351724664
0.27802971053581266
0.13996948978005064
