0.20168491159687563
0.6534807750266591
-0.533162850742398
1.2101012958831634
1.3381480798860335
0.2937240382921736
0.2537836352516238
0.7783618067302565
0.8436783213297716
-0.5811191894788574
0.27164172983853146
-1.035115377493517
-0.7422373650914261
-0.5186364309482752
-0.19806554514160538
0.04751616252175983
0.3218335207618567
1.0345759452598404
-0.3512424772775531
-0.8537258142351964
0.2527325380264703
-1.742119438477955
0.5902901142036286
-0.0864877792396622
-0.8280778515237219
0.3554281225900055
0.9650549179418824
1.2445497473495533
0.2867649713705536
-0.4085870130462689
0.6990278984636016
-0.0327428681308452
0.5793563132889918
-0.981249036989304
-1.1004686666517063
-2.023005712312768
-0.25287269793999445
-0.33546135088489376
0.7145921890942035
-0.549574374003298
1.0774870715316665
-0.5121069648963129
0.6662270709587974
1.087173254390794
-2.2534750392880003
-0.106913117548043
0.405617036122313
-0.01239588357436705
-0.8093311376214077
-0.7773476763929026
0.19845642859892892
-1.0128076400689143
0.8164890738548581
1.2392826487644135
0.40180809799545325
-0.6510084267801648
0.09842044386057264
-0.04935238043476853
1.8698694335492054
-0.8615730576891872
-1.1335461398905042
1.0607556121561599
0.33193567535985546
0.8761869001057233
-0.1522388775948259
0.624940605555683
-0.8847783687097421
0.8272691801447132
0.4834561249774448
-2.8300945089499456
0.418685203043289
-1.8586931818090142
-1.1200641308499915
0.4116481332534322
1.5720274988568486
-0.5672605533610342
-1.8755764732734046
1.2242966948447433
-1.9834928306649733
-1.6672475873388346
-0.8308029404991275
-1.4325978498455483
0.7018164236499181
-0.45219921953275266
-1.7979129131738292
-0.7536907702814102
-0.9728654735811386
-0.6294014409062398
-0.6092628885690772
1.0336434404076575
0.33544706214944137
-0.5961632054974811
1.2239194268890246
1.4336110560055675
0.009869220180342114
-1.6769781613904828
-0.005491135720898432
-1.5228079881754344
0.04000600314998773
1.137279709379164
-0.23950193911567638
-0.3803646985209636
-0.05851996413738336
1.657559502531467
-0.3080276449463405
-0.9167829331815922
-1.6933746080177796
-0.5729309280522379
-0.6577200105091443
-0.26912785828684826
-0.726826434768687
-0.720713035477649
-1.1492151878355021
-0.38364464860369346
-0.8245605635212471
-1.212864039749198
-0.06206786429028427
-0.46943223913105503
0.3402206730858842
-1.8843151055910472
-0.0028311647670031664
-0.33279672720437686
0.9975712903607241
0.006957253779507566
0.24220066169588034
1.3351235861116604
1.8570943019294233
0.24755381807035104
0.49793384533204027
1.4754702344434545
-0.9047341801300872
0.2870991999517358
-0.5910032477170057
-0.2468463370697691
0.31382007342696766
0.04110993600433242
-0.5779454385711915
0.7686267372430444
-1.7446090051168552
-0.4579581916178036
-1.4595512618091682
-0.036023579550215706
0.4841726874439596
0.5396138760494061
0.21879065042209178
-1.2978107460677537
1.8513226464556927
0.8547987292374374
-1.2433905378528318
0.6370772049264043
-0.9047754088695131
0.10994084632203338
-0.44135974184297294
1.3702043273310558
0.8395093209113798
-1.0867034913746494
-0.7772069209207235
-0.8122936067062501
0.20182194741290832
-0.749688781764734
0.16997206446511326
-0.6174996604525289
1.654241171942364
-1.3080599966164972
0.7680115909578145
-0.05549700786142353
0.008207566554478574
-0.26137193622847144
-0.9087000567764297
-1.1776955672449707
-1.2644583339999356
-0.33056931757433217
-1.8420931282950601
-2.0342965121828525
-1.3305356606617909
-0.33669353355080034
-0.935613520406233
-0.9362365343455921
0.01201136348560028
-0.7639946986933726
-1.1368777703552626
-1.0044177847014821
1.4026524623508219
2.0120781259234297
0.25038328339047666
-0.006556644310243942
-1.3201194784079688
-0.20963481047153698
-1.6442912111540817
0.6563254577457048
1.9214218080783037
-0.7653297557194118
-1.215156054700917
-1.4051507850118607
-0.7705363335341221
-0.28871621105916856
0.3278324565940287
0.4703769706458718
0.02912624415646657
0.638165118571218
1.1363548377839487
2.1969547053495235
0.37951440953413007
0.8241193302847624
0.3217461239299323
0.04234500349465631
0.8036323481048506
-2.1558637704698396
0.43110625133526326
-0.29814420534275465
1.8505124684284624
0.5032234598342732
-0.1600644430377512
-0.3847168137805668
0.08816337975559176
-0.33876702235595657
