0.4903223252709493
0.7052430968891489
0.7037747591382784
1.1567989810138684
1.4072742822711723
0.42073017191835865
0.03907319002242948
0.21852892745926528
1.867377751639756
0.47675884453294837
0.2640681112712414
0.07763283737982796
-0.3347701940600012
-0.8747054410888282
-0.027209446016424194
-0.347336276007268
0.6391950488685002
0.0665051805589949
-0.5304346748960279
-2.845591799254053
-0.21467619091926887
-1.2872863291654402
0.43945708265797234
0.1688987409881338
-0.339052737585082
0.9778633603774485
-0.19241103497746304
0.8067343847965334
0.7511744444446389
-0.7653186118639758
0.12386189411175219
0.5465244461833754
0.012034572427891632
-0.21385040609965228
-0.08688773081213053
-1.3465947931276188
-0.032303819391799604
-0.2723000970349601
1.8463448610714601
-0.006244504170404598
-0.2737274351479402
-0.06755065383738645
-0.12473077040097114
1.1233624557307074
-0.4543598613157685
-0.3682458342803623
0.9125422172430502
-1.3879365278890083
-0.956709699557938
-0.2906630603462772
0.1913605339821998
0.39736010057899585
0.4935267896264858
1.68455177778698
-0.41330882839192673
-1.657499693522928
-0.37757116093474347
-0.0849951942940591
0.27884918556059957
-0.41568546828256736
0.12725205948023216
0.39307221530508824
-1.5832489521778064
0.025089608586190526
-0.17300976278754124
1.167918650947283
0.29057191295705814
1.1769895455258175
-0.2543981549542427
-1.6301192040290196
0.9059785571819181
-1.9917611833827937
-1.192331482882918
-0.551105971402989
2.0332527115133585
-0.011873993511073988
0.3873870900218887
0.7620102671099511
-1.386679455100121
-0.9405895426555378
-1.1546089540172575
-0.6734685020015004
0.617547945364132
-0.8153251118377138
-0.7652585859349131
-0.8186038824725159
0.07753329668750342
0.25187116007456906
-0.2267583474115576
0.9104889114253183
-0.9160386957371862
-1.5837949503074555
2.206259224630009
-0.013772408840690142
0.17727022123866443
-0.8632983867380335
0.46655108526544065
-2.214907509269019
0.8923565050355813
0.8391434582917733
0.1594247756521166
-0.4181576505411039
1.3020818773768401
0.8240957149090398
0.3621413056255441
-1.6575510201257444
-0.7830553406825471
0.3417560567099314
-1.04735148542611
-0.1741752089419087
-1.5176852996285255
-0.03345357383055031
-0.8577373438301277
0.5250333254038159
-1.4610011243820762
-0.28776397641036666
0.8983921095929543
-0.8452602976800291
-0.17160900310036853
-0.6756238434516054
-0.4826060199120713
0.6692827066296112
-0.8269335350809901
1.6665242456654195
0.4264452411145138
1.3909639621973435
1.521392958665386
0.12784149027810746
-0.2202129865607051
0.23673963297540004
-0.567099724947095
-0.7355446772886267
0.6788362290582906
-0.8266280005954125
0.34685936475341705
-0.6589579544226698
-1.0079697127358813
0.6350898480936158
-1.473019583759847
0.3674771300082862
-0.12158084460449031
-1.2235216256814656
0.7175646249042598
-0.17290173567470263
0.7156355624548743
-0.4322376993606245
1.295406444026267
2.201073402661197
-0.7930353120235915
0.5959040964128951
-1.5433937949985104
0.07854578181898716
-1.4987966237742398
1.3497732873661568
0.7453328850096891
-0.5923310498752333
-1.2959851448383988
-0.9320587326763801
0.5065926223010739
-1.4503617258979107
0.0036759975368297892
-0.5079875006599037
0.19443247155856735
-1.2146628764403533
1.6961736691595164
0.4532866013404466
-2.207773583605011
-0.10864510319879817
-1.2875598951451797
-1.3074622188448468
-0.8829609467952133
-0.44167852612256947
-1.290790503294478
-2.024385875110298
-0.8694448460871933
0.1603755614399387
-0.5676708512352733
-1.4767144557645484
-0.8296121861270556
-1.3093788041869288
0.43961862269660623
-0.640064693729131
0.807281732233209
2.584574502096376
0.9487070078925249
-0.3537422493275101
-0.5380392607793357
-1.053200025012146
-1.712399386510358
0.8026874935946302
1.2135692993981384
-0.9230962345513554
-1.4167564401881112
-0.6322022351983707
-2.107935851848434
-0.9125560620330632
0.9984231077312362
0.5962708487662216
0.10924619099266682
2.0330616630115395
-0.8284479403137863
2.672887627918275
-0.08905706770370095
0.4086351868462881
0.08536397392496725
-0.19486543252468047
1.0304705357481576
-0.6094723405893505
-0.13469935454460816
0.1931192590430673
-0.04053310679535155
-0.41115712552737943
-0.49260120116735556
0.03811851641309927
0.03440781727558156
-0.7582942310071116
