0.12616601493507562
0.08909601605015238
1.2372704301886828
0.9831556721497114
1.423858694894235
0.7233857935276591
1.0312144244767316
0.11568291383276463
1.8566478116182905
0.4925866276987064
-0.47163410069548045
-0.28562851386497956
-0.23725850904803228
-1.0790514341299704
0.2406804883044696
-1.0704404059605732
0.6277762959816188
-0.28781126307056426
0.35334605729343127
-1.7266836486463628
-0.4032840602671036
-1.5958747503054145
-0.17108566369732925
0.0021457625163350535
0.25019613660430023
0.8144299734411631
-0.92974643297533
2.1696526068073974
0.3658579842037903
-0.42832737925184405
0.13425169362278688
-0.8163874589288301
-0.02855224821351121
0.7519169385609368
-0.4388422983301883
-1.6334598978532364
-0.015601102806895889
-0.12561195712296042
1.876982200662581
0.7796519034951739
0.5783111087465637
-0.875905059736579
1.0398249899250958
0.9984715777875992
-0.39718296674565756
0.22312932921871237
1.1469844009196648
-1.6783021215907108
-1.3718309920274059
0.6051176261631308
-0.053007793063786446
-0.19550097940934555
-0.334165951244504
1.3797585795723517
-0.1229945220892529
-0.03684452097301816
-0.8228725846052698
-0.19778189148694714
0.2033422376301217
-0.4472231354909795
-0.09903630395190854
0.9748021004431541
-0.2206628005945384
0.778601070409203
0.7010600959661499
0.6321947317580554
0.17449326058443837
0.4762201376385932
0.21786520798867653
-2.387008035997061
-0.283459980650303
-0.9790954760986093
-1.0066782340501272
0.07709820028975789
1.874655310152054
-0.9369393187293379
-0.3841927176546806
1.550775521127857
-1.020666349741044
-0.8377914976037519
-1.023470743008709
-1.7968889625772244
-0.44953777097934566
0.12170799624679488
-1.0463483794539856
1.0907750021171696
-0.31793276920729946
1.960950680996639
-0.1674200433199075
0.2509098075986347
0.4329978271400732
-1.5985935279885768
2.029509496562413
-0.30299278287647485
-1.028884589396923
0.3398662982056404
0.5951343975587673
-1.9888715004088444
0.13759113872037404
0.22447958795432987
0.11673954931066854
-0.5110401920121541
-0.09984886448862076
0.08743015287825356
0.0443661146492856
-2.0642112414013853
-1.3693533473598287
-0.23743154783931988
-0.42201009086131386
-0.06458484685440183
-1.2925140020106776
0.7613031562206334
-0.36570567921621966
-0.13506940510844817
-1.1750387582590442
-0.22825902756567973
0.6420238056724035
0.14923417506615116
-0.957427170319722
-0.6688361279595426
-0.7106153320785826
-0.5892561147415101
0.20547117383706925
-0.6767965460836314
-1.2404081497820136
0.9030866514506399
1.3666516189178368
-0.36282840768494257
0.5314670338353742
-0.41262752379608375
-0.47934070585872396
-0.0985495707182984
1.1538900824307738
-0.8135444221444689
0.5137348623165773
0.6954740910839315
-0.7490035696013384
-0.46015958414372593
-0.4015096778877546
0.31809206944951973
0.7233134304572653
1.0700200150538521
0.47300467410437264
-0.14596826038286076
-0.34379911588214557
0.37734943674304455
0.7774983922822648
1.7826913444661048
-0.12189274980780257
0.03801431522526433
-0.6093201983746328
-0.6483807516133783
-0.651299258408696
0.6609799103470049
1.1061994354586777
-0.5107127142953564
-1.5179293748798646
-1.739884376363424
-0.3692493815699689
-1.0850343235719115
-0.8653243694899844
1.0691084090640222
-0.030250752783134716
-0.4822796651272202
2.2217299929285206
-0.6743626590173173
-0.19696390606964773
-0.05194404297376409
-1.2885278550084358
-1.433090222799836
-0.5571339529088298
-0.33991369029641816
-1.0490204496833169
-1.5420147846593752
-0.856674676956567
0.17754063808132148
-0.24060135229493107
-1.4648673273409636
-1.3021987221808615
-0.4449613742421851
-0.8947148324030545
-0.08106794332176318
-0.014567286426482418
1.6623483597409496
-0.27114612986096887
0.14704564640011186
-0.15589297898916832
-0.691761514476146
-1.7582400858711709
0.04769683832252736
0.0006875447021291725
-1.73019567890376
-0.7801700460743303
-2.1360656746602107
-0.8702011101331315
-0.7240261818722775
0.6807142063991555
0.8508178468907739
0.6306222002173255
1.3131614480863383
0.9088802926067208
0.9031523934398518
0.03297878742924343
0.7905154166503108
-0.6679302615708278
-1.5664507388266289
1.3264134094577598
-1.0506545554787952
-0.279859703295802
-0.10541179440334061
-0.26181547863958293
-0.4686817837948713
0.16635475703679525
0.03765446299974662
-0.009904361842013203
0.13093430826919172
