0.11424208729173047
0.7811423911940802
0.9401832303399897
1.3176187795582988
0.24298366460816911
0.5532201921443818
0.3524927351432394
0.4489562821989792
1.0166002371144636
-0.5428940918024813
0.010358559255588873
-0.34030602086158385
-1.4477505304156275
-0.8215804668919238
0.3359407579633188
0.8122444499401311
0.39899332257116205
0.4043771946229124
-0.685406149368266
-2.418575073433823
-0.16167928188367336
-1.4650983818707675
0.9007155825731009
0.2168632982730666
-0.6857479044019548
1.554911650758888
-0.9628559148031637
1.4982912120741152
-0.3028243523451455
-0.24043166589420564
0.19675902210254698
1.2380444014672596
0.6794510125348379
-0.8951940895432634
-0.1629755713333234
-1.1545691290193547
0.20614903726223252
-0.7162666002215996
0.20726330359359912
-0.5817091523567193
0.8657742696154427
-0.8856648811351198
-1.007679257042051
2.304580579501874
-0.8399618817115566
-0.6312392537383633
0.5344906138506755
0.350467257545228
-0.5460546459631362
-0.07740480493408433
0.44454812234172153
0.5287448750689699
-0.3744900807736511
0.8813246061572806
-0.04147998563987908
0.5536019370005381
-1.5744891637638263
-0.5177861676080993
1.0003915922955908
-1.1844469559485589
-0.11876653706388268
0.2992022516112137
-0.9244136117307503
-0.12060084590509118
0.6924872936277231
0.20904976288688584
0.5479732770308443
0.27554410204754026
1.0441431952995999
-1.506254672296914
0.26285296310734674
-0.4305347213797409
-0.5332136176307054
0.698021293638176
1.7752795537994879
0.33049629184839746
0.16249151850582827
1.7102511575272423
-0.66026718252467
-1.2151162369288753
-1.5151154820236536
-1.5824437268900227
-0.28336383022865524
-0.6241086738616833
-1.7467140677076003
-0.5514171443205892
-1.3753137596568297
0.1448087947634552
0.30879585272095966
1.0672420788018324
-0.585152361071699
-1.4783098333360656
2.836749002317852
0.6547654837435994
1.931549662000078
0.3578898635150142
-0.54500368114919
-1.3113459212869447
-0.4222074844554634
1.131099921409356
0.4995481536733275
0.25886013016739384
0.01451985996888358
-1.2305950672698458
-0.5908597309557938
-1.6084414526515003
-1.244434372681184
-0.3592629328107268
-0.026316431067968993
1.4492639915364864
0.07895510569897823
1.220576362841599
-1.2627239736658091
-0.40055382952077384
0.7515751932314243
-0.39831901334807474
-0.5217634614622462
-0.3491191042229849
-0.3452061348494606
-0.49544331764965516
-0.32122512074862664
-0.43070049966133805
-1.5720839958547843
0.5966343742245478
0.5220957497840675
0.47234268057637707
0.6594038040840857
0.19814142045723257
-0.3851538409129499
0.3723864042373832
-1.328108502636435
-0.46293328299897196
1.0814845925929544
-0.8513844142339846
-0.5612675793234971
0.2832318313867117
-0.9805395811155306
-0.3840459099464419
-1.2642917406831502
0.3914344568909561
-0.12455435697228467
0.339121612076253
0.06750902361472533
0.2501919483876765
0.8314489396730214
0.33173390431630184
1.829522920913956
1.3992794417018888
-0.07834250116961183
1.1063283057639912
-1.9118397533080798
0.16849201894327145
-0.7514844725419076
0.6950596738536612
1.00158006533385
-1.9795674021654475
-1.485306540332891
-0.10447612988029786
0.5934772813397997
-1.8668796878822582
-0.4236290941130612
-0.13172727606483853
0.1674073208845448
0.2704380948271017
2.7431693717839094
-1.1409994819404248
-0.16623395409976516
-0.10562805264803626
0.019664957489214763
-0.9345108077125808
0.1750649835374325
-0.40732338700987925
-1.4427886039557678
-2.400489629350968
-2.121410173742917
-0.3033961722109045
-0.7920309404693583
-1.7719727521480833
0.3789544026189945
-1.307549727187086
-1.160357426568608
-0.3696237493229537
1.0747017761268958
0.9684824916718242
0.5517699175421656
-1.0178474471703827
-1.0558549771080374
-0.47598884403956404
-1.277789764343149
1.185527414653479
0.35203530197478594
-1.1428129909166018
-1.2340310184106014
-1.170577817947141
-0.34379893027127706
0.13739817081986838
1.6688870117188994
0.5772970090842312
0.5142362105885842
0.8622206933353802
0.6364728921073655
1.9721411780750535
-0.8510933732633267
1.082341179439874
1.068370758164371
-0.2470992805751298
0.779887365678372
-1.9727497599524513
1.1289379978762502
0.01438436584180565
-0.2611769569000833
0.6733459343360995
0.4144729465230383
-1.0963261906267543
0.05942937392078064
-0.5144914812318753
