1.2812346523334455
0.45052673736341653
0.8371274242074496
0.878681087726004
0.4850161796758271
1.0822802758890093
0.9194291085332114
0.8769458519244075
1.0410453542918943
0.8109976070761463
-0.41378666163325745
-0.7895472937185759
-1.0249667598054524
-1.0171495403733422
0.3697879558445718
-1.1559572971764758
0.4783368836416397
-0.016663213072304346
-0.5089539961559953
-2.471671420830848
-0.3634438646648188
-1.1662357054855699
0.16038623392778584
-0.602758363001958
0.11368637520344904
1.1590707119723074
-0.8450037541167505
1.5289263270884428
0.2202763912269242
-0.23787920931039602
0.6463575663938103
0.9723138752246869
1.1874157622971073
0.15020903583905015
-0.4885977126419707
-1.490460868861101
-0.2430985085916945
-0.507029882926545
1.4246256876948848
0.4565464686862556
0.837112832513857
0.4653888537860171
0.21090139297964536
0.24466634183918012
-0.5948866837173807
1.2853417272793748
1.0886722985912363
-0.6084107690173306
-0.5321191054351706
-0.5194040603525334
-0.023083402354511173
0.5741117445879992
0.017701092319038603
0.3616267623199314
0.6460873089966737
0.18762024212061845
0.5753825014363143
-1.2459489606571346
1.6024637196499791
-1.5208869535045695
0.08767704445202168
1.8168485716540808
-0.05967558182718967
-0.1272789671982012
0.12082748159221501
-0.22595368946943378
-0.1817845587754738
0.6296940725988787
0.38727325644341626
-2.069759472236934
0.5479369512405226
-0.8750743214692851
-1.0584312241732003
0.725551213267062
1.5757623450495926
-0.7811025719612212
-0.8599267313533538
-0.1518600753148973
-1.5515238924632084
-0.6513384966537159
-0.8961888289488695
-1.2070932023019199
0.4988701368037822
0.489033832112177
-0.8189938925107676
-0.8429783172535511
-0.907338514428325
0.36498054345013575
0.24764795870701548
0.9253889968573065
0.18638364504321236
-2.021602408140451
1.1241699454622034
0.7804101517914233
-0.15205166388555624
-1.7317309229168694
0.5792345157069376
-1.7340513270741196
0.9758627899712455
0.5661009901251989
-0.10437933691666859
-0.09106825575857525
0.40968111482079317
-0.4322786675879421
-0.46665399311984956
-2.564447418608119
-1.0085232633680186
-0.9858229019049225
-0.5255905644210984
-0.6631998235578189
-1.1515470480899987
0.7343577194220129
-1.2985716574330681
-1.0780786996362606
-0.684656317568652
0.30564416095458735
-0.5912957667629108
-0.5036694342113075
-0.5502383134283775
-0.11132702743358469
-0.24555781219815778
-0.5958601795190912
0.3599435007643262
0.11291486993668437
-0.4463242309332857
1.4475026219431077
1.163153409479454
-0.4908804581888387
-0.6806916568482695
0.3645253778052829
-1.1561107854215062
0.3645171973223233
0.6038396752299773
-0.8855748143149591
0.49565225054432394
0.2892473636026713
-0.6424875021986447
-0.848952617626819
-0.4797783221447376
0.8589221376340799
0.6101272086595607
-0.9043506674655334
0.35928476176352764
0.8318131190767815
-0.43923961653154037
-0.3361428094106669
2.0056156091130495
2.5311336323507336
-1.0436340442100946
-0.24825103836982154
-1.7351756236982472
-0.5611861191451184
-1.5237706379423335
1.7007782839875283
0.6528661881709369
-0.5750277932938658
-0.4569146574103694
-1.944743003185673
0.13198517943550364
-1.2496179980576019
0.12536959966566363
-0.8836356463599817
1.8264704613719216
-0.4748372629081868
1.308704415108159
-0.690884117378992
-0.2606779577699869
0.1388055964728656
-0.17188508101993194
-0.8293806049532464
-0.6666585241511636
-0.9585368926757197
-1.5575653158925946
-2.272842985870968
-0.06721347426242552
-0.5101451421953546
-0.06491641419268368
-0.1879682351271097
-0.2501711106902785
-2.038860712242634
-1.0564633864984379
-0.11167992657095233
0.10484609643901555
0.4768383626605994
-0.2689502081507572
-0.5854197682683783
-0.6458676619752788
-0.05793190638999235
-0.6725768921243144
0.5605045834911145
0.40544044201179985
-0.7250287083786815
-0.45969115030945434
-0.12129556753381054
-1.7162413758437833
-0.4801258031720892
1.1928489691217177
1.1121786131897486
-0.7574773907984546
0.420258385165936
-0.6564455661802076
2.413703513974693
0.2302576469216594
2.488042591251096
-0.7219983047416461
-0.251735293573051
1.0784153116312285
-1.2576328488514508
0.19426839627966452
-0.7620119562362377
0.5195004325444746
-0.28446770404564536
-0.20228931142429063
-0.7970827410564738
-0.8274400646162472
0.45915449159847
