1.380155721031601
-0.3605001113448437
0.2748309542817341
1.7390064796152531
0.5053983479324038
0.4644483905712412
-0.07367342986746361
1.3815411691855544
1.1770709162567567
0.3671972085324081
1.3890269946366351
-1.1325790192996745
-0.45968600021495065
-1.5823700073719733
0.9310131335682855
-2.1438553394999915
-0.6487428514974981
-0.2884012335075938
-1.5325641626313482
-1.185387772830722
0.48018680181838896
-0.9074628763773199
-0.30513798923438284
-0.2257749029206842
-0.34480815551314736
-0.2080208349058743
-0.6261260241529637
0.8402002273888045
0.20970777998801746
-0.5810682850691595
1.2987468842317482
-1.2175363524668923
1.1002091979473563
-0.41500408885615214
-1.7776088310538305
-1.554633784343646
0.9304985835659757
-0.40405960287648857
-0.17903950943350866
0.2103727356647059
1.322382799989569
-0.1427603839055171
-0.5454115623241245
0.06448368215528699
-1.520433283593755
-0.05788832464521115
1.1380830805561633
-0.7855649808842733
-0.5514111613328649
-0.2593049308402172
0.14098036657834592
-0.445402189551751
1.2717053672012186
1.1570331676303622
0.655491936815549
-0.17522238360214915
-0.2983863767589138
0.6908195089370534
0.8412033967609651
-0.9406463814650569
-0.162040708102493
0.49766319652993835
0.34915022872752444
0.08602226662280554
-0.09037604763866204
-0.05420485627921593
-0.3260007330575534
0.9225360709951977
0.08163319992339006
-2.3328433382826277
-0.3204455946455473
0.24108646219716812
-0.9855211454388126
0.07700996636917865
2.056649125929259
0.2122479504461614
0.9136061526337029
1.025946041123028
-1.4308688722492793
-1.8129373075422528
-0.9644089171163461
0.09533611538317754
0.21981854853216623
-0.42476578188483594
-0.9180261994288661
-0.1744916060309773
-0.3178992966702558
-0.17135169489078
-0.20728397632560297
0.3204072697520989
0.4715145879001434
-0.23844809388959343
2.3395096110673474
0.5306469738454475
1.24417819360368
-0.363720419715879
0.47038659713667264
-2.5330264245787966
-0.04232305061642905
1.2569379693067892
1.5770186979222016
-1.5455577426847262
-0.026500712384681352
-0.29213269582029655
-0.30775896297701677
-1.6753253421294276
-1.4054809926448573
-0.8906192153465196
-1.2584767776196886
0.6268674187531116
-1.4575877392681673
0.775650555447893
-0.6248679555055328
-0.7153507473318589
-0.9083564954759935
-0.13680783031869004
-1.006637103719725
-0.8511627718577339
0.45151241630649297
-0.9409323968002761
0.6966646577028897
0.6239549883638791
-0.6992448435989267
0.08743911088298661
-0.22429631410629408
1.1098091642982877
1.087548302420936
0.2807505855761145
-0.010016193747694468
0.6205429148572361
0.5040206765103882
-0.4770223837349431
1.2026873934034263
-1.382788135780642
-0.2809944853225299
-0.5757996088479014
-0.9271463957618511
-1.3377591920214231
-0.8832577690251623
0.06921531298268935
1.5848377814594488
-0.1567321672445679
0.5571873973337182
-0.4137406716650382
0.5940908900312778
0.11333525849918366
1.8830564908933167
2.7582159907912565
0.049806116509613085
0.39503669233086364
-0.8870868308825859
-2.1928122044841247
-1.2726448540778497
0.9712995130100154
0.34639113416951955
-1.6506582623762696
-0.5498394262508636
-0.8921346013142843
1.5596463698496037
-1.914277568418781
-0.31053764216955315
-0.3034539614283972
0.39572489207520706
-0.3397920107820316
1.2215917989691056
0.15090605275566515
-0.1800670540982757
0.10314711549616529
-0.36548942075686547
-1.4456004644894935
-0.7957202886299775
-0.4761722524125295
-0.7722427760339705
-2.272162540288718
-1.251956985136896
0.3860939323275584
-0.7222488331819289
-3.3246296427364634
-0.2543593803202533
-0.2732276537662566
-0.8607813549860929
-0.11080517935882797
1.328541026858144
0.7699145510725494
0.1391748803713579
-1.3342544928221418
-0.906319409694354
-0.7400686046362757
0.4296252676743977
0.7418909387375245
1.237602801999121
-1.2571245495303702
-1.7919550987385136
-1.6361446040294605
-1.1348130719610385
-1.3069153478833546
0.7962145417484949
0.4208826016935797
0.6470350209885012
-0.05759604001391483
1.383078413392452
1.6177418972609245
-0.36745523028977106
2.2405167159502604
0.6884665123583533
1.4364251818759586
1.3685088248836468
-0.3908159280239689
-0.15556932137224241
-0.08717627438235204
0.12276968920815726
-0.9711257158017668
-0.0886415695045094
-0.6375914193613124
-0.4587797678056148
0.29843510438513665
