1.2012776731480386
0.2988122806740592
1.0513841442443421
1.4297909417777994
0.4692511283594149
1.0764035771932403
0.5397257127089955
0.35594174971261966
-0.17194732724773987
0.7313254183835628
0.2019867127401096
-1.0055496749942334
-0.47048498934322935
-0.10897957118445356
0.2983011661517254
-1.188845612171428
0.7840680811642966
-0.30032560428776434
-0.18918794932844757
-2.347581482126514
0.35163589300766357
-1.565017206579423
0.21778691407173006
0.052677472013116455
0.8127724456339578
0.26345750341338725
-0.6661928362915229
1.4787480622418616
-0.06390142367335142
-0.6782550514247868
1.8166997099904942
0.10316232530866584
-0.1772479849471419
0.30830346650670326
-0.03693500806450867
-1.7529082391869069
-0.4429726927952874
-0.015427727096580246
0.6626826555576808
-0.35036582668839966
0.9103515511535702
-0.5014507794677543
0.14875741548234817
1.5896047595637568
-0.5300363993814364
-0.26204907116943016
1.0586010812697393
-0.4751509442478967
-0.5698947942991046
-0.12925686754643562
0.47466782389344875
-0.002886386518640571
1.1363119061221494
1.9188112963368564
0.5463380223427903
-0.8390593742921484
-0.08449209268551171
-0.057408255919793594
0.24854090149993546
-0.10676235363021636
-0.48056045027151634
1.5165999119773583
-0.40810931908583775
1.099045009154589
-0.03052003315525706
-0.7980467748553711
0.4574155008256241
1.3907503997044923
-0.32142368760580586
-2.2556487288189104
-0.6666327742357284
-0.21340262631811002
-0.7256159332290295
0.8805918622600752
1.1114891061329426
-0.6176465449231724
-0.9113676310932095
-0.13572097067852518
-1.6874529698235101
-1.5150593395433511
-0.28539318474841674
-3.368138033927198
0.25969391021663757
-0.1321645709835846
-1.0167739849112705
-1.5863696466408954
-0.5801625466061757
-0.2146221354725778
0.15809237140854457
1.134465323771964
-0.047127006793103
-0.1848512320735951
1.6209563170838142
0.9096095034155613
-0.6575861522344705
-0.790120656628201
-0.5091547090827947
-1.0084075564435946
1.152468092872157
-0.28386939913523623
-0.5970243339713222
-1.2670282682108
0.6065690994770659
-0.7601889293926699
-0.8146958448602883
-2.055244231427231
-2.1428439376673407
-1.0708616395261095
-0.5362404021613187
0.7928783036722609
-0.3696586102426568
-0.27663116357643647
-0.9121206759098246
-1.1279379439791049
-0.2502883277402034
-2.063600649034328
-0.09071467901885966
-0.5955892969160971
-0.096342935502576
-0.038839023307271625
0.6394694630943423
-0.761897201894157
-0.19666393435949125
-0.49281198837241086
0.5238714589909732
-0.027242744046194645
1.3328438807352756
0.17878978110333332
-0.17704890538160933
-0.2657532282644029
-0.6176141602425745
-0.8423957454279611
0.3142472404895134
-0.20913315411293837
0.6736223724278688
-0.13817544183692318
-0.9039066206450211
0.29341499739473476
-2.0297198726513073
0.4573083996818337
0.40755232168947264
1.111988149389962
0.927276960671809
-0.012561212069154087
0.06008703963689789
-0.2321010378401562
1.674696885757959
1.5284166596098063
0.00486634814823772
0.19034291152388522
-0.9636171451885838
-0.44389872430747024
-0.19994056239692581
-0.23988141449194678
1.1789806639665965
0.2888412503832195
-1.3547389978874917
-0.39315200917871185
0.07003629875958095
-1.4983999503893173
0.037873537011617164
0.0029499351014590225
0.8129048355432735
-1.3161538672785014
2.4220969906108234
-0.255771582197125
-0.09923298983387685
0.20222779723282303
-0.5438453147649274
-1.4274350965916012
-0.8575079416305113
-0.24512805842966717
-0.5886779359237115
-1.5440538815956013
-0.8644892197913031
-0.40443198745985454
-1.736395127719744
-1.6147956190328883
-0.5343973303564503
-1.2004992582992555
-1.5454149796232004
-0.11908377599399786
0.7925563446547798
1.9284089668216786
-0.42463381132848943
-1.3462158168305247
-0.17397531999986982
-1.0479084882250698
-1.5060790770893009
1.131763289272571
-0.07720526257323967
-0.3267473461078816
-0.8250220013826941
-0.4366279304424644
-0.9045732334125518
-0.47139638409671425
-0.2664477608563234
2.1267632076740854
-0.6896090708597935
0.976439748164334
0.029986235562633357
2.160101163422211
-0.8105445164196569
1.4356314956184373
-0.14424804971174393
-1.623653023440832
0.6137337411140462
-1.4254236053594749
0.41907259823509935
0.9677258822657205
0.10961987973413145
-0.7247249736157544
0.37968852740081116
-0.6114068561404533
0.08710583847830211
0.30673934324355423
