0.938444419962605
1.275120029455096
1.1094827864154362
0.956995002725632
0.4825193262790107
-0.9300341928303997
1.2531244173105514
0.682991753921612
1.006690612279348
-0.9656223388060695
-0.1821986682745687
-0.9030192616155899
-0.5880853642603667
-0.8016274300309293
-0.005904314181147535
-0.24289766570495802
0.1412383868420185
0.04940506815628138
0.3830736153017046
-2.3147710777651724
-0.41367951270058334
-0.7474717621912474
1.4752332285465735
-0.79584711006157
-0.09018829640321292
0.3318976525075894
-0.2927528702211138
1.288910468578144
2.418757910781409
-0.1005563540528539
0.8886455017677299
0.5171975324704129
-0.6186889824668208
0.9237446717268176
-0.5463230072995507
-0.8393047087402017
-0.2802855925622567
-0.6757995661237164
0.8852084081592173
-1.2036362991021763
0.8478681572195719
-0.7047560886732177
0.5145523647432937
1.9247286795275391
-0.7937289156238094
-0.21065390836521058
-0.4194482007087735
-0.289191097042588
-0.2633353092542345
0.17725367466077602
-0.019743123322878586
0.060982181450464155
1.23446736215771
2.080388582134745
0.7640609321624949
-1.2148570335730307
0.5197263624667208
-0.765523898127483
0.831619920227568
-0.3385778361463153
0.3147108398110719
0.7848114699691263
-0.7183135290116189
-1.2714388110596309
-0.9812575002971362
0.5005742752519771
-0.24516610395542238
0.4420844728968646
0.5441621856414629
-2.5819045017887574
-0.21302172314380338
-1.178218675122167
-0.5385075744710323
-0.02392526198989206
2.0479033501553836
-1.4294010381343951
-0.1551092508291938
-0.30432901805159984
0.07168093998491432
-1.6525947540881192
-0.6939620465413036
-0.7889548867987901
-0.03255769690170868
0.39927316608118957
-0.8143455285180525
-0.97193533518277
-0.6726469232108575
1.1819230751922793
0.026025557777614644
1.966233246053245
-0.14829126640537177
-2.3870135882802233
2.050327101106199
0.03947820141547781
0.10421983801371332
-1.522592959415885
-0.43091819345970583
-2.0341267143877855
0.01888219809892175
0.5448659379790154
-0.19316870069057615
-0.025300972678725997
0.9236504810299517
0.464535712947919
0.8567550839286411
-1.3009160693198192
-1.441251846340989
0.4149346866761208
-1.2565731594362397
0.9812854489395422
-0.6046747032938016
0.3355657650160858
-1.687203986360331
-0.03231330331803556
-0.8539350947141343
-1.3159007703796153
1.0464376491272123
-0.612432080032451
-1.630489237832296
-0.6734401886594101
0.7232264718746564
-0.2925089517539804
0.06065909674021175
0.6292783171571672
-0.8918280644387511
1.246045625192748
1.5255368071662445
0.3832540480800124
0.08685627792440936
1.327427989660004
-0.17021588862033982
-0.7344122466791577
0.711959623459218
-1.528453663995516
0.18369265305617624
-0.8281107219081784
-1.8202468753559309
0.8056616084082289
-1.3069500889439314
-0.11668105196217293
0.882313302373517
-0.511819762276611
0.7932482857264688
1.2494459584553324
0.29897326100648225
0.11459024562416184
1.471273601687707
0.5347200589498413
-0.36009437702287106
0.37898732817019554
-1.08901457196411
-0.8176561817049969
-0.027341752365340977
0.46645014918363586
-0.7706087937621438
-0.008600897573109778
-0.5456724506139266
-2.2520719277975116
-0.16431821458183282
-0.8126818322238935
-0.1673305888428856
0.25709659895812487
0.23301749343775974
-0.9545820046285791
1.9402654150590104
-0.4201468014091362
0.43340898824013524
-0.7153018975532355
-1.5615215162642597
-1.7377584790304934
-0.517584549059149
-0.318207321253234
-1.0399575716552616
-1.6151373977667547
-1.6236101881293648
-0.6111097875656581
-1.2523817226374072
-1.026675499272498
-1.952933899914981
-0.6184428892586501
-0.6648087279456077
-0.34209610497934
1.6636376719827894
1.1222784460730264
0.5522791451216625
-0.8701895429212572
-1.3660311427273621
-0.9323073680317989
-0.7430652419942028
-0.16693910062451434
0.7322980279957003
-0.14139943886708056
-0.94272121765985
-1.466604696642492
-0.8282283748905938
-2.3432551719690764
-0.14475399863607985
0.849952026831335
0.5299700738708565
-0.059491291012737535
0.6050328637267061
1.9530745958195908
-0.7575539163690655
0.8714184405226799
-0.8475237986780928
-0.7152100368051233
1.6625803043022298
-2.2124236100559007
-0.31390840850919977
-0.30851903899253835
-0.12217138265836408
-0.2730771496851566
0.5070633794910735
-0.6535176144301067
-0.6070013897149115
-0.34408264799653165
