0.8736816139284463
2.312014526023838
0.7448051725030962
1.2610933614503554
1.0614663695045023
1.0177482629303927
0.358406779428973
0.40414601225425084
0.6872111143646468
-0.0023384902487462167
-0.19849335022272002
-0.7339207444858874
-0.8708174801693744
-0.73290350235367
-0.13179977589981365
-0.8153590583053156
1.202846546975627
0.07223752959192822
-1.1487635239838934
-1.502875464452832
-0.5096105082620106
-1.093311855601469
0.8963964767312397
-0.023952811813848673
-0.1707446906578141
-0.027101036101294607
0.4075503059731769
2.0948869334264955
0.6238150830910107
0.4613147461887946
1.008263489695537
0.1613116339686823
0.6005767748569055
0.44823344213095767
-1.3051209725033697
-0.8431664574544157
-0.6417171362925947
-0.21372197713952285
0.8425701252386085
0.04457781310007368
0.8152594643932856
0.3369620175653351
0.13252191510254077
1.3557942297604708
-1.2173003983508646
0.13689431955957132
0.6827521913681399
1.0697715371590624
-0.7431799341446805
-0.7753183991564685
0.3373886682286248
-0.10714276330631872
-0.1307025038371934
1.4713888390383623
-0.2198050460683772
-1.0392224023633303
1.0916911802936007
-0.9253741440712815
0.912499224376778
-0.6075108563925207
-0.3557642871703911
1.1994802099071769
-0.3979502239996142
0.6776640391899296
-1.6843706408309531
0.4813724689360742
-0.2567134641186459
0.1992900013301847
0.022892671652267868
-2.56033148515882
0.1177115328415281
-0.7266164274919925
-0.9403981926213925
0.42809880197615213
1.6057900983428335
-0.16362424804289988
0.04403195409860944
1.407641038973685
-1.436982111774989
-1.1673054797729272
0.017379647782151286
-1.6805391526253666
0.11309854799944816
0.64111326909743
-2.0513679754461385
-1.0357021863094773
-1.2823240597853505
0.8708739503652501
-0.30562638698468797
1.4867512132469964
-0.5038860686323103
-0.7974828959417194
1.669485883737657
0.4764946837894589
0.38697293988951786
-0.3040634395755826
-0.09650964674837481
-1.3260220364360826
0.5415549383727742
0.10698431309491663
-0.2758904641054519
-0.29915438064163713
1.0836592837221852
0.8011001281558887
0.22142920384895598
-2.305788736401351
-1.0681947569080363
0.09702814157913697
0.4998574081279845
0.9865183585862045
-0.598244167417697
-0.411010141886731
-0.46505959022684784
-0.04426419881532845
-0.18610706695147128
-0.1948141328367312
0.6936243417889116
-1.2682369397625017
0.4319517890489353
-0.3276008178046461
-0.5533117043972258
-0.5201780545513441
-0.3672595077010896
0.4291967911603876
-1.1513264183387624
0.8623215245297421
0.6111631980556453
-0.7010000631499557
-0.8998923323363759
1.2041899514266332
-1.3722047603104652
-0.3530694478908941
0.907721090356518
-0.34137930215554674
-0.5450475046181057
0.8832046090463633
-0.6097767136252182
0.1760580881265693
-0.15870391749042068
-0.27190926593553155
-0.03522023382101752
0.5492014113648954
-0.16623429258334071
-0.41359025754585427
0.07188695225032363
0.4110261816633274
1.2287916761065052
0.797904758797774
-0.24066702458356148
0.3865668577777699
-1.0904999413828038
0.08638772140985845
-1.0931233879480449
1.3146585645112219
0.28808841866206625
-1.4637365372614584
-1.1289077611818363
-0.6575479196219032
0.42733274067097726
-2.532548583962048
-0.952684659533711
-1.851869914468859
0.553558592095241
0.7685224394736136
1.3268056518200388
0.4712343860439625
-0.888336522817289
0.15262139059959368
-0.6348568357014428
-1.6477711193632396
-1.1196946454056247
-1.0606227407087632
-1.4497092002893455
-1.6054136099139822
0.09217740651207074
-0.9015633978986508
0.36712761485793743
-1.7944190840752632
0.05669482829680206
-1.04067803252237
-1.0899580547096592
0.13517624981875054
0.6821098113742692
0.7057928384152754
0.8755159177949551
-0.08463448054740508
-0.2567915562868316
-1.008159783900223
-0.8031739154163506
-0.18638444544316624
1.274399890557905
0.5297317819939844
-0.6929349002380029
-0.7696521246493648
-1.0774969833285708
-1.2777637947043097
0.6740741129825469
1.0802028025563108
0.6377915584282592
0.30065673400178705
0.33018874874247284
1.9886394723152314
-0.7154624558466876
1.2573898561247125
-0.12392606065995904
-0.2578345649209835
0.4588162104142459
-1.4795449367074915
0.4648304388474679
-0.4184351436485846
0.3714654702090773
0.4127698384984757
0.5922239564618368
-0.2060539371042357
-0.5999839790105831
-0.4370354826824131
