0.841670530835781
0.9062513393343361
1.2680965939541
1.2173011520670245
0.5038600720447832
0.5614127735165049
1.6057778189745058
0.04917496146493294
-0.036526064506526956
-0.3979028882630551
0.8681086196989095
-1.31581167310725
-0.18545894671156038
-1.1922615693479282
0.35044501680381723
-0.6062897835059347
-0.05926504556919465
0.4560904202098458
-0.4241728972157217
-1.96038955239032
-0.4457551558217909
-0.8724713356445083
1.1262678750267563
-0.3048920570183347
-0.3455810413220657
-0.40602779842176273
0.2282162265021056
0.5639917989825755
0.5014164661661668
-0.33973142290702224
0.8665694615937174
-0.20980248292621206
-0.056926008585387544
-0.3363894638586804
-0.589893455319168
-1.1215407822501726
1.1212104716387106
-0.5847430666112938
2.358995236882771
0.15994316632521757
-0.27433454245745137
0.13028438527689673
0.3017280455757812
1.4709662208276375
-0.11132816289329173
1.0587616165064666
0.5510460991466162
-0.9027168186622454
-0.5528495916559603
0.5039356500337454
0.8757493370129684
0.0875687052126835
1.2227022698971943
1.0601364317261572
-0.76761241729365
-0.16671232936335834
-0.5515831606993832
0.10422382138805686
-0.010221807360340618
0.1800778797052115
-1.1709458410674216
0.8231491487452159
-0.32219489566945136
-0.2697591611360872
-1.172544791152517
-0.46819982895186285
-0.045325600975622216
1.0899164294225434
0.733915722142437
-1.9961023889360865
-0.4695034674432582
-1.742780066846204
-0.47891354513427253
0.2785899010519245
2.7757564668553543
0.05391590721923367
-0.5641521073471245
1.1787489664245316
-1.7873479326496968
-1.3227714184613257
-0.313551392706719
-1.4069255654535104
1.0805150840006628
-1.2336278352783558
-0.864141922688092
0.7722309895098685
-0.8839796517725091
-0.2915525068496035
-0.8243356424342232
1.8571128998637132
0.05962381435789861
-1.926803655632948
1.9131497233119887
-0.3903782205615491
0.2233335011635071
-0.06615351355383048
1.3776604329951294
-1.1812193560307203
0.6852226210490623
1.60154898907883
-0.5055773416881245
-0.6891343369508112
-0.1991934589433981
0.965773675901251
0.2334710072538443
-0.832546821243979
-1.703025937368015
-0.3172638559561943
-0.7352904709847398
-0.36689518291373097
-1.0639300207024753
0.49791478458266125
-1.5845846902591831
-0.24741878229876496
-1.0517439110163866
-1.165785470382779
-0.023610490733796397
-0.6523348130197413
-0.05502676387280658
0.6352296339528247
-0.2517833378571428
-1.5903856976322814
-0.9031905187116356
0.07980829421566293
0.21361227222512852
1.220773798833752
1.6399805204752833
-0.17065237105303224
-0.21494203166656167
0.7694437021256355
-0.5855931894000967
-0.1635910325977002
-0.3602282580817009
0.24654054501896483
0.013775576607001017
0.5464433945174016
0.1200971457554848
-0.5250832176257069
-1.6093544613140054
0.457397141267246
-0.10656259006375812
-0.6850882051344386
-0.2305723205527333
0.7865913018198791
1.1309225487650871
-0.5063868387631285
1.9691408125966756
1.272215224667453
-0.37565157463227855
0.9832796262086831
-0.6430723849252277
0.1065994524592766
-1.275608750921786
0.19296844557863269
0.6558811461163531
-1.1586304988969098
-0.8135629422217987
-1.8000764657785282
0.035513645366977126
-1.4189324447003075
-1.4305080259134195
-0.16156479980895933
-0.7941407212322201
-0.883854026172531
0.4514225120099393
0.1874525325386288
-0.5659907484453344
0.022570960921926786
-1.1502465724117021
-1.7046845705512033
-1.464943472587307
-1.697898855445512
-1.6552819566284573
-1.2939216118496815
-1.06591581659944
-1.343950958521786
-0.5178201045438432
-1.5627438297815284
0.8209746440978202
-1.2030067068195944
-0.6503213423565762
-0.17077069429838063
1.3213649621174772
1.1742618290038052
-0.7493134510026556
-0.41348831669856256
-0.7669096260906112
-0.9091832404017679
-1.1347589731787961
0.868301400030428
0.637384719489896
-0.14843439029050193
-1.2602485587343413
-1.3036224729952157
-1.5925049368514375
-1.72467969734191
-0.7124133161754505
0.8122503672098287
0.46499497497481174
1.0972408504922042
-0.10271464497067495
2.1282852302269735
-1.1387562889624907
1.535962121551066
0.5105271208730014
-1.8571222558820972
1.5167175436345206
-1.360804744514726
0.031976504815843666
-0.7054059915396994
0.21759511457580888
0.3120792981946443
0.6089648308875565
0.31002809412657173
0.05306848672176996
0.42887501901576486
