0.8015921340129744
1.5949599641784649
0.8208119257801749
0.2813116727544256
0.13370683630383662
0.7168690607314151
0.24168163839355988
0.6363279643126137
0.26556831641463613
0.8046924078660579
-0.24036501106183444
0.05493725944978445
0.4640700995043856
-0.6185920563819126
0.6345922218702765
-1.047561995447571
0.6881903451629202
0.4348463048094013
0.6962163818798605
-1.9216582139511245
-0.0949424498322188
-2.059139442668205
-0.003298465049215049
1.2290460145416096
0.8436274934349788
0.6893068444706135
-0.16696507590863346
1.2409348945565433
0.3259949974268388
0.3081861164091823
0.8120421651385756
-0.9643430932828713
-0.7130749626345404
0.899744063547908
-0.9132923199859936
-0.3960894618522486
0.8369889077049261
0.6111275140905159
1.320724980150837
-0.11813602277547297
-0.03520789484441944
-0.7344425908284808
0.16959464494557625
0.9403172903718692
-1.0358489868530745
0.10221331082976459
0.14845654631756916
0.04568125683550134
-0.6906170300565821
-0.2653842223289765
1.3372618585980522
-0.04250724198067771
0.18648423511856488
1.2673750619302635
0.10017374452029745
-0.1788451694442429
-0.9641154614263779
0.2268629418013537
0.8527502277672083
-1.0420968455903112
-1.3528778006584379
0.7654425496618016
-0.2388271698118534
0.8561536721379865
-0.16832541439634197
-0.8775833754791528
-0.6603493223348769
0.07483400375626925
0.5961845058653452
-1.654742248450703
0.12797599967628887
-0.7190431856784082
0.6681575808204618
-1.0252420531270576
1.4856600913493372
-1.2840005698483077
-0.06919226989338326
1.484788840572128
-1.3357922718472603
-0.8187165180784137
-0.45562619179620345
-0.9678687446299221
-0.3448008992046934
1.0561570716782593
-1.1878469868541248
-1.0016378263396706
-0.7670299021060033
-0.9754740512826705
-0.9439149731893042
1.0888940433418401
-1.2779081076346224
-1.3195917064807743
1.016221995753949
1.2977816657578392
0.2992824168376816
-0.14496149013605486
1.5872137151004173
-1.8559978192005713
0.38940287974539767
-0.09533031051882829
0.961261956021771
-0.9775421761307637
-0.2212422834983129
-0.1323182958914364
-0.8926063276270003
-1.2944064674471871
-0.7843105189901716
0.5392330039834348
-0.8224523596418806
0.3376200372677579
0.16512412708499224
-0.2262416119922862
-1.089399196116733
0.1530871588804612
-0.6787433109721905
-1.410550286258201
0.12195135816260089
-0.49617439300957294
-0.12493653829922846
-0.9280142095573936
0.13512403880148163
-0.7211256600873723
0.16281336947145547
0.779032499744666
-0.6957096995054214
2.4498243723646236
1.903633540218049
-0.4873266259434315
0.31923195007693356
0.6378336060531977
-0.8260391780393068
-0.28668379013758694
0.5232763275763264
-0.03850998153089269
0.10544752336469129
-0.5995323673782067
-0.9717386279211194
-0.9581829465503438
-0.302006507826056
0.6761163935363491
0.24611534869973378
0.6483474659201836
-0.15283904313116675
-0.6556861189435947
-0.5175826689224143
-0.048782001670390616
1.6099399340736038
1.507704337371383
0.08339841191791575
0.9226071980001181
-1.5567394270602164
0.38659785197898644
-0.3434353571901628
0.4359417819630868
2.023343414357992
-0.7099882952396049
-0.9247056502533729
-1.2913435594270677
0.03927222395232677
-1.444395624920048
-0.9523324671525158
-0.5828101985259301
0.8449623548481434
0.9956582552263062
1.4366893944662527
-0.7708229332560134
-0.6115119597089396
-1.5736853554723549
-0.9338702612483346
-0.9624962166043066
-1.5042608272049596
-0.006171557709583997
-0.6640315089122355
-1.2559629350391808
0.05715571403756714
0.16652281026270954
-1.279665217267966
-1.949281246371796
-0.5633302021907647
-1.1619572081768679
0.010053306338563273
-0.20572944133095233
1.3344575733152728
1.4133233357828698
-0.07916558795207221
-0.5488304026951281
-0.8158753096414539
-1.0132633717900283
-0.5073146430103886
1.6008471931634927
0.7423779667858519
-0.049775766689047984
-1.5977878414845703
-1.327805637258753
-0.8962957165392773
-0.13355775269325254
0.8519424380567839
0.9085345848869391
-0.21420141608642965
0.9108005433857488
0.05464616065444716
1.2649774692089517
-0.6572620469517836
0.3982119837584541
-0.15688643991854934
-1.4012714965249824
-0.24296151668173904
-1.2434604953432637
0.41784739050747977
-0.09432059237383462
0.11220436444743623
0.736302839041319
1.3742721534761446
-0.8154349335499698
0.08507533446185342
0.33352470226453457
