1.5789826436798151
1.1323549776356943
-0.15114248904734656
0.7765396803558884
0.25280138534076024
1.3559824882629639
0.8019104438143236
-0.12984475436092568
0.22552761089845147
0.959534474713038
0.6171823212062792
-0.29505091596113686
-0.40955951085567244
-0.2729631701248473
0.6923631519400899
-0.9267808108389982
-0.5261081890993132
1.1206655420263543
-1.2374026226197237
-1.8939175671243036
-0.8351241966550316
-0.3963134723817685
0.782459969112369
-0.9572763369852184
0.08488330385776807
0.053599717306926475
-0.6532831990841568
1.1262156602227014
0.40963920517328606
0.19080206269761107
0.21891960677824396
0.4327846136462837
0.20561921099130426
0.2583186281734034
-0.3631519974511207
-1.073010185706692
1.244152044804027
0.15548158891177838
1.6307452922763968
-1.8988228251191077
-0.39487529525308174
-0.2747068602777217
1.0138884972854916
0.8522716724505786
-1.6296407379807674
0.12969749764607366
-0.13117163482491617
-0.053122295422944
-0.04145550336585163
0.6657563883084807
0.24698297940094122
-0.2826519402994663
1.7017548639562752
1.7157941899992029
0.1175197847635129
-0.10805532992439298
-0.7073744042235612
-0.9073215222350071
0.2631590991804197
-1.2404439505268314
0.15406669020939573
0.15930414839550522
-0.34184295087387706
-0.16663269650513307
-0.6197821843863718
-0.6712677412080575
-0.07055626127280526
1.2990475373021848
-0.36216842847177083
-1.7382224635821597
-0.09396998200432857
-0.27947261010400665
0.24989860128070407
-0.09875122538706996
1.1130936385323509
-0.7875517971442706
-0.6186280609702899
-0.21337944146436527
-0.9269868489471224
-0.021164098699928635
-0.7047618981369077
-0.9879012483994168
0.38552051274586674
0.16671746393122414
-0.31606481333947856
-1.5673841074297452
-0.07007589745251308
0.1852189230177607
0.04403441177277026
0.7146930121731472
0.11588133243993455
-1.8398429895602597
0.7499866323283342
0.3381862143327469
0.19714178711621444
-0.37227528383729636
1.1742863484109842
-2.5682224081962217
0.3781477563450504
0.0902836828914895
-0.19522872877590794
-0.05206204896322375
-0.00132895555965587
0.6909403891701891
0.17494716821425452
-2.0214430222196103
-1.8490840764048455
0.9260443845125479
-0.5608320397509127
0.9052343407506547
-0.7452387164524015
-0.20806181584804606
-0.3733524581045772
-0.8125501079576264
-0.4396553912469171
-0.6481420465239884
0.5197699301476332
-1.0538109083965541
-1.2582627159354884
-1.5729286273448801
0.011742774913520812
-1.7809770847945547
-1.838709847021373
0.5126475387520458
0.7913107413741141
2.5443971585544323
0.9193477962766388
-1.4616116587562047
-1.183932151270172
0.5778240287211178
-0.05625044818483638
-1.4080706969627756
0.5692090049425833
-0.08410434286903246
0.18988145331289064
0.6603242231692467
0.4185772211536297
-0.49282552140443414
-0.7117858881025892
0.11920265289228815
0.258584703363832
0.06085606589684917
0.14037922272287984
0.30785118402074024
-0.5961204162180933
0.45669635311467716
0.8462227674798527
1.072410245186409
0.2886356965411926
1.3853272965004007
0.5571772396671875
-1.1873637625137885
-1.2968461796200517
0.9012791684346605
0.9314839694330905
-1.7471764518914557
-0.994785161554668
-2.433371982340429
-0.18601652153610648
-0.9448826202562093
-0.12541510162504527
-1.3178205199484334
1.4201633324641043
-0.8534458410689023
1.3058737591721514
-0.7442037057142705
-0.6417003414132592
-0.6610082611442736
0.451935064781502
-1.6831825241442997
-1.5284866546673603
-0.9797915470342964
-1.360079169432744
-1.2911767104861425
-0.2693704747644531
0.1584119734335877
-2.0126843795920752
-1.9334851645174722
-0.56063231236065
-0.8304827186064606
-0.4217186237772127
-0.6543718687150366
0.9439819699448266
0.5379950337402898
0.29941145262581215
-0.8907335828010138
-0.818251572422346
-0.8912245239962406
-0.023905841466741684
0.7930789826409748
-0.09311400415386417
-0.9204635637406384
-2.017575059160354
-0.3661295815887867
0.1670061976237438
-1.7654433504276978
-0.07628989923418972
0.791353669743017
-0.8367853110129333
0.4353510766677229
-0.25751448026453483
1.3104963574777586
0.32590374793396004
1.3863493700721923
0.4417645606636611
-1.9066049150007673
0.7525648875463212
-1.8128444770350516
0.7023113591934755
0.1693331456274086
0.1552793639090002
-0.6685338358110549
-0.4170036685101001
-0.8327443888168802
-0.39925140415277394
-0.4105442056736782
