2.124434222178344
-0.03581051142926772
-0.26720218907285825
1.1392574443761523
1.3443824963189948
0.3362726721941499
1.4719276170669429
0.5773391508332041
-0.9054468456633652
0.3153262596801799
0.24580727953863024
-0.6513433215449673
-0.4317577945665888
-0.14633495427824172
-0.7823669551789367
-1.301428387590823
0.5444041145274033
0.46064829514105055
-1.06453884698612
-2.3307524193540874
-0.9151441490624959
-0.9799991064141614
0.7893188346946997
0.09915807690107956
0.07449322832427141
0.45804520889740946
-0.43702532699072205
1.4537174255259828
-0.05434967076189737
-0.43529040782892736
0.723646934814425
0.45091011270918563
-0.5278075341851914
-0.6252004827793326
-1.0297211285752452
-1.574535710119493
-0.3695942325466488
-0.29939948064120336
0.9658309740017422
0.47933413033013283
1.022100271029888
-0.8687503712242708
-0.3230301247164185
1.599805540374565
-0.43709848952975955
0.22561198689550377
0.4520305069281633
-0.5627506819281056
-0.2969997906167442
0.14022900008572045
0.5954661350982234
0.392670565338739
0.6172410653135201
0.4201443953080085
-0.388078298719384
-0.5176764850325195
-0.1983133322397525
-1.1820915852960208
0.85373065603097
-0.5935743086945332
-0.7195450966942578
1.2108514618875186
0.0019877798173241965
-0.05596648518921271
-0.44200847379270014
-0.39474502025461566
-0.8094384980688818
1.2197823517704667
-0.35563402431693236
-2.967123730791487
0.3862431815797032
-0.4537118601625798
-0.6725534633954912
-0.12069556383564137
2.0161111209872344
-1.1612810051617015
0.05887621584141406
1.0828756475568602
-0.35185734756169795
-1.086130577690868
-0.5887098603962131
-0.7116538385339796
-0.758432441016899
-0.1569844059552707
0.14601046110791327
-0.5947812185502335
-0.8039634910082554
-0.30869638042441483
-0.04875186914192911
1.4809289442018532
0.38734351678564827
-0.2642066897830162
1.2135246066978636
0.3171526032972969
-1.149595200230722
0.6223623974994126
1.132976915223614
-1.375693763009549
-0.17339644925965422
0.7229776928568918
-0.22042741646110933
-0.7400027669668487
-0.12449889019840757
0.43587099971231175
-0.5999953399723822
-1.72666573049435
-1.9164163537514265
-1.73762065797672
-0.3709988634923327
1.312490157617093
-1.2146973263710712
-0.4322773753768575
-0.7720942953801944
-0.7776772676424482
-1.6803036791768098
-1.2534487510017567
1.3324181956208483
-1.3754281007338325
-0.1923993950421824
-0.25224777012836974
-0.132874530057906
0.4354172568274604
-0.6855661661113415
0.9384665902721423
-0.15658779700129874
0.9399319638126183
1.066185393016565
0.3341922968093137
-0.3606048948792092
-0.22979511178630502
-1.3731724930734626
-0.07988529569769626
-0.39286061686799356
-1.4480332319086786
-0.011438013615784365
0.5757207214789659
-0.23942534936108772
-0.58986110043185
0.17526409915589225
0.6540520944041728
0.9092287089349642
-0.3190971155837846
0.11428618966090334
-0.29826019677345267
-0.4344349083683255
-0.5547910205981321
1.932481503206177
1.401613337981785
-0.20023186757140898
0.2496946343017929
0.2940701222331732
0.40563690455609125
-0.6096672591547942
0.9380134170927861
0.6271017510864872
0.279097956239197
-0.6878637310767536
-0.9614777742854771
1.4668692778386392
-1.1867947444732485
-0.3862996613585012
-0.3880963630328511
1.2383561076757839
-0.5880823922833509
1.577717513303153
-0.4417346102127398
-0.1108730369224073
-0.8868456062274662
0.47007332014621717
-1.7699433688831485
-2.0519301736331923
-0.41302511612563897
-0.4147630793032204
-1.4773442901751885
-0.2894846238681923
-0.7008481340730791
-0.80222682048002
-1.2070901722801195
-0.8055884577260352
-1.7180641327027462
-1.5633137820042506
-1.4992001598736924
0.5143410645284644
0.7867843751914598
-0.27148003515016583
-0.9915683934990132
-1.1666708621620658
-0.9903485172879984
-1.6311323476466617
-0.27127680927563247
1.627376859638498
0.22483300510871396
-0.6487282078651042
-1.1187566986392434
-0.8633855408880494
-0.5940307653491756
0.6138803975171773
-0.13625825657843915
0.16009725972903022
0.29360805527500755
0.02421524517711804
1.1674663991833905
0.06683237214549353
1.1911467499685566
1.4200418480568808
-0.8092243837946944
0.8653771835379497
-1.6006606158935939
1.1807433634290343
-1.0239405622653013
0.8213140920967255
-0.34341945976205523
-1.4214333226551892
-0.2935649922853634
-0.3785618238964847
-0.2649738860731813
