-0.08522093988402113
1.7616661869271968
0.14361479260325216
0.46749729476076507
1.8658568173318104
0.13710626823343847
1.0383881739536314
1.4223043084656708
1.2151683133339697
0.6148974302158858
-0.41938790744407334
0.503866436544011
-0.8228166372530772
-0.7140652981829202
0.3768990047355243
-0.9651523740967619
1.0382809229129233
-0.1985688734411285
-0.5829124976843212
-1.5245226031412948
-0.42209744971811
-1.4367266469172426
0.7937955139726166
-0.23698505252014068
-0.6894397004130735
0.6380860719911927
-0.7890489589069071
1.4180336818390684
0.15372778780449037
-0.5636581034776788
1.4489255568581725
-0.07414192794685666
0.39569230690656554
0.1464567380853036
-0.4889602490938411
-0.8992982093574504
0.07087776190344451
-0.3729592254460684
1.1798235727225297
-0.2831503968813064
0.31252756020074635
-0.5389264601730082
1.3562970945519583
1.0386932845495203
-0.5149774531424378
0.12427989475154899
1.26576880644957
-0.026277936617971454
0.16242419470499436
-0.14917815383945784
0.7506589832081048
-0.3135876183723448
0.9833988807779103
1.7339774324311232
-0.2686585921841853
-0.5330004132563457
0.02123828798338079
-1.1934558252519882
0.4205191054452023
-0.9738900633652631
0.39199942615050337
0.13921949207138473
-1.2459730464197578
0.8958083005312066
-0.6338491680029339
-0.07922965377605715
0.5844872154579034
0.7052418975776819
0.6548715424429885
-2.036753605134329
-1.5013069959693426
-0.49643282568775005
-0.7954124303841488
0.757748946943065
1.2042907350228762
-0.7622694694601505
0.025632464343320477
0.2972979976757542
0.0066754892981195635
-1.5176642330998473
-1.9107949512104805
-0.8594162124064574
-0.7343416205739711
-0.20568417511090323
-0.6642511926749027
0.2806583015611759
-0.015945779069129418
0.3587267688521972
-0.6308281192134622
0.5075084794931803
0.31120696542012327
-2.6202302838239255
1.426181342509316
-0.17935183614434685
-0.06318692894241434
-0.9413071164714315
0.3614947196662457
-0.5235370833382467
0.4241259918693623
0.32625451434897257
1.375392281358343
-0.16473866696632777
0.6458512584694563
0.1497225693503455
-0.22462408687589183
-1.9989221221066966
-2.1692118029660894
0.5705674958857043
-0.6841047844998402
1.1898168195932706
-0.4917615409174024
-0.1672483973578054
-0.42800832056602084
-0.6268551965956035
-0.6307115016125897
-0.8682669585399763
-0.006299607965677523
-0.17320476601594598
-1.014277910060463
-0.12974322791808351
-0.034015424519652615
0.014599556117824097
0.528859307126875
-0.3728271008061052
-0.006632951451647939
1.4016272249346144
0.6924393153657565
-0.06938938156175871
-0.7641128486855959
0.7530231120746911
-1.1213356585149066
-1.3250986276760852
1.21906535781774
-0.168476956234545
-0.7860384158928596
0.6482444110091777
-0.4371800285838298
-0.6363543797161149
-1.7004036306228598
-0.15956954528623135
0.9479626372465297
0.4354724927846909
0.07823676583034425
-0.6650077712669864
0.29405790923585695
1.2167934553396837
0.8679890881035391
2.3730488403306236
0.21608602074957484
0.4516532433214253
-0.6280965596027102
0.5614946206238755
-1.1145548116566755
1.902829318966925
0.28458560402407784
-1.1733619399949122
-0.43416418370172083
-1.2771861290925928
0.03315037062502135
-2.268246407770545
0.5044710738400993
-0.5079215631166802
0.04410092707516555
-0.6443133790021869
1.0592753604975402
-0.034092734866793095
-0.46137429484900055
0.008229582891676523
-0.9181702509014162
-1.244467346150082
-1.2543666720033364
-0.8561219343064863
0.10943644207182324
-1.822830509223842
-1.2518262621934464
-0.6510120181888107
-1.8726592489537888
-1.90620210869645
-1.1828917164095714
-0.9515918242323905
-0.693865389058428
0.28025651732155094
1.1908458918659706
1.3011917482551045
0.11495620441262219
-0.4579711378536932
-0.6413627105032229
-0.6075617453826073
-2.1350991063640783
0.8358541431869498
1.0895323495219786
-0.3762514122205511
-1.0353727221029991
-1.0929901973055987
-1.0737463841205748
-1.4608103141529154
-0.03378596050922378
0.04010401924912266
0.6417019955805009
-0.3605664937326013
1.0202257726130215
1.8050140625763271
-0.27415750900491886
0.17430577198324793
0.9581314131908103
-0.6936600966007029
0.8344472986602679
-1.6223338676188614
1.082651253786397
-1.5659674835436308
0.841177505347841
-0.5367261591311328
-0.9437721819068887
0.5036882045660563
0.07049848109358532
-0.03443529467506548
