0.9393234709957545
1.1901278272672426
0.3790785089252566
2.0925728401133177
1.324243404247142
0.24161177949795332
-0.09427231300072869
0.8253083879787442
0.925007573531277
-0.04050054766369865
0.6555959397487269
-0.8203166559736891
-1.5986443913590855
-0.8692153746619211
0.6475355842683392
-1.3655762803162184
1.575092139661085
0.5387509108789613
-1.3498010722066172
-2.2628724937827616
-0.04680234379944953
-1.2827007765723044
0.6331702210554625
-0.7321118653378935
-0.07234478666799193
0.77218795715878
-1.1946626992584926
-0.09223903105051345
0.28705383074703306
-0.5872107269355794
-0.1020813355385497
-0.09625492291286175
0.447435618107232
-0.5670882568828106
1.2576239274566365
-0.04619551190491711
-0.04486698739000075
0.2894229953516883
1.1131473097067437
0.11089962716903246
0.30682698933229235
-0.1488552737467979
0.8402866407734826
0.6700241117499627
-0.7678079601651396
0.6493275161444576
0.6049364260419624
-0.3393315602299155
-0.48613070902086547
0.13080466449877506
-0.2052733053472039
-0.5629669493895217
1.0072777767699983
1.5395346994549421
-0.06688890641313534
0.2407990784816325
-0.1846319160246166
-0.35717113656656835
1.2087078986631936
-0.8332726376817491
0.017127809425859952
0.49345618963077265
-0.6961253511574462
0.968167475650245
0.5469900009513748
-0.12086461449158384
-0.04596084224992378
0.4050437854614396
0.007661156647218392
-2.9452706459490745
0.20724744302339093
-1.2074897229359818
-1.0585520891073235
-0.5700687911310413
1.6044120058977536
-1.018332649471429
0.015351490971251505
1.412623448076626
-0.385511309812243
-1.4291087830999145
0.22446254073059713
-1.7552674321335402
0.10048986436247179
-1.1428427697781047
-0.34289262958638667
-0.5335522082233128
-1.328241712955549
0.2175747324736101
0.3455716191510432
1.3904893049334195
0.4048036690556151
-2.138675406651671
0.844710529408465
-0.25416692215928666
0.7129014358235881
-0.28525591244132475
0.6378263539390929
-1.94563059221069
0.36804596715885995
-0.13918654186355756
-0.27399214060327537
-0.25498174492207076
0.9828190066248698
0.5874210903274135
-0.3436942187297949
-0.9097706389660066
-1.520580899896756
0.12554794610680686
-1.2331111003140909
0.376986262572638
-1.4806187944267968
1.119905645837509
-0.8122845798607221
-0.13460920585832348
-0.5962056707232231
-0.2785678032803196
0.14460567126644444
-1.151296540386268
-0.01995100016007234
-0.618570959672124
-0.9280215414779871
0.20967740704922888
-0.005449459450785177
0.2975600363535139
-0.2627412874462247
0.9706838842194536
0.3019503184793342
0.00884258734829289
-1.7403161250502353
-0.24032647535934587
0.08819876004650318
0.12848786865985223
0.8133456685989461
-1.0215329007943925
-0.18460062098954697
-0.7505718721676614
-0.12760551692662658
-0.7046193709700164
-1.001409946848669
1.1667159690164017
0.2444905355932023
0.09282789629463485
1.3085210607390865
0.1091774578808062
-0.4678666088676054
-0.08336095407985217
1.9842750556834126
1.6495173623341768
-1.450719301299379
-0.2707129808171409
-1.3686569455001716
-0.0013006280619074634
-0.5525917950640837
0.9226433993993537
0.39342702029816334
-0.47194286151053527
-1.1611606876492746
-1.019675850847403
0.7288733434938628
-1.409296530973452
-0.7565627953560591
-1.329958184619765
0.43857582701005765
-0.5257935935018221
1.1724093674625218
-0.4687289791035716
-0.8209696253754477
-0.012989506829995223
-0.10865023624430142
-0.8374879380761217
-1.1359079249158992
-0.8328197779383468
-0.6499658971080818
-1.4659822834672387
-1.444226016532034
-0.7107863744497986
-0.9035884906556707
-1.293179332719908
0.2531169695962301
-1.3766335995742458
0.13021622858709703
-0.7351867144206075
1.4921848071947124
1.0320490321258178
-0.21346943800962234
-0.37400752651343105
-0.0855155517130074
-0.8107066587431161
-0.8294892408367516
1.8774876609464508
1.1804487587294767
-0.5354511799364152
-1.5774410885311259
-2.1001849560462915
-1.5015200639802804
-1.0676666214427082
1.1383855481308673
-0.3010335972424304
0.04483827850618512
0.8624794733348924
0.7855767386173826
1.1286560444114118
0.18156092179234518
2.196678572545258
-0.005046606797002973
-0.05960801539857796
0.8186607346810987
-2.3083653765291565
-0.7937744996622682
0.03694304666109703
-1.1799017440209647
-1.3845726981122182
0.15395266526175677
-0.7286834959072603
-0.3498936067914851
0.11876631290101877
