1.3355284465729558
0.2660185501663842
-0.48564560785141003
0.9771124001790574
0.8032013018419915
1.1603190152518859
1.057885067542943
1.402533292083319
0.5922861774649414
-0.23640621983223822
0.45981434653085596
-0.7737813071503397
-0.1519185557118285
-0.8938377543320577
0.11324833952312263
-0.6232980622399672
0.8661106961953215
1.4193168371204794
-1.32512152997761
-1.3520330717408864
-0.20591638458262018
-0.5204597541377642
0.7504989672654022
-0.02296088920731028
0.4438241524461029
-0.23207925360831405
-0.8653380478409525
0.273598017466259
0.48072326126340476
-0.6340642001488892
-0.13149411380821685
0.04388192997218674
0.1979094362282488
-0.43476267072567887
-1.1498197412004372
-1.3807376959737918
0.4752167671997206
-0.5190440598418677
1.041397723230592
-0.5597548629000902
0.7319527949705664
-0.9757349704915865
0.28642000924615346
0.28367915486812245
-0.4853141407414753
0.5611293333489435
0.2158539851244396
-0.17428385864508386
0.07423942651844873
1.0231735668634454
0.317260261517419
0.5667760120113425
0.480526585599409
1.868892392306114
0.07626638523072901
-0.12521406676964175
0.184199245660018
0.01841451109187492
1.3071749314405792
-1.399270028948362
-0.7890171449151628
0.78232950612902
-0.20559323448324188
0.10094384598604708
-0.9331935977797987
0.1795071519042757
-0.8368525151907051
-0.5666605458612157
0.9151632098251765
-2.5780354969571846
-0.05372170785512157
0.8006922638834454
-0.7444568012824931
-0.1946217374267585
2.714125486417259
-1.128017705718723
-0.8265239236576927
1.2057644590715202
-0.7568643229900389
-1.1456580396377816
-1.5097196649840505
-1.5109873495133173
-0.9926135167026789
0.44724278765497205
-1.5992804896599693
-0.7893250953665137
-0.3103512309419365
-0.34262188991970816
0.20135158860056893
1.0304955425611273
-0.30137069651687076
-0.8816262456538672
2.188186113642141
0.5153425151607007
-0.11558203528147648
-0.44915383616717935
0.5442090277180606
-1.5406807443160926
1.1083308837972918
-0.6859051778149245
-0.04630061054415982
-1.4232364293704791
1.1630902110560828
-0.2079056201688172
-0.5871950608699574
-1.8727302238741983
-1.2149386366119472
-0.9313063486962492
-0.09352776319852013
0.4913141485012689
-0.32856543634696456
0.7364096136344086
-0.7784249735991879
-0.5581867189086771
-1.0770603710245896
-1.7334937985592958
0.9610026891113084
-0.908012729472838
-0.43264428715301306
0.2402097388224016
0.7419604957962826
0.12313605555988599
-0.745876737936521
0.40293258229807744
-1.02769793895419
1.6954859739688957
0.9829052388696168
-0.09157728827278125
-0.8512638547249662
0.0022456656228628247
-0.0022560098528670025
-1.1868488105228348
0.9760758292987906
-0.8913197697584971
-0.4598269313885517
0.04452536910625389
-0.5928944397998795
-1.1874585255775063
-0.8064107094218486
-1.013537481245452
-0.5061928413281263
-0.42715684712818014
0.16240820991825672
-0.055375604704021336
-0.10342287047453905
-0.023039774574870154
0.9898375710863269
2.8854370089887227
-1.754536579543451
0.8368294450761556
-0.7395437638718307
0.6469431242103242
-0.540780711834336
1.293013785240821
0.2807317311788845
-0.9313471111125947
-1.0742453438916169
-1.381504344120806
-0.622803021468189
-1.4907315557756744
-0.5624825927709212
-0.6995436354772859
0.5784313132669207
-1.0550404099026618
1.9691802758957202
-0.4548303340932476
-1.173433775454593
-1.3469316082749176
0.5051927140782874
-2.2394978517204445
-2.0995823269529366
0.015029518528919317
-0.38762423382782984
-2.80788881416903
-0.31880872582717057
0.19202649815803474
-0.9489497096540613
-2.004771780163581
-0.9106160574929473
-0.8417316778125091
-1.5016858190107722
0.24063365696787686
1.152239473326928
1.415215469209597
-0.3203982590833714
-0.837987690496699
-1.1665377693129824
-0.7673356475865596
-0.5659637225720733
1.2769535489801456
0.887562823855373
-0.35784483010710705
-1.0128077250632053
0.20577324810710684
-1.2336107005581853
-1.1586827736370124
0.3320511988819942
0.6445804868420991
-0.4223746963661309
1.3508032294614751
-0.22142741584252268
1.8312169399443476
-0.10869641012975739
1.021698112455735
-0.6902463956490641
-1.8141274061201225
0.14324461473135064
-1.892692484131898
0.37920774883390906
0.33014626655035884
0.7443290820762655
-0.3819038750080976
0.33988063899160414
-2.072542785621245
0.07062861782079226
-1.3653205550808838
