1.0632775099693594
1.4226789612318724
0.9449834331632361
1.157816596652292
0.11333783979486045
-0.15884296291206745
0.4638185624651141
0.44712401752480724
0.10946393798959786
-0.9955572415797241
0.06925448794103994
-0.13909389304156627
-1.0513528839523651
0.1334379874071685
-0.47264489859070646
-0.6399870061809444
0.6705771118927167
-0.32403887552115523
-1.015575541091081
-1.8397087307047928
-0.6918105117660566
-0.5491415397746592
0.593979954005815
0.15123542663236894
-0.5815209134197183
1.1606090247011394
0.11830097431980557
1.3531446319787888
0.6735069325232436
-0.0853537185241331
0.5294009127097761
0.12267092460183993
0.07912604811934576
-0.019366556022484535
0.17873956155538606
-1.3599622019479507
-0.1259236060309912
0.9242164855185735
1.0335172687794967
-0.6580983757259278
0.6853899285341353
0.08551467237322663
0.014776490622742777
0.8541254355863894
-0.511986190877025
0.632451848649108
-0.48320795002475897
-0.5772991657267731
-0.6352087733562152
-0.02817469134258337
1.1305052682688284
0.49311978479990215
1.6491802920772867
1.196063521417339
0.11070441828899553
-0.9227908161384308
0.43785443497158655
0.5632302697520734
1.4868694539070284
0.1542263226513637
-0.08270384797986774
1.5643243919546355
0.19121501400293797
1.2894883273713347
-0.9333323624819518
-0.4354087739793777
-0.4873738163617238
1.6395920798777834
-0.6987997483442474
-2.168564484132055
0.32137056782239226
0.13977510329642706
-0.08929079024756775
-0.10807640945536437
1.0413511184113173
-0.3310922419457289
-0.19449454522890683
1.3355506784411817
-1.4191424509675128
-1.5111510632998073
-0.9907949553475759
-1.162623467191771
-0.8899923813309025
-0.13495042476612046
-1.227776021459822
-0.9486182377422429
-0.3644543842303986
-0.2918393662543248
1.1224811001031674
1.3091453308647996
-0.42233556531749716
-0.31016633876516364
0.8109176001996016
0.6603526134018141
-0.027379046483123864
-0.4673403568053086
0.8482768500610777
-1.77425091587599
0.9515935592821941
0.34459863789656764
0.1952545634724572
-1.4897781571957576
-0.3977653281274671
0.5835239559917323
-0.3038303875102959
-1.7321313864785062
-1.3523166634209445
0.06334556835547311
-0.34638354405273486
0.471514150945272
-0.6329724378534247
0.5321774914748575
-0.3724375911078631
0.6399284728192353
-1.3581533095131442
-0.7131610225884695
-0.3276027358728076
-0.45397172221947035
-0.571294444221034
-0.4103408011429799
-0.1803981953840035
-0.7320970226861543
-0.4038780191954374
0.7256966454955234
0.2833399064839474
1.915934694608203
0.8624431885268655
-1.2050970701784183
-0.08482050195394285
0.7376980488710088
0.952903234162699
-0.9267453848698244
0.35551915334974493
-0.8227075473280125
-0.15155746381269206
-0.20332393947033806
-1.27352026316334
0.3098785970568715
-0.5132592124158506
1.2346296744813268
-0.07808243055690836
-0.7734727749850667
-0.48195149125679854
0.05265097467765606
0.21014744442602373
-0.6269478991168682
1.4245631087464683
1.3003780131477993
0.05472162754667509
0.3761144305352303
-1.0050596127132654
0.9992798939777039
-1.4419704314120652
1.1923669570512532
1.3185998635331406
-0.6268652503967261
-1.3109201383044458
-1.9217356233347713
0.7320930516766269
0.08492341902511424
-0.9633466963793239
-0.16826600527015445
0.05417095529769811
-0.8478278129092602
0.982644077488616
-0.4722920676389265
-0.47902947665396756
0.2784385004002743
-0.6373859086616829
-0.6709542761908189
-1.2690726071943161
0.09708394883108296
-1.6159340362647276
-1.9048568993890074
-0.834252184951873
-1.1041009325838986
-1.6197455805797132
-0.9497441212969269
-0.8080299160959196
-0.18781194843376048
-0.8010862654353912
0.003712614570238554
0.31760953441054585
1.7961895166507285
-0.8951072496697241
-1.5056783375318177
-0.9472020898503368
-0.765905358428279
-0.15275972460694776
1.0268813604427305
0.19758052201618082
0.28305680229374075
-0.5670313743082949
-0.5154270590788603
-1.5890309565856209
-0.40720285358319275
0.8655881149699043
-0.2453213476069419
-0.5384747702826048
1.011769727174559
0.9977026777691618
1.6255508575283453
0.32977293094285254
1.0821139262885933
0.6278478595190657
-0.42450569629141693
0.7831695430736711
-1.6077575800514121
0.7491202335079077
0.8437349200098786
0.6569332382671119
-1.1442996726445416
-0.06368902617318105
-1.1282564674252957
0.2837046643281064
0.1393870049916207
