1.2763391195604419
1.1077152526465217
0.394427190696062
1.4593722148096553
-0.02801670115260324
0.9627985462111464
0.987347933876444
0.6651591177618734
0.5291005285583587
0.6768421384337822
-0.5140702295802264
-0.39424370892097554
-0.6651263355207195
-0.5161536080066568
0.23832891628449585
-0.05586548700964111
0.9560552439277505
-0.12412055762018126
-1.573664794013177
-1.8630434792846866
-1.0637816264895632
-0.6041386234478872
-0.22686546910254757
-0.323055176173912
-0.3429175868463198
0.8424630728506745
-0.4292165597328349
1.6384665937466747
0.6509282028229264
-0.4443593017238612
0.691885853131873
-0.32484041147891873
1.4200206558072326
-0.038129202569324214
-0.6091930086109698
-1.0518120076967996
-0.052582508415007584
-0.37108813708549093
0.9295991258703288
0.14818397391940857
0.8954475737368455
-0.9547619237247167
1.3268173565346704
2.0367120761232793
-1.0861123185502515
-0.05461912563355309
-0.7628708129603485
-0.8004166267944377
-0.7153422150150055
0.17701611631674072
0.22788654277414133
0.05936953360790813
0.16576035611347473
1.9908496837205076
0.03595951488011548
0.2794008374082765
-0.6673475194094088
-1.0337943717617142
1.202274739350688
0.025197501491297847
-0.18814487024242402
0.8133194565232236
0.2730662412006045
0.47033309669580475
-0.1842886488243003
0.11302352412187286
-1.1428040619984683
0.1764710189069294
-0.11363170905684528
-2.0944922822604313
-0.12260559154404391
-1.697263494946501
0.20003718451527563
-0.2471126720086778
2.2473195073023966
-1.2153904971649463
-0.28051655112897816
1.7564345287154977
-2.1067260933250527
-0.6342315689662813
-1.02372387118115
-0.5615344922910604
0.061374833292627634
0.4150357656337901
-0.7062381185200608
-0.16977908849109047
-0.12466538888882894
1.0104919514858612
0.1149466404259907
1.2330705384612792
0.47573051956241974
-1.233110138681489
1.2607577891561217
0.3278853320941269
-1.053745563736772
-0.2670289867226935
0.7430518294670089
-0.8259619257580711
0.6970701390887419
0.35661580802074383
-0.16041432342111514
-0.47782221124122704
0.30888759323527304
-0.45534252453042723
0.1173531086045293
-0.9396345978046892
-0.4269461263907045
-0.5482861564887185
-0.4446223968522519
-0.9041217193167927
-0.9995305996097302
0.5231098237733424
-1.2577833700329337
-0.4964106692687446
0.15491270301678184
0.17408775224927064
1.315856853482097
-0.333556984685906
-0.014238538861120809
-0.2213238999451519
-0.01611944728632521
-0.46335468885763315
-0.0851663498372622
0.6261970503089311
-0.8619766474868837
1.5048701551459327
1.092904359712501
-0.2379674341674509
-0.2615755126235146
1.1280289815874895
-0.7242837488621002
-0.5836073674347484
1.321027066593841
-0.5385481204670028
0.027569880786355958
-0.1156304382247385
-0.7516100168395756
-0.8177413788220411
-1.0600345439055432
0.7535038365101616
-1.2499961221137617
0.26000597730676045
0.6440717996193361
0.1303795930366103
1.1296192506480907
0.6009602532248801
0.629738811709814
0.6508938159721588
-0.9580891200476913
0.0155606053815458
-1.6510625670243875
-1.079147183490033
-0.7037909731532686
0.9260300109657601
1.0063113867007756
-0.9427051711138372
-1.9283946859039935
-1.431774961271367
-0.8218343838680291
-2.57170217570136
-0.07481951468382925
-0.6306792316129093
0.8162652273026628
-0.7866533797191971
1.9469103373370165
-1.7948150282836424
-0.3253095233035588
-0.33521057444954033
0.4282893850200966
-1.7443726598781824
-2.303251591620871
-0.7033012241285296
-1.6658023837090619
-2.353930807431963
-1.5661512723502908
-1.0729285767874783
-0.701027069711281
-2.043126413407971
-1.3026084411818184
-0.9916461911162779
-1.0556197144588793
1.097440612915339
-0.05785030503233324
1.5659874602715886
0.35842587376981017
-0.5016484440543291
-2.1869031060837716
-0.17463964493647832
-1.568160160296404
-0.09672517395475211
0.20456267903641612
-1.7410202782918476
-1.1821956993126659
-0.9221672479430976
-2.4344437564242423
-1.350901178203473
1.098854543523271
0.5021554604617573
0.2098428322616805
0.9850572121846048
0.3527361211483178
1.1391559070708717
-0.30938565661527584
0.9087373200471016
0.12918621990828252
-1.3395913292969408
1.797148745601072
-1.8832790520205704
-0.3270336434641917
0.5119322042109111
1.0066505140914417
0.7815232159443596
-0.13315113633775605
-0.51509861570169
-0.24672722321899968
-0.42137705670409376
