1.061182899321929
1.1963829436464808
0.8993417892098968
-0.0017063356758204584
0.17395544835990717
0.14244621615683384
0.334761140188896
1.843044298358259
-0.1281702324574312
0.10929403437617205
1.3989600028357594
-1.0161914580821996
-1.3471071493728075
-0.9705913639974779
0.2367575820318614
-1.206242194102463
0.3822662404713807
0.5170941239361186
-1.1115584417802657
-1.5289097546154031
0.5859896684190171
-1.340183196008971
0.7515369419480554
-0.768401244468164
0.1755895383148235
0.9133368639948657
-1.2830400025113018
1.518967429111222
0.6275328437774872
0.385353676109729
1.0686880285563394
1.279367548167085
0.993443324417448
0.5583892642862234
-0.6668973413128173
-0.6051719182536576
0.8463232059995989
-0.5407517415601502
1.945448750349466
0.29470011441625443
0.6636726927415969
0.39004496428371854
1.0938420640443713
0.4499168519891982
-0.444727715565154
-0.1522845467937074
0.6147284576840684
0.2930774217173202
-0.8986816494987172
0.10531193233552888
0.30945690192957864
-0.23914078687908405
0.11938589393318466
0.7452731620267552
0.2684994899385133
-0.5078607840937754
-0.4129526988100456
-0.48441352768105506
0.013834353813664269
-0.6226972360641516
-0.11120931267936768
0.12570776188620014
1.1459684234373684
0.7006808654355602
0.4107908440948503
0.5847870898382473
0.35711771452679686
1.2767766116749997
-0.35120093037260486
-2.1686038576997833
-0.07256306507416102
-0.5427028600282605
-1.7126444235255134
-0.2765763966277275
2.065241435908571
-1.7171588242932896
0.7292230114251999
0.5444441883394447
-1.6668751907980295
-0.9479878935141359
-1.1729862567973932
-0.5371509198065163
0.03344424897025536
-1.1286857446412322
-0.9857947492721703
-0.7993768638972334
0.25590781686544506
0.5583401728115349
-1.032749009331315
1.6326137321339504
0.8075737821973163
-1.0879203842125145
1.3546322732182392
-0.16487696513063782
0.21909069796874567
-0.4968802911546494
0.2669040578372062
-1.014149817172719
0.37729072653963897
-0.0561671640616932
1.4274175946684273
-0.5865160360998695
0.20347089241151753
-1.3705400069045819
-0.6896414664850425
-1.1471335958935005
-0.7835978883432893
0.28950438047910726
-0.7791772570153614
0.23164594729466936
-1.8660473610522499
-0.9396625657859907
-1.77482265387862
0.21567491685456797
-0.10621554802131616
-0.9011684764222698
0.2546037320559731
-0.10552017552207071
-1.5558307803180296
-1.7830233838559322
0.37224062289413085
-0.1530624550432625
-0.540335144745969
0.7001126002339556
-0.5367492094148907
1.2297700873352737
0.662504616885887
-0.28124115285685003
-0.42726768925130876
0.9465415112950212
-1.4017731451591238
-0.11332899425158871
0.7907108250956015
-0.4918935003919609
0.004926940255145368
-0.9039994112342187
-1.0229400468118484
-0.21139589840489476
-0.3674164100494034
0.37601815973205716
1.323578089808128
-0.3229328539233629
0.24763604515087173
-0.6082529063142159
-0.8298922998949294
-0.10349429548703756
2.4323001030904163
2.288267368849529
-0.5071736701587506
0.9017119775893432
-2.0805472106088887
0.3663771147884166
-0.2422878040093117
2.10954864458506
0.4801367012100175
-0.976648915187859
-0.2383375189219029
-0.5251562699651506
0.6891662719485803
-1.7176055947345374
-0.8388875829828424
-0.1538603457775065
0.9103962795859806
-0.847384993831469
0.3697508620892598
-1.17911628448597
0.8016387419909983
0.18391381003911378
-0.8740321451599106
-2.3072160647766435
-0.5200532288292473
-1.0003686549643322
0.07639399645709566
-1.635477456453722
-0.7347497840160088
-0.0632787428643205
-1.277254017593263
-1.4764990891997094
-1.2026800109429752
-0.7198871367322792
-0.8485498356025547
-0.8463371577652192
1.5516913602942586
0.8032451188105028
-0.11460054403815015
-0.10010512627238383
-0.47081660035058576
-1.5764828032127893
-0.37317943973756085
0.6059359337192979
0.3464439437925242
-0.2135845063158195
0.3351088639023859
-1.312855999003809
-0.7265424111972252
-0.43284546048887906
0.1351457456235714
1.0335215122170687
-0.9022394739917416
1.9622943888148603
0.5899519395793185
1.3367378377775243
-0.7662999036327875
0.8263316957155844
1.1895774849855882
-0.7308057749861627
0.5034660184625781
-2.9966324151304358
-0.31186992457082874
-0.1363035245800611
0.024736766157432866
0.037758750163842225
0.4254929461573661
-1.2045638824406666
-0.275994199104602
0.48233203811226943
