0.8704260301620553
0.7973083722692252
0.44124969650975016
2.0539382933844497
1.5084614359192035
-0.15190977949370055
-0.1642181439842212
0.452906265125522
0.013574602988828843
-0.4077426064880625
0.43249638949703206
-0.8132702630676569
-0.16794779248833888
-1.284313424548904
0.5021941001210632
-0.03126747401438468
0.7395984182222834
-0.0903448213648717
-1.966672242487319
-1.5382815350294787
0.12472139857822806
-1.297591704430469
0.5782284038525649
-0.856630774774952
-0.0005078471877047464
0.6962084908993758
-0.42583318182490176
1.3324989519720098
-0.549855560201658
-0.06931394037883037
0.9958127799822153
0.5022990169634072
0.6769270403304111
0.5222066043454315
-1.0946968132582038
-0.667701444739392
0.22112988633334849
-0.17772332663192264
0.4024534192159155
-0.8913562377938061
-0.16686741128966143
-0.5300432314384156
1.004138937625036
0.6733335668851897
-0.028137573141282846
0.02406713799302576
1.0326044720896832
0.268489892607813
-1.4899755481513637
0.4114847411730509
0.5926898732234653
-0.053851771535420104
0.5906796232393595
1.2480643035526207
0.6893524551349584
-0.06989696556279107
-0.03138677588136718
-0.650663524176703
1.9552599926924399
-1.3592664682305022
0.5327496194233643
1.7320349917785958
-0.4593033893382234
0.22660968098490075
0.60890015396284
-0.9873604468182346
-0.5264607745833486
0.6808377544351266
1.1613197683057463
-2.200774288132114
-0.023488066565667237
-0.3680185652849614
-1.5203746229458455
0.192793812989366
1.2947767489039936
-0.9396118151746176
0.7844100857356973
0.6912351511274335
-0.9137712081200728
-1.6375280512636459
-0.34273693743414607
-1.7417709545840567
-0.20587957159983203
-0.12996276147897076
-1.462596588037396
-1.0315942720633506
-0.6381627349346507
-0.4945968151392763
-0.676394902682253
1.3863247881195742
-0.26687643004880224
-1.243843176286659
2.657725254940808
0.16814202941085143
0.6461176842289968
-0.9439280431311587
0.19269198049460357
-1.3687891578104852
0.5972309931384508
-0.22854490475370737
0.1958865914070539
-0.4978757688434292
-0.1412380553957612
0.23433926942656375
-1.662899821020484
-0.6085734732008322
-0.9135184719438932
-1.7154384798393822
-0.2277990279445083
-0.8910995266823409
-0.9541805359018694
0.17347320120362344
-0.9474944865912651
-0.12928887905245368
-1.0694672511796592
-2.6343748399896394
-0.11715517889015215
-0.5636828448944708
0.9954906670968792
0.21036703647589972
-0.2846634127421479
-1.10924485146268
0.7384635615684858
1.1551130212091605
-0.9708222121165977
1.5680813913580127
1.0312761314618308
-0.17246097498265564
0.9826530897279131
0.18649451540544
0.05405309525243296
-0.1779990369645698
-0.14101945425530193
-1.248968159576049
1.9782378434321894
0.17741699939088917
-0.7775734877059428
-0.5729813976803507
-0.35284571514086904
1.3723078529455366
0.4556136777623409
-0.06176781807689953
0.004700283170410879
0.9391020900577001
-0.5498564209161243
0.1424636079606142
1.1165764884885112
1.755028990258168
-0.1542002277800903
0.19010430558222097
-1.3781736633687593
-0.18599453209073274
-0.7986435655955211
0.08753537471052908
1.3278519592102425
-1.7141637902901679
-1.1002033737924115
-1.6424308446150446
0.5083080264039388
-0.25758099302948945
-0.012561152865326497
-0.9715535046052334
0.8557082036115238
-0.9566700359531954
1.2018234503765441
-0.5069626820187687
-0.026665338685189444
-0.7746405070320656
-0.07334136893278692
-1.7659435449197565
-0.890274924063556
-1.1278520167555417
-1.7762085582363578
-2.013373195612871
-0.40620959246610316
-0.7070344297608732
-1.6484454680703098
-1.7315174359929688
-1.0363576426429861
-0.48539683167422193
0.4384871092157837
0.40259537390399086
-0.19201437169749536
0.75321664341335
0.4892323119705976
-0.600493714235807
-0.30912679692867673
0.22433005144940554
-0.9071801346536466
0.22821989637816414
0.5508818867783971
0.3204181305460607
-1.0955705664724869
-0.5317754067267155
0.1960113968688788
-2.75899488932558
-0.005507871703132938
-0.30492823690127246
-0.9974795613829394
0.7741710112835223
0.526979784041588
2.6385250498557116
-0.039343432109222254
1.809212545190617
0.7373075678188861
0.00015041208552757368
1.570097130645351
-2.0620647775218375
0.13621665529995405
-0.20145976260527307
-0.8759809634761486
0.5756076040892398
0.5424716037187252
-0.9266519731738014
0.0719506325955398
0.41865489778708065
