0.7689440133397902
0.9983581645988753
0.31789812314900345
0.7194865087731668
0.2788322799726255
1.2674436619389198
0.7211718215356746
0.5559688985929854
0.6966465130285573
0.061893125429728926
0.5691471175596553
0.5556098112391178
-0.28859879956601286
-1.1202076365779825
0.6916927967602967
0.20389877043545912
-0.034118220843375124
-0.3772177778430086
-0.5885347419581494
-2.2571216052157057
-0.5677443684737049
-0.6809615602634609
-0.10302935007766634
0.038096681025070495
-0.05356858840687155
-0.02823637101890819
-0.3988931214029541
1.264584889521278
0.04479155683142727
0.11132226681258589
0.07665681039601124
-0.8140626521193399
-0.7392406354104603
1.791931058061282
-1.3124920349986282
-2.1136327831026662
0.6576934091935975
-0.4964343168629982
1.2461689383657342
0.6840700326584725
-0.1373146371451336
0.12445989312393102
1.1081459530152626
1.3252175135028594
-0.5794145020502106
-0.8153493930207085
0.2246437257985897
-0.4576051466563258
0.04716401691535499
0.020056772060901576
0.5434263008576777
-0.26271781835493735
-0.9263099490613345
1.9573118710682436
-0.1831220321326483
-0.12495448728696745
0.19776170759715017
-0.33642904416508945
0.7140031031626718
-0.8034408162244143
-0.45367176689145916
0.4608048231054384
-0.2676365661899568
-0.9841961000375551
-0.8911624680858092
0.4594548106652234
-0.23537624568243581
-0.24214745643765134
0.56833558402938
-1.1220798521875928
0.09412538759047548
-1.2701215693739794
-0.39446763324731043
-0.17752127775737833
1.5144592065536973
-0.5189418961847618
0.313210858618693
1.3249722474071937
-0.815088305095149
-0.3494171656113947
-0.4791992185813662
-1.162962986190499
-0.09254969150746717
-0.6152318061762503
-2.0400836806051315
0.00021052935951570984
-0.298487242625058
0.8221623953036394
0.13232326598202795
0.776665388141802
0.3982133411782973
-2.0659011788187005
0.613412167524749
1.0505722686441128
0.10570840047279596
-0.4680792653047052
0.469485198660473
-1.1195414148874443
1.3480146483533952
0.950824188548646
0.6511734317032155
-0.8384730269899441
1.0283778043223326
0.6301064999787158
0.18389377158962017
-1.5405099772725597
-1.064838671380013
-0.13512687819910352
0.027776803004619377
-0.7962685313456952
-0.17252921598425663
0.4337360749731425
-0.4770786643772419
-0.08325627639103644
0.2636363258123624
-0.26615139243817476
-0.1534527152327056
-0.36097614389618343
-1.0649332453200868
-1.016839135681971
-0.27881216196368674
-0.3943096046805298
0.7780187604899174
0.9373107199033821
0.47103801436777576
2.21906894572557
0.8943389411191467
0.3705147519620665
-0.41224578087923086
0.7563674867536723
-0.8223077697998851
-0.6526945341934267
0.9057421833544139
-0.6713427885976011
0.0037932046405867864
0.04236916532457004
-0.3574559470328473
-0.26691856303669004
-0.727058718494529
1.0288934024420513
-0.17684363753067983
-0.6475316771690546
1.0565035108883838
0.30626021613768734
-0.9154637607553222
0.1387575796432971
1.7074774620608775
1.649017221525861
-1.0205624806776807
0.33501471710609976
-0.9567562512570849
-0.7138132124472724
-0.4366130300925811
0.42516840864655353
1.0931388393795376
-0.5589127080525815
-0.9140092655442796
-1.5888732672955337
0.562832476227849
-2.1231417930887333
-0.07733555203169262
-0.6561331531213632
0.8395103523565407
0.6416122650125144
0.47446125395450767
0.5296860355379926
-0.30132537231548484
-1.056590048528889
0.7370684852068955
-1.4324734474667182
-2.2850289202986622
-0.2995710430989452
-0.5917621387757628
-0.6415153056772812
-0.9311137054751414
-0.11828615072732768
-1.603958554523227
-2.4424706815953163
-0.17781316823266635
-0.8677553968146992
-0.6981994815456402
0.004737474496612298
1.2589931829379035
1.2862859653967036
0.6774112164429135
-1.2793637511755453
-0.45824836986109485
-0.13823455870754942
-1.421814171273048
0.16762988189480843
0.8687040742915292
-1.3249271312485724
-0.6847650603760866
0.2979236004153851
-0.25366153429186844
-1.931971832510065
1.7478053797600197
0.4668776147034948
-0.08579387284620477
1.1731945063667082
1.2295328215399794
1.7479756688870989
-1.4039240044816386
2.0965729623305043
0.7400117094242465
-0.29131517643367283
0.6519123111789108
-2.383752168120751
-1.19251416887654
0.9822670274780679
0.8665627099933466
-0.5144267094505334
0.17527463368554602
-0.4168556046297755
-0.0036150563453070904
-0.37281792578854844
