2.43901026434777
0.4933870090995089
0.7165265725810388
1.126263761874677
0.2996267458236248
0.33916364222577156
1.6247106877058926
0.6643736927845972
0.805506920747825
-0.21445187222282633
-0.7275778361228902
-0.9972907896640159
-0.9359646904202665
0.48408306399982637
0.5693192507764019
0.15222539549377523
1.525753855157911
-0.01537889928116911
-0.9628968108898956
-1.8818023555424153
-1.1376489328000188
-0.7140939538905289
0.6613279056006941
0.09944201185538479
-0.16871808532504584
0.3368095879850689
0.14550894930507408
1.0657254807724994
1.5086361580774656
-0.4779155143902821
0.9848134795730313
-0.9230099561875423
0.023315460250081688
1.426109589290093
-1.067238031382321
-0.6129540354708221
0.34877075309559846
-0.0762582383466198
0.8146756036222257
-0.5648848943383348
0.5008580148561629
0.34599109200838823
0.1783669786611383
0.7308938960491371
-1.5883081090444737
-0.0957807471070557
-0.08719634603123555
0.4398115890609954
0.052680780824547524
-1.3663653878375368
0.7442399786292171
-0.4429185736210171
1.05648362668609
0.717783720115058
-0.3125521546616421
-0.8413408478613831
0.025908182413839985
-0.7060916214037124
-0.01070487251363561
0.07998860425483356
0.27000448180429243
0.7170942500711954
0.86375753056485
-0.2224095138971086
-0.8440910869910594
-0.21746236413269487
0.326268445746988
0.6536985469429476
0.7160564498676558
-2.777943959393646
-0.8890951123457793
-0.7353852846471401
-0.6319435408408
0.5284632297594236
1.0793921242029028
-0.9606836686739904
0.27628570108434025
0.48477401333345604
-1.2317780670392784
-2.4682839079304473
-0.4936126183181757
-1.6073671117311916
0.6699794470899728
0.7459073886376365
-1.0330356660278222
-1.2083696714456074
0.18940723315306807
0.35836289104770086
-0.574204025727692
0.8663555032394668
-0.4316550227087208
-1.3668922855350423
0.9557440645947841
0.48787138887732207
-0.5236526945872596
0.22561740651881335
0.3832063610962319
-1.5803002418690415
-0.3776559522836572
-0.4140941657818211
0.7558015454900819
-0.6436927772086855
0.13095675599459705
1.0865588202992358
0.18050523694379053
-1.5423905020157638
-0.9811922951113274
-0.25394186176933803
-0.5764643775324972
-0.19043355191170636
-1.5022367084981338
0.7357532324735229
-1.0348106723941481
-0.13714131975652616
-0.6042319984206271
-0.12390764488095507
0.2573021553964185
-1.2693342346613907
-1.6098910467698717
-0.4000356026007308
0.3800219573215792
0.4099028247865724
-0.5388143291335745
0.6663457515076624
-0.7740015867911969
1.331117911150395
0.8831169949532822
-0.028265435253529807
-0.3824522852502742
1.0728460540401954
-1.1379150524133776
-0.1437774050323355
0.45736736252275545
-1.3069171503198764
0.18117109720910918
-0.6399829993804164
-1.0459153116620923
-0.10792662822263638
-0.5465445886883451
0.1781773888028339
0.2998128498768315
1.5234574827124876
-0.20663652914533387
1.2038193317401735
0.7621616903551971
0.1743265761083274
1.4285926120349677
1.4195640484860572
-1.1934247136812233
0.7603360665377845
-1.638961568563913
-1.4026157522113685
-1.354654710468429
1.204485082069343
1.175940727367204
-0.9089412465354085
-1.1994100354217627
-1.2075387600690375
0.41392378171885197
-2.172459513862221
-0.8127709366582627
-0.04509338681062164
0.9883352063294083
-1.0366002133502268
1.368595020524911
-0.6668007213621814
-0.7974357735479034
-0.2046522239586514
-0.10893534274206707
-0.17399163377963145
-0.41000446624809195
-1.1856337251628735
-1.8653588154966396
-1.2129783897564286
-1.5399972066664924
-0.04659811698175398
0.002108165100157988
-1.498719670678112
-0.4377165509577982
-1.6643250306945525
-0.5782344808718229
-0.9606072182166194
0.1855544841365402
1.4205266751005619
-0.6882160014749173
-0.25647599986120884
-2.043405867052215
-0.3252855601123449
-0.17185903716228002
-0.3313284510454283
1.6210045256212138
-1.1608323451170968
-1.1466158115259706
-0.7097847519879824
-1.0919009717135584
-1.8124084988621127
0.7003968335976861
1.1580487253840435
-0.4254367415218704
0.1583127666561498
0.6468400194192016
2.326118027172155
-0.18727229649791957
1.0155548476576906
1.011573925279585
-0.951851772484706
0.36866893261829037
-2.7333409259977364
-0.6394929074068779
-0.839952753296326
0.6262367176460184
-0.057158855610871445
1.0213077122088798
-0.8699374923734265
-0.3112653003762918
-0.18281904135404572
