2.1933815702544726
0.9803536060885325
1.467126988411614
2.091469673032831
0.47974641613083296
0.4911696221369818
0.19690703862083575
-0.05471310904353688
0.3547261894287034
0.08807904967282018
0.24060976649230492
-2.30986203964396
-0.7623903265993808
-0.4785247957905979
-0.12679893691840546
-1.0620384199160582
1.674567555414915
-0.4089448468404494
0.016388635152333242
-2.2952939568828277
-0.08871994190876364
-0.36714052765086735
0.8773591736895525
-0.3550982197433012
0.4584565228032464
-0.5685047993037697
-0.9833171599135546
1.9629543455050205
1.1491082898152074
-0.33220074503886365
-0.25586058482317386
-0.4944647518711262
0.7729566497234013
0.27439438983072556
-0.5020335448326303
-1.4191233967006756
-1.0898614568057732
0.16894723684521806
0.9162779965967128
-1.0362931071612043
0.9064240976679816
-0.269215511244462
0.8550949873763702
2.0761532638421074
-0.6510951372398703
0.09455692646452477
0.3097762220406631
-0.7358337134926008
-1.477007048321946
0.5051264708145594
0.161201201158159
0.10519289605525789
0.8718062073367935
1.4064071729134329
0.23639532269944433
-0.3148772279996018
0.7589407628175229
1.1244878870559791
1.1112585226713751
-0.7611307601953298
-0.005008279941106197
0.08400076330576722
0.5439633606487966
1.1714260192981987
-1.411847583583957
0.5094313284064738
-0.14724819446304752
0.8607453944321821
-0.2444084205326717
-2.1435789779887764
-0.09891656475866453
-0.4978679835926234
0.8119032203745753
-0.16595464405221258
1.756281981258498
-1.2826030849719552
0.27207203968709753
1.5980211506501525
-0.5287457236557155
-0.0007000125307539129
-0.7641389200821513
-1.420287385340771
-0.6854970842958289
0.4021936640236571
-0.5862664654743802
0.31548614802548436
-0.8712425188477105
-0.06115811732153573
-0.2218120178165796
0.9009064178326379
0.08384239155243425
-2.123619592204908
1.5677321786924423
0.12809165688459379
0.1981791266504279
-0.3437788065722338
0.6079425550082268
-2.633633620967838
-0.26276360903491547
-0.2747751784449982
-0.612612655633958
-0.4647722611275331
0.09612589511857378
0.6907513930772577
0.03615786871859621
-1.4100603288862976
-2.2779668980797445
-0.2598333683310436
-0.3534516671655562
0.13045197763665176
-1.3877678646254221
0.08195117206660052
-1.3354076380079494
-0.5606772859336138
0.052900330779649285
-1.93206583595757
1.2739145374134233
-0.7339517174170539
-1.7636762694697503
-1.4040344736608978
0.6678337976773727
0.3260415207144675
-0.4385245165304988
0.9776112989259693
-0.2744576137992924
1.1626863351884926
0.3783186425291345
0.2922628859300488
-0.8476453061333362
0.21392240468815416
-0.07078708836637337
-1.2316367959971
0.9504873922958009
-0.5284154939714558
-0.4687589654569305
0.4290741749660659
-2.011809137732139
-0.6139488446304131
-0.6921166399085678
0.60259653557717
0.23000940703508022
-0.45680778109886494
0.8400420286979213
-0.04082397756251782
0.2550689908854505
0.0897576064143297
1.0389749978522935
1.3107714727131055
0.5393842320199629
0.4978830144698304
-1.4478002307641327
-0.7012523869302123
-1.4765382566216632
0.3043293495467466
0.5802454645689307
1.0186389001526153
-0.16320269058715464
-1.8182363719460837
-0.5866000610468916
-1.860090028785382
-0.3683575905112555
-1.0809132636001189
0.24075734674146837
-0.3958579641786942
1.8875913620662341
-0.7000687941104878
-1.3218951261295704
-0.824783578550708
-1.4359151641090069
-1.3356827899819674
-1.8803909292631595
-0.6010711477583265
-1.257368897244472
-1.2124817531850574
-1.6379964649252732
0.19396745451733444
-0.022986066354305335
-0.4312957941072608
-0.9970477574062107
-0.9671908953611926
-0.15271914786982388
0.6265595860773536
1.1160341827980822
2.5274251953044047
0.872131598420887
-1.42457553006455
-0.2922273826912566
-0.4178954861403539
-0.6707138303611753
0.6185810560661859
0.9699320378315723
-0.47417036535029017
-1.4318493013123996
-1.439891322576269
-2.3130538823170212
-1.5754012787743086
0.20859596987313256
0.6371185745693517
0.1190282959267878
0.8329179144586805
1.380998320683014
2.8232972622416073
0.21964329612206335
1.5767663078495997
0.5327108602702897
-0.6022496488243771
1.6934900915173912
-2.3778754392038666
-0.08520446646618346
-0.8414126140977531
0.8664440208845561
0.46921367149271587
0.7322933072583118
-0.727363944989938
0.03315118727335234
-0.472969097786612
