1.3297344865820986
-0.6207072777058823
-0.12261836192116998
1.191587591001951
1.4641458905837574
-0.023593076238408672
0.14049698903347912
0.026601828111266657
1.630896631370435
-0.6621180002728403
0.6977268168502906
0.12349900399816105
-1.6063945347501543
-0.06739161545478312
0.5400406599843618
-0.7705561136969643
0.5421495753190118
0.301848245930649
-0.07475819960386965
-1.8465255993998746
-0.8639453046399943
-1.1610155225116296
1.6877984112572109
-0.3075241121344041
1.2445333745440668
0.30515985982126437
-0.5173239162449775
1.3106325655939508
0.7162204746181495
-0.1984788122181498
0.3169785384323006
-0.28906696099016654
0.10417407641239163
0.03540436379292512
-1.4328506373779653
-1.523576717488405
0.5684957963193008
-0.611485298643185
1.434603208177002
-1.0151106841034463
0.6404389960997668
0.3715107541291845
-0.3376133905594421
0.5155526611529907
-0.5705318737512616
-0.5065770764121902
0.2289763943412416
-0.4164204481238992
-0.2467499852885332
0.5551157598326107
-0.3508506641607877
-0.09348054930087116
0.834394628931601
0.6465028808861413
1.1156770088554055
-1.0554815448551864
0.25722498427809815
0.34855556089262996
0.2198031459872526
-0.8200747276134432
-1.4637374320442926
-0.10276378348442838
0.4215323038217096
0.20284319885181504
0.4289196929084382
-0.1998068141630302
-0.5060022215951749
-0.05954494899986229
0.8997665305516038
-0.719283876599409
0.8344096014688053
-0.8367309311813608
-0.08787671135112468
-0.38722324265081276
1.4385733329434096
-0.8934078827555543
-0.4047243378158108
-0.4755849053521046
-1.517340919177855
-1.7028145208646226
-0.3819304446615191
-1.6829811637808525
0.683529787314754
-0.19397913661043978
-0.8596396212883659
-0.7285409217085527
0.05425246761641711
0.002280889576029732
-0.2673771624587513
-0.030296034684921924
-0.8114274029748433
-1.3469639944106684
1.4021410754515637
0.3907076263410636
0.3095976261383062
-1.071122419969246
0.4859689708220542
-1.7724789652068205
-0.3623768009408279
0.8514649159940425
0.36724592118708704
-0.3293667118437994
-0.2577294568773999
-0.18458990896730798
-1.071962755993328
-0.6968721735816471
-2.0703452062082985
0.09410791823424525
-0.8982552979476193
-0.3291752059459572
-1.1400038247222106
0.5457437235446485
-0.33153402208068483
-0.32918016001228856
-1.0819675896018963
-1.7215690084628605
0.5682487847360191
-0.8494704982241891
-0.07277191457393872
-0.5467302158872143
-0.23507431426160227
0.6605010098384598
0.8171995551132762
0.15242684971420478
-1.2931154254326045
0.6061945652596895
0.6158135485472434
-0.547664169829581
-0.2184030924106029
0.6773819179258805
-0.695120745958835
-1.6703794277120585
0.7476170845029598
-0.4768980440986407
-1.2591460443202471
0.6282530219317869
-1.1325077529092056
-1.0322842972812913
-0.8481813959090354
1.655207442205297
0.8279125554573945
0.40527271306913093
-0.17398575428159613
-0.06499682924424449
1.3645560530972547
0.38736111000488593
1.1276868624025917
1.5566229962515117
-0.9949477306737351
1.2635321314460102
-1.6018902225784353
0.5194259473422698
-0.5052030064726438
1.292587537477569
0.7715921889048014
-1.060176652998961
-1.812342789520799
-1.2486249987115772
-0.32990136523549307
-1.3514082319194214
0.7769724012348179
-0.7769540109894442
1.2539205914351448
-0.13711532850523356
2.3403375889970257
0.037752599633144035
-0.81107064138526
-0.5234489837092854
-0.002524591497121975
-1.5097066174884854
-2.370591357807652
0.04352562487015221
-1.3176180650893303
-2.663198722967561
-0.3698424193526598
-0.20255695005260999
-1.5996163638261889
-0.5326764431601793
-0.27236683169513487
-1.2625442697341822
-0.7846003496767229
-0.5850833875200574
1.1205902425496983
0.5371970057948149
-0.133099531214305
-0.24505283244697107
-0.7586800779659562
-0.18071519209158765
-1.0208700092692
0.4896077109693914
0.4837375430104606
-0.3421019998772651
-0.6317359568116095
-0.20006632924618328
-1.4093904245083486
-1.5988506006418566
0.27451679809220186
0.6242669764693952
-0.09390270310433521
0.7160619045618044
0.4459751808336687
1.7669862037105142
-0.5188058231745221
0.9051177335095287
0.786818382717799
-0.4166179217814495
-0.02465807109898588
-1.7836623779374017
-0.21154619400259614
-0.2755146752427191
0.7540968495012524
-0.3304830623454232
0.3510389688945848
0.07895408246036861
0.4621299872589458
0.4640392375092389
