1.8270910673721041
1.7810494362841145
0.3400931212620216
1.3994216503046373
0.04359906510711531
1.6497543099493392
-0.3131669313699542
0.3531408366266422
-0.06994980042197008
0.1848913947865934
0.07294373376764945
-0.9395902367369543
-0.9211401891442382
-0.7833953334148853
0.48358775387519515
-0.11244173890290798
0.9056294305677364
-0.12055885380339207
-0.7727200611769767
-1.3430373670387126
0.17421165196936644
-1.0053920810163322
1.5312831732692516
0.8985158374402045
0.2739763061014092
-1.1170747604795934
0.19583854865064432
1.5593188599913939
0.507311518827775
0.6038429921842898
0.9346303706108944
0.33153113249450317
1.1985335327592614
-0.8197912797118716
-0.20869028428955372
-0.45657734077913026
0.8989796697854439
-0.2780578933191087
0.595875973222462
-0.06671689624443575
0.6991287408817559
0.14161066010395545
0.8974455289641949
1.1806133590023138
-0.2914644425420835
0.1788352140362784
-0.22606514107224635
0.6956366767400489
0.13065804323793617
-0.09285397013063523
0.6310919273289013
-0.132257039238562
-0.49257165762977806
0.9457186780521896
-0.688347670819973
-1.1889488827571626
0.5614556548287667
-0.004068928447598041
1.3584756481660574
-0.4870136668282201
-0.7604004421032176
0.1813621544319396
-0.2088190673409247
0.45504064377057263
0.039951121896191155
0.29300949232233486
0.1263418459490363
0.5009429368646203
1.6803369617952384
-2.6035413249703074
-0.5203571382492829
-1.0792221325678784
-0.8848343578189448
-0.13190069850050193
1.915988541513689
-0.6712530826543319
0.7732315376402488
1.5804951583718225
-1.0769961400181325
-0.9323325595739137
-0.6661847631563391
-2.3452954076623893
-0.4647265632522505
0.05588424988418475
-0.6268396728802453
-0.4167072678950236
-0.6620700299683212
-0.0920339065014319
-0.44647843565310397
2.0764077455180003
-0.24253461546926064
-1.7154960736156681
1.3103774235275518
-0.25185746651865043
0.8602965963483633
-0.9227064070280705
0.5152204540368083
-1.400521265149135
-0.22933518009312578
0.33518853233729906
0.11828229639448858
-0.13261061526531365
0.4284115033120247
-0.18209130117574124
-0.72750296267688
0.29538145634890656
-1.6698967197429897
0.26624196828901187
-0.19852298057594153
0.4686220781332091
-1.3876588052941794
0.021037908607138056
-0.2911180837157744
-0.6659074862879127
-1.8398225994654922
-1.1808397899211027
0.21640786290753564
-1.6907159870248654
-0.7178223860959132
-0.22817337961802825
-0.537680556080787
0.28032928607169383
0.4157744384038538
0.14389232886248599
-0.4728432868185124
1.499430691362452
0.8678905699142587
0.712788598258443
-0.6957612952212073
-0.35597975442379765
-0.01708568406538913
-0.21295873492637007
0.46204711983621943
-1.0006843876079177
0.48788157482957195
0.37630509963497977
-1.4158668990060255
-1.038692386187476
-0.9619125001279591
1.6909071518049983
0.7557214487726047
-0.4296267326864298
0.7234770495455216
-0.8279848293283327
-0.4634631030208887
-0.4233686320007278
1.2632421438818529
1.1154439534876048
-0.7032717720608483
0.6013431199139281
-1.9619561692206628
-0.11968762735305788
-1.0281234273247897
1.2685471367517092
0.0997824236684356
-1.1119373888428001
-0.7372031989987029
-2.2215946379583205
1.0269059412144426
-0.9978878668128521
-0.6028785191200317
-1.2487391570688235
1.467420716948034
-1.4420814328517708
1.0301547992484708
-1.4659413704214024
-1.0935008488272873
0.20485928758856697
-1.1619027764689362
-1.8359767260144755
-1.2362791920669798
-1.0656145833292003
-1.4637997812243126
-2.1142438497097977
-1.513344398188201
-0.6020286762128667
-0.8220964381598045
-1.1183346053596706
0.35128004412888003
-0.47242324663325364
-1.3782249568144591
0.23169192801488042
1.6040334295047023
1.3224538943117004
1.066286914860479
-0.3362872839136759
-0.2669230757761376
-1.217733647062258
-0.8868737552015555
0.4377068542231476
0.46679618943706125
-1.1184479153911797
-1.2032880023240657
-0.8607943148223456
-0.6340330042740847
-2.6292890293721474
0.6631312609310372
0.16614372545887673
-1.0368757913522801
1.1660054975619827
1.15079536931834
2.3626316479425924
-0.5272979395192774
0.432682204512692
0.4598074995348477
-0.31815370175529
1.135916031739935
-2.774380374096287
0.13216074300034614
0.4640203864754481
0.5329859770587186
-0.05020308519866451
0.046770694362536176
-1.0062519137701886
-0.7447199899746064
-0.3454632838775805
