1.187924205168996
1.2400045821390193
1.5614494165885255
0.9420415142931445
0.3761681836888935
0.41719548567871334
0.2254417294979021
0.7031488045100949
0.3502207573046634
0.5133688971245921
0.44636900276770236
-1.0268364282322033
-0.3958075556894986
-0.3263914853407723
0.6574123316386757
-0.25718564865607585
0.20259796913715472
-0.07458952792441342
-0.49045106900385904
-1.8686556250837112
-0.8494325667399683
-1.0509508538382062
0.7301985022826875
0.28652075038002056
0.8571974277201875
-0.7870778545190669
-0.49643659175640165
0.9480771418072012
0.8589023360465055
-0.47023452236849167
0.6611470342763892
-0.2580814475263104
0.49874649641155794
-0.6650909900768328
-1.1727322451352333
-0.9980762015582125
-0.3441523284633409
-0.8742544350121717
2.2470658198709117
0.9641608828138567
0.8645129025773873
-0.12268085684061447
-0.8180869317210178
1.2905610199374127
-0.7434259823893709
0.7734021314625179
0.2636613533034332
-0.9886041806751623
-1.7726190201697487
0.31825158653502017
0.6749736337754499
-0.24107497222090898
0.39852618093106507
2.3509807033205607
0.5846821756645815
-0.016546214155804928
0.18447547833542538
-0.41652389831087233
0.5347429290640698
-0.9458934180796842
-0.5293127745272276
1.504055681158964
-0.2562654977288026
0.10615774016145296
-0.92118110733672
-0.7418523724142443
0.4062908188027581
0.22566023103414573
-0.738991741089281
-1.122710228811672
-0.012479321706750285
-0.5572414949045672
-1.373064101328366
-0.32757466855298956
1.7434805803872917
-1.3258039616481847
0.13015761137753465
0.8976225384853194
-1.1173419337737585
-0.9088146021480911
-0.48677282636879327
-0.39031750030466716
-0.3785208145661515
-0.4992287049025459
-0.8874905560677262
-0.2998411152157745
-0.9646726450478184
0.3665470704619442
-0.7393302735829367
1.6585715194681665
-0.41879480253925744
-1.7548598155751045
0.8522264232541936
0.4856867946992972
-0.541048641452781
-0.7790912346206057
0.226145072562063
-1.8937282360811845
-0.0005974545906425877
0.28381238188277513
-0.0003198725275332659
-0.2185019944134165
1.0089370669193576
0.08558377565554398
-0.13984005088274826
-0.7993981282652127
-1.7031626730790248
-1.2054587363087874
0.17845775008538933
-0.05104460186909335
0.3284561284578461
-0.028577969042149043
-0.5362356052636227
-0.8720389381407665
-1.5551365853397834
-1.8630961574247633
0.7757123017274631
0.32369795499062276
-0.9853300013631905
0.3599924949661071
-0.2954143472062737
-0.2657067364055199
-0.3735871791795795
0.42728546295098474
0.02824178160781632
1.2403869547406738
1.7527947562438109
-0.26829044332601193
-0.8685403879874245
0.13116374235154787
0.5167202232081066
-0.7253436244366105
1.0296964777715254
-0.13481108566174577
-0.314546326411402
0.6160001592356303
-0.47003922236869333
0.24397104403648218
-0.9256024027050874
0.4452407252075927
0.43869878761532183
0.1524074101178589
-0.4575886754563239
0.3103025378049703
0.9325577314029421
-0.4997304602743512
1.599892886575558
2.4511477063891767
-0.5508689635433428
1.0073452273247847
-0.4018132521139966
0.49795725246123523
-1.472846237303056
0.23988698351080318
0.7171548815401667
-0.5548979797779819
-1.3750388895415533
-1.5141092909810001
0.3679943419493471
-1.6556610291046674
0.9298430855643983
-0.740555344653838
0.13384187732863406
-0.44711288099082
0.6047605236095279
-0.45974080911159626
-0.6143619069221018
-0.010791366742543496
-0.5760883567587264
-1.4849457539133593
-1.1316886088111786
-1.1035180982294726
-0.9873972320985973
-1.7417394198411555
-0.6767444612639291
0.018265026567767628
-0.8834343645350429
-1.6726779687140656
-1.612861307869705
-2.1503413089325063
-0.0796944447012835
-0.1848056836748714
0.9229542408323671
2.1688901547429937
0.8290541233194533
-0.23583605069955482
-1.5345398326289652
-1.2358012222451729
-0.5145843098939116
0.7328649782228429
0.5592607954435456
-0.5687386473558711
-0.8011936974594925
-0.7821668956917374
-1.1405158302908758
-1.9897381356114312
0.7693754558087174
1.006842864277876
-0.46835630794297345
1.0312929825375867
0.7670205609151552
1.1629081676325963
-1.3276292797809575
2.320540808330664
-0.13737632892150892
-0.6846989785769587
0.7481907490222214
-1.2337227391935106
-1.0434767748095444
0.6584305069269064
0.7046478269855887
-0.07388769520376023
-0.1600452356167052
-1.1466481125685097
0.8565354060123928
-0.5545657361379599
