0.5761493945267046
1.0637583199270335
1.3239056278602621
1.3756465253326546
0.9163424960897866
0.7999333994676281
0.9097736778485084
0.40179924225077934
1.052949075029686
0.34128316462434516
1.3329606835013934
-1.413935986336396
-0.32902645802921116
-0.8347929847821756
0.088678492069139
-1.0372616098601994
1.232799303158206
0.446595331036122
-0.2196576229994539
-2.3843977700465273
0.06272020522023286
-1.6262960394055388
0.004338581948646225
1.241536778256086
0.11935206501106438
0.2746697157090243
-0.474378114692103
0.21426714753083487
0.1411552168866153
-0.5926248740318271
0.7768081965160474
0.7375758425029736
0.595745999644148
0.09920890718371306
-1.6173377720717521
-1.4719907587279828
0.7767221203867313
-1.0498561385774658
1.1612746663915114
-0.4799285284938072
0.7259136260796646
-0.0696933775744876
0.5477667673601786
2.009562851706372
-0.26998549056958776
-0.8488945065803085
-0.020598939357477974
-0.19073496054861944
0.7625298494282361
0.4109382304569492
0.6256324026387381
-0.11584100068306578
-0.11981515190850078
0.6182867555741766
-0.44340177760716976
-0.10138977124189857
0.23169023742612704
0.43716848389644836
1.3463138058517075
-1.3563396569947044
-0.9440647640300244
0.03925685175827354
0.39849394758498574
0.37138177503314423
-0.38380565055984384
1.2016140017054313
-0.43608398814083016
1.0774034855197328
-0.32745808030560997
-1.627060921810615
-1.2431090919199703
-0.6797207060474998
-0.8138237298347509
0.4583992579156019
1.785531387225951
-0.9965955078967224
0.6735361891992806
0.5275056321660139
-2.195172108417278
-0.5855744511151968
-1.0111246375380192
-1.2224333213505538
0.2519272087138418
0.9699885643322892
-1.7604738095902077
-0.7164485778946934
-1.029069136562996
0.43157350358339996
-0.242523638849275
1.9809067005415422
-0.5807096539721424
-1.0922301171499131
1.665855684877673
0.2699850571795639
-0.30793786164510456
-0.9035093434771522
1.4274638142025635
-1.9784460801331352
-0.8133331162781372
0.018463474707250627
0.16656119098007585
-0.9906315938091971
0.13895507411196362
1.4052933175461453
0.5398551676597815
-1.2781867038710597
-1.1671269490758607
-1.064731304552041
0.6090427223581325
0.6701727273325229
-0.1202179100316092
0.8619341132374401
0.15526112035284212
-1.3217697945028513
-1.6514097631179703
-0.8821860497797157
-0.04710452264205106
-0.7177824125155896
0.2980631339392714
-1.170859446263928
0.6606784227247445
-0.9347634059468983
0.10284596129458973
0.4528926952298344
0.6107015759290957
1.8266144815410625
1.2149285487849266
0.9412324057803527
-0.14455160698309133
1.018566114167009
-1.208030637948962
-1.1522762154807376
0.6142634829973157
0.3515532001134076
0.524527825917414
0.0074707403306624315
-1.8373443693864506
-1.1301766251341376
-0.9715126704462407
-0.17906284106488046
0.5677601028290178
-0.33736399507256254
-0.2714130058885555
-0.34562321161383486
1.0534252685554855
-0.3247025057462886
1.344462527692666
1.9826627883478332
-1.0298890364316875
0.0071978398868773885
-0.6518809421610255
0.03824616516815568
-0.930515452751609
0.4968045168695183
0.10452549396866917
-0.21792394337931908
-0.4662123890216956
-1.5995486021690157
-0.756357305451512
-1.0721870721098976
-0.06956534083626859
-0.870725251262171
1.1237963111273814
-0.6748499467278143
1.127613315828873
0.465295125176328
-0.20332038926688883
-0.8532780253701219
-0.8178921669533388
-0.7893793352937037
-1.310419974213518
0.6696072217242526
-1.7166808802387785
-0.48878848693398824
-1.034654493568166
-0.5235454176234622
-1.8420167656430624
-1.9371360801058473
-0.38217325164621685
-1.3825033816666146
-0.14717379073907733
-0.6213290262730167
1.342406329121848
0.6682494639731625
-0.40659069341713594
-0.8968526975652318
-0.8602103916215379
-1.4153332183658507
-1.1695042065515504
0.8609735634666004
0.7612682045470053
-0.7500211716395572
-1.1786246236196767
-1.987747276645622
-2.0234761195784543
-1.8463847418700272
0.31825417427259683
0.7574485031515987
-0.00571909733489423
0.5299273175269985
1.818610206463403
2.2584829660046033
-0.9475974010363621
1.1484017526852557
-0.42455513758552726
-1.2267258066813402
0.7395950125784491
-2.320652128581452
-0.8567623318162843
-0.29651830002471846
0.697668750438736
-0.7334018867719514
-0.7263524558597999
-0.6157412081136292
0.28926342611593514
-0.18215350160501767
