0.6842726008407963
1.1492898597898005
0.5995391510948607
1.153690572296975
-0.360473357543756
0.8519175240866044
0.7434298410249907
1.6805882039974778
1.116054876096643
-1.1282888490147416
0.5547108471574823
0.07081968351056156
0.24077399482231432
-1.1355356603241291
-0.1967939839279013
-0.36156846582247676
0.15829833071178417
0.5583435748821008
-1.1736637347498258
-2.246931105863232
-0.7097463955518761
-2.099880984863438
-1.164094718568904
-0.2790912719484393
-0.6764566650275008
1.63413386966763
-0.5779520931230981
0.48564513741131377
0.7517094857371188
-0.9194350770823112
0.8010074690593461
0.12030505047505687
1.4630376997752688
0.6245600132914007
-0.45295218442242685
-1.8652985325993585
0.27842271071218816
-0.6035836704060151
0.8787400139966108
-0.2456891723949408
1.2535893137672574
0.04264877168377623
0.14491152700463222
0.9496603013992412
-0.6303891363660892
-0.017351563118655017
1.069551680773342
-1.2676812745317962
0.6100292796416512
0.5221680034092132
-0.4727064541130743
-0.9887726545693858
1.124258531203941
0.3375471900940773
-0.1429810649559239
-1.2423475049618768
-0.0050325318092421245
-1.013394854641927
0.8908163687982232
0.6247295461983381
-0.23380942656921533
1.624182263509042
1.0611406482924153
-0.4097287821181581
-1.1679311542292439
-0.8306864841099513
-0.07750194115117169
0.09588121538220973
0.25043527486223016
-2.6804654178562806
-0.38753047068891955
-1.3313440669331658
-0.38894944563623235
-0.08529599466147536
1.8044664324704793
-0.42945368071774104
-0.611066175278314
-0.008692056341954024
-1.5725560089061947
-0.602804403930569
-0.7597792222908357
-1.0853359967570317
-0.49020815508474214
-0.8334498320130896
-1.0320349988220572
-1.0230602327445857
-0.4120339014973823
-0.24521593293103333
-0.39352786406891876
0.09450811262103231
-0.21351335912778158
-0.4745289534344934
1.795876707218485
0.2939085743689459
0.24783027794435528
0.5832794881333454
0.3546900140817939
-0.9726343919836868
0.4201877364107819
-0.19515148743151922
-0.31147706486271864
0.11791068406967009
-0.10184742129144278
0.5393188352507261
-0.556250302205634
-0.753613779617187
-1.1481289853583805
0.20724630404047056
0.2886035353027687
-0.10420280286797434
-1.687776329830068
0.86098341997937
-1.47195335777904
-0.5717613662041725
-1.5986484389265152
-0.34977031405203396
-0.8174576978948602
-0.6542240418943144
-0.20428917365427274
-0.23731194568639213
0.21412415779448174
0.46404777358547683
-0.220517821391579
0.09513526319424448
-0.22543478365861508
1.590990297914618
1.7131745296471754
1.1631318013878038
-0.5162782614705288
0.2378732054802077
-0.539198020074922
-0.24002743957788447
1.2660646901009591
0.026797031964116536
0.02658811575420282
-0.09215109415347428
-1.2146952773045454
-1.006843080337191
-0.5742692398955649
0.8684603205328058
0.19350292192540217
-0.5117749501979277
0.3811211638420198
0.3978456115554733
-0.49969502761932566
0.16079662307628537
1.1576573515877138
1.2449183542382507
0.00905704261506729
0.12433191109093678
-1.693118921872712
-1.6337702249833164
-1.8846101612253898
0.1753539655259797
1.1259529270942379
-1.6435671024425462
-1.3303006179900148
-0.9748071014175588
1.3736041849110578
-1.9967835783358223
-0.4722397511138112
-0.48494708491536026
0.28067305110051116
-1.168124965420509
0.6312054490424295
-0.34317293098025176
-0.7451013507797981
-0.3151131517628095
0.428780518014345
-0.9456503052466245
-0.8492473212521919
-0.5614554809255552
-0.9818162163751204
-1.7973149603149132
-0.20281487013640764
-1.6461653476713858
-0.7322455673283288
-1.598432803134019
-0.9781114147657692
-1.3860608426777166
0.09415293699745231
-0.5346924316618297
1.505174076836565
2.3101671372903336
-1.0813635238807804
-0.5478309418180085
-0.6710345246135586
-0.10881150721516142
-0.2755149144152046
0.4481561280761763
0.8402394391422056
0.22518426392845103
-1.121909717615249
-0.6172891225143515
-0.8454442992191621
-0.9574915557122744
0.6564023803277744
0.6692665682573813
-0.004656970916107034
0.44087369894651746
1.256289491099678
1.2475024613646057
0.4938622162512878
1.5982439062491762
0.39475851018822566
-1.0806746196024068
0.5149500327258938
-1.1856306320487193
0.19582368744416448
0.1009694582059581
-0.8281647055187507
-0.2737512769056262
0.3821454856827606
-0.30471039817499956
0.5619470073203924
0.6098706284489882
