1.2398565507196533
0.2920342229410431
0.270452366520672
0.7022329121457807
0.3887742121303811
0.4228910182678802
0.04684687866119164
-0.16327631324505143
1.199011003298545
0.9264451488705686
0.26796873285204387
-0.4564822924468253
-0.7435725076072843
-0.8582829035808651
1.2512091883715324
-0.6826034653249635
-0.3989241305595054
-1.1568028410695375
0.019926860170373262
-2.4532111235248513
-0.5041397950085327
-1.0110340194721745
-0.7066779165837218
-0.32409795752476744
-0.16184042086647954
-0.4288711259522118
-1.4447715935075733
1.3240652829263735
-0.1656467754070449
-1.0749344386948707
1.0265197595502689
-0.4412990695838672
-0.19686203680375136
0.7284281238437518
-0.21973723159030167
-1.297096167122621
0.38466797663898167
0.286608772771586
1.1782569852395823
-0.5490130210034824
0.42917443639462927
0.13652530599457735
0.7266792931731585
2.4642352582801683
-0.31561423148217316
0.6090733865852397
1.720023602090122
-0.46378792754122306
-0.9324255108139577
0.09263722017070972
0.6069724137999977
1.0595074785789023
-0.2057827780828576
1.5720991982217478
1.1305730673538357
-0.5715002312014
0.748402006511868
0.2527375176500476
1.278295233757222
-0.6780736227330062
-0.5803263058430511
0.7328725337137126
-0.0019300356296849952
0.10772620022542403
-0.2631981420794578
-1.2028646520470265
0.37379703995922975
1.1832744221966929
-0.34136901896854027
-1.433076009489915
-1.138869792847994
-0.18285560817179747
-1.0102999314220908
0.4065023973327878
2.0593684226688262
-0.35314402566611064
-0.7080121072317807
1.7244994870914623
-0.09035097469358444
-0.7992949229410589
0.5615736374722571
-0.9795018641139852
-0.8503635137379455
0.13381089718966685
-0.7830348182213337
-0.07256546441640199
-0.33046674907910406
-0.35388810151457023
-0.39840358183334224
0.20993755566747796
-0.05049751432792669
-1.6134460755346518
0.6090450596584391
-0.10617415399583419
0.08157465474279084
-1.0046195519260714
0.17792694861083042
-1.625973294424312
-0.4378650753390714
1.29117756343731
0.4989572462184345
-0.05528754046548867
-0.3860995246734087
0.9535722204939049
0.21774218435375287
-0.4974391252709278
-1.1565878353414538
0.1896596483781195
-1.4075198644471212
0.43414936069028753
-0.5236330304545289
-0.3186789934213782
0.031786451885734035
-1.0876561929732667
-1.397444487978281
-1.0478118293251015
-0.21517610003969562
-0.5886404797400051
-0.1931089764772712
-0.3263336643259884
0.10638229398997605
-0.3075566300429094
0.21766059046656705
0.441342317350131
0.19046471661225456
2.3225607518060816
1.6626293719106595
-0.6611204609406438
-0.8255818645567368
0.17953380316635315
0.06561531461431214
-0.016889435064073033
1.7386304994680861
-1.310587003692858
-0.6350462862301847
0.41256743100542415
-0.2904932197714672
-0.2665325655812618
-0.5713772777479698
-0.32274754364257807
0.5087178228720552
0.08366249884123284
0.18657189686584424
0.6212480570322247
-0.14754393038784708
0.6756473961709581
0.9781853427436152
1.7597577836967573
0.041282280338029054
0.6204253358100724
-0.6027416949203324
-0.6059728990140563
-0.9718191664528394
2.1919178255179297
1.1703075086908477
-1.1236935463334754
-0.34050748019850563
-1.604892751444394
0.016041473449613486
-0.18375229396310622
-0.10417096772737722
-0.3349441627258686
1.672804900536122
-0.687744920996765
0.51687169408055
-0.5586258562232143
-0.511019462616619
-0.9352328606853217
0.21916868437638926
-1.3057031509625776
-0.7731827803542465
-1.6183636811499962
-0.7988777434819339
-1.2761328567594097
-0.8664004880862906
-0.28973667490135613
-0.378776386804455
-2.5889220265855437
-0.48035830292741705
-0.5352682960736008
0.28964012543237383
-0.4677993934343189
1.4909625839826497
0.38098019711258846
-0.03283838055543993
-1.3400500517495801
-0.6328684125453661
-0.23004438942739658
-1.3742158736388932
1.8121673264079043
1.4104017042461399
-0.46661677685197633
-0.6963726589239623
-1.2478132511328748
-1.8380438688068508
-1.1317006614636296
1.0244411845381218
0.7363482685577399
0.238437864815166
0.3768043619829816
1.2487913409615585
1.6367781589970611
0.00010949247899422199
0.819373606286388
0.5585064766838532
-1.0263968886142805
1.2160822240094495
-2.4116320334784613
-0.038726230453702215
0.22727067518054914
0.3054532555449612
-0.1623689298324789
0.07991628841369974
-0.9482461131862474
0.48329371961377693
0.266871126896834
