1.5278657682845866
0.5352355886410323
0.9929243961926466
0.895282397471184
1.5132421419070645
0.9469862665316268
0.45544480385943886
0.7082149327579815
-0.13174953785526367
0.6144212873108272
1.4009738630006483
-0.4881875041751444
-0.0476004730628235
-1.074112159751448
0.9716222899763579
-1.3905760913957432
0.5689955107375761
0.14016683265025734
-0.9345178179013258
-1.4548035983655088
-0.4258582659633595
-1.5088999948008637
0.18814023019653686
0.42630022701696085
-0.8300038763080189
-0.4191471977654424
-0.6633246686991712
2.0124580988862277
1.3057835569442307
-0.9234906563609806
1.4786917673905122
-1.2454012863563235
0.7668808586593943
0.7589087714501657
-1.7092952284990255
-1.7109762159856419
0.7152469963041587
-0.5402181067280938
0.3171419941497142
0.48354402429375765
0.8841917338277293
-0.738580481072576
0.6547165487703499
1.8089833510046418
-1.272065481300472
-0.29911494303107533
0.2653781679084135
-0.12860406513220274
0.1211304954800344
0.0886438309910772
0.14775287934561723
0.2656520949633143
-0.00026811521542902117
0.7270235249002054
0.22564951400239197
-0.555616924853457
1.4514951721717602
-0.41101340587208185
0.4257249455174188
-0.9178837549654981
-0.7989625521014423
0.5506314681248954
0.055715839694165555
0.5278033798744689
-0.6270428258327102
-0.5343535009227249
-0.7087720442567346
1.2090881376038585
-0.30839427170851474
-1.8925875836907657
0.7746048389622391
-0.08678020764700001
-1.0857787250444755
0.6100936883411471
3.0824508675161066
-0.8564008782492357
-0.25456191860792654
0.8441815262382188
-1.8000435669175336
-1.0757632673003357
-1.782204779721833
-1.4970254111473846
-0.6943706384388783
-0.5917467725310483
-0.9580759409056648
0.019171444581002506
-0.8468724499278908
1.324470315988564
0.19458671873588226
0.9194544632687808
0.7749596828975097
-2.1868132864475056
2.4816563755491656
0.2867553891682765
-0.984701694115965
-0.5065379504826947
0.011075414306780607
-1.0188639446810797
-0.73931253880989
-0.7414167592496503
0.23187365294807274
0.26899932003685056
0.2923467291686241
0.7288775826196614
-1.0641819780290758
-1.8433450585189726
-1.8868804404697732
-1.2105514381988491
-0.6532169997008642
0.003618172384197371
0.21289304710014612
0.44787030484638385
-2.1629858643429833
-0.4553159185230349
-0.905768231607511
-1.2112793144749314
1.185288151741414
-1.211670375802829
-0.16417252525048615
-0.9030276490209164
0.30229237980291135
-0.0018415604390892293
0.19433531778447266
-0.6041673174950364
-1.0172627718165226
2.1379741989395016
1.4003738275610984
-0.2304041694457334
-0.38231387855008075
0.2941043026511623
-0.2499929739376051
-0.1919048054397829
0.6977986982047157
-0.6186022241988366
-0.09579776031631426
0.333023333495607
-0.30082942042692795
-0.6957685700056807
-1.11692838919945
0.7316661128734983
0.27189754950142275
-0.8607881975430155
-0.5107249526601534
-0.0874647209943531
-0.49607167530399726
-0.21989782371921757
1.2929549941467762
1.0913125587522843
-0.43797851197442733
0.46441560627632733
-1.5808439866430497
-0.012883949266679934
-1.322738992355469
0.2190144645394938
0.4396130406841698
-0.6436903525018083
-1.3729450602616806
-2.0291612363562033
-0.10524908839706115
-2.2995011627167825
-1.8001372657029964
-0.5816561428485975
1.2956104428296138
0.5052724134159443
2.1535852054929325
-0.4221555456004475
-0.7320892019636167
-0.8044538463908533
-0.8943904121875965
-0.6510691592232053
-1.7979158371829842
-0.13434412193263745
-0.953042469647178
-1.1574215850744172
-0.3187044481550564
-1.2181771182534487
-1.0336352407243885
-2.7244401515290386
-0.7696560301855022
-0.8804237901308785
-1.1590773546406516
-0.2370464340253109
0.7619048906181385
1.3518900259037583
1.4341614924928066
0.32502216200272604
-0.8439630821448585
0.3459082061515135
-0.2218013250374148
1.3086615385924636
1.590948557727954
-0.526811721587879
-1.0913327017777288
-0.5900116861761939
-1.130901208110556
-1.1345442408915147
1.388341298130412
0.4957692897094531
-0.6043706221931112
1.2283624550015586
1.6419752316366854
2.0746428856021293
-0.20924193774799912
2.1454969328948317
-0.025662369624228798
-0.19835042664282687
0.9918513836090308
-0.9407092111740248
0.4008836827575175
-0.5809493043306755
0.4618296849959941
-0.8985493586654253
0.000752719902738461
-1.126323614760031
-0.8604967595873232
-0.7303046450269619
