0.807830002234077
0.6178436580220815
0.09809623926853656
1.4342014810843025
-0.3908822757938293
0.76350399744773
0.290162571912763
0.9309070249078109
0.9513428989290119
1.054149975818125
-0.532431960177377
-0.27199292039301826
0.6723807564652848
-0.8169457318258596
-0.220558068046707
-1.0626855444647025
0.15388546796116503
0.3096481074206373
-0.6803439790045723
-1.4148000384044712
-0.02205276068800871
-0.6486597419591622
-0.32037255669159825
-0.3884343131594737
0.16561471724180166
0.8130340581016895
-1.4129216490799794
1.005297822639348
0.628045488381859
-0.1886457015070718
1.4483791219390638
-0.4971503658060476
0.7693624214172509
0.9489430399855496
-2.09199805941509
-1.3401133230653886
1.2041544079176627
-0.04391810099647969
0.6922579483853151
-0.4511846185594789
0.529132271861547
-0.35139265876024195
-0.32930938804823623
0.31617116414158297
-0.4809350483267558
-0.5482081838916758
0.11116905710205094
-0.35398790594798485
0.31020378139390803
-0.7315066963226404
0.8217534919514906
1.091689456542386
1.0514763528857987
1.553123149972039
1.224395787619721
-0.028558705066459522
-0.6955443252454657
-0.43088372198896846
1.6000987362910426
-0.5332480195311351
-0.99806950650921
0.8535647193072577
0.11189549642146071
0.09946318751532598
-0.2641648996086863
0.09000126706457254
-0.5541322699154378
0.8984573946660199
1.8364598237837637
-3.0204348195556014
-0.008354682287366952
-1.5178712957641955
0.10107884232838071
-0.3232398301485637
2.010395452704392
-0.8179190151213795
-0.3091154461340393
0.22032281840032564
-1.131284606778831
-0.13397734581443976
-0.46061848418295626
-1.3921434480556236
-0.24394703890655745
0.5557175141987505
0.2104494339273465
-1.1226740987652393
-1.0482442599196027
-0.407825402125436
0.6693366725483934
0.6537237895229369
-0.1394167215533088
-1.166417534440232
1.4484811847276207
-0.1669161084044805
0.3728131730910782
-0.14988518880627266
0.8266760527745325
-1.084738609683226
-1.1900960781948258
0.47949171051876965
0.7981435916907622
-0.24891912630099916
-0.7933202251411716
0.8606779533267909
0.391334893778351
-1.778615502712312
-0.6791059145368814
0.0714037225429246
-0.9750611835614735
-0.47626055086089064
-0.9634426688090219
0.48644948612396993
-0.666535723846701
0.6431630994528165
-0.5356308373925344
-0.26606454049670414
0.8766738016506035
-1.1288842503703753
-0.41831588340348974
-0.9556135379509014
0.2199039947614123
1.0836454585767783
0.43973966069278964
-0.6920798841570996
-0.32758217087177477
2.0937300811006043
1.2227310561151425
-0.4451617636536829
-0.7936979864205012
1.3525267198599347
-0.44666288322935366
-0.666144281833841
1.007608741866008
-1.1597968639951417
0.2210527334521949
-0.3932944211863842
-0.20580078464765073
-1.3261882316807048
0.48698107418853387
0.8637625134560949
0.610331287413598
0.15912981163198625
0.4184110474854626
0.4542448480677288
0.0934369266941634
0.5499815331080156
1.5628672188358286
1.0364965556442907
0.23980205141054134
1.4055311760140996
-1.0314104394598804
-0.27341560718297575
-0.3799214687418194
-0.03531535039697031
-0.30057899655312237
-0.5016931713532691
-0.9556335265941399
-0.9168571503339236
-0.8156951069641096
-0.38272169586321203
-0.9835283654785452
-0.684893890948061
0.08097106541156296
-1.1543632949695528
0.9234232232428063
-1.4310184471414726
-0.8381024875998964
-0.1410355942092809
-0.6939527674629755
-2.239829441122155
-0.5609659666521388
-0.4213860620726213
-1.1389883238468508
-2.3339007084570897
-0.24568208523102808
-0.7116274306838373
-0.5986466077257167
-1.4156159967865212
-0.9782627150796379
-0.985401463073456
-0.9894703286319697
-0.0005844109892962912
1.6039789473130923
1.232541406414563
0.316932275990381
-1.5043166661461744
-0.5100617722947511
-0.8435510570338658
-0.41556656311264917
0.628922548269577
-0.4250953928459369
-0.15264349669632254
-1.1916960529416574
-1.7012009014116911
-0.6947318685067991
-0.9827268547759241
0.06811749531669087
0.8675754943804317
0.4210258090140793
0.6841305240471809
0.9997812723224336
2.192444507452836
0.04985735705740679
1.1799405079183012
0.8375633674293774
-1.053968928148226
0.39204147743995665
-1.4336911070068616
-0.6969745841381783
-0.32488806651464475
0.31359891364927517
0.33512690289201197
0.1447613991332471
-0.11061693754559299
-0.49678138122880744
-0.1425593315567482
