1.4103812273043035
0.5212281488830861
0.14204138099610003
1.2881579113131125
0.8678939879210684
-0.36263996184792924
0.5389485902248528
0.9334225381386099
0.8381979036482812
0.040811799172149596
-0.3953945367228349
-0.8833279594362751
-0.39444250353536453
-0.7604098329462213
0.02536569730320032
-1.441935490806629
0.9026694305661112
0.21059026577313117
-0.4763442628732297
-2.587610626978014
-0.5274197507154145
-1.9893953022836501
1.5212718923679378
-0.2513839871688642
0.799432334613676
0.20480688468688685
-0.9385585711655485
1.7839907904052965
0.2699848492973499
0.8293825110219641
0.1465535770212062
-0.7978385136574233
-0.14623212262740282
0.17015603025382992
-0.8982665051248371
-0.9219451089318917
-0.5238446902325918
-0.050275645852484785
-0.2977754564874113
0.33167623448923245
0.9708907774943256
0.28604684861206303
0.6292663817095452
1.6657459907743442
-0.7778761078334471
0.0023526964489856694
0.2593824355109069
-0.07997123233773751
0.5390331958493172
-0.6706187009969762
0.28037072384054096
0.012279509078949554
0.0890281980573433
0.543015246590596
-0.9341190935844881
-0.5081420825865306
0.42094063250790914
-0.3020842584560984
0.9648817731880268
-1.3109745401677468
-0.6913372429723307
1.1286457560727614
0.20009673845604006
0.27755859550163775
0.2268106430850108
1.3062057695327083
-1.2768258758246538
1.818163252185182
-0.4669021029397202
-1.501964707912009
-0.30853823946708336
0.13096998694061068
0.20764359792715414
-0.6314428044183181
2.5734674332907224
-0.3563393313104703
-0.2525466350647241
1.4993004898746216
-1.0793372436209252
0.5072634246443111
0.39196156068745514
-2.000585031893776
-0.301572917839136
0.4931190117059475
-1.729408546674053
-0.26137662368806314
-0.7437313773170334
-1.0776234373116522
-0.5328364680666903
1.059728377274997
-0.0676381653983897
-1.1493114362314807
1.6901523458081142
0.05565047667869133
0.5068598306095791
-0.5519003780787334
0.01573434093023185
-2.6351241108025647
1.1866627923879622
1.0582044124595273
-0.8788191143267258
-1.2748338101547954
0.6114468158547944
0.4047802875575377
0.28323895518679854
-2.868982524211452
-1.5867358471764919
-0.9294129865297005
0.25998524515033394
-0.9384947632877989
-1.8035227575782535
0.8793076962440783
-1.4705275093837173
0.22559807020450773
-1.3153368730917974
-1.2459017420309573
0.20648653531020586
0.5126513441109972
-1.295273513906887
-0.6623621484534465
-0.36267854052421244
-0.9148514715871414
-0.43696290764904716
1.0084093185111644
-0.7776139349106248
1.023378840079101
1.7046673670115968
0.22290221611331582
-1.0158187622188597
0.2099773110998242
-1.1696058010804635
-0.2563547408273379
0.733606600345032
-1.519005502496381
-0.4025047605381701
0.3469905504231515
-2.068711391284639
-1.0934451742637528
-1.477075086123518
0.3028100212640057
0.38535576051224785
-0.8544774784420278
0.32919622760727724
0.825971510273009
0.23741899520278098
-0.39730628244335797
1.098548786392311
1.1684301971495699
-0.7928975371868527
0.49024911431570106
-2.0229645121458772
-0.5212154763809644
-0.3491595566404475
0.3100548227586668
0.4970020459568473
-0.6708981106212344
-1.5642642219180405
-1.8393661466349254
0.3166583367870377
-1.6575649461417012
-0.3789702461645386
-0.5339427113043659
0.5124832532368817
-0.2524993131518556
1.9834250950849341
-0.6382487605339744
-1.235036401635608
-1.4299311476093282
-0.12510460011062025
-1.57979896785928
-0.8652401557496128
-0.5306778357199045
-0.7463079103653958
-1.7399855461575362
0.23791587593437347
0.8057220870619216
-1.235705840573961
-2.225725320289523
0.4405584061602176
-1.2192032286336192
-1.6633928775544835
-0.9982319634865877
1.33831793653241
0.8750221040970666
0.2176413239500264
-0.6665143681906547
-0.6282835791743131
-1.138039954709838
-0.6765041728369916
1.1919851742447785
0.9317464737126273
-0.4771336253909295
-1.3996090901009564
-1.1749910392447114
-1.0220561557044134
-2.030573532332038
0.5812475965757928
-0.489937876918096
-0.9904586355284505
1.2246039514205598
0.8490602448213918
1.8623303366614068
-0.5171669337038307
0.46906316668907455
0.47737758831539356
-0.42459585171785497
0.8317290461071223
-1.6566588542217873
0.10694971720590762
0.080850069842686
0.9524102388316522
-1.239878276441472
0.08143504945074212
0.12022858829006555
0.5781848757872412
-0.2907818053121375
