1.1747632108461603
0.8526681523970641
0.5740749982395894
-0.12891126012240073
1.3348169133244308
0.7892051242154884
0.7016694460194626
0.20910258019856048
0.6063574033324548
-0.4920181823581794
0.26624180890959526
-1.5587676160457387
-0.6679584802970966
-1.193879333274768
0.39574789480764005
-0.8656480558010077
-1.2857658722470555
-0.15543020813802383
0.3291638711979552
-1.4862143909415284
0.22208054839195063
-1.588146793600401
1.5789199191467134
0.8899672463925741
0.3814892033996485
-0.4959396984540029
0.0651160841756151
1.1901672508043308
-0.559542807596679
-1.6890724931275918
0.5002565655307325
-1.1140231878633826
1.1342316353309903
0.353873674645642
-0.385111594588197
-2.137361391186702
-0.04220727402498778
-0.010503624644957577
0.507475318731783
-0.6799091020268522
1.266744670526305
-0.3708635829514846
1.6979224946768645
1.8265122276447405
-1.2213296369195525
0.7747710158910865
0.23605256569181945
-0.02931778690962228
-1.5601483684501418
0.11732826687858908
0.8825352925405261
0.026288269617364163
0.7372047423426132
1.6965934124013806
0.14942426239261464
0.2836492765024081
-0.45135094083126764
-1.041112990489593
1.5352943873195024
-0.36828588654251493
0.07553090156621284
0.1137316394745449
0.6559046501234397
0.36938005929893347
-0.6336954249746827
-0.7853034221104915
0.4169853944715174
1.7209126264506704
-0.17669494594558655
-2.9194880089486492
-0.21928075373081343
0.19532885638103503
0.6228937694173349
0.08153137160107603
2.19443632691325
-1.307854620994581
-0.36163975359148565
0.00354066342473236
-0.20544211018280312
-0.8738888471793599
-1.2287951798705925
-1.2949340478003692
-0.7434921939153084
-0.33337913785122675
-0.8532928233873622
0.2538175384244168
-0.5432690479712201
0.414903558375218
0.4954639586643691
1.7618312945137353
-0.8355999200384866
-1.5015820213234474
1.2034620939740421
0.32570832710422265
-0.7658362817644296
-1.0171602228893184
0.7621555470228434
-1.257822918413713
0.08368292833040282
-0.04846431830845771
0.9324629648087979
-1.1287823475650527
0.041395851122436184
0.5320291754808852
0.0005084553803919936
-1.1588999949902117
-0.7233292712377832
0.7400157846283326
-0.4698446700646356
-0.24734309317431874
0.3010591571565743
1.3201667948219
-1.203354602261778
-1.8477311457264127
-0.20819815499404914
0.16391351255253472
-0.0730645389495429
-0.9021317396599415
-1.6181943663516716
0.2924731301274843
-0.08721605415589107
0.2235481719765114
0.01039433405871723
0.585554999044017
-0.8268204149994223
1.1147254420282828
0.3897457748849472
0.44946410364134376
-0.7006023411155899
0.5856520335197419
-0.08285886173742874
-0.016754278302480885
0.7732020294839113
1.0194832263627167
0.2181928260590036
1.318315040501328
0.2141599392004897
-1.0722465530691576
-1.0768277753355107
0.11539726494770974
-0.6410879791407833
-1.2885526934729659
1.3242625583224448
0.5240543926315109
1.314226917162657
0.0923570030634447
1.6946681388159424
3.3734718242225874
1.148045417480377
0.15515618420359722
-0.8087720114694468
0.6805354573464343
-0.8430117752415013
1.204252265986335
0.7090863776306497
-1.3883682619955675
-2.2136517854533446
-2.5407534527585085
-0.5231244626820395
-0.7852861809309506
0.8698595836588686
-0.33341332708889315
0.7805888901203325
-0.7972989871456211
1.213212975663539
-0.4551723361061371
-0.5640871837540902
-1.5310613669168718
-0.28097059874416064
-1.5003561596795114
-1.3366071286740107
-0.42749880640612337
-1.4285950294084486
-1.5488741813954758
-0.7695514218191883
-0.2206670681249746
-1.391116353074553
-1.368269737486905
-0.4211597198823793
-0.46740725646703
-0.5512248095532131
0.08425587498000592
1.6945313635527923
1.3752086574553617
-0.07535947870730322
-0.2068284299957739
-0.33483534987358865
-0.40384729772213407
-0.8952021471008432
1.267645178259904
0.7730937782981848
-0.3345531130025502
0.39419822062250465
-0.6074171202877756
-1.3165906241601082
-1.8267832099588452
0.2974514518653736
0.5165060809622388
1.3129729535408245
0.31749273597565364
1.2933228448528666
2.101001245573976
-0.036384703085930004
1.5407991893262754
0.8242363878974588
-0.9301185400744629
0.7748988867673858
-3.1838646210628374
0.5162488680812064
-1.2261648435802053
0.33662483841406365
0.8511642963842959
-0.31836002641097194
-0.24595898536862265
0.5319662793662541
-0.6406718151246451
