1.162241671722325
0.8778688225949809
0.7589421962702355
0.21655689539741274
0.5369029208173683
0.946356759232863
0.6082193566065915
0.3627756066000212
-0.16378572982750383
-0.6731042760698671
0.40414117838241903
-0.9934588221905583
0.7116283696305716
0.16337843643985972
0.48072414625945836
-1.3535536308960938
0.1711701639293008
0.41848895652843404
0.2513898071476641
-2.0564030868643743
0.16023983979542467
-1.4109061112059393
0.13294504229904752
0.027347247806075753
0.10304325631819428
0.936890856155515
-0.06304522253271794
1.4906973739496783
1.0738660033427934
-0.045984049300393126
1.034609458215026
-0.02291698651307881
0.9263431925143988
-0.3486556328277551
-0.5538884217145232
-0.08836618330108359
0.4638422273143894
-0.291006367002279
1.3253417107393157
-0.4611576171679125
1.5714669608371419
-0.9537958252012693
0.3740417756038026
1.5491763648456163
-0.8178158769882908
0.33007704875371774
1.233876751839178
0.010346972897318563
0.9527738117548367
-0.10753531714146095
0.009344860877384176
0.14198000937045513
0.41132660690029954
0.9545762624661387
0.7909672236673622
-0.5590492232649217
0.01471828175516901
0.7184078014405343
0.9211130669830736
-0.8229600038778315
-0.7293807795697598
1.2292851750075606
-0.25740276177445515
-0.3654924308880807
-0.022994541324438594
-1.0026940454364097
0.021557624290041377
-0.2658678725273982
-1.0185851904964984
-2.8174260549080485
-0.22161752923045894
-0.630358504964632
-0.4768338043695204
-0.038092148300930134
1.314018581579578
-1.0300414977048207
-0.8683777716325234
1.719779068241187
-0.31354479445849404
-1.3233049998904614
-1.0109717248174062
-0.6360843493785281
0.267025337102209
-0.8403802284992231
-1.1744743344100694
-1.2212345136377234
-1.0813021722893987
0.18329046944849542
-0.2981530009135461
0.8291615799124449
0.7336825324610531
-1.2181082277888198
1.232288723511102
0.8543285223005608
0.8912552541885191
0.7823910701354888
0.6433964981330124
-1.296168718880476
-0.28799112797718385
0.6505535689874945
0.4826339369996717
-0.4781252705584115
1.2106988213651741
1.0845412531725065
0.3768825825189718
-1.217305605804879
-0.4898137479750687
0.5376532902958127
-1.164791303677037
0.3533668114364833
-1.2498432558244534
0.6734760362538209
0.14692932590990015
-0.3713207299132372
-0.06879150468151274
-1.7688860622239715
1.3289400263621924
-0.25706224389341104
-0.898855556366216
0.03073172969413196
-0.22279153739220683
-0.004268968821847102
-0.5814164864167439
1.0003569180902276
0.2901276444578777
2.0962637736330887
1.2040937114645223
-0.09336194574234188
-0.3301863797817096
0.9839301783921768
0.11590637341103338
-0.2513890121680568
0.32754608780614103
-1.0179451539332367
-0.6540706314396582
-0.3758395007906043
-1.1209741385082286
-0.5583669744981933
-0.5314720612785826
0.42766630139630085
0.7399604479078035
-0.13775587740790146
0.8962573432054877
0.49404514047379117
0.3062156886866084
-0.7147062654041183
0.8719536020887425
1.6247616114276175
-0.7080638414976256
0.28689699433747246
-1.766373711820489
0.6613578835498716
-0.30038960441101936
0.3549320517740079
0.9446615152914949
0.07961025197077676
-1.2301919155238201
-1.4187595045856185
0.348014747340831
-1.0633481200328414
-0.8554245385351142
-0.42015240506191237
0.8994267950826538
0.7212232384501132
1.5219832320738862
0.038719967779410336
-0.8296976559674651
-0.5497485244466029
-0.5489314118444051
-2.904364209485394
-0.3674646586149317
-1.1368247645837273
-0.7195193805768638
-0.9956575267038378
-0.4149648005753459
-0.972789252881988
-1.596099785461657
-1.7809705098184296
-1.144941889705906
-1.1905445728450292
-0.7678262444500287
-0.860986370449722
0.716332657571392
1.4779164025059364
-0.3515825960681046
-0.20822878121167837
-1.5255410709888517
0.10745817260659174
-0.7833370419232782
0.37721716410891515
1.122015945013394
-0.17814490155125595
-2.2630286761368947
-0.830645119911844
-1.539145012326685
-1.343712535226489
1.8237883341791097
1.4031472785205588
-0.9934467229364009
0.7799738403099126
0.6224474732979015
0.9667817098886595
-0.6166256804663515
1.5370939964718047
0.26730284926118403
-0.5261799254692667
0.2502919606913547
-0.5244379300424751
-0.11258937929380666
0.9648969628244747
0.10059803922316407
-0.13980477231297503
0.47658389272443735
-0.6321041914176682
0.5433872762435229
0.46906489516619154
