0.588761965990236
0.9485302682676229
0.3465546849489338
1.9822170677763429
0.27711351762308345
0.701775647371142
0.6736930936580451
0.5980780795878132
-0.0829655546990874
0.7822565496546676
0.6794827180605193
-0.49878126249112487
0.08016978307266653
-0.9839660013686822
0.9025092234499086
1.1621405448343862
0.9614360821974874
0.6656545559454046
-0.5844523350259814
-1.4686408658726928
-1.0757624977061033
-1.3734523729407395
0.7956024187153709
-0.004436981027489753
-0.1692864359414477
-0.431571431515572
-0.824846365290737
1.4650514559579733
0.6609195662148678
-0.024937647709080413
0.9732165034516495
0.38082366559275427
-0.28024597144021335
-0.6216198283519582
-0.7885144315335747
-1.0125552529295292
-0.5232932824715455
-0.769590596684833
1.2671307597891925
0.615580736897839
-0.021693273634986854
0.07613601873124559
0.6254593457517645
1.9332933212652499
-1.19824530613391
0.2910060104098191
1.1196181029497176
-0.8390737328902063
0.775860220200396
-0.2106333068163056
-0.303596201386094
0.24501949060901315
0.5673118348988855
0.6835228223501248
1.1120620215854442
-1.7631880513538116
0.24378702008661485
-0.7677360182581174
0.591534690826812
-1.1045490694958964
-0.7322191184063565
1.8684716128396768
0.11337161384772823
0.23421917894625185
-0.7183670102471615
-0.12432236608275979
-0.34500049833846325
1.026387267094785
-0.3169678067162225
-1.4203748861879901
-0.16758149930275867
-0.5516584926804347
-0.7266745711192191
-0.5192842016125132
1.8694656094903475
-0.5924604939771696
0.32854369076626383
0.454388462808253
-1.393835168087434
-0.37555423661124643
0.27835788355838154
-0.8569637725434698
-0.15113026638751845
-0.5947497122360119
-1.0331932967898396
-1.4006896498760735
-0.8877992887688023
0.5929486073832153
0.43854402551362104
0.4733071578345148
-0.5393627329154311
-2.341160405024128
0.6087891786611739
-0.19396221753511617
0.4604608794484648
-1.1501579336829133
0.8098937305084155
-2.529660687541246
-0.6239369754968329
0.5714445235963436
0.8116750926481162
-1.1968411132230194
-0.12909238677617482
-0.15302392113571517
-0.3557618273112498
-0.9538136589796551
-1.740777328285886
0.1439987853267829
-1.85007298897777
-0.8602086581789028
-1.2880328512514998
0.36018163245377766
-1.3815984042372393
-0.9840624174845728
-1.3809219398117558
-1.5465657967151756
1.8276407885318415
0.22430703763983534
-0.30508069001626004
-0.5005263255589377
-0.09913769156789465
-0.4669016890365168
-0.4438250898882199
0.7530826129132984
-0.10991221146229949
2.3656496802070732
1.1463719903950251
0.24070125945707374
-0.9099438707371659
0.13746851570407997
-0.1454483005455986
-0.6270129146139084
0.34820024369722624
-1.401485298323394
0.413452594959124
-0.1786603465890429
-0.6061318433135104
0.3461122849961511
-0.5011995944255134
0.30740140942501604
0.44863104287674604
0.8584671585420345
1.0096993269553831
0.7893485119666126
0.1339688651053501
-0.872647366155701
1.433996375196522
1.67385394601612
0.18451073381437633
1.137093542781936
-0.2502334258284671
0.48154699032218085
-0.7935822234731481
1.237035052304036
0.3071462317596953
-0.7372958106144896
-1.2813729670330898
-1.3108049088855263
0.5142735351758845
-1.6752821792394996
-0.8833895753590613
-0.8464818532248513
0.7588500475150894
-0.16813458278900867
0.32359048810051716
-1.0301214939442813
-0.9936295944314268
-0.29983728711210955
0.7435107820658723
-1.60122230358984
-0.725248152843954
0.2753106882191473
-1.4221114085828557
-1.49568840261179
-1.1852233965621122
-0.22890087501946083
-0.8687384956425848
-2.437301371163536
-1.159185377035306
-1.3646774549151095
-1.2776785035274552
0.29043154327479753
0.6832172575057591
0.7485277390956337
-0.012200180841074798
0.3117077768684804
-1.0328540817800544
0.5011897547306028
-1.8580850821434027
0.2597069469964792
0.5643029246712367
0.20996638228887876
-0.5185129629108263
-0.9377751026665518
-0.09536563547289778
-1.634935643393852
0.4015313766110321
-0.04236121655849223
-0.5424828115033359
0.2318077480298758
0.9515717664325899
1.3635810642961106
-0.2509410395440087
1.3851278720307854
-0.7929717852323359
-0.5079147803169362
0.17608993394427885
-2.3483304847193134
-0.1839914925524573
-0.21830707250949904
0.12956332434869236
-0.44811012133880923
1.0820799945382984
-0.23747464460423856
-0.026218254220748315
-0.9528122949993922
