0.6751193712102774
0.46355487882817936
-0.09466333000587085
0.3238311088981397
-0.047544712650949617
-0.10784645258587444
0.7026675032220788
0.6584013296993828
0.41598482486583943
0.4115412170869064
1.1253186823959893
0.035118516962884705
-0.009928876732087255
-0.3259402065375235
0.12750986000727987
0.03853643267927498
0.8606664134907112
-0.1905357833043953
-0.9249384760002661
-1.1519067604232234
-0.9352995981208443
-0.15931888218466872
0.3613795037329293
-0.09356787691940538
-0.48003341780265524
1.0490183159135649
-1.2342957432705939
0.3166383542152412
0.13260948636913367
0.09735637720183532
0.20303908519700842
-0.32143195792907703
0.4863016715398157
0.9620858073411094
-1.0982431631696552
0.18544299122747465
0.4652496376289641
0.11098283184502666
1.128127627495834
-0.23341654145816326
0.8649011422733403
0.8674754377182068
0.7950948322164351
1.478167631778363
-1.84327033804736
-0.8119983626153009
1.215343739441393
-0.0673087511871443
0.3420029643110811
-0.7746045554381199
0.8221830002735329
-0.70848328457207
0.5694773352949132
1.12311365030208
0.8471800054840035
-1.4592973044571713
-1.138692648191448
-0.35898551485459007
0.6934758495773274
-1.3827826288241596
-0.24785769508298608
1.0528604565071218
0.4743399198884
-0.7478154910012486
0.06009982888032722
0.4586011187065333
0.39861166881814114
0.06623637186328868
0.4423490328249823
-1.6447588314611157
-0.3373374678059618
-0.764912449680448
-0.37040784223528855
1.7518469247099415
1.9277063979825213
-1.3648849709406723
-1.2129484575441576
1.2313597395896343
0.2618320905385596
-1.1037022871729378
-1.8424595180211014
-1.462336227809436
0.03265254414606231
0.2123210265127228
-0.840832201311606
0.12354971230803224
-1.8331558592454003
0.39153433243563895
-0.7195249308391498
1.3863141611131544
0.6658958423601323
-2.145824624066981
0.2958293252643358
-0.3380787495095409
0.39252934450867333
-0.9108708698133642
1.380253604318432
-0.8144408768932109
-0.5014004530380084
0.20634984796074962
0.8459248955788645
-0.6154304129991216
0.7021948704365318
0.4585020934716417
1.0439194489732275
-1.6935859827644153
-1.153130389448107
-0.3273640379529206
-0.6168046982125803
-0.0656471753148157
0.48329068717580215
-0.30924135058891566
-0.21403700007031823
-0.17215571650596298
-0.3577202638206426
-0.1511306273058607
1.2637691360653305
-0.24262006272465658
0.398071980548115
-0.9185172155733639
0.6673888126927321
-0.34734042342902455
-0.15105026818386955
-0.49934972414197704
1.1804699335732554
2.479090741755313
0.047803491495260864
1.0017475020062094
0.007469100113086075
0.8757137715963144
-0.9445012103500556
0.15341103659591032
1.1729414937252312
-0.7045982514331317
0.6473587250361074
0.3095643033852814
-1.1808976410336505
-0.7968745203592258
-0.3246734229550313
0.11001728755157125
0.946028222015314
0.3026052761074274
-0.4521832660697565
-0.0020552145418257783
0.20858000437379953
0.20427925123527504
1.2444014981429619
1.3827044981297232
0.03332886774501842
0.5802735029602226
-0.14687301702157518
0.27462023645022837
-1.394137403765348
1.2083562800090433
-0.12525443944003722
-1.706664954527666
-1.128428371384883
-1.6694385744353366
0.06791328821887205
-0.37259645924116525
-0.162212706468368
0.3411622771420534
0.10883543229929704
0.2692840724682144
1.0384922357210624
-0.209926919783816
-0.15754688003658515
-0.17400493747554685
-5.694610602707817e-05
-1.373854750684582
-0.36114348727713463
0.04388866527689228
-0.17175163721107967
-1.3781979101026334
-1.0150624085589206
-0.6469756088747399
-0.6677607375980062
-1.0799572813398548
-0.4877122746686103
-1.3137254463806793
-0.8135046962796044
-0.24184785972048203
0.9579022075146457
0.8993871193586358
0.09081569908001987
-0.7505924531592195
-2.090251261513707
-0.3895602248936143
0.0719586088279549
1.4320585273517827
0.5921815935872208
-0.8749685225822101
-0.8487514658278397
-0.4726735926173413
-1.6568296063315726
-0.2842872804833392
0.3766526079947602
1.066364046158486
-0.6078722232422493
-0.44160864720001547
0.323682441015849
2.4420328457321117
0.1645638421821496
2.023932349942589
0.4552571782313536
-1.6396979307513355
0.7221431742292223
-1.1699970949679726
-0.09803787633784558
0.679498191274923
-0.2625546990350323
-0.07629923011269765
-0.4827120984696075
-1.5861832572589485
0.22353066228778382
1.1529649816612624
