1.998278479004933
-0.24457254953677043
0.06633318862739851
1.1801727025907167
0.763217033741006
0.21811711335929368
1.0278175755163368
-0.7303615815128613
0.21602274314067177
-0.6287622423381943
0.36584565795104096
-0.9847305014883291
-1.1549723659152193
-0.2177881206884308
0.18936259993761248
-0.6842857574873499
-0.6832116192502354
0.02066359322417704
-0.6764546569982535
-1.8871504303918505
0.07684723583032244
-0.89090727911002
0.017816062784155706
-0.4077910371018293
-0.49691836237723797
-0.5916597763986207
-1.1684097771862196
1.1632896748004289
-0.16796184465840322
-0.14329854375709822
1.2751611393370763
0.055125851024730936
1.2513059967139495
1.190972128575488
-1.8081141295165564
-1.1718116605169764
0.09811831394508609
-1.0345645560608148
1.4052985568462444
-0.0023094831201158628
0.7242031204039869
0.32784379886874676
-0.28965223047136707
1.3270347471625137
-0.9459243620767284
0.5134282341040788
0.5312546277153308
-0.03697893681233688
0.099374431812141
-0.020122428694896614
0.2674120724390316
0.3222785312377822
1.3166423566923364
1.6516708585940996
0.0726199127573756
-0.8414269972155917
0.6529503497532644
-0.10850664958115858
0.7423428449632568
-0.7057914255098547
-0.3876632899745771
1.0416829411899033
-0.3495460632008316
0.2809632523768452
-0.2168607253844172
0.18737694528056284
1.2165718588706738
0.521913052435384
0.599674247853392
-3.0454747350750844
0.08780103167122305
0.5919112787090192
-0.7366882774770148
0.6530737472027537
1.702201234201686
-0.9022106066601274
-0.8651288596345041
1.0201153750895855
-2.1096045783559276
-1.9173158950183689
-0.3437724152902292
-1.2778256013483407
-0.6820577631060618
0.3145512258511708
-0.24945665025155161
-1.0590897351805644
0.20403945910231713
0.22829272346021337
-0.3231883234423366
1.5659763256306154
0.7318784019468048
-1.6539991918011874
1.4241668281116615
0.0701889658475095
1.4362550365951392
-1.2507101537318877
0.6988154698075847
-1.2312428723771434
0.4705489031143363
0.8797558356472497
-0.11523227261363164
-1.8560439574412688
0.08067140722898992
1.1421606001086495
0.8091286098216199
-1.3246864328968524
-1.5852428665214364
-0.12127497657387593
-0.8795260917135708
-0.31029880798916437
-0.38231198433430413
0.14332739891991758
-1.1820796547504617
-0.43792387924282405
-1.0035898105053258
-1.5752209186762667
0.7379558319354783
-1.4081656002798253
-1.3122373439923143
-0.32182533900799515
0.6112576451535935
-0.8373646695157038
-0.3620053717256405
0.642443741172747
-0.14412572176852487
1.7962351980177655
0.7815787579513866
0.10422429633675127
-0.6430006828093242
0.17936866616526898
-0.5752162097998568
0.327778811561594
0.7509576045278682
-0.8001606912511646
0.8046408440066452
-0.861866761294866
-0.621134182705845
0.5053960422270561
-1.4560941520892572
0.2658350970685722
-0.9088192552087939
-0.13550848345508465
0.6315376558715885
0.5774340450366188
0.008787828573272302
-0.5988951049362656
0.8804552778364083
1.1882110659864562
-0.17645464143642237
1.2735310630536558
-0.23617762941066311
0.36683040325476746
-1.199265043933131
0.7104928814945198
1.275096150292132
-0.7718412742620261
-1.0905772600799972
-1.8035326786799206
-0.06932427833245663
-2.6795996921065135
-0.4825466022846813
-0.5583122282262872
0.5141171053229379
-0.6245848501534168
2.001135933031201
0.06537104895547052
-0.784987722402571
-1.1222822568865727
-0.7835586873454092
-1.2726165589899967
-1.0544635000527305
-1.1533171162198839
-2.0945276384774174
-1.7641481904230683
-0.20926903992678747
0.03516003941316892
-1.5214512245321532
-1.4973378382054885
-0.9930844968167238
-0.7133004274215545
-1.4604058584465984
-1.21094260990905
1.1126899840238096
1.35744318527589
0.4451555501989368
-0.4395354768786725
-0.8903873070874266
-1.0763562358418277
-0.760251259915855
0.6232714652375918
0.3374613343729004
-0.5059735356133832
-1.5610104540567677
-1.3292832796479561
-0.7248963134535689
-1.6839029424925664
0.9985182431224592
0.21779998216335955
-0.6745208253067605
0.8892283823832419
1.1539735518938128
2.904119378498412
-0.23595315024181635
0.6159688471306829
-0.4540228393598054
-0.13411796552928157
1.5133244559773904
-1.9248284403349454
-0.45891516043674496
-0.07802116322256324
-0.32702256356716125
0.06437249194316991
0.2655323742856775
-1.2617404361289166
-0.04726959165281831
-0.21088907332788465
