1.0200082473813685
0.8470158654035471
-0.2329816283553952
1.2933673196891127
0.9695455200711435
1.263273165472178
0.37994214213093846
1.0233789507667228
0.1299420113913332
0.04189134362175237
-0.389422614589165
-1.7054550932511967
0.21737488510225755
-1.0565187898587418
0.5472826928393871
-0.9122399314119212
0.7791196650668214
0.692545906844538
-0.5398280991859142
-2.0699990613983923
-0.3816811955963132
-1.5439121543486012
0.41177891891923013
-0.17124879407980517
1.272087290893325
0.8713140908072657
-1.1628122919267878
1.5530401008452204
1.0008383524504931
-0.9064406516511438
0.8741259065716278
-0.03786259198343511
-0.467652616032468
-0.8817898463607239
-1.4973099958314504
-0.8232213333247678
0.42752445735550393
-1.2035412891084474
1.1113366830234048
-0.19318809348734745
1.645883614396257
0.41336487316894893
-0.4826910522908788
1.6892387399481419
-1.2259255196325691
0.5356181306365018
-0.40777032475792124
-1.7486281730249815
-1.3411807475570476
1.0093759816543073
0.01111037471359666
0.009262131468927811
0.5366836166386708
-0.1492502983965247
0.17903081927553682
-0.47261167423157635
-0.7954970885008432
0.5073333409278079
1.3992102110741755
0.10941574413356647
-1.3896244317247874
0.3466065292969175
0.37611703213063746
0.7907849943800824
0.5160345908454953
0.18678192772057658
-0.042787574563325825
0.05484480560929328
0.02719931636713524
-2.9002375714754014
0.7405436492889718
-1.1168833239862492
-0.5280476341289505
-0.4138387619275887
1.3742799349286527
-0.941385436952977
-0.7332895455525843
0.1431260833578082
-1.0044840524437304
-1.444965775654383
-1.035433740982537
-2.194011362411331
0.9853628281490167
0.26748926652792593
-2.229905079506956
-0.6391247556449733
-0.3079810093132482
0.185130774950592
-0.27621722428339973
0.12849270021701287
-0.5012369378251817
-1.0835941373318478
0.5904605660386119
0.6480069786773799
1.0496327989406564
0.09771213258634193
0.08492396039953098
-1.516349903420629
-0.5866068086394184
0.002068699389194184
0.8295254095164545
-1.2702609985314872
0.34404370983978366
0.5170869995847122
-0.044046168820166126
-0.9284655115699751
-1.1755668758857865
-0.830155831430625
-1.0219744688321049
-0.7905507308402469
-0.29361624838433287
-0.3834339347097222
-0.3395638126103413
-1.1816332606647788
-1.7238364370161032
-1.4814671077399577
0.8407406142598404
-0.9001870781440777
-1.323504754158316
-0.9736049367755878
-0.06850439598650379
0.8053939007520694
-0.12710473840277955
0.7679061184066582
-0.9863232539633151
0.4655702186891195
-0.5102510807682108
-0.5736952126611158
0.18787439681906992
0.20043172325924746
-0.021690188631234064
-0.20614467277064857
-0.0620292664569706
-0.4352861216930521
0.3340350565934661
0.7587519473166189
0.12568144288166028
-0.9364638592301098
-1.0606457547229158
-0.3135922046409385
-0.3414162123566023
0.7163129885548782
0.802095822427928
-0.31061605000719894
-1.6611128289968877
-0.493684017906192
2.0179337337668506
1.1129740255663045
-0.9221654834360262
1.1600078017865245
-1.7939563446861762
-0.19072044715827696
-1.5065648917538157
0.2543208941796897
0.14804299366203189
-0.06827259087059767
-1.599971905135677
-1.754989129510658
-0.2685514451039479
-1.4868921778940873
0.1884877319005025
-0.15943932451330534
0.13174415278598672
-0.4619932346163717
1.2907248802934241
-0.24806507417849988
-0.5784973952918485
-0.7084140399622734
-0.44541282973615237
-1.6677335179516688
-0.4365393012201334
-0.5347478559235945
-1.279773700655578
-2.3040913043264615
-0.04664063402394891
-0.5824985813728092
-0.5023716228877168
-1.9861196810793071
-1.2131167236480365
-1.7870163382145288
0.21516685412757508
-0.10405576177424497
0.7376588880508334
1.0068239561867924
0.4174508544566776
-0.10977566971931296
-0.7076638359541452
-1.7689916943590929
-0.53179970296325
0.21688429342512994
1.4863609120397052
0.0380315566012186
-1.5447190829696225
-0.11201169671663613
-0.43147814669907536
-0.8836725553413254
-0.4492313640173369
0.725527281442891
0.5734060956597619
0.8388951892142926
0.6795188119608763
1.4558092353610708
0.24223487291013335
1.5849666818082944
-0.3061091235282723
-0.7015649555412906
-0.044119816685962654
-1.6806394170436962
0.06426692427723316
-0.4165823027961105
0.7955212574112166
-0.1704695894128887
-0.16783454539411674
-1.9994985500747204
0.7204798326399338
-0.03931264058420661
