0.7045740587283618
0.9060227823142241
0.8975881829605777
0.928717184648264
-0.22210056350653073
0.6737461300295748
0.688738141002815
-0.5207462060929565
0.3884173495182167
0.023789876527858217
0.0500828710179515
-0.3090812105228087
-0.7436188458637107
-0.11816349165223095
-0.6476810724874841
-0.2549055293367145
-0.5073403847869612
0.3172063329253599
-0.6516702582449587
-2.0420134198645914
-0.5988634575412126
-0.19845398499668887
-0.20970886766866814
-0.6168090569449209
0.5986210612412537
-0.20669074942908805
-1.6998414994056552
1.0055935932719042
0.613583037623627
-0.7230013866640601
0.861290701307835
-0.7462933868813493
0.2726262027689932
-0.17664482593787068
-1.2105733865713273
-1.7730223963308518
-0.002315356493457682
-0.14267339042582358
0.20080045383212508
0.5078246088306344
0.2580990433819431
-0.671757010713228
-0.20950893382882674
0.8041308053528744
-0.7502886205403612
0.2696912103018996
-0.06788525120374717
0.08479004442969346
-0.17513828590652358
-0.2512500132576351
0.8148975181128062
0.39611711488039236
1.0100745835886107
1.4832599942543965
-0.4123031547404687
-0.22674719342994748
-0.8504189887464629
-1.4581045212834325
1.0473725159609724
-0.9393224643143643
-0.8644911245209999
0.6785534278624021
1.2859312166737948
0.5686184329601676
-0.4977884635654589
-1.3557279110034413
-0.7549349047245422
0.7347953701515673
0.3000522714013306
-3.0560670273831168
-0.9903873155778056
-1.0135046433839707
-0.5952143929600682
-0.17121569619728197
2.3494496677860663
-1.9830279130562758
-1.002982173589296
0.8493146025083956
-1.0642352282302812
-0.737887609635755
-0.6171932913861833
-0.9963568774983984
0.6657419078414013
-0.16609422465871074
0.1323371738005713
-1.2390259840821414
-1.4112381425314222
-0.6886959069297038
-0.997107133022219
0.5692611850094251
-1.569612945928603
-0.6857404850237135
1.1836873309333746
-0.3143200943873024
0.7261277187494549
0.046959738707958554
0.8520637484970729
-2.292236946125161
0.4435730489786839
0.16958468094177118
0.16473489883020065
-0.9964442576427781
0.7999136355646543
0.35688831460087983
-0.5008050793873495
-2.895440139199546
-1.632097147472404
-0.23209323358024764
-0.8367802796411423
-0.21419980690675566
-0.3656515594623834
0.9421105866158027
-0.9609614331309396
-0.6609343566427337
-0.437502385354456
-1.9481133677837104
0.34821477206362633
-0.8429745725158682
-1.1293154196612663
-1.097694218695707
-0.43382249366233616
0.8087439633640505
1.07588566868094
1.3487592007817912
-1.5628978776960203
2.1271504659728717
0.9948417591927886
0.5051286210405332
-0.7102656901544617
0.12398990236718449
-0.010793480403053168
-1.2059285543355227
1.3427255641399736
0.24272532779376188
-0.2772183148969527
-0.06875294506546552
-0.853760985209292
0.523750745258788
-0.6167374258326168
1.0614480934022534
0.3680781472808175
0.03320935205283235
0.659613112620339
-0.3392370467438
0.10144495832440248
-0.2810411651651746
2.1756611757945854
1.0599466891208178
0.37073854941092366
1.3474410305305438
-0.48813398847452233
0.14832280071733733
-0.34629938446273323
0.7419211339747158
0.37182537365816093
-0.5477958676940111
-1.3534396259205872
-1.1817570120830219
0.7423777793281594
-0.923057390389864
0.184584149554191
0.17701344390720875
0.6254661934621315
-0.25936470364530656
0.889348893529759
0.0070014346257355475
0.04318546686150515
-1.0240177276350741
0.8685259194408358
-2.579416760033987
-0.3667940748352836
-1.284713631639916
-1.304121153057538
-1.7368825676741753
-1.3483064998814345
-0.6596074864931163
-2.5456782367065056
-0.7114797459629008
-0.9371684918126238
-0.23842747656641705
-0.8721485027374966
-0.564422526746585
1.5359571359332482
1.635382776021223
-0.22690063704816413
-1.3941235510470795
-0.9176125629754779
-0.9730570452024812
-0.8402959712430849
0.9131920684199104
0.9966616505720696
-1.5918553090230925
-1.7366119588417808
-1.1506329735425858
-0.668774467782985
-1.6134852373954123
-0.12651583020616253
0.8476250086054753
-0.8710213966263171
0.15513860833454418
0.5105286382090999
1.6608804884768615
-1.2918241010755864
0.28122243081949583
0.4575416003625075
0.11617636128416464
0.13522993438350484
-2.8412218237944904
0.8960379001763028
-0.10199680070829549
0.8692838933778253
0.1656053997551492
0.3665987963392231
-0.4902260421830681
0.6565895346016886
-0.890348305462086
