1.6637194019183728
0.6691878396510428
0.055890428757582766
-0.15419738392934068
0.7861821248370324
1.5538813469984558
0.8687451114965692
0.38633829992089064
1.3033112429033715
0.044748891566987636
0.47048009874277247
-0.7013738609975837
-0.24213771260536932
0.5147271462339282
-0.20148178536824304
-1.1046310271806132
0.5602137259146952
0.683395035516863
-0.1815084466827091
-2.124147870809102
-1.2068458705312326
-0.8099624231564555
0.7679009352398971
0.10536514237509392
-0.4186714919123779
0.18579281678279813
-1.1422822585065613
0.37115129327356544
0.5322610989380108
-0.27456809263558474
0.606077256312731
-0.045265313898516235
0.6786455695324255
-0.835458689364163
-0.28971847739762596
-0.3779335156403968
0.08218341767579965
-2.1494630071416556
0.3384366434345003
0.18439810265144665
0.2901454594573657
-0.6626819276481768
0.04027426886993807
1.4596244416873103
-0.9566139004284608
0.3869879592736767
-0.16890023626510414
-0.3135467336678688
-0.8098614415287353
-0.4699182686044312
0.11636433934552107
-0.28310013173809995
-0.08413418426519792
1.789231748146828
0.5282562743191672
-0.3831376786909873
0.624250988946995
-0.5782849939710544
2.2608623124356972
-1.0821883956884473
0.36980447145671097
1.087643148217798
-0.29661412925794073
0.1615884260647685
0.046286728023690105
-0.6744552669827333
0.7045230600199903
1.0433352424541749
0.45914385524851253
-2.395013641161958
1.2744553657586897
0.044813370792711194
-0.32861512094162854
0.4256482721555488
2.5104467053876847
-0.6253567676043958
-0.4613829266671168
1.5700701843070184
-0.31445371444755055
-2.0740294063865803
-0.8687096681339976
-1.1013389633427102
-0.7913641381906075
-0.5148299858632028
-1.7385174192475898
-0.747108325385038
-1.0203007069993544
0.8043751630085532
0.2696552668573794
1.2849902446566384
0.7987798248324356
-2.8093980122340225
1.6953254459712752
0.6549194434267576
-0.5097484163698909
-0.7558171248254224
-0.6432880309655807
-2.269377956557585
-0.3846286655653648
0.5320547311400455
-0.04048320317086826
-0.26786443513070235
-0.6542108768619556
-0.08502795292872911
0.5520173063035562
-0.6589736675291493
-0.9833011628180991
-0.32955032783851673
-0.3620066572215673
1.1515012388545556
-0.7306669957153429
0.0014730931553534887
-0.9364470537283522
-0.7931630455214749
-2.2652695475185496
-0.8524744792475285
0.17064464721751785
-0.5317261694563383
-0.2127287582129449
-0.9572951548997132
-0.8988613244321041
-1.1110400121880237
0.3625991988244444
0.8203571386230077
-0.4305141490993804
0.43716475837167645
1.2406138838074623
-0.24122480087041293
0.3670702986234195
-0.17813141032743746
0.13986109036822436
-1.4391821654091934
0.5784083083910192
-0.9766427999213769
0.5569198562040225
-1.1760749530109995
-1.2170646823848092
-0.22322243572621078
0.22924899896709094
-0.5299429272095731
-1.307711793193346
0.22623608876629636
-0.07618307739908764
0.21598455868255606
0.12362481246812018
0.665495176136149
1.0142056925974647
2.0414999709206407
-0.8223689259388903
0.3895784358494081
-1.1793494498825288
-1.2361856231827686
-1.0270932752744568
0.875454599274469
1.1084124119141778
-1.1764990923856928
-0.440296918423258
-1.4753388188626944
0.22439587079682888
-2.6609086128320123
-1.1920636322125624
-1.3620082185836897
1.0883762610105494
0.05647593898694514
1.4914853059461668
-0.47263275004526767
-0.3031762978570878
-0.1683985578172421
0.28497133048988643
-1.2548797660589441
-1.328635691003499
-0.9617673884377682
-1.2653949168899408
-1.6152129182811905
-1.6910544314042895
-1.1304072213298695
-1.7771146142393581
-2.1225244718498155
-0.09811104298455553
-0.9348762160670838
-0.6528035473202618
-0.7533459983384478
1.0727722925226209
0.972645189813723
-1.4804965427007055
-1.3203831868668532
-0.11167780895447943
0.04084648842065075
-0.9948525228676361
1.9683423786787841
-0.1676960577505533
0.13247899654015793
-0.8125221841511341
-0.42732852896337337
-0.577415610218859
-1.0516714112429604
1.3798929124524126
1.7071713676322433
-0.4637146399040989
1.6100749733262478
1.2861486075575004
2.0285648783939467
-0.3136297883527585
1.5838562980501525
0.5102678115720454
-0.6503135514187283
2.452031520043092
-2.175290283262599
0.6043435985020441
-1.212349830179826
1.5297379592974203
-1.37866067002453
0.3165601295458726
-0.8153010636053969
0.5990744950766822
0.22628789060115354
