2.43459386727357
1.2036527271209987
-0.11075028859910924
2.0516558869511736
0.8090772376626948
1.424273287374635
0.20800723302244434
0.15844566277843253
0.22329305138494565
-0.21685279837233531
0.7251886717148365
-0.9536480120308692
-1.6985815457226119
-0.46447470095724064
0.07743431993022334
-1.1646639886140304
0.23492625705029568
0.3020376436327381
-1.0009460852094392
-2.657878982579944
-1.1598922685276356
-1.6252994430391108
-0.21612089104178078
-0.37175436403789136
-0.25778751493963276
-0.6104695899061376
-1.4053825919534155
1.6819333809247778
0.8403656289292273
-0.1587695032377487
0.8168135337875572
-0.3814775654292791
0.8834268719020667
-0.5870953300038302
-0.7783142081178095
-0.6983732092432158
0.5470797664092606
-0.6558649429102053
0.2586431184957326
0.012153243431019534
-0.09207662334317446
0.3010017575452329
0.7462539100783459
2.4316697822164928
-0.5652974772129776
-0.733031106246843
0.3161742068979632
0.7477535417590461
-0.4228442471842784
0.030919267541778553
0.7348778035341305
-0.35894523583195587
0.760286713924657
0.7207804463992915
0.317760108670217
0.13486706987304675
1.0037870306798706
-0.41131395310524094
-0.16026688599251815
-0.05236467259395694
-1.459523598017024
0.946233400997814
-0.5280992040145432
0.5911588973444237
-0.5183359314888616
-0.12256676113712346
-0.22162852641054792
0.43753473056143355
1.0540661047716924
-2.1318366733626526
-0.7578608518230742
-0.7657835230105317
-0.5648956029943123
-0.5933080304435301
2.1099542355803846
-1.6031734895813239
-0.24784849173426918
1.2814739529472956
-0.7239181514007409
-1.349486011094529
-1.2401742601384658
-2.0698572331589413
0.06082533625401318
-0.3540430121872099
-2.1341036661494655
-1.3272987379773238
-1.6974157364846039
0.09145608550611439
-0.8443659683930482
1.8830096708688013
0.7777766173666795
-1.057035844652151
1.7427839625865171
0.043959179923990344
0.7861945944087277
-0.2842352521431685
0.7903670464797931
-2.295308003494653
-0.4277073731087886
-0.20530155144004858
0.6018645133793833
-0.2574557914628538
0.5144517276239535
0.8805359201378492
-0.5721633886834484
-1.1940827697573313
-1.3607978739801097
-0.8107328018168236
-0.9533615373804092
-0.8780451655992685
-0.8719287358976087
0.023757433942636186
-0.8235550413525855
0.36320927937489356
-1.3868218241427868
-0.2484357077689494
0.24639873547787045
-0.9793923509578939
-1.209537783620414
-0.39768448294302705
-0.12409724524861052
-0.05269153325644174
0.28882965934633253
-0.7047586908872976
0.8673367485545216
0.2099652713574669
0.43870277862787266
-0.5477993171821154
-0.859435785691647
-0.33542639153038806
-0.9259639844330884
-1.2548565958530051
0.9119224233518586
-0.5922571526659641
-0.061949657019717275
0.2776683340353068
-0.6439908577562837
-1.0439014299030362
-0.2499539823569613
1.1117065526334575
-0.4095165590542362
-0.9872825172965838
0.024862457501691804
0.42870355596412235
0.47757262123934535
-0.4077809168794321
1.9738008831022686
2.5724651184942395
0.019652782672667124
1.3095879598287783
0.06472126645108522
-0.3429728839408308
-1.269339662469346
1.0909008014077073
0.2469757204805189
-0.5140951927577171
-0.3833427602966367
-1.8770827974675979
0.05818015560624262
-1.1251679199258957
-0.3261038833312841
-0.31459901427721315
0.42176232683022197
-0.9667197934359475
1.744455250486876
-0.7207267209035222
-0.4629741709040072
-0.5590693724836302
-0.33052853914007363
-1.246432546969986
-1.3730305759272732
-1.9560659955756459
-1.7273093014248257
-2.507699830282694
0.06898935243589144
-0.29629656249647157
-1.6818747249906598
-0.323209948730687
-1.053224711046876
-1.6099476869084643
0.09325051493755765
0.3623772555916623
0.7111956382367185
2.0494747641876385
0.9956982412819732
-0.5704847805900783
-1.6197818277804363
-0.2493337073567733
-2.4615202886947127
1.3394934958004976
0.9241312211477782
-0.984995092841948
-1.495820145707874
-1.4883906114723189
0.03188979224954003
-1.264999157806064
-0.017023654518483866
1.4083710185302862
-0.6000677879489604
0.4305965936872935
0.16559187199232234
0.6473468608783802
-0.02292934734862606
2.2343184839159425
0.833887462501552
-1.2101905548954035
-0.0932143732669013
-1.830917425952536
-0.03782111936750182
0.008654309914921027
-0.8892683947087581
-0.23914597674827673
0.5830486407585268
0.07268612849165446
-0.03775881664725361
-0.28625107268665606
