0.2123598521113338
0.1952807045446895
-0.553245511795744
0.49732152570586396
0.5604461245373216
0.7775463791955532
0.27235810849466807
0.27615652386793943
0.7891070207677682
-0.1465850870031006
1.2375540881206821
-0.3613515419479399
-0.36247046484727635
-1.672521461155466
-0.23147356537348465
-0.30758831673981324
0.67205197730756
-0.08965218626512068
-0.7905879974381926
-1.90941323511847
-0.2431656883898512
-1.633584969376766
0.2868106319734535
1.0863595399751589
-1.4769979004291423
0.7491167475852933
-0.7236345390549513
0.18931060395813049
0.04292819298840425
0.38163707751988657
1.0198413743309331
0.856602252040498
-0.7484455859357507
0.2199303681056843
-1.1376472606615033
-0.2818374200288293
0.28344708194589685
0.8939790141009036
1.0218738738322173
0.31285042187165635
0.30612805695837175
0.1857686146316116
0.5308872689169903
0.7206774004095977
-0.8174266365565819
-0.01652203153996404
-0.15843603849147364
-0.9036355310132302
-0.41945122592207434
0.2498669890087918
-0.1656846833974822
0.23633425923109325
1.0736742057253057
1.5396478598165548
-0.2093547020174591
-1.3155666068231455
0.6426397555827001
-0.5379660792000616
1.3565157833173567
-0.3769404684295228
-0.17362277918921734
0.596813907272146
-0.0810255237686821
0.717594993377473
0.11549576904057923
0.477675089336551
-0.018642220680016502
0.957291560445316
0.23220019462026176
-3.601642014669155
0.5430558750187323
-0.5684105040274199
0.09221869402639227
0.39126000574638564
0.879014853794147
-1.0771193886698496
-0.0893500440142013
0.8642162485446305
-1.449234951322171
-1.3806190365607474
-0.841074419205736
-1.3380723948329711
0.21205449644690152
-1.197405203354166
-1.0808130027718559
-0.4420573330201708
-0.8391162721869702
-0.31266014235352924
-0.28232145953299803
1.9588347588213095
-0.4978259263608135
-1.7986153047113616
1.3074899935683617
0.1934855954321449
-0.3041315397005638
-0.8505560287438823
0.6168871030244537
-2.731372769549755
-0.0031663104268885023
0.07486657822408771
0.5665329709118916
0.06414075396626595
0.803090959621174
-0.13286789353877915
0.5677643571146831
-2.2428078025189397
-2.0396244774017926
-1.038139162436342
-0.6150116669447306
0.34964171972586944
-0.12110776488578279
0.1338273276625419
-0.9236808863554069
-1.4629593827752276
-0.25579672203246906
-0.8496842138131688
0.04329150366925577
-0.7542182712041154
0.24152913521137864
-1.1686020583276209
-0.28577408505710356
0.4439945802717225
0.8603803773299212
-0.7551020173122209
-1.4091902810093277
0.9820414334596432
0.3154663319583345
-0.8384586930817417
-0.05026571734439672
0.2750424570883642
-1.6494451121222684
-0.12318740959184693
2.1946225729556
-0.4661302949230081
-0.5635648856195192
-1.0691046489373295
-1.0045495988157673
0.4516938001173718
-0.8677316029216813
0.4500026304307107
1.2239150098735117
-0.5958011203435258
0.7990217892455955
1.3399538709623005
0.7120595191221015
0.8225371688394638
1.5123500120454343
2.2360409998134423
-0.24832791106301277
0.8951628398243755
-1.7617407189269683
-0.9462757914911268
-1.2271460305469493
0.5408676766564655
0.11684389870950296
-1.782187602858297
-1.5383265751478183
-1.8146154745234446
1.4951075052278788
-0.8373685786754425
-0.35251326883944717
-0.5020018035048985
0.6806202098753535
0.012995483378948292
2.102368973392476
-1.212159421967867
-1.0211926888092873
-0.7079921665249238
-0.8973950435586301
-1.582045320109947
-0.9266269814366206
-0.8972391677114597
-1.2405492382696905
-1.4221962157926291
-0.5061954283313714
-1.4342430495611096
-0.41586806130321796
-1.4551414854733493
-0.5798418112537597
-0.440229383972772
-1.9959253680197242
0.12022828254168999
0.6817673307119689
1.7742020021510192
1.2670943065366231
-0.07108569251121694
-0.6036430290851027
-0.08024662795510606
-1.2290375470310246
-0.04625153355718614
1.1091233912691882
0.07683213295143865
-1.578210900642874
-1.0799732736618528
-0.7072984599745751
-1.7811068672446992
0.6995015160353127
1.0335828548024475
0.7800391161518933
-0.4216148424438918
0.8811760098953341
0.4519321800367424
-0.20156014948730652
1.2631619059071735
0.5399146824174225
-1.1630272479434036
0.9146425656277762
-1.8992724211555727
-0.7695080933565032
0.320935698584471
-0.02696325950537387
1.1791465772048788
0.08609470283650782
-0.476997474761182
0.23022710200674223
-0.12087468921288409
