0.8262584199953086
0.6377181429682444
0.31001402073170103
1.6217023494891696
-0.20611312284907224
1.1335740184501355
0.7908755769363081
0.5586436295022215
0.36242452723474006
0.918228575974372
0.47923903357478814
-0.7036730258959524
-0.5801190707555091
-0.14586419912763493
-0.026917352675015466
-0.0541786790305977
0.2620106244422921
-0.019886561804509068
-0.1636622216050877
-1.3668397187145005
0.45939512070946403
-2.1639749643061936
0.6174889185089399
-0.9098690290379072
-0.21512784639419477
0.3611525894571531
-0.9063660509890927
1.06544224568201
-0.12281375223864108
-0.5005349661097787
0.27906747262379095
-0.8157976775055366
0.11924553716365616
0.2855515998605373
-0.9107893649524907
-1.0833488538677136
0.16625531863008763
0.10378536784892062
1.1362188714068158
-1.2441794990071984
0.6194560216507359
0.29033515772482427
0.6190448417494637
0.10585792786038839
-0.3596734373721594
0.7208408678763722
0.22686500546498636
0.17769099998798554
-0.6983404396222201
0.4818680096735337
0.9514256316031945
0.4548213305245933
0.9336329755292014
1.7373040780647413
0.15192751096792056
-0.12607090510329705
-0.7381889616171168
-0.3437172306351147
0.8472807169629266
-1.3589783807006883
-0.7942605801413084
0.2752001784374183
-0.6788463648300421
-1.1699909641963493
-0.9445146756840559
-0.5814565167645642
0.042111090233566656
0.03076444406923695
-0.7094273988818547
-2.1180257493851045
1.529962847134025
-0.3992151897168679
-1.1118933000041094
0.3618885098489428
0.8878862691630196
-1.4812609723616807
-0.5650722199008917
0.5501402533181844
-1.063448035615196
-0.32798515885406143
-2.84913807215806
-0.9479380671637718
-0.7466536947539941
-1.1091183323069185
-0.9886176483779365
-0.8082571111227982
-0.9891002141431035
0.010908538058419653
-0.8175733572606125
1.0202569777157389
-0.9748686415422726
-1.482923216584029
1.839995995898055
0.6226478756631401
1.377610006899326
-0.012395160796416671
0.3296776206191592
-1.4443789194999717
-0.05442537275068077
1.041381826673946
1.649940334822306
-0.5360977707431339
0.43352692984373054
1.129987937111087
0.20034234704882176
-1.964770621357495
-2.153412120979145
0.05930449671862742
-0.7216918684922196
0.18453565041919054
-0.10298983912894544
0.05242917020451837
-0.6186249362596756
-0.27692931262119946
-0.8037309033024856
-1.0801061782880543
-0.632342780871173
-1.696163750926757
-0.016051155420319374
-0.006035286325996481
-0.17929166040697173
0.013651206900286372
0.2074269480699818
0.11135828816436932
-1.0858625823865249
1.8260509390237267
0.9662424258788674
0.6893851681078746
-0.12600553458528252
0.2073949711583978
-1.8947087617344671
0.7072367783879416
0.8220962975878677
-0.10247378170707194
0.8374348803468259
0.20032242646589182
-1.5060302530090741
-1.7864772950175485
-0.3150779567522838
0.8073729273751036
0.7252366207484406
-0.5281934443895948
-0.7445072004226008
-0.25995794252638976
-0.5757069681447671
-0.20106160981849386
0.6030611134184871
2.7782308856126363
-0.36430728788650363
1.5719039623605804
-0.31977196820306697
-0.8803114995102355
-0.9543760275678271
2.3218605442325035
0.4691353812097504
-0.6741778553304197
-0.5914128281875748
-1.2127533182720969
-0.6398677462738542
-1.530577858073968
-0.9636017383702564
-1.0558552984031135
-0.0469234125934741
-0.7108016415923444
0.724854726018113
-0.9904618140195348
-0.5722912887675847
-0.7113322562996931
-1.1473177581754297
-2.720064608120585
-1.2203266523021175
-1.013521113489237
-1.380143427389827
-1.4949981166990038
-0.5941297370450521
-1.2212103545754331
-1.3800929991981352
-0.7466377213231622
-0.5653922579787786
0.37806936173333516
-0.8548852811907575
-0.5317163484902461
0.7407381635137413
1.2947016872681814
0.8663747752719155
0.035600668662916224
-1.1280977448009657
-0.6844183243816804
-1.1539842376126204
1.0540716941322388
-0.08082432722154154
-0.4242569328124283
-0.5644752809350958
-0.5391735625597752
-1.0767876547694524
-1.6358026132678471
0.7629726488235122
1.7370376923318052
-0.1976894619398386
0.5574257152940498
0.33187700784402197
1.9831314645973788
0.06658256801325574
1.0426178059111404
0.29799532934402
-0.9340612690239574
0.9055838672957988
-0.8527380150980084
1.591025374753764
0.6488838628481682
0.6001332666858609
-0.04290687940279311
0.9924702673084153
-0.8198091556267795
-0.45090791620356124
-0.05991980958581854
