0.9070011438227027
0.6685288817205473
0.0695446390907517
1.1387078007723286
1.6541725415044313
0.6869352420753403
0.802253654006872
0.8255587034077692
0.6276531091586954
-0.6273719948893695
-0.2820659717505308
0.09269838395821495
0.12659894488183265
0.4361762526625099
-0.6651196376202269
-0.34503995073390964
-0.17781024751823027
-0.6249169848011343
-0.3853619434317114
-2.2189634797840996
-0.6297744977169057
-1.0662227151978536
0.1212837473189925
-0.4576024794853146
-0.9899841631668145
0.17211741605025221
-0.5121021050891512
0.7875821365866438
1.2127321183839594
-0.7289365414418472
0.47867271069191697
0.3608588543740392
0.4354830885033243
-0.6608518666982681
-1.3106328278427601
-1.0534406368866454
-1.0126161871658668
0.2625823206519548
0.7801406606934502
0.42220884483857046
1.1129099605562176
-0.36152459325099795
0.19818911551536825
0.8384403599861832
-1.3002961596292861
0.0431262441239294
0.19366331964300415
0.5896276556493409
-0.027276874297978593
0.0684823279808503
-0.3022108350469268
-0.2970125796594838
-0.12932860091069553
1.0226509672364772
0.10725003423747642
-0.4423507010167279
0.5034486407112168
-1.3343219837964417
-0.054366006494139474
-1.6740402391550977
-0.40932071334722037
0.9882844113719039
-0.21765461860416807
0.689252677241061
-0.09841092652839949
0.32157400248895596
-0.027671893549081977
0.4353789247851884
-0.1699126756365421
-2.6959245623192767
0.814677764800674
-0.39360175091302896
0.7829144364450928
1.4039189132669043
2.7541523477676764
-1.396786001100248
0.7418113563032447
0.3431743712173035
-1.2906271439149626
-1.1790639486678767
0.192998759925055
-1.6038153301851894
-1.076009622523666
0.381556408898844
0.290526285582026
-0.6331674345193269
-0.01139729684311408
0.3491601878846212
-0.7028897507977371
0.5388125743236435
0.7879493474342061
-1.5195237774005885
1.4864926221136845
1.043349706946848
-0.1797641818220551
-0.3622156695978613
0.8355231517869147
-1.804569602211671
0.7513702744006993
1.8336117146183224
-0.13196506435465746
-1.1256692927246559
-0.9334678975631043
0.09348999413343351
-0.09034250024243053
-1.4573730738593234
-1.6433493168370543
-0.3363574070356993
-0.8275873577259854
-0.3093061360848925
-0.9082841681070217
0.04871360128511587
-1.693487608831831
-0.19235120518632443
-0.7933152714928478
-1.4249063075738881
0.7905224871037475
0.8654700935745956
-0.08043453815179963
0.010218672592991807
0.3635639930286102
-1.0592895508190865
-0.8626321551601801
0.4334899677480618
-1.0226910002543381
2.0963983173662726
0.9898718577801092
-0.13370913294959696
0.3021621753226804
0.7184552259073524
0.17741623911566173
-0.6213185624418532
0.09222002296592435
-0.8740193918158093
0.7930692898394411
-0.1557673847039158
-0.07702676497117877
-0.5353031521354076
-0.4085165690159861
-0.3931541230136718
1.2180630292772316
-0.6385810126234065
1.0595596412534232
0.909929047088891
-0.9425779397226857
-0.3546023375145704
2.51409755281772
1.4994313383890872
0.7727493497033953
0.2215491219721505
-1.3753060385343268
-0.6426585924561885
-1.5769820180658243
0.08146161224255755
0.9178461761882812
-0.48626211297499355
-0.39115464673728195
-0.9542483569088254
0.4208951453597918
-2.094670088857693
-0.36731034915371696
-0.4342984543349145
-0.1610159109434922
-0.13693687682806954
1.0312863905314122
-0.5007337070641278
-0.4494798874223157
-0.08915396022380528
-0.6217620305361671
-0.8712091401795394
-1.60340460074659
0.13592672262131567
-0.8995540402271263
-1.265418380517913
-0.7311348833546045
-1.806406587686788
-1.5677870725539365
-0.4029467494364256
-1.5253847363380229
-0.20686143703034643
-0.7043802116526592
-0.42261041779509917
0.7621779935547591
1.0366983865483301
-0.847283206404962
-0.5646437001154124
-1.0319272837771027
-1.2440705177593
-1.7207500979577222
0.7692492313416079
2.0715040478454405
-0.7997078677168419
-0.2207664262713711
-0.8695648011513156
-1.7172583107061037
-1.0761285582543672
0.1576693451752582
0.3542538790237642
-0.7459632946286788
1.4850162628146641
0.9794979005957225
2.2660477713926928
-0.2061862442943478
0.6545736526437033
-0.42525106285294517
-0.994556655833855
0.6545482769246561
-2.7027216449091194
-0.518301587958136
-0.3322923076290639
-0.2260945671188665
-1.4240243466897353
-1.019093943869704
-0.44713168737268844
-0.40854864598986007
1.1814578110107208
