1.533621976384982
1.2907444707492208
0.4972301291288549
1.1211833376186653
1.4304243738059679
0.5308985761143885
1.5118963682973603
1.1850977866775434
0.4127409585235096
-1.136036829236196
-0.3952423138907915
-0.5892050224096601
-1.0832578205788903
-0.5402385154753391
0.4516138084651602
-1.5602983102371697
0.9918421961482791
0.2676816893119601
-0.6964615283696975
-1.7932872116432153
-0.243983639731363
0.08874968073384837
-0.15683014312043564
0.44307376182916686
-0.5191465646967549
0.23705819383287186
-0.8454614255575648
1.2498387329818001
0.3945188685537845
-1.2376070449600718
-0.052731737844287196
0.46592086207390315
1.5723611661241614
0.41918869600615016
0.7862428155087652
-0.5114775827069589
-0.3937132649994859
-0.20545425308711843
1.5228460867263658
-0.19922050403951194
0.6097301843861768
-0.44384846487735413
-0.5475921016868381
0.879403010603127
-0.6061589730729373
0.9025753000951788
0.10747318490801278
-0.48779891705664546
0.3858051219148536
0.3480903209874441
0.6085563203939878
0.957039319260447
1.0789476776814058
2.479357960124095
-0.14706059040787173
-0.5433590353445681
0.03325240867571498
-1.3010950933210768
0.3182004768531159
0.1968371214490633
-0.2344674166795891
1.1468051212177164
0.33793475880556445
0.246816212250009
-0.32213324589279424
-0.38603967323975996
-0.20145947868803446
0.10301308905293283
-0.6391086940502608
-2.261228788347529
-0.10093043949212285
-1.5555287406591285
-1.2183902816330208
0.02371429563479399
0.9741543510556848
-0.10593822986694135
-0.2473580890557621
1.4336929256594284
-1.1731574295138094
-1.6849971452368409
0.4517306882066243
-0.702330103806693
-0.40475646478895316
-0.38157218673831633
-0.4957655026704203
-0.4605116005951849
-0.3163358220933008
-0.40715273198438345
0.3920843725604637
1.6897548047666078
-0.47486059299722794
-2.4202652906080724
2.5743064893610366
0.4544570165437363
0.6119102990510575
-0.9348863215700971
-0.1441214446519521
-1.3491445300705531
-0.3683707078183862
0.5712351876056221
0.7054350710477201
-0.6656902566034364
-0.05513803014070051
0.7196462826947834
-0.02590324580124993
-1.7665566162547917
-1.5231101119576818
0.01566681653938984
-0.6478011600422579
1.4959785652691746
-1.073335905194982
1.1627546753808677
-1.4781956098880653
0.2585191330386687
-0.9981732399549031
-1.0346472828367244
0.13389224301610195
-0.8530764991447523
-1.1315090428249026
-0.9731250252569095
0.284040711936528
-0.9650293450196641
0.0984709595491357
0.8882610125446325
-0.8957853136400749
1.045364087300106
0.36790207910163253
0.09524214116159717
-0.016310421652955043
-0.192875596723107
-0.31970477315595364
-0.8786592479093733
-0.17966352684819165
-0.7769859070258718
-0.09228589203635579
0.4405331156825478
-0.3553492621204547
-0.6687769465980948
-2.3861842476651614
0.25963347615482435
-0.7085119960458799
-0.0515060483396351
0.5058071355048479
-0.807814172990077
0.9766612730096706
-0.023000289724219743
2.089684852977972
2.600706350844502
-1.2957113554189168
0.905751724252361
-1.624627988465505
-0.12160092016909699
-0.4464057982486595
1.1521490253300275
0.32918173235591514
-0.7921031325623011
-0.9700848542981761
-1.34305430688858
1.6487091979128516
-2.220134831190436
0.19985640087080847
-1.2289754063094764
1.3440883463236797
-1.0200661168343879
0.7701809134093724
-0.5168757484186002
-0.7127295706757057
-0.9482459075434118
0.04866771138729559
-1.359472703156398
-1.7544506447340802
-0.6801595285822212
-1.3162878994059568
-1.5308968418036495
-1.304181060318246
-0.9037282371550092
-0.4413756250933337
-2.5800366985529517
-0.6575355751466122
-0.06818522953645545
0.17889142051876006
0.09962046168962035
1.1220854602985608
1.0699424898733667
0.21314139687022948
-0.711177643102642
-1.0594560588896598
-0.41889365800322553
-0.02329386839429559
0.7997608910031878
-0.06339867519920583
-0.6589445861383575
-1.381627823967851
-0.8268362614953535
-0.9844997223308974
-0.506874980159217
0.05521158303573137
-0.9342192238161875
0.4677054013026389
0.4394853306680259
0.6557607605092745
1.436106851356326
-0.8067940390440846
1.567389252301462
-0.4548900857108524
-1.2014592371894284
0.9089070400821186
-1.8273663400243607
0.3137628931693915
-0.2867457682377391
0.9131330972221503
0.12176897127825836
0.713749954440661
-1.2356409936702017
0.12318760390582306
0.11196901092321562
