0.7577735724573099
-0.6221774438702611
-0.1400029085215892
0.5406954017629664
0.6859036556899916
0.09138509591279803
1.312114304341668
1.3012417928853952
0.3278561378798848
-1.035111631234198
0.32418417665329924
-0.23333403876772107
-0.9776131033291089
-0.26610270890587673
-0.182126541330745
-0.718932326253323
0.863861192469479
-0.3289683487379359
-0.15730142046192225
-1.4712680429467264
-0.8476427673208142
-1.287834328502479
1.7555178124748945
-0.25356163611911076
0.8636891122683026
0.09373107999639074
-0.45513198957108164
1.3058150387222633
-0.48154493266445086
-0.5805012097424167
0.6107971259971796
0.5676435013740933
-0.3165933596844024
0.8945739516215334
-0.4641274261686497
-0.9342607234696201
0.7501256352247468
0.12247767374379553
0.5409238761187538
0.26626664834855984
-0.049608590830492294
-0.19920775573935143
0.3724792032997271
1.3743507937796202
-1.2337968791603346
-0.3321621449129868
1.7471437509542713
-0.3917035331869261
-0.35009145887138926
-0.4301515824057096
1.6914276487180302
-0.6962184110723273
1.293870544981512
1.4515103213012064
-0.1397049683554348
-1.1595846283608715
0.08664693668402602
0.08160581476501327
1.2705974537443732
0.07752811505948565
-0.7396322395199233
0.8739704290271129
0.4457770542314219
0.6944038229966765
-0.6600212919164031
0.22081688306128092
0.37643768271691913
0.1961192064794401
-0.4821847209443039
-1.7150569638562065
0.3595359648318532
-0.9557804759561301
1.1527916571507857
-0.17985381583445095
1.0995040690007043
-0.77624700748072
-0.1100694772222943
0.3324656028015376
-1.7421576405921941
-1.265580954535484
-0.5346990666969569
-2.210394173538113
-0.5941546146814852
-0.995924001427184
-0.2700771312019592
-0.30568046186458464
-1.1979986172354533
0.5189026570052605
0.669203207543351
1.400456351011785
0.5033411025663524
-1.12309287942976
2.1183608575462145
0.5427469203503431
0.3038438540379267
-0.1655397825971615
0.9399178754046614
-2.2209519826492983
0.34539696028285016
0.30877160028955186
-0.6281255288513765
-1.0451362127469868
0.026235017328490068
0.2961929163582601
-0.01720863598271761
-1.558250797154592
-0.9714242938250293
-0.10585271098761828
-1.2520275326635144
0.4701613583940107
-0.2661704561122852
0.112277083173905
-0.7065948677173473
-0.6227711681839255
-1.715017157808737
-0.8900963504953439
0.6011290748933463
0.30804763995192913
-0.4044494403814693
0.5620948324840755
-0.576028469491696
-0.10388527897362408
0.2947577375159904
0.5809629153535772
-1.0744274406109489
1.1410313724130168
1.3211700098809944
0.01776029269056156
0.08981965196612957
-0.3263687372368463
0.18136666548759095
-1.655960896504257
1.5291449178404586
0.02923460992979865
0.31050085222871027
-0.3614511084683553
-0.5258389115329662
-1.6470657662415185
-1.178621224409887
0.5083244664079634
0.5016343373989014
-0.6750946792329777
0.2630443743412352
-0.7291856622031558
-0.9752180249059375
-0.6808958560501785
1.3379364205935902
2.20979751892114
0.11932959512191621
0.8381733115842365
-1.204867148758132
-0.11591069656229232
-1.9273217319711322
0.8069992972385939
0.20015403993543895
-0.44050318174513936
-1.0284429147162792
-1.295214504771033
0.09841861565475402
-0.9397526033844231
-0.2092504156746205
-0.44220917442159546
1.0393848325992487
-0.990864488045169
1.2041344445105084
-0.7690168780039282
-0.7636833902670801
-0.7460406315470013
-1.0514715204570053
-2.112006375202674
-0.3887258143931004
0.21671039592829178
-1.3115073274605527
-1.7613784325670907
-1.0857168459498703
-1.0441363282490657
-0.48513252008672625
-0.7178743446095306
-1.3997607772804828
-0.18279006926540964
-0.8073816221327255
-0.8443124826910142
0.09082095662240541
0.705601311973516
0.15836365727571147
-0.5792658707010867
-1.4097968967692
-0.3263360946488251
-0.7588114258256142
0.6894113356139059
0.47046551361230393
-1.5302761442504689
-1.5184223149719998
-1.2481075525127916
-0.3856248134568686
-1.5139592712015735
1.1595634432722846
0.3451095321457919
0.6837362185078153
1.0745795116338226
1.5189586090843652
1.4506957067220385
1.0776529552920504
0.9660919199466902
0.2886392991139946
-0.44878298660482274
-0.2640878005157493
-2.4959531252171736
0.3382176833307571
-1.4387022357441832
-0.6095574809543376
-0.1642045244228148
0.5598229814597757
0.24726886664500214
-0.650471234374372
0.4695239022384644
