1.7819218955867062
0.28788850389157394
-0.043758324869967447
0.7145708752938199
1.3578809203726787
0.4313523547162344
-0.20596800546060767
0.8560524539524589
1.0414320220634639
0.2680404020581885
0.9851757939722412
-0.05039547510302933
-0.5575154464680069
-1.3692267684266826
0.5669902939225917
-0.5927116549789954
-0.0032304953414517
-0.6921698829595871
0.10546198113342209
-1.6020012607835352
-1.0905877412571254
-1.4139844597139182
0.7470129767849829
0.9690877518453633
-1.533060249785218
0.4638390877117756
0.3349895030391121
1.391120417977184
0.14907243975559326
-0.234868409878394
0.9585641147570119
0.001979068250489144
2.0505343238411573
-1.4959701269470462
-1.3035383463082835
-1.1805804484347233
-0.06724971157558096
0.9777114555165576
0.5999880403381387
-1.0550683981291196
1.1126304690890354
-0.6701414834636019
-0.2689235312662173
2.2803223749540766
0.13536414895897553
0.5989972572365436
0.3530965235643637
-1.0682242660929582
-0.9458393395129636
1.149004634888934
0.5947379916893256
0.05739544441578375
1.4714494289290767
1.123897819474121
-0.26229025547137674
-0.5434291164355793
-0.28114169140919837
-0.682912362373314
0.4670281034921374
-0.9513481475902518
-0.89974018139656
0.6902087783492398
0.5943461426016879
0.5307712782936369
-0.19766115378065033
0.15530906667154618
-0.16552236198141743
0.5911499661263904
-0.1410224982605574
-1.5337287708748115
-0.6890116167589005
-0.11367572498576728
-0.5871982855517208
0.014933141841887598
1.4801829221746243
-1.576957537378495
0.1816779126582544
1.2421943266115278
-1.265054340314672
-1.425354974107383
0.4379946684631084
-1.5723904010748362
-0.7142565753735605
0.5738306089205661
-1.0477399006892398
0.20825417290017512
0.03019564149763232
0.0013119231914845986
-1.015534678294064
0.8925951465858382
0.43807749500536447
-2.3847681409840455
2.1700414287904044
0.2705987719945734
-0.22397667141609856
-1.602807878329853
1.2651689114176916
-0.7026600262667541
0.5639581269665735
0.07214643829077017
0.16904939679573935
-0.06774530104912913
-0.1804771719685753
-0.4669264022822063
0.32164524229605446
-1.9328592285260007
-1.6856430876267856
0.49096468567301127
-1.030749091134978
0.4798331790600334
-1.1665024390279093
0.7931638521937372
-0.7368691790906162
-0.6211596614696223
-0.7483881512484443
-0.9775666867141091
-0.4588242227611657
-0.07628098695922286
-0.27160776291297706
-1.0236459472165653
0.2676029517956149
-0.4630481253280233
-0.13588093773528664
-0.40748423951596585
0.2683638735000609
1.805593624619271
1.7583640220691592
-0.37306653488387786
-0.3501069992377531
-0.03694147313645463
0.14112174838854274
-0.8533706998664558
1.5600040516719063
-0.37215739897496475
-0.5088918763770857
0.19287983835704992
-0.3165782656936209
-0.5217643293302409
-1.7682999730015234
0.9958095903735092
0.5479447126501935
0.042018532924255225
0.4561850218601297
1.4888866715942257
-0.03804974972253661
-0.67524211955473
1.455571227336304
1.18892385960746
-1.4240894452536914
0.6192994987404891
-1.0350360904865177
0.2394533885757338
-0.7189231328312062
1.6091079714964636
0.21898827605403137
-1.5063377424342406
-0.30180773331722777
-1.8979850808953418
-0.4868398114110576
-2.0430352740565367
-1.123138024876917
-0.5211063048236428
0.448901190252381
0.2968492034971181
1.952914516459114
-0.6847265159962386
-0.4430327018385294
0.03424652566124953
-0.9342686567279226
-0.8620518932513712
-1.3562017369524104
-0.8953385446546915
-1.4092704381714196
-2.4199494821622953
0.17615236906460618
-1.2966752593412094
-1.2207153119355436
-2.0773527270409877
-1.0222132376507653
-0.8227933888440713
-1.4796957298267945
-0.4603659418019994
1.761734619400278
1.6614021358923807
-0.576529086797091
-0.5216335131767561
-0.6531960584579277
-0.4739127404569268
-1.1936284608891488
0.261020444781951
-0.01709093915565063
-0.7152210562173789
-1.0143641564197927
-0.9447593166391646
-1.0758142446134975
-1.5367915738211106
0.7824465424442459
1.3792685992760787
0.5554946954651064
-0.3136447508377308
0.2773106944767643
1.5225483470078243
-0.6794156067853641
1.0666028008457156
-0.13384585085073925
-0.8422990820019198
0.8322251760197699
-1.7437325348294916
0.07060147606894407
-0.19643086231318269
0.7198179930541687
0.9053816249445744
-0.19060532018545773
-0.4366364060498926
0.0249578152635739
-0.2363500832408413
