2.3424104745321146
-0.3004388979457474
1.419166561305944
1.1653311750187874
0.6567441698717527
-0.091942312202406
0.5918156228994519
0.9745002056924776
0.5500790549833211
-0.9976916464273148
1.09829343765723
-0.2510805496246695
-0.20545019173025914
-1.391866788993795
0.4396012572654995
-0.5432265707913871
0.12792714132763083
-0.020628184486446516
-0.7770144982379653
-1.107157215649478
-0.30361616966025023
-1.3022011511869018
0.3835603137697201
-0.8214697775695472
-0.3525553452877457
0.9042362472842911
-0.29410062030102085
1.6864362445752663
0.15809146676197014
-0.11006209591014493
0.8481443115428903
0.11110969120824726
1.8657927704199793
0.25084745473474673
0.11508254917822336
-0.8519163983834565
-1.1359889079152132
-0.7433241045113923
-0.40950989038657415
-0.15417977218723766
0.25251105325702095
0.1418675160042538
0.7427493557371485
1.6407070963905857
-0.6652744151236272
0.2617070763230316
0.8223684815822072
0.008911607300211621
-0.2544049236479328
1.0374218337309127
0.8684130540698154
-0.17743153278792528
1.3455688521750298
1.2198836552434473
0.08913390242286938
-1.1774890435685235
-0.8617285443689398
0.21186075527794934
1.364785261572309
-1.5489022367928198
0.1975930837710182
1.1064972573877305
0.4158131106100723
-0.007893293641506316
0.370293584162883
-0.3028455360586384
0.23530257526333065
0.23511139471956055
-0.6094812624935153
-2.368732970170554
-0.2737521286325182
-1.5185210287710809
-0.42646454815087576
0.6130121106119255
1.5863054602925428
0.22107042370307028
-0.9353077663574043
-0.3440888001233493
-1.7595988028520555
-1.4069886836061594
-0.24659479238477977
-0.7814577421573197
1.3599899110419673
-0.7543665467531322
-0.27320647679663645
-0.8007394773136869
-1.592006714902864
-0.3224685307819315
0.28679542310122463
0.23720913971269697
-1.1520271754089508
-1.055383850319501
1.4386425541128105
0.1301239934921086
-0.5517963743219924
-0.8413602323745004
0.7740994314185403
-1.9322348015431023
0.6797420232499239
0.21359608409917258
0.37549919853878777
-0.8048976520101014
-0.3486442038290468
0.9705140220704469
0.3334713863164597
-1.9917430109086212
-1.6462273275767891
-0.4919976230391981
-1.1018656888632643
0.35494724716453663
-1.3668435350524315
-0.2368664827850765
-1.6167488883940644
-1.5785234762310485
-1.0111098800492935
-0.3630177254129563
-0.4404849062323845
-0.10029956068810741
-0.7026340573607491
-0.4692949328085767
-0.07009832988513798
-1.2172930243629618
-0.5811263357937331
0.09047271833194415
0.2599958589934042
0.8897681581078423
1.5053387410863772
0.031332273768303165
0.45020258453783185
-0.3093091242311467
-0.9596469633492575
-0.5937933464854993
1.63708791487977
0.23978945114841166
-0.11844814953796015
-0.28899183136860346
-0.7854282135974492
-0.1696902101212437
-0.7359377201376743
1.1535299995755193
0.2185932140079172
0.04443022496046662
0.1722575157287236
0.3141836938736583
0.11502539289177831
-0.4315600310265211
2.560608851129682
1.5195021837142018
-1.1030881825611658
1.4613632524155888
-0.6681082051037224
-0.42950921369656847
-0.6654295722967786
0.5217081911473128
0.5555626138568441
-0.12902026863757632
-0.8166290349409276
-1.490363646666748
0.38814747255410564
-0.3283164158137819
-1.6091658118449628
-1.0773848999917242
0.40683867410544083
-0.2928737295049958
1.922132616556825
-0.4960238042240532
-0.43525212733787605
-0.6437892714014855
-0.7227344769267905
-1.5526704557764146
-1.207131458866677
-1.4271282931565374
-0.7522137907779111
-0.9193268547600125
-0.6270847768082293
-1.1146788779178471
-1.3934177558360439
-1.577962674104453
-1.3070768876726764
-0.42600358524052195
-0.44312868298828684
-0.01680178156027551
0.6039026791058479
1.3599208707754167
-0.31615207654337474
-0.3183024016440067
-0.9671895532708066
-1.3925023195027078
-0.6374866637174165
0.5728205064602919
1.2066021749786011
0.20238066266065957
-1.2050600634221054
-1.0745699115276786
-0.3016811670717764
-0.5019305301150353
1.089168585354213
0.5994839803766687
-0.6471275184991683
1.7624603007731285
0.49002338991878824
0.7440254300990505
0.24126933643303816
1.857357007586009
-0.0007250832170393462
-0.5628120313658241
1.442335792975945
-2.8084439148322176
-0.3370112628374321
0.8194149225461189
-0.24931315263073767
0.37409188123367587
0.7354631551414201
-0.41630239721029205
0.0071821617988400335
-0.6179118843525032
