1.903209345274954
0.5850847593579351
0.0046377558686101494
1.1625424253509962
0.46609578410491936
0.06151107012105167
1.4645682143778647
0.9223969076804683
0.7494024000658004
0.5453578981926631
-1.0411484232385968
-0.8991640181632621
0.29117100053088585
0.02999391476289448
0.00581692442941506
-0.15015216080108185
-0.1646900281958078
0.4574997195591909
-0.31854144514850613
-1.6960646981428098
-0.5939063304795181
-1.500791913289726
0.46910631649428797
-0.32494481880021026
-0.26840495788247376
-0.37713600498995137
-0.479726573459863
2.002603531143538
0.49163573850520476
0.17448426931533206
-0.1285724392278489
-0.4830109261441557
1.2272008122747013
-0.7001612433275217
-0.1691030510622491
-1.084097554421044
0.8362846927356367
-0.03834713047994434
1.0367050128432573
-0.1270512162028948
0.6040960320362528
-0.07729779167870182
1.0478155036541497
1.045362721070601
-1.053931860161673
0.4274387323915972
-0.5158095502744391
-0.084252358692603
-1.012933185597677
-0.07579790086633413
-0.35693690348370033
0.12640707752143504
0.3902073233782071
0.5812588747593919
-0.8546325811462832
-0.7657933644582113
-0.7665284972601155
-0.11756416413210707
1.4817332450897363
-1.1637615302715392
-0.16403770914156796
0.6269098848055047
-0.017790925627449848
-0.5070850964624174
-0.1697520338728854
0.08059061526467817
-0.5551066896890384
0.8495551241510375
0.3169628038327683
-2.847867280084928
-0.5592669293855903
-1.544443957515496
0.19761225439510677
0.4223031434929245
1.6230067850854586
-1.0819186526496931
-0.6454605142419958
0.9894364755607913
-0.47167926404988425
-1.628582223644758
-0.26626193492321154
-0.5068883005033237
-0.10032125596205965
-0.39605792574189574
-0.5956162858902063
-1.0114530283288863
-0.8530931089645941
-0.6651856103784402
-0.4972958633594514
1.9622852409611462
0.2121796118317597
-2.117908055564335
2.086902341794745
1.7231072011491135
0.23290360595604426
-0.3590310915099927
0.9255418723389375
-2.1466201676032863
1.3092055779490475
0.6728229873852392
0.06775874862106152
-0.7965961645523617
0.1233137744664648
0.17296722932710007
0.17240942182195612
-0.8576741352808113
-1.3914518141034355
-0.40421841811411907
-1.210594722442519
-0.17448119170639087
0.3654579286348626
0.25717051840406024
-1.4323072930923204
-0.6662000821304812
-0.9333406350121488
-0.7854562170721677
0.11451461426743731
-0.705114549279255
0.34100660461597665
0.09139443585899842
0.04686140017399176
-1.319591891596662
-0.09996994731566224
0.04264669463645099
-0.3230378359286511
0.23822041022481844
0.4514459355190267
0.7690410541087032
-1.0705261155886172
0.43500909976322705
-1.8044062487305008
-1.2332989380368875
0.8707160840620414
-0.2690770612905083
-0.3411392015282454
-0.18043163935063625
-0.5382689431380625
-0.5602814954955334
-0.5156050292185459
1.877702248185958
-0.34154225994050963
-0.28333147872584685
0.5198131174005219
0.7615479417629032
-0.31425819225778795
0.34450443325663377
0.6066984040204504
1.1444449792285063
-0.723007553495414
1.4344111513245403
-0.8796113349345376
0.238998058688885
-0.6860005925566635
0.11915436860014961
0.3858225454787626
-0.4446141214941786
-1.3558847531737
-1.760031333414039
0.600161086285629
-0.8091377693397638
-0.39645733039992936
-0.2615557562509025
1.4096434720747109
-0.7501543744659978
0.6994971647286614
-0.5607397991456728
-0.6293945052572005
0.04109992504460647
-0.22312885677076177
-1.5740804235673374
-0.9087522948050457
-0.7921327274074099
-2.541378048067397
-1.519740231817543
-0.9580510973517885
-0.9935656790691892
-1.9070629252247082
-1.3576065310433312
-0.2930880375394431
-0.8070079059738449
-1.7010420533558874
-0.08465480122860691
1.5343026649709555
1.2781543714394932
-0.3516822114553223
0.2451124116952964
-0.01800239415188265
-1.125490945298853
-1.6179510116622122
1.2363564794783004
0.5514554574062956
-0.9548199082036697
-0.2177100724609644
-0.448176888891925
-1.2225172748536968
-0.9858030422911305
0.5816607922504861
-0.21795307626592464
-0.1592600480084873
0.7943361620945263
0.21013305999662418
1.553444854657306
-1.0563667789589632
0.7256579159290547
0.5605329359290718
-2.3990526995189203
0.04492755001609494
-2.1053245695707843
0.1360952650900822
-0.24326267116986167
1.2230493182456514
-0.2377405605834219
0.012576376201992704
-0.10642098784807519
-0.4723432823407121
-0.6887618283817796
