1.4477710489424906
1.2270529806519122
0.49122040916822823
0.15387865028177694
0.47858234887338136
1.0763476187686445
0.3446040675489215
0.9186994459849569
-0.8427017939729881
0.23367271079524
-0.33021535553403686
-0.34056684335218496
-0.5352657604875027
-0.8973399003309848
0.18546283884780093
-0.9553524557112585
0.5236142159534197
0.22517287618706416
0.4694287111585357
-1.7928821058128164
-0.695950756495086
-0.9999499822618613
0.17147823217829206
0.4574407686069329
0.18240922498969764
1.2098490418894041
-0.9454235116983828
0.9050947515108029
0.7813423909381562
-0.6127975774956649
1.602727192177456
-0.24117635013504501
0.0806094272357063
0.06341930145014335
-0.8576442293701159
-0.8214232771550141
-0.36606835727989984
0.19667548181894406
0.5831765226131197
0.11632514337677863
0.27102224513900536
-0.49448293643160895
0.7500001018210001
1.3962438211921908
-0.13820082857217686
0.20082226953133825
0.49818823781128246
-0.6096233412708312
0.002107688511423733
-0.4203449099508457
0.3374880566057967
0.2316727490438265
0.5875828309211547
1.0246575288035364
0.3888032017217779
-0.4971775103776982
-0.2124006783811201
-0.2520503164772433
1.8622797482950189
-0.577488077953364
-1.123703403878196
1.706236200950981
-0.6764524462966965
-0.2758531434358288
-0.4782806258243916
0.3947486441810665
-1.042297670160853
0.42945072452805183
0.141271669585546
-0.9345462821844583
0.0948568170554305
-0.42179923628646654
-0.2614432302495715
1.10558210790763
1.3397049021154785
-0.42148467702090947
-1.1065495807921952
1.1223338939108778
-1.1946178283828013
-1.1372811945423666
-0.2600210979085915
-2.386617579021046
-0.6863176955202724
0.4410416333608541
0.03748445497629005
0.059521706299295096
-1.3766203147569267
-1.388236007451848
-0.2523648342398704
1.2051688830432992
0.042764059409003144
-1.6659915069038491
1.6832109840462035
-0.5459792525192473
0.6238420623231125
-0.5002980122541133
0.8678095627165612
-1.36937615916856
-0.5063289720848394
0.7306602677203408
-0.18431179386521704
-0.29123676793976105
-0.1723646776259751
0.8343798789128871
0.09232765309904992
-1.4342731598953191
-1.136288844541303
-0.5392011910668493
-0.038594573659395004
0.6182145001310135
-0.7803098587727135
0.24766886665013188
-1.842637677380249
-0.4575801045500882
-0.6833186091485491
-0.7793431996248614
-0.39811571449475774
-0.6009084193627685
-0.08059695544978124
-0.829591300633024
0.8532002590771347
-1.0801714732978143
-0.48493707599972663
0.7286173316159372
-0.075731645232716
1.6522251705352877
0.7816064139870653
-0.032690312981390725
-0.8048350882388255
1.0742993970039683
-2.4688139971313507
0.0004395376278102936
0.08852233937541154
-1.8366813718117432
-0.3441758488051798
-0.5649601316093393
-1.8111363333862847
0.5719590812176396
-0.7545028933659964
1.4162244196852403
0.26270582428791356
0.025318225587513232
1.2971138808936438
0.8161753925303084
-0.5949519024093521
-0.40532694206010467
1.2972566947519664
1.434666648879795
-0.8182063960259918
0.9146965150715177
-0.9588652802422607
-0.7027576962241022
-0.9908470239665204
0.9058464069604498
-0.2629084503180972
-1.1064697390968437
-0.9694552241943618
-1.2368854917974559
0.5684059117230401
-1.6235356313375466
0.052295459724787
-0.689793695505179
0.2324174290342778
-0.7389010364476438
0.7601356891385262
-1.2553782257541246
0.17242061120916558
0.16106012705401196
-1.0072869678140086
-1.7371922187240345
-1.5829490544169222
-0.13725633757929023
-1.422170423995012
-1.8544987476859305
-1.3532914468698811
-0.47118845088900846
-1.1146353863910712
-1.9259296629156812
-1.650827818342834
-0.5323982749282022
0.33974375748247876
-0.8354422516038136
1.1895773995342656
1.3448166617873456
0.7888420734766702
-0.9285049406820298
-1.389735809897462
0.2875667609282331
-1.5810039072872106
0.9600257394223115
1.1178726100783987
-0.18766324060020634
-0.593574797104176
-0.0683078155798561
-0.7065770772616049
-1.9242496677580683
0.1422727301426024
0.8349269218294258
-0.3922968683159735
0.23345353617470588
1.1551918258636305
1.2380557087019495
-0.15842192184842993
0.8101292833951449
0.7995866786582977
-0.5039351188308067
0.7314323691527421
-1.8363414205763597
-0.8937772637609696
-0.2744144813071822
0.6743982051597173
0.19608061938028504
0.4206051545723103
-0.659533035238969
0.46729728825763067
-0.12585871784871733
