0.9263847603947744
0.7886514105096118
-0.30386881570452323
1.1768953810474396
1.493593419082326
-0.10302605030757572
0.6262171362166936
0.8126542390568485
0.3462952550995855
-0.18957424429724765
0.8220324786051549
-0.48716041334351273
0.10247537645309396
-0.42728075173786156
0.6694266928903759
-0.5708127492909647
1.4455100975219934
1.3159730081893835
-1.1216403284360839
-1.3503640439274498
-0.32549054494305585
-1.0115695196178087
-0.13268201384345268
-0.005109172481841853
0.4350234631496483
0.8865048674018507
-0.5313204345139794
0.6765505007996417
0.6006149386073255
0.14637831339634483
0.21989929433063365
0.09335049566426684
0.5890073859292833
-0.4073681789148986
-0.2377854704399584
-1.4953216998139127
0.21355640069028847
-0.7263134424508245
1.5686829982013597
0.8443215579547831
0.7589957047116157
-0.4858236361423385
0.6197611088054118
0.3918092829275407
-0.7792754475573987
1.6669095983225009
0.5313048622681703
-1.1454568931137858
-0.4788380125077275
-0.26421278881254134
0.18894147935311228
0.18435328888856745
1.1464647091355604
0.28967148826963873
-0.2656592069408162
-0.9996040322691585
0.6426202205394729
-0.7295177554231416
0.4066684514322263
-1.0457489973921696
-0.5332816539547265
0.8809810835547905
-0.7001024524660316
0.4148772329919479
-0.0409868412473223
-0.025555345543665828
-0.18059963015414562
0.9395187121615522
0.16226020908899905
-2.1551211036469637
0.4731020451353617
-0.9100243310553757
-1.0278987244437598
0.11845617957790482
1.8634722743690566
-0.5459612727255265
0.16785685770910713
1.0198113142517136
-0.20020860567796417
-0.5735310117626651
-0.4590321537189659
-1.1354661130930468
0.15226025730362877
-0.22106312995287877
-1.0945939182396578
-1.8315358081072206
0.3476159226973744
0.19706256802918992
-0.11532606493216124
0.9850267691338979
0.41050777188077897
-0.9880057699648177
1.1921662791752035
-0.42539711082254866
0.8937987609756423
-0.2397245107474017
0.23098392416419372
-0.5039749850761
0.43213219545701914
-0.0027675372685428967
-0.5178348062906042
0.027845147174184626
-0.38331437862120443
-0.026154270246093902
-0.18885933404599883
-2.16841764893551
-1.1096509802428416
0.7598943697503588
-1.552147375397463
0.04522580918990507
-1.2581246029553799
0.4294787714326434
-1.6333699501272325
-1.4430211672085806
-0.9499286862239249
-1.236647362667041
-0.037247692291855705
-0.38753622794980574
-0.6145306430493914
0.0939526807144182
0.5328249833525197
-1.0360336865735018
0.08869808316114064
1.3749532792181014
-0.9666100958896842
0.991451209802946
1.25429302121723
-0.6391608753049579
-0.5825968230209977
0.9431569856065241
-0.13621022315638398
-0.5618994406950056
1.3452732369718277
-0.22718479713378265
-0.4224611449332377
-1.5469769940522502
-0.7460432569367297
-0.5224881099797655
-0.9691472193853552
0.10727133292908558
0.7892890882488799
-0.17981605769150644
0.9769599405979104
-0.3005334024011896
-0.015842691599374348
-0.08225118079755436
1.0666543783410773
1.3768665718034916
0.20324740356759907
1.242969509898729
-0.42806424060671044
0.046168121187490085
-1.199217606613436
0.5900854486102725
0.07321113461524886
-1.641233935874994
-0.7087011363036427
-0.4674927960716867
-0.11267819733107248
-1.0033313027241906
-1.3738350258839696
-0.7362418316768834
0.6463716554928522
-1.2592257238081657
0.8733081983854089
0.5142110301882503
-0.6025212949867264
-1.732427429934316
-0.2939280788465666
-3.0457992668578298
-0.9624069742624443
0.11474011542674001
-0.4728832994143366
-1.4983649096755403
-0.7590615598675111
-0.820702493309651
-2.1028020124999007
-0.8021186784858692
-0.16815142786417647
-0.43966758255330546
-1.1872969674281995
-1.0454179566001984
0.6988512766523121
1.9844854761800166
0.4063578772500206
-0.18748388723749504
-1.7171676420491826
-0.27296907396704767
-1.4453582467112633
-0.41585587513618216
1.4105327453712242
-0.6003797562097786
-1.1775548215190805
-0.8623365830731893
-2.148374203869482
-1.4484802206835483
0.7796588734421293
-1.06633093339501
-0.43562977355750615
0.6780684336967202
-0.007196630949880323
1.0413304239254406
-0.1800238952792244
1.8460211859829019
0.8618901016202998
0.01669647728673862
1.351679549425637
-1.4409018425196818
-0.3058228543305266
-0.27066433304649573
0.4499557640473586
-0.18653533363105512
0.3403129759931914
-1.111038866155448
0.5311226542423566
-0.5729178524597625
