1.0247565758643
0.46868156923838866
-0.1334535020538526
1.4336085435143984
1.1166805691603323
0.410928422190843
-0.6714326548274052
1.132411274404893
0.13405046343135368
1.177696632831474
1.2704597781582774
-0.149483293201361
-0.07718587251124356
-1.4039288804799208
0.44133507469355365
-1.51558680507932
0.538181036150093
0.6868764570156766
-0.3961526445318282
-2.519890325166131
-0.5408408789843313
-0.8864166718646957
0.4890825194602521
-1.3260668672092237
0.37803724779125664
0.19987609512633442
-0.48582821650491975
0.6544137500838073
1.3923429928776192
-0.6182112528045349
1.1595272547824962
-0.3760299566930509
0.7668693669487779
-0.08150363222133823
-0.6284449619950219
-0.3727066706050065
0.8330427768069194
0.22415544115976188
-0.34385082791171895
-0.3516140599021014
0.695837996700944
-0.9670796887832633
0.0727747460086623
1.0712823490280836
-0.8186542878599568
-1.3519817335549775
-0.2843661543959061
-1.1787833513306691
-0.527787650652697
-0.5850111467624923
0.5915110842541518
-0.08598390579609183
0.47569685128083883
1.6085936930457658
-0.6105804329781441
-1.0550950880300194
0.9400568083246591
-0.537785876420862
0.9943797162022411
-1.0472381381228544
0.42440504628450476
0.593254145929121
0.2360792883137474
-0.12055584023123417
-1.1185698786317007
-0.07378840448752805
1.3468232033304877
0.8336205941319412
-0.35511460274736845
-2.6877547998079727
0.7492222420712055
-0.6949104079182763
-1.6171265733436377
-0.1707219227993281
1.576013785360601
-0.3661646552837816
0.4460437333247425
0.8938526518323753
-0.6860394750031258
-1.294659032343356
0.06710939932609294
-1.4769297963233687
-0.5696484774678581
-0.4559537937841508
-0.6433289879505055
-0.0658924389430231
-1.5029490214120402
0.28677451357147005
-0.7552819853781435
1.4482274771024577
0.11383678942330952
-2.11908478603462
1.3140936966130212
-0.7846143380115185
0.3507553177365764
0.061929212299007164
-0.3275379691113546
-2.2728030665022203
0.7309266567627164
0.7509588112340477
0.7965083061614293
-0.7427336567263481
-0.06032781754737543
0.46122467811850804
-1.2783629925509818
-1.102991393746512
-0.7161913470723975
-0.30098242352075
-0.8440825524089872
-0.6705275239424373
-0.698638742650026
0.8145487219443914
-0.6554240071411388
0.44772296889568564
-1.8938239734157727
-1.370821436660337
-0.09001444437460288
0.11277426289939912
-0.18765916345375144
0.10766200808935933
-0.27185926886627076
-0.471585468821083
-0.19568304695953104
0.6243133219271162
-0.1337397016238547
0.8224302499609957
0.5714404636424836
-0.862400252627651
-0.5280672109397704
0.9480449716006569
-2.3664301431249197
-0.4561801453780724
1.0872033030010528
-1.63761806759548
0.7275804150026008
0.2114671749761708
-1.0741175816054693
-0.26313098609861757
-0.8752938004698791
-0.09956171924065438
0.45220436586256385
-0.08280649935109893
0.07004661076239083
-3.6438617884326785e-05
-0.052474024735935015
0.36542358050396573
1.5464509092224359
2.7398685993578367
-0.3761083437956881
1.37151362189757
-0.799305823697891
0.42181067914381165
-1.2957988825887727
1.3895430954690502
0.5887046160829774
-1.448585852687388
-0.828412446716351
-1.3090311659800598
0.5400599331026354
-2.1799794530665197
-0.24207377540527517
-0.30488364878294727
1.0632765922522136
-0.48094031499137113
2.265352091998264
0.36812290761854904
0.011853187611786276
0.05475334070842108
-0.2932050403346143
-0.5789675228002436
-0.9422695596535794
-1.6950296730320846
-1.1314773497572395
-2.436634154755895
-0.9379699759397805
0.43999617277252434
-0.32762640320786596
-2.0015672278120364
-0.9019559651444364
-1.0587085692248999
-0.596077725389297
-1.5432878707075588
-0.11606900771634754
1.0220717537766169
0.7232045363126102
-0.08108857637447137
-1.1278271768545074
-1.547460830965337
-0.5028830293743716
0.7625129607439078
1.0552576898823884
-1.104764589356046
-0.7735162349145808
-1.3076522527630934
-1.4749620214731551
-1.125705483754632
0.9818063930460496
0.6544620580584575
0.6408331696439801
1.1998230728693962
0.2830269794260128
1.2889704106433109
-1.1605092646053605
1.7301389171975305
-0.4399828107851939
-0.061769786319883835
-0.3144944310094463
-2.030364014906008
-0.2815103626917075
0.8585888178828043
-0.1321501696062365
0.783681824006414
0.5266846809246407
-0.8776767461161468
-0.052834632562070896
-0.8303797921394607
