0.7878525006533648
0.9986815567770948
-0.031187077836013266
1.9028837148305393
0.4446659238882041
1.417472395820018
0.10831062145562859
0.4656991216236258
0.3677904241257326
0.8816251301635041
-0.07415985401566566
-1.3074379882278429
-0.011281294721230628
-0.050476056346063
0.8146103608768656
-0.9268105844396937
0.295733709578787
1.1525658359179412
0.19582869662120272
-2.598823972983366
-1.6231402544526856
-1.227399721645538
1.257677860787754
-0.3084077340959642
-0.6167796207464795
1.5214658220998518
-1.4537807864246766
1.1691849243771626
0.9166439992744035
-0.7795514018038916
0.3550534801482613
0.1030170141142914
0.07354057375384138
-0.5349159618831586
-0.4983398573324473
-1.1527328236763565
-0.05659132600258435
-0.06544481692229556
1.3631942357774665
-1.0871459111112678
0.5301425913698657
0.11625478824046781
1.0631296343872183
1.2692307750092804
-0.48521322674457434
-0.36988599965538127
0.7553253095417476
-1.1716132140428956
-0.1987644329570487
0.5261799902606747
-0.09465562117433507
0.2924611389754426
0.31017069383394
0.7035113941548141
-0.7907932366607224
-0.9865219330211201
-0.6879102162593166
-0.15134954044570786
1.0289314542101224
-1.9146263138736572
-1.2964756172942087
0.7386859084340951
1.164738024809892
0.07496326405786519
0.06437747858505022
-0.03450027774931365
-0.25284287467907574
0.44070076619487264
0.02187274510902179
-2.4716368304527947
-0.25525414803522056
-0.6538931518260115
-1.2725315195428055
-0.36451214470413007
1.9818309994995835
-0.2207406660036837
0.2694972265585628
1.1166759149170622
-1.427234500669521
-1.8087724639785325
-0.1423888437883103
-0.5049498598208367
0.475689375115252
-0.6404578136740954
-1.4611811307663347
-0.11400467062745134
-0.5824915290890044
-0.4083174537479792
0.5361755441319657
1.0998034960980827
-0.12261854691776468
-1.720679011736945
1.0386675557756921
0.22078240771050564
0.13109096774456938
-0.7600023817594969
0.5113664804204049
-1.541280027870911
0.5576239348263422
1.290665307645321
0.2757067400202214
-0.29874037000946246
0.06576075680071568
0.6446552654666103
0.43913858958571816
-1.5558299017601331
-0.1868539809695806
-0.6696650228608437
-0.860134985737429
0.8117326605426214
-1.0703701197565523
-0.04507936297930237
-0.6471425414750807
-0.23035723828073743
-0.846085935847553
-1.6915795613445945
0.5200928973514085
-0.18761865152104962
-1.3371566288228394
-2.037935509730927
0.42294415517690187
-1.4411655606478393
-1.3863135241543079
0.34876599668646835
-0.1707536341007055
2.592250694289171
1.452641196988366
0.06641081929776459
-1.1201223204283521
0.2746484878321451
-0.4257299528154158
-0.2073185425240479
1.1627435884643988
-0.9849880733579954
0.9149881217678957
0.10155227868209414
0.17395744822401227
-0.09079729571848966
-0.6563296605038864
0.11854386548019374
1.0549815637447393
0.7687183638823021
0.5335887863792657
0.7185298165136011
1.2962923663365304
0.3467542696481711
2.4712741454136644
1.1586758660693468
0.19124059640896351
0.4277793098184666
-1.822940081070041
0.36698237502601416
-0.5337600481347176
1.0602668551489658
-0.5084434522726717
-0.5072529428191619
-0.7560660832770996
-1.5021402824050596
0.37979366021740146
-1.144809676323509
-1.3310088363907522
-0.313962972639635
0.5179319865090387
-1.0962330148938635
2.2060672826468952
-0.3220177552134302
-0.8798206989326978
-1.1244634038684134
-0.03186956100309041
-0.9096453458982272
-1.1930756547421448
-0.48383337067442544
-1.0210471808461077
-1.5622127636744254
-0.7855005294643468
-0.481683005381826
-0.7904757772286028
-2.086091360720321
0.16625409062774243
-0.7877820898891958
-0.27272529688448877
0.2110820470575695
1.2516885416141266
0.9810138553641455
-0.8760667579355751
-0.7493411616986476
-0.17828821313275112
-0.9361326785453586
-0.8817641595022535
0.09674183985939055
1.3576071640621377
-0.3084576154851154
-1.5139621138096495
-1.764836428515823
-1.173917714694413
-1.9094555416413244
0.9967135530877438
0.1326393878125
0.1141035819637204
2.3077656638645836
-0.5248426224129785
1.4250477492148848
-0.40125649308006933
1.233406236067111
0.21145954707406223
-1.499537461347635
0.6539352183284752
-1.1679004740986008
0.047354219705818844
0.47308565645750456
0.8761359739401076
-0.018044202583598207
-0.5309266556593156
0.17334037055968476
0.1596201966607633
-0.34471635746687956
