1.042160842493376
1.1077246447857518
0.48752658032780577
1.093405534424217
1.7136897533292481
0.27096843804823767
0.047633615621541114
0.7330726167783079
-0.3535845774801879
-0.32560892078354275
0.47826930034847487
-0.8775483647322841
0.2604083058728496
-0.6283080074885854
-0.09441660689420886
0.027582575025080436
0.4264926659807344
0.77934991242925
-0.5396120807153483
-1.8871976773341579
-0.6466959075893105
-0.31950164550781013
0.9515300790231112
-0.6130373306494008
-0.32964412501045465
0.39460496527326155
-0.6174842313824893
0.40668521062261476
0.4335787379053361
0.34625047953899063
0.539055672116022
-0.12304956235315122
0.6854368361124017
-0.014427215328188234
-0.2608809144189281
-2.0069597389497784
-0.2775062192036526
-0.9101850903683253
1.5485808945382586
1.2399238006188176
0.45731617293415805
-0.5629852133807901
0.9058771110564681
1.802871055718963
0.20448193939975035
0.7252624218641405
-0.7747963353961409
-0.13310026551135362
-1.2431899714521968
0.5914034869248271
0.27611800669159065
0.1806980057790246
0.18494488291701694
0.8811584786941391
0.706191236786343
-1.608251923297227
-0.05202592077958389
-0.9465271836900288
0.27444028966988576
-1.4144450277934828
-1.0972684396274641
0.6225478612313498
1.4478540731995053
0.5513034033710322
-0.4761140050294413
-0.16833950147732285
-0.2012081568141636
0.048327443844379925
0.4893618602944177
-2.6180819570787337
0.8587328752775235
-0.7186024211185894
-0.6148159528911475
0.7637051340405165
0.834327745710969
-1.8404410432978842
0.09947781380318646
0.6505208828060461
-1.696802292475304
-1.7393445924495543
-0.8691180516453187
-2.068452742821767
-0.43499690087937604
-1.0246525032771734
-0.6376231919679496
-0.2897260018933349
-1.342540731904728
-0.29538317686397253
-0.8649540107358278
2.0696207776741438
-2.114181805091264
-2.1119805541507675
1.91704205042183
-0.16678150818066356
-0.11033183336793007
-0.8958859387234975
1.2271538401594593
-2.17598819722395
-0.36694515177285225
0.6278991904358504
0.23981704536734913
-0.5172483030563797
-0.6405208164239191
1.156788385719039
-0.5049246748950835
-1.0036675634235903
-2.121873806395509
-0.7670609849198868
-1.5140614134273922
0.6857405720891907
-1.1069820316777794
0.647261312569165
-0.0658826016723506
-0.99652869106994
-2.5096871001070418
-0.9415760387128239
0.7511322734230557
-0.004203681489195699
-0.5723640276738485
0.25617786092779704
0.720911811796516
0.11125910656405175
-0.417831371247241
0.5554225666731015
-1.0813623096902982
2.4329100851349246
1.0099009711503881
-0.18458039876877802
0.4663714172355781
0.5451933767744309
0.01159425068543829
-1.4944022436121351
0.6108901301555485
-0.6567930319857568
0.13708168638762247
-0.9035022389851911
-0.49144260976649584
-0.6617146755798171
-1.2018914904488844
0.3906648291824913
0.4136694037554948
0.15629223922607977
0.34504379441849914
0.7890178295565973
-0.4026347255204726
0.4367279833115988
2.0279974209076985
2.2572838424462125
-0.3938567929354093
0.5746500840715634
-1.6754339265348297
-0.34236765870398145
-2.030417593628979
0.8002276427870324
0.8907303954855814
-0.7654932793664918
-1.8161725688706087
-2.2524484743326187
0.3085303103506081
-2.549942239005653
0.1984642252558002
-0.17025247949849376
0.9171141951905031
0.11224255809228001
1.2139922243421326
-0.42772965821506737
-0.7615438891475919
-0.528060250090123
-0.6700445448926562
-1.9498345018504721
-0.03158823344238182
-0.9307445252358517
-2.2984166698869144
-1.8380535154137345
-0.8839230728189229
-1.1309428559316625
-1.3193392777787059
-1.564122223330676
-0.4470159771385761
-1.7392932550074502
-0.41159926441288347
-0.17190648957680538
-0.7485689041302017
0.3909588891034165
0.21170790416879243
0.058455781192367384
-0.9452830886987287
-1.195415187262642
-1.1133402637970504
0.5757473452164323
0.14323568605682746
-0.5449895407031052
0.23953074743165315
-1.6643365859986567
-1.00221276372061
-0.6946387255343128
0.9989726665620546
0.054149739244807704
-0.6980941410102885
1.7864213885846254
0.2015794925530051
2.0659308384042916
-0.9595336336060727
1.6595628173484487
-0.7918602905979395
-1.22405423293979
1.745837686279759
-1.370394491850083
0.4995855450568719
-0.8616624479990956
0.21938858745023657
-0.8869871564357883
-0.07891448218186661
0.08240308031281407
0.5359021367666138
-0.14161578414326903
