0.6239340287321935
0.8990129402144114
0.4085248572084838
1.0089845856994044
0.6818119666333696
0.7824699377729075
0.4608372846662128
1.5707286024675438
0.905819268883127
-1.0504189127014243
0.004704042544637743
-1.4567581495620576
-0.05900596030976171
-1.7494621003319388
-0.676621879317502
-0.19191440718864383
0.5871806738358104
0.6959501665471496
-0.6508507533387777
-1.1267270947779848
-0.14289854279154135
0.2885928664084074
0.4081188252306721
-0.2994680174603235
-0.6956407701273195
0.3268763821755466
0.061968820968328786
0.7010598153670533
-1.047517895600475
-0.6312545026183695
0.5806015440954517
-0.6961627313091105
0.3901306157568666
0.0921393744054957
-0.02681344266379171
-1.8039115244418984
0.2542323047750664
0.6289721015111978
0.08730895941267902
0.36620538064272146
-0.29014129135180156
0.2858493886684232
-0.10660646198372437
1.5087813335198867
-0.6903407318586592
0.1706007942885141
-0.08280961343598264
-0.4160813924848797
-0.9330930390906473
0.5831101564537671
-0.5444260309556301
0.5061114731564692
0.13282156782638194
0.8840229215329239
-0.19076247049452977
0.13825333166490117
0.28372150460164697
0.16868962433196732
1.0230142653256489
-1.675006610772605
-0.4288090775580913
1.513882752437698
0.22268941532378744
0.39334608363342877
-1.1043253917836304
-0.7092306614036525
0.5163365235329673
1.678059945518625
0.13474138254336113
-1.9879267875361308
-0.49442038540145783
-0.627046432831131
-0.7998323139377885
-0.13441457191159026
0.6476967058756746
-1.7500664619915898
0.3708479322616231
0.47616771121273965
-1.9629795988667118
-0.7330689131204222
-1.0027504168378258
-0.847509587409333
-0.09228471348016831
0.11069924667952993
-1.0216639080431282
-0.8487285462660631
-1.0166201653696438
1.1673209672732638
-0.518464070687558
0.43474736063003916
-0.08806826082627241
-1.6713258039997414
2.2191774731998017
0.8499137639884133
-0.41535460979806715
-0.6273320979595032
0.739379415811456
-1.6085755005862543
0.20457174429382574
0.5299590935365233
0.12375535463481134
-1.222237447204237
0.22538336257133526
-0.7292677650493472
0.09227754274345182
-1.6379129045920346
-1.427737035418809
0.29900599370302955
-0.5953876187454983
0.42995301432046457
-0.9604388209841327
0.12125734294412543
-0.8680380834900471
-0.31188496285004874
-1.2734744515656276
-2.0200402918157097
1.0104348295739098
-0.1763442290233443
0.5250976530324766
-0.8937020580439321
-0.09664862414116834
0.14572074991425316
0.9927010919059731
0.35880945151002186
-0.10903054053267994
0.5973382564517251
0.8442234286119429
-0.6414175464163568
-1.0831710734377025
1.0452170962743315
-0.6706309846920168
-0.11476019833654977
1.3920851000901677
-0.38521650077807756
0.2015236258173581
0.22230161578547597
-0.12218789846500366
0.15951441520995346
-1.1647214408214375
0.7997808381709259
-0.528314997854251
-0.5957982397809684
1.2492848938936834
-0.2912451421010077
0.1299097367930838
0.4564182868337417
2.1677485776367864
1.5255515657552188
-0.6473195561196162
-0.1468248053007385
-0.3817406919427504
0.8469237929655289
-0.8806148495435221
0.25547363445803484
0.7985781175059025
-0.202934047953511
-1.800026680987303
-0.8525051383122156
-0.05833472645341725
-1.186715916125874
-0.7767413959187589
-0.08281680663216362
0.25935160740990354
-0.36861129580111884
1.3337880783583678
-0.5567969906519958
0.4411383134021703
-0.1699764651645837
-0.35359487324745165
-1.5078590550377593
-1.603650232739409
-1.2704103847872603
-1.4087402155641673
-1.408810485498994
-0.7880399521457987
-1.0415599254369536
-1.1373791285413062
-1.4745297196084486
-0.6023901813164336
-1.1032109578050238
-0.22412991031977725
0.41220624356865593
1.8419445554485896
2.538116292038583
-0.04204964033267469
-0.014917511720927368
-1.2857849742761354
0.3333814318142786
0.24824807541373883
1.7825902762755703
1.189037885617343
-0.9621513582079315
-1.8236876583188504
-1.234032038913097
-2.3060561968515754
-1.3750347947220702
1.339116292995718
-0.1714374199680181
0.1722279762122586
0.9423092629386429
0.7602794670350606
0.8930681968391871
-0.3649991265658793
0.597699769978714
0.7006225442927025
-0.5698325426558333
1.257340265493161
-2.872292401993537
-0.21293400604107518
-0.40775562441936186
0.027321292574771727
-1.069049709278684
0.20615426000967235
-0.48811408496402714
-0.31233812286567897
0.27231869508143625
