1.286478585298322
1.5333041621717414
0.7249304431132715
0.7283916635476014
0.4372846427559419
-0.49325192767773407
1.2068217020788385
1.2161300337828516
0.5499089176312929
-0.2848505390843945
0.19116804513414332
-1.4396631859631963
-0.9911065352845582
0.3914831481460479
0.3388343803375461
0.06201679096997015
0.12454207931024086
-0.33344116630283055
-1.4359117952432823
-2.7029943739980635
-0.6099350828755645
-0.8744440024103493
0.5576802602562745
0.024154488331438184
0.1693556006387993
0.8959716984103185
-0.4869601146328768
2.0137300428448945
-0.44217137266183637
-0.8996961853130239
2.3640402508995435
-1.2831735981331274
1.2760869966481803
-1.090820690732156
-0.8214190388087315
-1.3375045343190586
0.5846559984671371
-0.013409319270980047
1.07498425436905
0.10360709536818016
1.4575863710980816
-0.20684187696653628
-0.39083657543387246
2.1790515228098535
-1.0221976967506894
-0.5928672540097861
-0.30917704552608777
-0.241107118568214
0.410057773524107
0.15265491804022768
1.0945118147555306
1.128264544379123
0.8824707336720881
2.1625826650603557
-0.4800968069161214
0.7751045802012033
1.298769839212345
-0.17731364799385524
2.357278417573961
-0.5407779804417456
-0.8265455737026679
1.060715043367883
-0.3400610470894242
-0.03953828118339875
-0.9403948252690915
-0.18999452666644306
-0.17850418307926683
1.1925441700071744
-0.5018760122867563
-1.1415813737621514
0.13871910009013733
-0.5673033029077654
-0.14022759936012064
0.7051723105975253
1.9488877560158888
-0.077111478699732
-0.9013492811318164
0.4592978652786166
-1.2880385901864109
-0.5065655139051176
-0.5057701528063482
-1.877337594646343
-0.12506651513589168
-0.8272993895668166
-1.3864434169678557
-1.4958798606229713
-0.17760615306949146
0.7630984055035204
-1.159735366769581
1.708027729599943
0.9626618954462084
-0.5381225795719676
2.400873775267068
-0.2755994454580411
1.064219130838347
0.17995804713017804
0.2772404678066735
-1.6525201818772821
-0.12270725697348964
0.12685095425898996
1.0220132428022537
-1.019900809160928
-0.11825802911268932
0.03125121803675873
-0.7134560542294703
-1.9780797367882466
-1.2637275598240951
-0.7930264149528181
0.33693480995649383
-0.6851060193857068
-0.2925856169672135
0.6433189461295317
-1.071186126107024
0.38240564601255256
-1.0856792842210174
-0.14568506141727278
-1.018934573927259
-0.39016350917870196
-0.6125685038819402
-0.9031185360727274
0.20960272157349086
0.11258371057690453
-1.7843187771472302
-0.7083964073534856
-1.3109572186850895
1.8118178350034513
1.4380385811713048
0.6201762059372176
0.8613476069348001
-0.3748458722462347
-1.8014261196209507
-1.0779844021551774
1.681294792918104
-0.2692092885591512
0.3195750640889664
0.16421086127279588
-0.584971337310763
-0.9301013634080988
-1.7396982553610283
0.30584755569419253
-0.5289135557084748
0.16029317132481347
0.6715297797466446
0.47780515055204564
-0.575432963418844
-0.413489934858149
1.0678167633620843
1.0227257146125377
-0.3608311994388482
0.25955689055964365
-0.7974816784608915
0.6991936122404467
-1.0820729582075446
0.5582589681059125
1.3032580616983738
-0.4328886725151558
-0.6488375275728748
-2.011852286388259
0.6169622080238701
-1.4738018458709647
-0.3272558169842185
-0.7416177061218063
-0.39892886215876355
-1.1298819182432642
1.8613124035942792
-1.270139639160926
-0.15721682684147334
1.1303860626788858
0.15252029553613833
-0.8235194530730965
-1.3955207742166893
-0.46763748674623185
-1.6001732971561442
-1.075881689605452
-0.7004107968764035
-0.1324986241587533
-1.5916882488037978
-0.7186113449608422
-0.7601944659482762
-0.6710904783994149
-1.1966456284611158
-0.2147746084081523
0.5111247003526083
0.5621268205513246
-0.03153263579426076
-0.8423472635510231
-1.4488383468033303
-0.8254318667123673
-1.7536577590936113
1.466036772057977
0.9243208434336322
-0.655488023827178
-1.1142493910772309
-0.6188575650796988
-1.0039498408171088
-2.047122312997784
0.07855877129129452
-0.04930927755138803
0.3001398361705073
-0.3862723113611294
0.9473907628660645
1.2151402099476598
0.24691942994453575
1.161398044061524
-0.3237292430946411
-0.9612650982517383
0.8415386065251008
-2.9104807262574717
-0.16354526460012567
0.09999015691667251
0.04198140760990193
-0.9063191040907685
-0.3322986679749587
-0.13822331926857134
1.3572611000852581
0.4954325339134774
