0.43552284518902185
0.7641533880565138
-0.4316867713483809
0.6757301764924499
0.8245830405746323
0.5309618077477605
1.820359491183393
1.0240712914801398
0.7500799293158753
-0.04980735533086489
0.26178798005904713
-0.7374466294933627
-0.35829065227266627
0.5040155600484155
0.2106863181062314
-0.650134553080981
0.6818326625490099
0.7091603429360642
-0.12126486028088174
-0.41166896126626007
-1.0392801515358354
-0.8919420097945412
-0.0043259402216409
0.009208650208277797
0.37659887781201656
1.910171768659044
-0.28523017642703374
1.0483316484394574
0.5953421146647029
-0.46096132478086577
0.42896977108270984
0.26278807654129144
0.19990610351809807
0.4809228072516168
-1.3847072032836552
-1.954875367735662
-0.22615453429077995
-0.1485217384862641
1.3909705619398383
0.4335300348386216
1.0704633980437779
-0.29413683320611983
-0.366417382638269
1.0295029786361274
-0.5238922583102017
0.09056043694036588
-0.5392528625571553
0.4483122945749548
-1.1035274182605264
0.1895611342238696
0.12358048859920234
0.7411208149558289
1.385794401937373
0.3729271423880829
0.222215408126265
-0.2599149145969481
0.4288847196723636
0.06124490219748091
0.3442388138349022
-1.6500808712506703
0.3130564380106953
0.6400561857456344
-0.3190393160429878
-0.02770546232644383
-0.029775323993671415
0.4565004745390647
0.15385193615073461
1.305260807551203
-0.03712392012073226
-2.5925700595533097
0.11549229675678427
-0.18089616132776565
-0.6550565952286584
-0.21345990953231272
1.1536901391972052
-0.25494683932534623
-0.31166437193627206
0.9521680492649142
-2.2035291308806055
-1.61691144632575
-1.5672249044210353
-2.1320363851306348
0.4296436339436668
-0.39299314686508174
-1.120643421361563
0.5296941834705968
-0.6271643733921135
-0.3838764647070168
-1.2603153278309194
0.5236168615508745
-0.042889416905824915
-0.7470678804444909
1.3212035894256222
0.5951131795939929
0.30848895498086926
-0.40358285249221615
1.1761840794139613
-2.4665809988812377
-0.08045312914292976
0.9527047864711357
0.5147763312041316
-0.45588521734124066
-0.16957742904874132
1.4940461740049211
0.026624956235076692
-1.188697562616023
-2.22900490591631
-0.8408167576218251
-0.5367071508143594
0.08739105822502219
-1.0082858720273615
-0.1234343227038715
-1.4497917443292627
0.13909990128095528
0.11511543680433456
-1.0335448479943579
0.9144408128941168
-1.2087693619151274
-0.40818488775137396
-0.3379698546362864
-0.7858692389259042
-0.3647860265570486
0.05675298610492219
0.3802947832474794
0.08461908298020987
1.7474547556491071
1.052862344598729
-0.25132479025438165
0.42193078574242354
1.575047783844762
-0.14318879844935317
-0.4279879102794343
1.6711281669659341
-0.2093778870660396
0.23038427533137126
-0.3311920127460842
-0.19527158628521057
-1.0955766694394031
-0.9223986093728535
1.134956749807234
0.12468158064092476
0.5215188167775516
0.21115324228265414
1.0104003520589844
-0.06499291539226812
0.21023887866192342
1.30224257776121
2.1499567765326044
-0.4674743150217155
0.9280636324807887
-0.8315211338670091
-1.5830350958855768
-0.6464040242581647
0.5583134231386812
0.09797419368691807
-1.2015426012179744
-0.8990031417067951
-1.5441601160714093
-0.16894203544129938
-2.279534729670955
-1.02550176575612
-0.6723095495755731
0.14475926087061342
-0.04954125734084852
2.7314915507480064
-0.0047469518100512476
-0.21052126003908372
-0.6798914760398961
0.35854809358160045
-2.4272965250521015
-0.47247403005701205
-0.145702868308633
-1.5246186188558952
-1.6352383853979637
-0.2869329278090177
-0.2605880778870226
-1.4393426418024213
-1.5182518536365108
-1.3481073507730588
-1.2363122484564104
0.15469054663418613
-0.7636272203628243
2.0293121056968353
1.591557818565176
0.4414173928240034
-0.8574448328257451
-1.8071887824189932
-0.664709990002922
-0.6039396368239941
0.43240927918352207
0.136537962277274
-0.7569919371121988
-1.547010182512286
-0.8302671627387982
-1.120651020914544
0.06800284603822582
1.1634165118276614
0.804686711447982
-0.2228306278854253
0.4941846418399931
1.1235519281715312
2.1510482287501653
-1.7344823847611717
1.5860343697171186
0.08235554905899586
1.0159346412767554
0.747776626889272
-1.2915296479874612
0.45011758196239005
-0.26933125849608214
0.9254888175753244
-0.14464863538790604
0.2533144514637326
-0.5788006585496368
0.26039473919554057
0.3038861751619184
