1.5760928208794136
0.22273043898451372
0.24590005344793386
1.5327190113842015
1.0073997632314982
-0.33194530465465466
1.0773412472623711
0.9301143862780085
0.49880602919685285
-0.44149225763557565
-0.5279215112280564
-0.3604351381125833
-0.07256421574775662
-0.9476840359475165
0.843296766740781
-0.5433708597248615
0.5660370532754007
-0.38436869085401515
-1.0775515203900063
-0.429318879335979
-0.3515458931365667
-0.9814310796102232
0.8964962865850781
0.15138717528568213
-1.5204706840766558
0.2916853261681629
-0.22486034001590716
1.1575775240549104
-0.30694381768848167
-0.706554602459741
-0.2762267802563432
0.23692500770661545
0.7869446912200979
0.2089369355647172
-0.2829619654422115
-0.8068588001343112
0.3464240292403704
0.4098749210461466
0.8969828111457542
-0.12354679784181821
-0.10433847242491612
-0.08255822167119947
-0.6394867927648009
0.4592384599408137
0.22802617861604735
0.13465020592139315
0.4301694420553753
-0.9440821196311766
-0.7002335451309488
0.0600570273978798
1.0936658604493559
0.10147932596829623
0.7041705886618329
0.21999134155766054
-1.281664427273492
0.2182333112958429
-0.42772976391013623
-0.15883489969678222
1.5424113610231975
-1.752512105957725
-1.0670527228174616
1.2691649885471117
-0.578913714618587
0.29565664629236577
-0.7132151825276949
0.45492777447425703
-0.9927326275423568
0.12542979271725518
0.2298830862840634
-2.4383905563528554
-0.8246984308838258
-1.025525895940703
-1.0351681460808768
-1.0079724066334144
2.094048999580083
-1.503721617282567
-0.8779891793345864
0.33905360152967656
-0.5953928485074296
-0.8182796013972133
-0.7488487984157756
-0.9993152561377046
-0.4583632986564752
-0.25167115514455507
-0.9639176270634722
-0.44047563898107617
-0.6537696159331693
0.0967732226803417
-0.40039110720638804
0.5060806790107955
0.7194741899125732
-2.096829062844839
2.7734943067288844
0.2589263005116191
-0.5585949420437787
0.13936883146575507
0.038976794661883196
-1.719220731021637
0.6619821511660967
0.24128542486564408
0.28134965049207145
-0.4578152459556901
1.2998152628339927
1.0272699849020555
0.14294443363930567
-1.8191298805518525
-0.9507109200415984
-1.0865810869779284
-0.2888155567353854
0.41998645231461396
-1.4978503017017197
1.5642764285577
-0.18271280403631895
0.5127276810316758
-1.2385133676763558
-0.3242730787880067
0.06293222000519971
0.021286119706877826
-0.9636127739035864
-1.07503616659949
0.08956143388011878
-1.0827277944907063
-0.7539645346247907
-0.5445951960900317
-0.28121320969534275
1.4024210664999872
2.2687009940063687
0.7131234824015026
-0.30751338609061063
0.4424758903891226
0.43343542641276034
-0.33902975593637974
0.6659910614246943
-0.7667805761400659
-1.1736333866307729
0.9727102787850452
-1.0934398757726556
0.1008310472591466
-1.4423191099828325
0.4649624582751968
-0.41344104338812443
0.5535147574160462
0.8111259980876837
0.465836311690887
-0.028427765049343107
0.4298094194976641
0.9995332668293178
1.002387530586803
-0.28778948167028917
0.2190531569221255
-0.28187707578662324
-0.08963477827682798
-1.0620147358893923
1.0784911149786445
0.29769847584631604
-0.5998572313481738
-0.884396030528562
-0.5891216392664792
0.6807184924011829
-1.029068302732754
-1.082009734595369
-1.1005898435311063
0.20086712025428166
-0.10509418970536583
2.0963422504867473
0.924656936577394
0.15611261103901714
-0.16846698467549054
-0.18939135396966633
-0.20645774285548857
-0.8859461544480207
-1.422950355539656
-1.694307828360914
-0.6958762642249752
-1.5805847267321504
-1.0973578728567575
-1.4050233921913078
-0.8715242056271524
-0.4194134973315442
-0.5452465379623589
-1.0834615865117265
0.23938073412503758
0.4659068535194445
0.6997832931540702
0.3766448849584815
-0.9415563292635716
-1.5672804050753286
0.0011861524199487938
-0.8718094051506735
0.7700004964602505
1.403023238140043
-0.5217390462860132
-0.8780571634310727
-1.7425426713289178
-0.9032924519318712
-0.8845481723567699
1.3632619127452281
0.8136212257204063
-0.11408315256468743
0.7189529822726841
0.5534970783467581
1.718683725701456
-0.30268844961035835
2.3135416393861776
-0.29050088669004254
-1.3158956672932942
1.1668286386890117
-1.6967241619310127
-0.023604505686624824
0.15183142424412022
0.5342954776107075
-1.0007129197334623
0.5179003430989664
-0.9469593008829673
0.166604967734178
0.845226010470837
