0.750437911621562
1.6283503844836413
0.44045909519744253
0.597901895254634
0.7542894614947827
0.7014530672406016
0.8646392336028577
0.23624219381449024
-0.6106129334693596
1.5980721936678366
0.5918040879098039
-0.5922577327881233
-1.1980727355026533
-1.1679645420689957
0.1476416342965316
-1.5337356939643254
1.7255439638807983
-0.474355798173675
-0.7592831963026991
-2.4277784118675276
-1.4094325593080328
-0.8351584619034598
-0.18972835731502236
1.29026081975909
-0.002187312613711301
0.4157341982176433
-0.7529884671508651
1.9196250816984448
1.0310461979099614
0.19385259769094337
1.7401562833265602
0.5312108429318884
0.6334847259111113
0.6192179809907085
-1.2606625085213985
-0.6825201725337543
-0.47382119684994206
-0.07203305161098508
-0.31907442530670194
-0.9393784918669437
1.145271438955495
0.22423224910172973
0.18316299678771164
2.0715882372600634
-0.47338785253075943
-0.6986458591951292
1.099607325901584
-0.34102501348101794
-0.1599241222658625
-0.43013222560407427
0.5441658985899058
0.16943098578562885
-0.35437748237833355
1.5164209063313716
-0.6257565645200944
0.3006084194857037
0.12181237622971285
-0.897742904323003
1.023779122078928
-0.6946916044677219
-0.9687603747267661
0.481961177074787
-0.49108627888303547
1.2821129075902462
0.31798569445971075
0.11084917635604694
-1.364653783975781
0.7520716333241273
0.30715073652087466
-1.1209985014605204
0.5556178381031898
-1.4360108723505216
-0.799873574294406
0.7654598084054713
2.168416265800412
-0.24941763052231702
-0.2770025491871424
0.4021720155121006
-0.47066245350589486
-1.9617634272487638
-1.4793788195743307
-1.8831724851665128
-0.080733052765082
0.39892286399285826
-0.5863316074639671
0.1914404286009529
-0.25525686153735727
0.014096633143730358
-0.23910481312792156
1.1463773938253354
0.33169324591147803
-2.5603812102981136
2.452350889586669
0.970996137348578
0.6065628505552859
-0.7348320612418465
0.6753842051787341
-2.2817594620606836
0.4546520866979328
1.6654259114993153
-1.0288552818206762
-0.7165753280156799
-0.9042969071588729
0.7322948210514801
-0.5535676742095369
-2.059104941874827
-1.549781760109524
0.35742787023412176
-1.0114725557731743
0.1060061131802237
-1.1360094512309566
0.6922045555004676
-0.09207471219571295
-0.4453057413900174
-0.11918693590863094
-0.8623744926757506
0.17400604846176695
-0.9773571789202327
0.386291150284776
-0.7869082126795118
-0.22190343385772296
0.12093077566392291
-0.5856516000036276
-0.39380190592278214
0.23476871048022602
1.933860548935531
1.7548902944312754
-0.0014453757929943703
0.16272532444487658
0.10773724989525424
-1.0313401828279076
-1.1748247782632606
0.22670134282498555
0.0013928119758503943
0.31090350648282256
0.8297419685222842
-1.0686880840144979
0.13086524620076767
-0.42299248279558255
1.227142159850726
0.6650856034176785
0.4576375130363162
-0.09084514371655483
0.4116476590558804
0.6430422918041265
-0.7851216783399133
2.5482551207854227
1.6898067168378734
-0.5154364987317719
0.21798154482964038
0.5477354135379187
0.308314478666199
-1.0218271227802602
1.6695395613994934
-0.21013610594728283
-1.0898971658360905
-1.4704099833321775
-1.404534884289912
0.02654116993998165
-1.1195708522502532
-0.5771486778219546
0.19718559599226326
0.18325986129548322
-0.842854517334408
1.119519954467877
-1.1584724090319565
-0.6226960823537924
0.34979317229930196
-0.3974364178093008
-0.9458087360595293
-0.20227803695795732
-0.5340110329555494
-1.3441285019551652
-1.2251948020784533
-0.6946766656885666
0.04478960753408956
-0.9975559388485971
-1.2849838478570168
-0.698564446718182
-1.4364178959934117
-1.1245566671454663
-2.107534857329278
1.3558246387066235
1.41358193347019
0.37892594506314337
0.08845628667376737
-0.4341614535659837
-0.6046159028536108
-0.9681513604742458
1.3893125984294823
1.417557972923472
-0.3853034102608708
-0.6792254522417029
-1.089215585508298
-1.4139837955882921
-1.782446174493685
0.4917463901526218
0.7026541173143603
0.8262972144434304
1.8407551633939332
0.3074546447091765
0.34394861251091147
-0.004885744057446018
-0.12499699464543679
0.12536721380168941
-0.24562802634328418
0.2963762278967613
-0.8623831791683514
-0.16790088319939242
-0.38451725249021296
-0.004143788593474196
0.11439085452495751
-0.39351298884470187
-0.1961054689869124
0.1832490460809877
0.10283341053049744
