0.03864113912757183
0.7862619346106318
1.0979423824260426
1.0632701456665623
1.5610588139831545
-0.2105414585656693
-0.12956818976493
0.7419241197966113
1.071776843903983
-0.23978010808956093
0.888573783170858
-1.1420939453253265
0.9472787854413316
0.44200738434590914
0.528101495169936
-0.6803477709100182
0.8775339506441042
0.10177650664659821
-1.109306143293844
-2.607158707406755
-1.1171490303135778
-1.035101597434933
1.391856513419449
-0.6259751277239456
0.1313816627550094
0.9127006785973901
-0.33911784502473796
1.4103627153435054
0.44292871116683397
-1.1123916706974049
0.9889826418901575
-0.14467512790992576
0.4730256585646879
-0.206776235794509
-1.001032469028551
-1.1855895760431692
0.9594747754972522
-0.23562221594357496
0.2886162819350304
0.48702387289005455
1.6193788992862022
-0.025358667719737632
0.9991118096214175
1.2387872823529502
-0.3263245479356252
1.2448670881247765
0.7199015954860895
-0.5169659649537413
-1.4523955802471824
-0.8135891668234287
-0.33789397788588693
0.5336827805568208
0.10562356712071042
1.5742975701182984
0.11144126260859502
-1.1249040549956422
0.4476691872159279
0.10328536070357819
0.6977002153096339
-1.2658012975033066
-0.6922978630634937
0.8318450238614955
-0.8565625926676705
0.1851166874945981
-0.26526928121292054
0.17266259969630968
-0.7155062772755499
0.43435934317914543
0.23417149563751777
-2.3890290466983934
-0.22347718582987725
0.23861125231767344
-0.45981581686387174
1.273100658936609
1.4500561041242077
-0.3038634250593028
0.5518539598087768
0.9751235905468082
-1.3620218055945705
-1.6078674808863207
-0.9810070965572049
-0.8534952610813576
-0.4282019757454654
-0.4563970513031319
-0.5427274716573967
-1.36061806968873
-0.8359310133565488
0.05809032946342291
0.19658953970889995
1.6335336518589676
0.7389984457242866
-1.6639205457345931
1.545516498606205
-0.5869864108154326
0.8297602785119275
-1.2646448067445144
0.8517087586361207
-1.076079956304154
1.5050969432912693
0.7135915695026471
0.3080529480707433
-1.3080491891479096
-0.1255316469440498
1.1465745873122262
0.4678064066230003
-2.6447892506427433
-1.0984152443829343
-0.695701538823446
-0.6242212986864968
0.009869743078985027
-0.5834952168198623
0.673959478212317
-1.8416701041573302
-0.6483084884902439
-1.372255647821675
-1.281141692857723
1.1668239599459487
-0.22431942319222967
0.299903246783332
-0.19528194670079552
1.2485931658497962
0.6810641245878595
0.5455900396088884
1.1316866254955775
0.0526539852088766
1.7200349197552243
0.5714680093183888
0.3085238842987742
-1.2354034167523726
-0.5336464598271948
-0.4250715587791238
-2.3101169014241116
1.1705002232817252
-0.18388924125490602
-0.25104771179088825
-0.2607415426497882
0.09292937381425637
-1.0794630017141398
-1.3363874806326976
1.5133774755238942
-0.33693943739524695
-0.29560765963181834
-0.1174606383742407
-0.3474945705050288
-0.029571845387851875
-0.3337246808275446
2.0244977534927613
2.553077679550089
-0.3260801056704458
1.4600264557510028
-1.7228480933979144
-0.4984999115737624
-1.032046083313179
0.743733571019572
0.7149214602657517
-1.0283873490896362
-1.0309882719362056
-1.266480428359497
0.594314133228981
-0.9852793179310052
0.4362014366793888
-0.2555136311799521
1.547300008754458
-0.9317758438310337
0.8945860329301673
-0.8962981931877186
-0.4047411518687115
0.2667388686448735
0.16785506802431072
-1.0320731007820592
-1.9247520081469416
-0.10024986719708551
-0.6758140624632906
-2.0833168279254566
0.3766439766226436
-0.8762651501858343
-0.7976830658695381
-1.410703464107685
-0.1652504600201703
-0.40032545152749466
-1.138425620095668
-0.09909537698426077
1.1636838042327857
1.0702569143724816
-0.961977850046173
-0.822830396209355
-1.3318141534920787
-1.1332755460280088
0.03931927457207485
0.9399147512025082
1.0069008199141196
-0.8304816051119105
-1.1467180243432789
-1.1887590653169722
-1.2706510393402526
-0.6866874411951756
0.35991554806086135
0.17983490867189467
-0.6582838367379755
0.769024749246194
0.6144880524589723
2.167279263238135
-0.9630543209803414
1.104774521976758
0.8707696630044859
-1.068215961372338
1.2013482455324977
-2.593856203983525
0.1440634482401057
-0.9626158522071763
0.6885001766961423
-0.5723694391017655
0.1931499821360652
0.5283653865767607
0.39176413524825865
-1.531082060425567
