1.1137633856634916
-0.11775612198718355
-0.5095800434359574
1.332325453889378
1.1878805915506834
1.7464821978685046
0.41478622253791875
0.5548567680378302
1.9754626469440209
-0.1470306672066253
0.16958693207946238
-0.2852219305820177
-1.0190311792671576
-0.48563118649796977
-0.2372098858354846
-0.3882080093947859
0.2733055559879428
0.5113451738906181
-0.061676363829474834
-1.9323236385771712
-1.311321211545446
-1.795204918599695
0.51921121246235
-0.221239421852731
-1.3740681035142093
0.2629962641438266
-1.4824307810700963
-0.5765320838185921
0.06096613804667231
-1.216242829424686
0.04491127938145578
-0.3185806561602055
0.6298823894372159
0.41523202365194495
-2.121549959912594
-1.6672253287171173
-0.08314356415755036
0.3732507086506422
1.7139580909813072
0.10144217592278748
0.6616054945520984
-0.502278736832803
0.7656829621180326
1.1226853580400606
-0.24269360678270502
-0.9303501840388738
0.4814484112619583
-1.2085082390403343
-0.17402073720565597
0.023771034221204676
1.309085932929968
0.2972691291822795
-0.2612910324381078
1.1876952457081953
-0.23249550229057486
-1.194692290565602
-0.34501232502408247
-0.14699868955826684
2.0542101160224853
-0.8024374655615027
-1.0727957617694863
1.2174734223255919
-0.6901504992837227
-0.5023674657849827
0.03197637204141571
-0.2505400510903272
-0.14730493291547792
0.030837104565777262
-0.06678637116323627
-2.6666896548614214
-0.677821018200408
-0.1279243571782105
-0.7823308053540121
-0.3216895604300153
0.7381666710325718
-0.048528097771039946
-0.6353013958221372
1.077840263990288
-0.15785716370295866
-0.373647480432996
-1.1390039377577779
-1.7693380696747965
-0.5116705371476673
0.12964526542486685
-1.2016189104109187
-0.18353786143668355
-1.3031422667415549
-0.021459999252828654
-0.10659962293166794
0.6412066928370772
0.5830254182992538
-1.5109782765929418
0.9004591049786091
0.28307310631287647
0.42366985596782875
-0.1999818879852675
-0.09986548793674777
-1.9651525967394532
0.5849759028882523
-0.16806027576541516
1.4639541066511939
-0.9660130892960066
-0.8440745362159647
0.44408843305189294
0.18858516685751045
-0.8803321471000121
-0.5544746322343227
-1.126317237835376
-0.011629905303533139
-0.16951821883127954
-1.0612182602348148
0.05319166339145637
-1.9531965581889126
-1.62798961225511
-0.8992994334972444
-1.6733144494427465
0.7850272969448844
-0.16245052873382354
-0.3854108475862086
-0.49526054307919365
0.5541046546638062
-1.0478623323478276
0.604413724923063
0.3213593565168906
-0.412070790383628
1.226773220343639
0.07421994015234157
-0.07735559915606437
-0.2359724717529022
1.180141789686434
-0.7068573213397513
-1.4348147492628291
1.224395507994346
-0.4969584684233659
-0.8701592043525554
0.5468539485096358
-1.224195821447879
0.7104175283399652
-1.3785847109362919
0.8769471784260077
-0.1860927997047857
0.07458902430034602
0.8440201999759511
-0.33780051911945225
-0.41432853143960585
0.040226650665724534
1.7109511895796026
1.555837730840322
-0.10691496588426042
0.8850559626763596
-0.32982174316019375
0.8642735954624565
-0.5223399768965626
0.836564031402
-0.06581466000922265
-0.8446683668434981
0.23078722388719153
-1.3964492573229426
0.890956157930997
-0.8964071892452848
0.6474656641361488
-0.2034771271910476
1.7607780050671415
-0.5940720624530986
1.1063971400566317
0.1562900977347632
-0.7920835496690372
-0.7369474032329986
0.21844724904160007
-1.937488619187297
-1.2797563053584258
-0.04386616978023572
-0.6614597593152317
-1.8992825370110915
-0.030091606868509313
-0.2756434790764994
-0.5182226557379357
-1.344178727395352
0.047710717585961904
0.10766425565488436
-0.3080743059436766
-0.726665204372465
0.2582487143211485
2.6268802162178186
0.4967558610993099
-0.616416390452589
-1.3598691275511638
-0.9626922445075784
-1.674312947587989
0.7412822246965977
0.29875206613321437
-0.2735487479493723
-0.9603953101734062
-1.880389067696783
-1.1566759901154828
-0.6889892805808457
1.744831014596276
0.1918447964485671
-0.09682272215624992
0.45178778042814466
0.6610371850310478
2.505872362042334
-0.91317912665193
0.9538546473317623
0.5712840589417572
-0.2552683456380054
0.9605115559251619
-2.027048073298602
-1.1555451530617231
0.3178266711582973
0.518795035265688
-0.4348081925364946
-0.6025659283964752
-1.9315572424443221
0.22264648755217542
0.512368186557973
