1.762564336685641
-0.19503757163564617
0.10321353422782015
1.6519048342752813
1.5027273307091842
0.3313766060862706
0.6565566223992525
0.48445688207929133
0.7063131607675106
-0.12829706508636593
0.40561181881956776
-1.537382009539374
0.4324570040602814
-0.6081152054441753
0.4192307069356828
-0.35523527960421575
0.9630526029235312
0.6081819429740479
-0.2361662958388071
-0.9373934223960636
-0.6392948272331194
-0.3580251065815294
0.11528946615925967
-0.10679273622386198
-0.07116637447406557
0.18250825212031957
0.017555642208822775
1.6861916276824382
0.5586864077270179
-0.7864526160720715
0.782304993147064
-0.9880477965866251
0.4969930392664627
-1.0509390599247064
-0.518303958324853
-0.2534583929435851
1.439254914701691
-0.19218158194999668
1.9280048632550681
-0.369123575350078
0.2908418190430123
-0.38848607607659646
-0.26649658690119976
1.6542400815848595
0.575519174028789
-0.19860954371004869
0.6702418850115572
0.33775607792293316
-0.8909546768664238
0.2412961132181606
-0.3346230808259809
0.6412196247219821
1.2931198829741204
1.7094672777025295
0.2553025121101772
-0.033383066897972324
0.7552460227126246
0.28255706989286444
1.940857429213569
-0.07396727075352894
-1.1010541283895356
1.1037194965927126
-0.4474596760381848
0.3723736935327959
-0.7221291023786407
0.36871481122805805
0.24491565347253735
0.49283677538710047
0.243489215923144
-1.8685481531162627
-0.45902840310332527
-0.34834128808253484
0.07877582096284397
0.7298899991148078
1.9234594040097432
-0.5973570377665457
1.1510850814016313
1.5017418001856124
-1.410915144843262
-0.8602559106823285
-0.8324609133953298
-1.1824921034926306
-0.5402312534925171
-0.7793804753039225
0.481647838066921
-1.0068890521684406
-0.9861319919994177
0.47266952703873116
-0.13620192986172158
0.9203135561555567
-0.6120793229872569
-1.4147942494751875
0.5518842498777153
0.7575045541251377
-0.32624737887791655
0.1130177766023105
1.0039756139232399
-0.6285464781388994
1.348429642695713
0.8648874582837236
0.6650361225275079
-1.262440048769455
-0.13603649768079032
0.428985990762753
0.126738549803403
-1.2084835086518178
-0.9212437991543042
-0.7187739010349852
0.017120340478891993
0.2587455732118233
-1.092530807745391
0.8222158106684323
-0.2431005653333883
0.45558866593184333
-1.6064135678998523
-0.9907855638601697
0.3403479818931352
-0.17097972130393763
-1.008231780054341
-0.6854897165016974
0.7486490402593833
0.9391491882725247
-1.0097336779471144
0.5310811632212006
-0.02654957867019553
1.776785072191866
1.239410694398373
-0.5919122609004902
1.1549857307238713
0.8882289757913368
-0.5060490273773272
-0.4532809986390794
0.7645521909212951
-0.34191951711082524
0.4033193920257765
0.9462007922570401
-0.9878445912405149
-0.4916959979985722
-1.1407940515565318
-0.890942097753423
-0.11901072554695924
0.6648846892690561
1.108753679115334
-0.1739473132115653
-0.5795283225630996
-0.4644133315243044
1.6422779071591447
0.24974568855791746
0.0017361500288471943
0.19244052885828644
0.07107622108384504
-0.1752984059107253
-1.5471438969032678
0.3625687112847228
1.2949776836484106
-0.7438719846183579
-0.9511427179761833
-1.470224408189067
0.7509926144916386
-0.8325157643723727
0.38509004428306726
0.09663794642372003
1.08948152240085
-1.1615790838215927
1.7622368010030165
-0.7360224124948807
-1.0691737526339935
-0.43227779046636394
-0.7766188529940226
-0.6758353728780925
-2.1019539660185003
-0.06666910343380739
-1.2129941517294758
-1.6112234065337447
-1.3178015569204993
0.05814386848877151
-2.0659584181202275
-0.7433526291895874
-0.4615300554759448
-1.4447322798513214
-0.3001581641891786
-0.1306691412599535
1.0832038443236194
1.028056927674082
0.3570737195208247
-0.5599568044318676
-1.740691215288513
-0.6042524271597067
-1.428500379159857
-0.013311599247724404
1.3712973057345668
-0.9810605462460811
-0.9770963101308536
-0.24864615070601082
-1.368051472375867
-0.20598393710293728
0.7985701565417938
0.5451961500447438
-1.6216605950082505
0.36945428216003995
0.6368269843198121
0.7793176058352053
-0.613143450995673
1.585341346291497
0.9649565244592022
-0.4172152506982382
0.1709538267685351
-1.0903414115556243
0.03276295355890616
-0.3365371889262688
1.221125016664419
-0.9650930818462311
-0.8166424076479848
-0.9756794884268754
0.3353463265542643
0.41879594462763925
