1.6071750278701913
1.6840516598635458
0.6146465728598401
1.3988703806633422
2.111631408144617
0.2032174448951406
0.27371035514093994
-0.4011732246470546
0.5599395232538393
1.0936594660555086
-0.4287730909771
-0.6155306554287524
-0.7165573957742745
0.06203111322284316
0.5631897220906009
0.2358230243895888
-0.3987498813661582
-0.09430356347936134
-1.0069670214518764
-2.336462548242302
0.9562625535087093
-0.8941281321047859
1.185871686264788
0.638497410935607
-0.28298168956336506
0.6161054628920675
-0.7726666709242433
0.9499812190420495
-0.8653732799370796
-0.3531151968643909
-0.4272248893144329
-0.42364413370805987
0.5929909036969825
0.3716582482614618
-0.9844946324880646
-0.6352232579390786
0.3165584160705643
-0.5793615608369979
0.5437985675058301
-0.2598000527161226
0.7507431765461502
0.2771929238855317
0.033549431998472545
0.9674214079725546
-0.12234884666714407
-0.19644346750422742
-0.2545582785899389
0.4156260599895648
0.5214105616419912
0.19687771060650508
0.3001021296376407
-0.3823286482244312
1.1100168905278853
1.8677870258488838
-0.5738460413011008
0.7602556018913431
-0.11728366718620102
0.020868187020302686
1.0306200892901902
-1.0400441658152582
0.9240057781347892
1.8756703515919315
0.547102789216814
-0.018785368152583415
0.17832721126475853
-0.30566734470649165
-0.37406928090011926
0.25219958065707565
0.16191735737715057
-2.163416859607738
-0.5318225254664719
-0.9122582303009342
-0.10005813161585764
-0.4720732392791873
1.660236677222816
-0.9548146233133303
0.5260522249883313
1.4787040136720848
-0.5864078524090556
-1.0914079521810285
-0.6873153122345587
-1.5510810213224782
-0.34952660935704133
0.4858725352726633
-0.7445170453878883
-1.07403701440154
-0.47943862413108196
0.2869695246122617
-0.29792323248137953
2.0532937165212273
0.0031470020821960576
-1.9204173403685725
1.652691444471438
0.9045669968367307
0.7850952477231425
-1.903381236143636
1.021250295251554
-1.6252391338137535
0.3159918069187527
0.5664535787198837
-0.6805144987035454
-1.3989303773867976
-0.17846391767120903
0.32375851510859377
0.2648643641526548
-1.9650889420149913
-0.9047885634239627
0.09323934974811865
0.19101886791575706
-0.04157732601766692
-1.177129536343668
0.4266622790380684
-1.5384316421462647
-0.058519915708831305
-1.463016683843942
-0.6330442737342675
0.6304491024195908
0.0733547163515334
-0.29986118923338284
-0.8304363955169103
-0.3175280651293685
0.13222003209363292
0.14917904208494176
0.6595376760547091
-0.09298968700313975
1.8469793915519392
0.7137603131495127
-0.06250186338883905
0.9631092527589811
0.4472947705277773
-0.35112660519261424
0.19291292341420602
-0.367118921380013
0.3242525695967242
0.7756860392894456
-0.23225701045210512
-1.1963444348648595
-1.3777129894429674
-0.9163438699378079
0.4366456065971209
-0.9015979229096553
0.1260278578908921
-0.1740995699152898
0.6387925778963076
0.4512894212388755
-0.7106429238377114
1.9934644233871992
2.7030144073679114
-0.92331144483078
-0.2532765884758226
-0.30452076802629946
-0.9514034011541578
-0.5464589161749135
2.085160757802012
0.4898348827566804
-0.6424746812378331
-1.4344263537259019
-1.6789972976898855
0.23764530272622109
-1.2580780826359734
0.2055742459448825
-0.19394835287150836
0.7126215807126034
-0.8870599718867919
0.8791210612765448
-0.06691767137754256
-0.9148789155186392
0.28605024074586516
-0.18112085604251338
-2.314427942042001
-1.0463758025102874
0.026162714969669376
-1.6105218157301728
-1.9054112602429143
-1.7730654747874033
-0.8041879174331639
-1.4004750566450772
-1.9581884855161382
-1.1111135994972932
-0.7104887073495125
-0.9850623686140838
0.24609680243877124
0.049521706397353316
1.04179161201183
-0.5966441887835257
-0.30108007870310605
0.6607433474087554
-1.327590478833749
-1.399457898189779
-0.22748558362366378
1.524987157587558
-1.1777779563899682
-0.17056211461684223
-0.901072036270468
-1.1321726720738858
0.1340112025732212
0.02770613767202046
0.18588902907055577
-0.07582739514325951
0.47051620386086696
1.3552472834255096
1.8527124065915348
-0.05806724752667969
0.8341521587951454
-0.36648818030330016
-0.3166041079433597
1.3385461182449947
-2.1618592299316024
0.06457735046972002
-0.6107055230122147
0.5415363686713811
-0.4420691610036933
0.5378192439285133
-1.0452681119147813
-0.8544749126879673
0.187070514367619
