1.4401351457732114
0.992777885597637
-0.17797960950026642
0.41894981892234895
1.0753594327884386
0.39584994518884864
0.7199297216842104
0.5614060478867343
0.5301537567016389
-0.29935502610711273
0.6458635617580619
-0.8431776092355059
-1.2334119157360888
-0.9826378827880229
-0.05960725389572988
-0.24957910464017574
0.056437963855791196
0.09237755124954343
-0.6508498362236101
-1.5265278685810908
-0.20374316189520575
-0.0817675496388175
0.7962730311936385
-1.0583566798821409
0.17988737588239773
0.010328797732788664
-1.10440285504602
0.7547946093663739
-0.2600607426631819
0.24451347131402007
0.4885631660900942
-0.19162120435059504
0.3041020098334499
-0.028001226808502103
-0.8378919924191561
-2.732837982408536
0.018178855440278155
-0.5113180866221481
1.8311512292243153
-0.4817418317904595
0.85911848085348
-0.5078276734982017
0.3619486182060004
1.9322273686580367
-1.2893663899174885
0.22162141960032894
0.44063597315655184
-0.7968631458645986
0.27771963067515837
-0.7314320989370634
0.8221935779010372
-0.04698857180310099
0.13390134285497052
0.9935057251380821
0.30913041554719184
-1.149650409903308
-0.6932139481138727
0.01513093496642609
-0.2918829999029956
-0.7964920891237894
-1.0507004080094866
0.02028200661815094
-0.27538576192763764
0.70938713368129
1.1188129093436878
0.502004317681637
-0.43094243261136206
0.06419995393005262
0.4382324646379607
-3.119669079225641
0.644730979894833
-0.7816381662406435
-1.1327770739230707
1.2435910695637182
1.3984004025731787
-0.5045719007208783
-0.007089743268886617
0.17955646870756103
-1.5365603879012937
-1.0995309261313737
0.07049522371268635
-1.795451874520306
1.0751871268979447
-0.44211600097480663
-0.6974934509272073
-0.5043482004351474
-1.285597810561688
0.16260464921838746
0.16159398461381444
0.8438018102926221
0.1476940647288218
-2.689372443002
3.4586409486748373
0.1832515322226822
0.4100655642543869
-1.1983805752387506
0.409905174162813
-1.511379429836227
0.8145519487428742
0.9022152139342845
0.5678578999667317
0.15785734570440824
0.20493042482943646
-0.06354141587827045
0.4205401996286904
-0.24319462768754985
-1.4654080546962156
-0.1731523626351881
0.08951982803298131
0.05317448976271558
-0.7534212747648164
-0.1289865448879962
-0.8342230826593218
-0.1133776768416479
-1.5876359390611468
-0.5665063203321956
0.5522598234435363
-0.24585363700482962
-1.278285426911554
-0.39659854622669755
0.4765807568222413
-0.043037195908580295
-0.7636909262040235
0.31892319070485764
-0.46151362584342015
1.1219923445741289
0.7739511375770051
-0.655848420849013
-0.7356970006557224
-0.6643624437590805
-0.32881151212363235
-0.14264075965588763
1.9373067354201896
-0.46546208973951564
0.26693175917846773
0.5639451578239151
0.5443326925340296
-0.5103217945842408
-1.9652689972404176
-0.1708385707877682
-0.1572387871049783
0.6724271309590287
0.6680564611035321
0.11268460557581597
-0.05173576745658867
-0.4915047826316028
1.38672156377801
2.4451314429461455
-0.6561436138400436
0.021182273821132136
-0.6980273740758279
-1.1970221666925325
-0.939464647857183
1.2499239167864198
-0.09862419472627526
-0.9252245175959991
-0.3912813575551417
-0.004841223244068438
-0.01542344075621424
-0.9975285009876561
-0.10841219734500346
-0.18003194544587547
1.460270754281581
-0.2603429346672667
1.7066906378750482
-1.2635533590725851
-0.034848608430477324
-0.6561770703149621
-1.1792902069437634
-1.5315436022892512
-0.333087384317605
-1.5378424026341542
-1.31560174374993
-0.7369778451211791
-1.8333475126752696
0.0399992216538384
-2.3317660391494757
-1.2307805591620578
-1.4641120039579205
-1.6585444415770028
-0.045139029553184495
0.7607774540703007
1.3063852516145296
0.39405761211879775
0.11057780182212992
-1.1228022344169024
-2.1994655798956235
-0.8889325018047425
-0.2906151221614204
1.2847551951974903
0.038284945537561565
-0.5574743788564099
-1.7126024515593103
-1.0277860043675253
-2.849298897517417
-0.5967396955032577
0.24145783533763582
0.7367977742576546
-0.006695525135046898
1.1929149990992187
0.20140357998029684
1.730108424129512
0.15241209441928566
1.375209026854326
0.34091720030279277
0.1270435909026173
1.1819654680392049
-2.490725606465432
0.22585470922799758
-0.36443378268161364
0.12004474755517175
-0.06343125555026652
-0.07124913291018213
-0.058280596967925535
-0.7270837665885225
0.3158384244392124
