1.1623806145246482
0.6186560918013532
-0.733982213083336
1.462697513083132
0.5787270140204743
1.4314962364949277
0.5134969196229525
1.7596653147470938
0.40729841042712017
0.8851960250526018
-0.11144908939199205
0.222362627127899
-0.12054704916968989
-1.903771727961798
0.21198080927113677
-0.8477521287421561
0.3486399580628059
-0.5426180982953123
-0.8890094708166378
-2.401755325740552
0.9581652161571654
-0.9366837529891776
0.15545736359819673
-0.24378166401070644
-0.5510957003101378
-0.28344435847765803
0.06694916631199799
0.5448740711587723
0.12424895086898576
-0.5527725536791557
1.054204401832253
0.14901010286714506
-0.7877407989915547
-0.24705993141637705
-1.0172201146508189
-0.8413899969991554
-0.0846885225264278
-0.29125191524158256
1.4283380443529605
0.3617505484026239
1.2548018981523734
-0.5658646923135853
0.025514769395441755
1.048779381146638
-0.8870821128324915
0.18167815362809417
0.28257009549595175
-0.5585346524146354
-0.3424893197541925
-0.6281976036467245
0.884242803621615
0.22437048521132155
0.4453792080590683
0.5376898196402601
-0.4455465384356162
-0.7688000873837668
-0.0746145274481327
0.3362772735807552
1.2474590767593037
-0.45639132387779735
-0.4329705042940885
1.0920902376056503
-0.8107039197586738
1.0875535891008266
-0.30827000192417875
-0.30816232554443557
-0.37115219869521077
0.22253178451419292
0.775512028142834
-3.167028227325175
0.6413601771681404
-0.628440317704654
-0.4115907654099099
0.4134686769177752
2.092080145366566
-1.4948395427952836
-0.4081702488419902
1.125005327031182
0.3349932174415453
-1.2017278574154755
0.15659325270642221
-1.143752490405714
-0.4168374970024511
0.0020583774397722188
-0.8202795995276764
0.06185233565180892
-0.7150863766461816
-0.08694608375714685
0.4960132053663674
0.10836857998484861
-0.25139399652358335
-2.2840718780928926
0.7592435110131476
0.19667314795890456
0.16978022555201214
-0.5031077469026347
0.16538179297396516
-2.71666001716246
0.8429373328819627
0.6781346652912177
0.03326794706950928
-1.4022643027891455
0.14413710709109354
0.16223657402228858
1.1615489028507808
-0.31695519011840534
-0.8551581332740499
-1.3146981136411258
-0.7959018013326957
-0.3010530021876437
-0.6206880699408032
-1.0454492359960792
-0.7770018129726376
-1.2340889167888545
-1.5504866078472657
-1.3763307283395183
0.6894981516337597
-1.1413659930219482
-0.5073159553347594
-0.22683627009821028
-0.7576259897880465
-0.16912408696303574
0.49450917032452874
0.44650303996317875
-0.17306977780262506
1.1433022087785982
1.6012261617460555
-0.0968462184243789
-0.6254265068358598
-0.470879717706618
-1.4364809372121812
-0.5881232647995873
0.1527864474107109
-2.5854144132767685
-0.9415807392405378
-0.5066349726006147
-1.4032158722302515
-0.346395249409246
-1.4925588111700374
-0.10615294465175473
-0.567513963585399
0.058186574601918624
-0.2298524935563267
-0.6867995242474798
0.22803831656363094
0.699435024526899
1.810593354190769
1.5196179921611475
-0.3202751944278678
0.10264919430942088
-0.8798592909540892
-0.4245204043744417
0.05019398604272074
-0.3479164617449546
1.6271080164665286
-0.745440721246173
-1.237144037968539
-2.643026203954215
0.31814752885167213
-0.9819054824715074
-0.5439836733231426
-1.8172965911876238
0.03238916731825381
-0.3862014917332783
2.855101726203543
-0.1745974389751565
-0.09372576294655416
-0.9480551199817782
0.229400994669674
-2.1048802994291873
-0.8899568584525477
-1.1831582202854696
-1.5609596738832576
-1.9125989392309153
0.07098898611847115
-0.07535918653698914
-1.6888108903084569
-1.424180613397475
-1.0001233091807142
-0.24522603230117157
-0.9157839499631828
-0.35434198387628507
0.23693701449031046
-0.35501723980113065
0.2963742400596824
-0.7261541696079051
-1.1296422728982296
-1.2852597930666556
-0.7229732263261446
1.9607210128616064
0.6817643128190288
0.08221103516057227
-1.167498072684067
-1.5449318994777737
0.10485225744775306
-0.45275171254698876
0.5898315806697585
0.862680232651784
-0.47994381703454775
1.0126519544948736
0.7906699363867864
1.4830134096819696
-1.0270242810861676
1.1948666518898308
-0.5069070838934493
-1.0090524146990294
0.7062461481868815
-2.121805192590495
0.25993763316815466
0.08371344191383148
0.013836782622885957
-0.6907532638434952
-0.4442051417159901
-1.1551012940647276
-0.6727329636632648
0.7690461675278139
