0.7153772631081676
0.6016232674861818
-0.2646396810211225
0.16258246067258364
1.1427563657645725
0.6201057272185329
0.646483222522397
0.9845093575589197
0.46396751398464653
0.33836100408672165
1.028659435248486
-2.2567147484265684
0.8818582808252056
-0.3900220463966527
-0.04300947622641246
-0.995460766625571
-0.7349444677246811
0.7272362312246156
-0.5836685714029101
-1.851832864301308
-0.9201506290229637
-1.4939897080347793
0.8136822588207004
0.662398416166424
-0.7768098108122048
0.12835493389264618
-0.924759984350497
0.4893197003211526
0.42283329244764634
-0.2682452338262428
0.9202056908184654
0.43114467530692546
0.5994201777999988
0.14780397083560498
-1.3519946037418218
-1.6072742208767614
0.07004292791928532
0.32661426259687004
0.5714236414056618
-0.08143547709685159
0.1712846312819134
0.8559034386469266
0.05885588298592123
1.1229057143495793
-0.542159708873676
-0.15015047002034382
0.42814982025461645
-0.6474778653041078
-1.0767416827261305
-0.008238855890661263
0.6412549896313682
-0.2198249856799596
0.18935594240390857
1.7258552442971955
-0.473466435349381
1.0598004304202002
-0.26876283080358
0.10025718581799814
0.5228693307448019
-0.03686241250209954
-0.5960818294900898
0.6845113098871987
-0.07924139593760167
0.018381875295429173
0.01919358210123953
0.5819923989672778
0.17381431642355727
0.752529577822543
-0.3612285564110255
-1.8034807384513096
0.36238983098407795
-0.6000256046905961
-1.0737592393769215
0.29896651277477415
2.1864297258896492
0.02086603964589473
-0.5379044655059535
1.82508315457232
-0.880751838961612
-1.1510976570327702
-0.25661147617606955
-1.8753192843451723
-0.16066430024895037
0.41239046089386233
-1.0731592316640104
-0.6006694787006216
0.21231968293296843
0.08947172561357286
-0.7205449209793482
0.7455310843590952
-0.5463343406880333
-1.6895712343886622
1.7210848578532134
1.3424782152471213
0.5568080575961091
-1.0898834035213354
-0.09727535937695786
-1.630171807576068
-0.43765739360733036
1.148299462136292
0.49237930998900126
-1.6096965663477794
0.4861909046362979
0.4091356094344527
0.2126716334934296
-0.8063452929340611
-0.7957186361386595
0.009111750314078015
-0.8339955421198539
-0.14234275787199058
-1.4186128723866007
0.44473800767227356
-1.0036062842582643
0.3641192630438397
-1.101130612029018
-0.11925917819070786
0.040952210169737935
0.20265201295066465
0.2227076454006307
-0.8180275639682273
0.557882227727971
-0.42665753029612863
-0.5481026412321777
0.6199890981558709
-0.923672070788438
1.6714266353975145
1.0692732304582802
-0.20191234236583583
0.6293853405376992
0.5270552810514819
-1.4563762251470054
-1.1217627693446943
0.25517475825900104
-0.18796362511806763
0.026228644324357606
0.03209295032292013
-0.8536993230880334
-1.1065900363833976
-1.192017163898583
1.1028482426431685
-0.8825836540468559
0.31261737647438975
0.7771401963281389
0.04198945557050529
-0.15150878498870168
-0.5501109699019313
2.921198811115163
1.1397137493431404
-0.4257628800100797
0.0067661004704354655
-0.7118659714516067
0.2660629970505024
-0.8872905637172559
0.7583845859502232
0.3526073943606802
-0.42026764452243953
-1.3355842023356959
-1.443794287024004
0.6521533223728324
-1.5024799727138336
-0.8055176171588614
0.2737862341718186
0.6372124109141498
-0.3576681514814613
2.2396321700034854
-1.1912834976080553
0.11617661800364648
-0.4975857607605655
0.8985471252124878
-1.5821361587483747
-1.6874326062870244
-0.4316311170129563
-0.828431970380304
-2.0186522880285014
-0.7980928956728117
-0.48705012010051685
-1.2651220713455005
-2.359522167327957
-1.0092331326479511
-1.620620912873116
-0.5377642839034737
0.6968625706873193
1.5861213238352319
0.660657619957236
-0.49706815581924857
-0.1441112778950907
-0.5092600577219429
-0.2351595793836352
-0.4715564428871353
0.24453478763692438
0.24140092136861024
-0.4571615192490001
-0.4216634252967089
-0.5524841016951656
-0.6457403422496568
-0.6913244064097868
0.651948117024318
0.09350829558720453
0.1508926324845663
1.0849571414646384
0.9478925492548063
2.2158840884558915
0.8326850497159887
1.2078121091068938
-0.4572738345115604
-0.20572671294541128
0.39837881423640237
-1.4189645872397854
-0.1593947713930068
0.2656586647687943
0.09690898560514524
0.3609953084883202
0.3162559647703639
-0.7983490750632336
0.009261818148622479
-0.43257557014515446
