1.316873337566389
0.8637176993324464
0.061941359505342186
0.25224186271287896
0.45473631307358636
0.5420509768784276
0.6231721040281485
0.6853355430926961
0.9053809233441921
0.3843791321793832
0.5995132304609196
-0.741672644448561
-0.3315021780726891
-0.5922474851845008
0.6583973732380525
-1.3107834013599984
0.7677399749156835
0.23983990172791028
-1.5019081810030142
-1.8560750215443087
-1.0781295742531902
-1.7687755297387087
1.335313207244501
-0.5213643972023578
-1.0476460919211406
0.5972598871705993
-0.7377518189496018
1.4312106434862408
0.5049477565653256
-1.041613834544982
1.0866920392325197
-0.2675317666670487
1.0152599397559692
-0.25149995675205855
0.10140688830513556
-0.602250481146295
0.6989478417384007
-0.2525247386423432
2.3382691412002905
-1.1312140406819182
0.14504190598159228
-0.18300147042900283
0.4389735113539174
1.1922399885486865
-0.6734471775709915
-0.561162870177795
0.12807804180743604
-0.5325774669650527
-0.39724993253849195
0.41913519261609844
0.036409437273185796
-0.7569319351143533
0.7208507213955555
1.0984140612711453
-0.7622491350397407
0.6846702811208025
-0.19135281938642268
-0.05586029623663147
0.7883796665948043
-1.221957278529868
-0.671649299857521
0.5278872860814494
-0.2761931698953221
0.971369811872013
-1.3924832580866853
-0.48019562863563325
-1.1437025240432896
0.8916049468947804
0.1321224671512758
-2.18995103324174
0.5867370117047481
-0.6719946634663116
-0.7473779535437246
0.23925426931990065
1.989204141024017
-0.597451532643832
0.6561608260166076
0.06402545245513114
-1.2949996758942017
-1.769775165883486
-0.13412547039022582
-1.8220985734384298
-0.09566853356934438
-1.3534482178699592
-0.5760547906512707
-0.8530414015967563
-0.9557797570690905
0.45461357533176505
-0.08630458930244622
0.06567377258518392
0.6194535719271413
-1.2386375702021564
0.9540221467547086
1.636467086140758
-0.16405225683341085
-0.31448064307738177
-0.37995203819572043
-2.448697220748204
0.8827741411956226
-0.04920912998796173
-0.06893033415837505
-0.09906011260492464
-0.1820039321762593
0.6272366305066868
-0.1839172963717634
-1.2675408822582361
-0.9205808289625994
-0.43301106378724674
-0.7783345529919594
0.17032314118252312
-0.03522057422659597
-0.020100160531988154
-2.5118762878239713
-0.7410058439300251
-0.24861319855435238
-0.3731615394736775
-0.2811305505046398
-1.1152104451996878
-0.9953468981915303
0.030898378065537746
-0.31533807718272167
-0.7027386311004065
-0.7406084863497124
0.6693171361028033
-0.9459278943025606
1.0050522478410162
0.6291151421886898
0.2690396577092217
-0.5845793562412771
0.25135788307259044
-0.28731683067955244
0.2874742364103912
0.28406692162156555
0.32835386946692713
0.6491607148443396
0.020121856416031578
-1.1325452146964228
0.04983235791850338
-0.9046692274069735
0.6446676742724926
0.08447347839712828
-0.5438876118901459
1.3113620560263475
0.3399486227657537
1.0115886185696263
-0.3455307998181629
1.9729273312750242
1.7791856407577376
-0.17232904485534412
1.2490219031416205
-1.3676253792072037
0.48086384446374353
-0.5006441289074549
0.2930249156363145
-0.3610375579041817
-0.951494139432652
-0.7663991801041411
-0.9527264887364117
0.3969135541029558
-2.1047938528711865
-1.3765794340520718
-0.5089732230709482
0.4665144531218323
-1.1314702817828464
1.044916313755695
-1.138430640023604
-0.4717611280781888
-0.1974416781716996
0.018246078509209174
-1.528707149909677
-0.7145678202612984
-1.2657066079311448
-0.9940883631239174
-3.4027799806868284
-0.6732578907543756
-1.0807083360816168
-1.0641947887509469
-2.3291930752285164
0.04972587577906462
-0.9603610077645072
-1.361805248196632
0.028825544762418776
1.0557957199394261
2.283487966567696
0.19082107406324422
-0.7565981935723741
-1.086238876135768
-0.061927917820365
-1.2185501751414267
2.0767739059450414
1.3736205431322843
0.06522869551144617
0.21467768722797798
-0.3958538621732609
-0.2951721209200242
-1.0991323900016765
0.48879575188695945
0.4319061811669779
0.0005937816790436007
0.7932032913189697
1.384540087434461
1.3839700153667993
-1.0189634061308972
1.164491762553268
-0.7727711284511443
-0.14137979212821877
1.9025398984690205
-2.7300731291667226
-0.351924947394599
-0.7518568833239677
-0.521459225715289
-0.12280311508720222
-0.5128034017442287
-0.38765053018847895
0.2683218642865482
-0.30692153480405804
