2.1507882122688713
1.1878111880899198
-0.4946423701687496
1.6837298066939117
1.115126235031038
-0.17888255580149248
0.6875362181703172
1.0996520892306514
1.1250883826501756
0.20528551718257024
-0.16834687981558422
0.1756590432038706
-0.5743768950387416
-0.8625185710087765
0.10826580709860577
-0.5878742661171381
0.09742305318366928
0.344737851152624
-0.41392482430812927
-1.9920357869886764
0.5992179663384634
-0.4363508087953244
0.33841021518782094
0.3644264947427376
-0.5602240722453742
-0.2834878596375573
-0.811071865343926
1.2920507337498748
0.15033354038275953
0.37584710187103226
-0.24198656559408238
-0.16464246938462201
-0.26196224754479946
0.9903363833171527
-0.47121712353615164
-1.2605344350348253
0.7726889908912531
-0.9182240057759083
1.167201052992723
0.1302514964366379
0.15587939226868386
0.15494988811079535
-0.2014319447752515
1.3577142266275637
-0.9946906430114705
0.5656577957579427
1.3022662699711798
-1.0423138338772155
-0.27456610672074117
-0.10518968979340437
0.4627923390090313
-0.805495806901833
0.3525754628806467
1.434233063597603
0.039625128126724404
0.17179287189432468
-0.3016352761765306
-0.4567468563899129
1.2956248969984363
-2.191357605676633
-0.07041230309679175
0.7404538817594157
-0.3869990389695781
0.15342329323003184
-0.06463698374209248
0.5169046270918025
0.9424283205058015
0.36975926079542265
0.44445020576009886
-2.074591393128272
-0.714990732935779
-0.6615027210491058
-1.468383136438348
0.3924704856499154
2.51285186732658
-0.1566079560440059
0.388332060805226
0.8793064556815146
-1.578384706265862
-1.6927038174065943
-0.559115732346265
0.023663317634183834
-0.6497059611214171
-0.19909429305440488
-1.1900690051826326
0.504509659370155
-0.27076326064559997
0.9866080829335968
-0.9632507878990455
0.5360144463589998
0.3647047580630988
-2.0581672695414746
2.5112682818483054
0.652311725692843
0.14760701313515273
-0.2688220136952026
0.30047528846615457
-1.9234145478258842
0.6312559178692109
-0.9442103133157072
-1.2172393387925013
-1.3541472758989967
0.7314799885903143
0.05869988346806665
0.40751904487957064
-0.05815220275944233
-0.5751418452709611
-0.008410185187536834
-0.20046723711323777
-0.9168928480254286
-0.39837278079988653
0.32966942960603973
0.2847154526573349
-0.14119451387192256
-0.5200781781822414
0.5406652209767294
0.013709498983767943
-0.6886358092682571
-0.6980902668222786
-0.7007424778865381
-0.36972176067315854
-0.09150476829450192
0.30545028152027665
1.3653693935370015
-1.0286234680254336
1.1599612991594062
0.1771466628788786
0.05507446574054304
-0.16557254935638618
0.4801583720817395
-0.7871143672333967
-1.477647624318816
0.7232231134326131
0.05702196870112208
0.7967162783662152
-0.06755830289534467
-1.338144558053157
-1.0000774456693735
-0.9232361037855179
1.543655088455157
0.8976198774968225
0.06555683124683558
0.5241258763418067
0.6794657474520811
0.31546187843393536
0.03903493672175333
2.7934344060571266
1.5040172666749638
-0.33433066721979027
0.6314692111579312
-0.7671602370702042
-0.42555550742611425
-0.031417015362109724
0.5684000480763876
0.7639795379109564
-2.046661601155119
-0.2796412271143015
-1.6754142139812191
-0.08145479375094344
-1.2550816457754115
0.18802244188182726
-1.4338850051943361
-0.508075980024442
-0.8725645739620309
1.0703032710024463
-0.9352819870493375
0.2310991109561052
-0.2772145093837176
0.07017676569911813
-1.4789440961831317
-0.8662485680572524
-0.9700654771384951
-1.0007911637136568
-1.9647050250893079
-1.5656847119956836
-1.2137942982138532
-1.392827965303574
-1.5286369929017511
0.3038006321379595
-0.3317910681378252
0.5537804943911798
0.10878543802343787
0.2589993565827403
1.6817914069417914
0.8360950973154668
0.006747570974693806
-0.6184166737895964
-1.093668229801397
-0.28523305336982074
0.022625648572567436
-0.07596748229994743
-0.7451491785276712
-0.4072583539909593
-1.9732466191391849
-2.3211828083156405
-1.957584124940746
0.3438479841777057
0.9169427383742614
-0.40521176733452496
1.7709726060886397
1.6249178816204506
1.0031105418570532
-0.015581820095828924
1.2688523066926325
-0.08728056942137241
-0.5970840522002118
1.217348455910124
-2.0392060170621393
-1.0898274858996668
-0.21131873900815606
0.24177817269622545
-0.5552419837852924
-0.04961566625331584
-1.2442787769547765
-0.1893814230428109
-0.07352796479145597
