1.294340572025939
1.109534528384056
0.31687204160013943
0.8659781390133473
0.8137706768216927
-0.07745619829032413
0.8106472687536106
0.24955282994791256
0.44430326083161603
0.7673930131461069
1.9726865314736408
-1.8050710793913687
0.30597423714933947
-0.5889595857869363
-0.10351570039377853
-1.4138678382467271
0.06187247126474105
0.10565251463044313
-0.48689090117138
-1.7437145133229266
0.16239915828189772
-0.08610809798688357
1.1281498145293742
0.7350805065358832
0.24227418763118752
1.1321148270487558
-0.578624229560658
1.3668768201024983
-0.833224783009603
-1.7169129625232955
-0.18546618182934016
-1.3005753303864993
-0.2420450196575865
-1.051286129369743
-0.9954878313642366
-0.809522301508597
0.8557974823665763
-0.36208579222922993
1.4342367519581103
0.4409462404301808
1.4041189907298741
-0.3137866674411229
1.0213192516978251
1.3776044522473962
-0.7627539917545315
0.46201603579426226
0.07938821358333281
-0.5819971886157559
-1.2170027720353156
-0.708012063371353
0.5149785121962344
0.7202590467688347
0.24341753646038333
1.3136229554068937
0.10221608520709158
-0.4447964973821113
-0.3253842111622407
-0.8803384405382195
-0.34218888760552535
-0.2514659087697144
0.9260111727137712
0.29703513654193925
0.5770874322865016
1.1733610902754315
-0.7050154767150374
0.7421678274456491
0.2956294778577237
0.33828735973203355
-0.6280373739007679
-2.28394542237047
-0.23955867878899317
-0.7765388903249573
-0.9094131309052196
-0.6928641741682556
1.4717358814519987
0.5324084519969968
-0.8600768739224609
0.9933678551291367
-1.5023757967764537
-0.0005849539341107324
-0.468909047202164
-0.05570753097281367
-0.9894924312910491
-1.5509673027927469
-0.02044276820591784
0.3937629536211372
-1.72469719511151
1.005516458562631
-0.7635589015059889
1.0506312965647064
-0.09448631087839923
-1.1604453594007005
0.9934095614851014
0.8120727807464134
0.04447646788155016
-0.6935495023575141
0.5556092534015553
-0.688601247923879
-0.7809582411968541
0.5491487155460343
-0.0827483518568635
-0.3983738963849562
0.36402893822709675
0.7264865993252556
0.6203604488900121
-0.9861283695627644
-0.8263950947651695
0.35020001022855124
-1.326154363987699
-0.33570025894822536
-0.7362927197215583
0.6175309112050325
-1.0342097100419296
-0.5677928896490482
-0.3008052075979615
-0.1378808737670939
0.1708206265127151
-1.2693707878400389
-0.47999667052643163
-0.7318455468845192
0.4605354478668008
0.48360373611638413
-0.6527036761134841
1.2539635885127867
0.6103867697215586
1.320370477144984
1.6010465486037893
-0.17307314028338638
-1.7622775977911709
0.002383056875439271
-1.0555712200703071
0.06498200013821415
0.8753381411681536
0.4890571044623184
0.9564401719865034
0.044450012745144776
-0.8366743725896139
-0.7714514812463849
-0.8227286681312285
0.7721866989004624
-1.5262840642208075
0.9960738819518119
0.5060427832776655
0.1543336165171511
0.446949131479704
-1.0624039422831515
0.38519095720191787
2.07020925064079
-0.5718262640353651
0.5496360010948819
-0.8206492546149587
1.0382006790085672
-0.6501393618147728
0.7359314364921542
-0.2918633211892322
-1.954352180094117
-1.7250531188251195
-1.8349894702789455
0.7116234559369476
-1.3101934785796403
-0.9894681451351769
-1.209508409643099
1.4969231731871142
-0.3759936850025055
1.2000422144027527
-0.620779095007651
-0.759685874998322
-1.3016850823051656
-0.5859994282237295
-0.6435142688747242
-0.9467482353066057
-0.026053704647982512
-0.5639887076041302
-0.29816181296050126
-0.17992796428802382
-0.6221052416735479
-0.19606480424740713
-0.7789482154635018
-0.7891424870378668
-0.9665754108762149
-1.2654556364056466
1.1192273741141658
1.0540124845478394
0.6053726844829073
0.6687604196853479
-1.6678785779170446
-0.3478661463368823
-1.2822147090141724
-1.5301637113266748
0.09948960248915106
1.5463385670798595
-0.4686175843688014
-0.5161232314430202
-0.9835959315706704
-0.6406473766225935
-0.4024252880450042
0.1987758528533891
-0.2191185685992988
0.196976802278026
0.2075750289732864
1.2060796624112953
0.7660317276118098
-0.45253118573034623
0.5286232244951312
0.004815974885909624
-0.19683812712307192
0.8163066067129778
-1.219702113905957
-0.859373558823603
0.29916210151964473
0.6308476248400126
-0.22430262082055397
-0.45337939125563803
-1.6472354103648654
-0.26134184607729827
0.18903370540713865
