1.0786248046090938
0.6463161500881655
0.1219698424334349
1.5850123272093608
1.2526415168524152
0.2963010426410999
0.3740543414817138
0.29612582636830104
0.6296732997773906
0.4091706309439256
0.6526427749362285
-1.1145097696326014
-0.3325993027140704
0.003928099891431391
0.306678650719308
-1.299601247105763
0.5227108176616162
0.29666563568935367
0.0019912274497266846
-1.6560305005975842
-0.036646131176597874
-0.12961360729970817
1.2859184193394744
0.4820318381942051
-0.8763175375612051
0.07414562983470535
-0.8594600250158502
2.165571951258181
1.6464470940965896
-0.3011249118807642
0.0007375919532728314
0.548864330217599
1.1511539658069139
0.4147897024421827
-0.645422487050694
-1.133220089939446
-0.381632737179487
0.2176892441284093
1.1915563539034078
-0.018056538721501883
1.2088270875291065
0.19436915115681824
0.373472593744259
1.6981025496032909
-0.3027138530331807
-0.07772487218844981
-0.18297586318483244
-0.32570676196513393
-1.723711632251963
-0.22741790992878821
0.1622318392444612
-0.025955782843226076
0.7112207053984871
0.3913739045086173
0.4017459267971801
-0.800268168532774
0.2718754811785246
-0.8005203124476497
1.7626086776145171
-1.2520896947606817
-0.6661430326958551
0.5012070221800677
0.019374909895082296
0.22532469886809375
-0.033379037022866875
-0.8609060996028055
0.25086546169039786
0.5375075614497633
0.4736304505832559
-2.7545721335065814
-0.8528665298910622
0.26493672131313517
-1.4414893771864128
-0.6192026779124368
2.525059182922775
-0.7020526074919765
0.6746153854993615
1.1957658001394829
-2.1267114548712276
-0.5283994805037425
-0.7452622684014361
-0.6545913234473049
-0.11663302408359291
0.4369503841342979
-0.6489778747962518
-0.9364970093950724
0.6016358629189903
0.5787492126475386
-0.11174083114702071
1.5880875290074785
0.17392137791106665
-2.068635960266392
1.2932746083763593
-0.2628805445801187
1.0194869019016655
-0.6786043987334099
-0.12633003476253557
-1.9459771716867897
0.15657440246734738
-0.6159053034697132
0.20106901732136306
-1.004180318240851
0.7222829983641788
0.35401769418685003
-0.8435958199255362
-1.6692466049688015
-0.32718839896051366
-0.4318418728614347
-0.7404369452803358
0.2908503125816275
-0.9931812618876144
1.0871905410638982
-0.5854535068449329
-0.7407487590982357
-1.5889657709794356
-0.9646237606559085
0.46340712264971395
1.5446215725250787
-0.7701320702669743
-1.1130459409225948
0.4453177539258285
-0.698623470087584
-0.42174634231384356
-0.10817055919577784
-0.20266997519043362
2.491556548383229
1.2783343079298577
-0.8206684062935655
-0.7491826645031474
-0.5915941766285
-0.8690824416255574
-0.6463801703639107
0.5270654644558729
-0.8203618903015019
0.8025870472233202
-0.18317617527689584
-1.2831895127853752
-0.6857919424250238
-0.7761167143625944
-0.007478350132997635
0.1487444095057141
0.006453410020293001
0.626466676496219
-0.9560983029049441
-1.0868366259366604
-0.36094953219347076
2.0160719576196637
1.6286719116944952
-0.32159776862682615
1.1086218084035737
-1.6045926683477565
0.9167683410218872
-0.6715153274614469
-0.14712186892966606
1.4283200744632327
-0.45687948561160413
-1.8270019135673754
-1.2940752291516633
-0.40407975032110244
-1.4523472205577002
-0.8874385569327317
-0.6786438331984964
0.6129609106513204
-0.42180655743798334
2.337671146421022
0.1531454107985436
0.0806037452682179
-1.6455010039367837
-0.1666074625840218
-1.5832681872513752
-0.762785323290349
-1.1011381281394423
-1.2271664277308398
-2.837029608325408
-1.6398621994188898
0.33310386524376334
-0.996712508404788
-1.738236168140229
-0.5204549810729748
-0.2547725021129782
-0.4437913343374159
0.9416957164398938
0.6782266357652997
0.2011374931557045
-0.3616871810126536
-1.0713371356281467
-1.5672905805843442
-1.4021782079619265
-0.8568815160548752
0.7451077468912903
0.4803577608800957
0.03356173688292896
-0.7180343618967591
-0.6790429840749272
-0.5944578023840517
-1.5901109702757081
-0.030989571378041036
0.7510328894352523
-0.15094720358057004
0.47403786499649414
0.8707888035735363
2.0288526255778176
-1.3359581673942813
0.8195437100976561
0.05557821180410699
0.44807476331609764
1.3927724050762968
-2.0896195637969646
0.44742887860669944
0.1722098801857525
0.36329035907826246
-0.05886841442020985
0.08592760163155537
0.17871708610980308
0.3670160886996183
0.08937455997314062
