1.5705796196375463
0.9793464792519575
0.722835511692689
1.0870745615211186
0.5324554755586308
0.5523891110355853
-0.33330072174915204
1.390745944378401
0.05468836928998122
-0.40390257091481097
0.6022570796908524
-1.1721573308456568
-0.049093226820398544
0.567116551572936
0.05052589336932062
-0.5827789646104069
0.930830647763186
0.49302527078498376
-0.7555013351665762
-2.3860083591139163
-1.1765754949034526
-0.9542317533347622
0.5495534172631147
0.3785630612246259
-0.18884666672193565
-0.3118093001134239
-0.7063712885920481
1.2564961979865221
1.5302747842157272
-0.5310708887477933
0.16582204411025414
0.3765213242186416
1.0002621369012745
-0.3472627566380213
-0.17923415505284157
-1.6645330920694545
0.3160225297759338
-0.7122925422102062
0.6832214743820907
0.24807570099620016
0.5333226041619202
-0.36250782837472145
0.5950720400433603
0.8143153549245304
-1.2543567912877918
-0.01851235388314093
1.2749907232318953
-0.07571245975813601
-0.616692266811635
0.23129439079498612
-0.25126340838350103
-0.5208768769541688
1.739503409453908
1.6274785174197646
0.1798495605852733
-0.5456896618076695
0.006526202765443946
-0.7929905261289457
-0.18641012521620415
-2.061941509857204
0.05789348856232973
0.551636764340258
-0.7894181034531456
-0.7027153840923078
0.05180688612738854
0.15855867138806337
-0.49139941965984724
1.1146106719100932
0.902119646481339
-2.0392152371164425
0.48840696727411037
-0.1774857949488584
-0.4750037340592293
-0.8475762400300864
2.3457662248903013
-0.059264374863682856
0.2211037751916603
1.33207627048397
-0.7607465601193915
-1.7740437168188652
-1.0244915649829367
-1.0086908525221632
-0.9860806345970499
0.0250670660588225
-0.39470859440413714
-0.09042149110160674
-0.6364838525509451
0.08070165180764512
-0.8035723350867235
1.317563444796284
-0.20877788122449126
-1.000603998125972
1.7008414203823081
1.2886476146004653
0.703347294423954
-0.4225675736575478
0.07252830229698182
-1.4924359055621594
0.0446616866302727
-0.43483805232291983
0.255306554428924
-0.6848571175606446
-0.7821275274044521
-0.8230458135825328
0.344317494988127
-1.5790893265550636
-1.1706480245091497
0.32880160629316907
-0.02049345555137494
0.09122611669012785
-0.32445101912941876
0.5573165506615506
-0.4124276182723439
-0.17271441896770548
-0.6090831491730164
-1.0621283820375975
1.289492955259884
-0.7141034533951405
0.1883909240509153
-0.8399526500990652
0.228914004933659
-0.4668495963249407
0.028971631948199156
1.183239428036018
-0.2914805768992368
2.3735582179409045
1.8106679352648765
-0.08877336145749247
-0.020034590584094042
0.3399283355773925
-0.9415402609375595
-0.37194961486001754
0.9171798670290976
-0.11081469925007359
-0.06035583485394547
-0.08835108989343587
-0.7305929144218056
-0.5513797242469424
-0.9272396392386715
0.029302057736449394
1.1478927310483076
1.057799579212615
1.101302378524953
-0.29742680233322405
0.3479648337159415
0.27917459520530075
1.0935710927540812
1.265528014518789
-0.1789842011064856
-0.07896563975259085
0.016476705269195646
0.009952171562392143
-1.085134520870426
1.1970821760078207
0.13268239988834463
-0.5476638692085238
-1.3112334991891335
-0.7278261467958418
-0.03374986904776181
-1.5419346162733196
-0.6315429998821701
0.0788596721513628
0.7816161609467361
-0.3726134878410063
1.3934501537236337
-1.2431833522297264
-0.07530282059752585
-0.56564201084141
-1.2996396773901626
-0.8214825682891183
-0.5338710602749903
-0.7302945214947293
-2.805021003638962
-1.760699768395758
0.17655101907890536
0.48374786669566283
-1.674916042609872
-1.617503341656104
-0.125136503127253
-0.45694537632056387
-0.739912074173162
-0.745058331801564
1.590469531228449
0.36388263251491726
0.026845384592519485
-0.9649494843763577
-1.646702483920894
-0.47035746784544813
-0.4385837196056751
0.5079163241048779
1.2812919127828797
0.2003436884307631
-1.6783833727591952
-0.5186497406889954
-0.49240556526349133
-1.3709992232619936
-0.002664484901302777
1.209974978466637
0.05465162763915314
1.3796021231345303
0.3700737600809635
1.253191768003314
-0.39113457287776515
0.38037062676944144
0.155681823636429
-1.126493922359307
1.6157998153353592
-2.1951583696280337
0.33979580749433824
-1.131023900361343
0.17532229764365836
0.025990286438459298
-0.21640926720373094
-0.9072615352750452
-1.5386478220257003
-0.7932277878428196
