0.888389606131732
0.5785430055679701
0.024345896882670304
1.3425372559862172
0.8089923212286354
1.0047823899562798
0.8516560405512714
1.1335611470670144
0.34201341848608263
-0.0771720238461352
0.033149423490185626
-0.7485525213601735
-0.43403511003589407
-0.9094364082932807
0.7769031120002584
-0.41537670017482387
-0.1308874519259512
0.005248321162709773
-0.6443328990465191
-2.094321415382158
0.5627097040846771
-1.5986699997490004
0.23337868461056183
0.8482121580606445
-1.0564930261405507
0.9638375489534899
-0.7118396381202867
2.5452936160349164
0.33154522766318617
-0.7733400877905454
1.1293984593151385
-0.4823426826904053
0.6867073431326779
0.44780799005904703
0.5246167205690354
-1.339111819495058
-1.356901816323647
-0.6178057898730899
0.7667504910568705
-0.9188735691730062
1.2831710176562874
-0.27961059511311764
0.13921261354798792
1.7473553027439084
-1.4444471094455698
-0.572601614054336
-0.2308510445233935
0.04767129865901987
-0.20361998376864066
0.6763276507736906
0.6017220381283366
0.22260052533722735
1.287931710343281
1.8110189018438332
0.22232036453899495
-0.352991636737628
-0.5035410442253139
0.10758759497777914
1.3280187510978718
-1.3921764892148898
-0.9628382764227184
1.6393426176988921
-0.6789100944186186
0.3521382114384543
-0.5693977824465516
-0.5634192340379127
0.05884638010397575
0.2979457440320567
-0.2982244307898499
-2.6304141465342052
-0.13316221088040872
-0.6379634337665885
-0.2542561776325814
0.16977898905501546
2.4871586902263982
-1.0367506010474885
1.306934289733391
0.12144887582003072
-1.0253266243943406
-1.1328182694508162
-1.262707169260696
-1.231239968334647
-1.058108609260406
1.292887683522863
-0.8660267398851614
-0.3450070884442607
-1.306843352270897
0.39772665990929557
0.3322037148093694
-0.33893155205924685
-0.1917854940637197
-0.8296745495108541
2.056724652630191
0.2532990220885038
0.954011284083998
-0.25128822541344414
0.017056825391232544
-0.4115901871419314
0.8792295189512807
0.08215633199413591
0.37205426432504907
-0.1464781261729482
0.5583049084220314
0.5552502091476006
0.8362486825964609
-1.1872572485169353
-0.7665583736041837
-0.16637562091415262
-0.2580179368853337
0.25924020966303557
-1.834258808317701
-0.38743130414771776
-0.7689798358821109
-0.03197259322319068
-0.9195546533929841
-0.07268095368372052
-0.31334431290439774
-0.3723131815103363
-0.004813528234355879
-0.11482536589810416
-0.0630118786170582
-0.3714523561891325
-0.2577300289876727
0.5903509312788986
-0.17382928907647183
1.054182642681739
2.129042022112934
-0.10922907652399577
0.16256614202217778
-0.315491236301309
0.03803786377368645
-0.1867716476883846
1.8670083455921975
-1.3856691517651067
0.15479746963079347
-0.08029193581526181
-0.05766859410507208
-1.2298452245379752
-1.2455453744083596
-0.2356205456123618
1.1410294513790997
0.15404110446624847
0.5949651367662792
1.3256368205739635
-0.24970064392265173
-0.7558078630819638
0.9578332655283242
1.8252252288950437
-0.015477027713344638
0.8011154477759896
-0.09917145914493153
0.2970821851349186
-0.34735402567008566
-0.02143253426306624
0.4904193869220625
-1.0535342044283666
-1.3693426575614749
-1.510532138443197
-0.15756493965890656
-2.305651814323594
-0.49908682694148315
0.04170911984228409
0.38936827661773116
-0.4084420513351859
0.5430657101435232
0.09807426696155408
0.1602350541985676
-1.1774571781298988
0.35561087376150147
-0.6794075817078592
-1.322037416427581
-1.724866922784687
-1.767598750578204
-1.0256614643131787
-1.4086304605572906
-1.7994554019687214
-0.22798294096421567
-0.6701422238482392
-0.4882605917694816
-0.6525023941054985
-0.8699831802775008
0.2568037575815881
-0.16514036084854578
1.0041113343037034
-0.2249419607372284
-0.8941337913342307
-0.1838262043483957
-1.0570793146594575
-1.4970807763929934
0.6094605027929159
0.07509666397016501
-0.9085456038615142
0.5451156217693259
-0.9870067821668247
-0.37676394767309695
-1.0556023415633873
0.433250917141409
-0.2730039180670799
-1.6348924584712432
1.1563379139423895
-0.1342444219367942
1.4185985358102748
-0.4809452291580606
1.5355180486038402
0.25020700651187777
-0.5890150815552935
1.7957869736962926
-1.3240424472812782
0.33031234288074174
0.5451859559958291
0.058597611218013324
-0.07615582807944425
0.008877986861414599
-1.4653498043722035
0.9232391115610856
0.24086058163924404
