0.8958503058735129
-0.37778638745711846
-0.0576373948253025
1.3108174646317259
-0.542621799137786
0.14185896907961276
0.1126218187477645
0.3884050301989368
0.3416427851298283
0.668734862264475
-0.13718055089479725
-1.67198401939403
0.017216619002788425
0.017412428944250324
0.400418056168661
-1.9639513419648438
1.0378945289226054
-0.03937781365507817
-0.26731958885880175
-2.444305805206353
0.6520327086386335
-1.275167111087685
0.5245401748391821
-1.387007978710152
1.0483981256713453
0.05874158808385005
-0.8055889423226607
1.9882861355124644
0.3826420337825919
0.3662048695354853
0.4359957216279494
-0.36627643789634823
0.8382649398636159
-0.11589122471324116
-0.6472232140067404
-2.1353819571143813
0.7103004358292199
-0.34698561009526496
0.6998203338877524
-0.0635226596903694
0.3224128424752667
-0.6781902670909397
0.13196186149025593
0.9135207750247127
0.005901060843918393
-0.9015602573361717
1.0606237756917416
-0.48653810688814136
-0.5920448672073058
-0.5135316703841706
-0.24076787266786848
0.22286806673711437
0.8537578070779082
1.8828096577705833
-0.28722637739377277
-2.0965369897791035
0.3897934314304068
-0.22688047854130974
2.0244755783203963
-0.8969224868610236
-0.6370997453839498
1.311810979375354
0.18843834127574594
0.7467704984813148
-0.7611858044229669
0.06233972582018521
-0.7276591593063721
0.39509433212972717
1.9540587775957525
-2.102658715335983
0.23397094605326535
-0.6976384686267872
-1.1300730238785572
0.7869777710224483
1.9512627238987852
0.23985607060294656
-0.6435923622661213
0.45086111456996764
-1.5104479626277236
-0.5179607637602742
-0.8572760918405868
-1.1634717142888917
-0.36765853371868085
0.9901619897083218
-0.8633477546558302
-0.16890144197130463
-0.5758139545347465
-0.2109637603320102
0.4151136862946546
1.0392720697868496
0.38766681521280427
-1.6108410189764264
1.5361383324356124
-0.40414336001663026
-0.23775623629211373
0.006881838779324578
0.9289424762384084
-1.4892555448997147
0.049154588523235815
0.03841859228699823
0.4394981771356783
-2.0598446911064796
-0.04014997249861818
-0.40284136000569115
-0.5203304530597777
-1.5551981796081
-2.467385321356521
-0.011337150572085286
-0.31271557966916574
0.39150522312810765
-0.808641344179669
0.031018369087760456
-1.1582185678570442
0.22956435651364981
-0.21170200402519113
-1.7200193673821647
0.08654868994080378
-0.20650561002283346
-1.9238835623100643
-1.0204368116556741
-0.6807591827000532
0.5666673232793349
-0.8952865833681634
0.16734324495906877
-0.7265095117801215
1.4650638449311046
0.7908362264284164
0.0525449972485183
-0.6229897391854011
0.6519454807023071
-0.5618822277353144
-0.424330803335469
0.7667923014127785
0.607072613714654
-0.12299876125916573
0.6419731457909891
-0.46322903250928493
-0.05159046113497695
-1.0894751677478944
1.0160984048427337
0.3351546157237196
0.07368661834468787
0.5862222159163354
0.5788455608713086
-0.4226031645332036
-0.5000393555098994
1.9741290169756012
1.0593237640621636
-0.8504907279071904
0.8677565964089737
-0.928259928475441
0.5399181030173055
-0.7526059168265047
0.986830506014001
0.27540864024611783
-0.9671011972734949
-1.2073355231710639
-1.7563134455699496
1.3121318233523105
-1.2437928952998223
-0.6244743852343894
-1.0166406486098358
0.6169704403709737
-0.3352662543897833
1.2913376263923624
-0.21141381752480826
0.16219813789139453
-1.830877744234535
-1.3257067837884673
-0.9980570006807743
-0.9080824415054815
-0.9938843525391294
-1.7799029244320836
-1.2704863894353737
-1.3987059609845154
-0.1392087508064676
-1.0878796082924818
-2.1502179054069783
-0.508344192838571
-0.33699653499501225
-1.599048427778912
-0.8618460133151524
1.103745396847108
0.4561959527950479
0.04740710250528524
-0.8384410504304964
-0.19293221338530042
-0.7165810932289599
-1.0852762836086587
0.06152881802787458
1.3197621143693752
-0.13685711385327487
-1.7060710665979784
-0.706976342510605
-1.7679018577555872
-1.5246485672267445
0.5702035221615027
0.1769080644335228
0.8525555504713321
0.18712141693207474
1.1631578879041893
2.110837697787986
0.9217209492018418
1.2476228568987846
-0.4720578612954461
-0.7575963688473685
0.05120111826292084
-1.419602043424074
1.2876230227565864
-0.1986538528965158
0.34320304567398097
0.2846297522186858
-0.5159820411499104
-0.34828502691393776
0.3962257468992615
0.17373643735844702
