2.3172985763677394
1.1016905693121755
0.5852391111109198
0.4289389862634556
0.5287019358609961
0.2647875973974498
1.5433638765148447
1.7856056029296088
0.37515769133176113
-0.125573274565255
0.2846979474735217
0.017095301508570415
-0.23368222316983675
-1.3739295226199486
-0.2436025410201196
-1.4596051482113501
0.08681679846369061
0.19479660085449846
-0.278439905579969
-1.1200054244553597
-0.7085476592944231
-0.9739783462412098
0.3819662981616243
-0.1863602428436281
-1.4799783195645562
0.19027931379467103
-0.12628327523352245
2.087158661280486
-0.5791650978017533
-0.22940268901548633
-0.009231369449326121
-1.0868078697228911
0.02044255878041923
-0.14718368280147315
-1.2522169503163205
-1.1983021376156202
-0.1307652093410703
-0.3066023435489969
1.5786811010946615
-0.0955913106238463
0.3356101011252531
0.904397401699709
0.35179378615369167
1.1158621511741726
-0.3829795217044636
-0.21526420566960058
0.010293947107338997
0.445692490364648
0.33406491942867356
0.11092015240364225
0.8981237810094844
0.7287685323439184
0.7637623087947556
0.759825935290944
0.20499457343622685
-0.6179160270754694
-0.6429514368875343
-0.7505602131165364
1.0373890828049543
-0.8874967658423477
-0.24002640825865884
2.635665877262873
0.24211159208417518
-0.2157283303598918
-0.9302212556136895
0.8872527514686438
-1.271181387074032
0.592431670426882
0.0007312820636188183
-1.7692638431802754
0.10462829639952026
0.14921558227856302
-0.46806225330831014
0.6187571706102873
0.9975868691892428
-0.8320715441066978
0.2175985357795312
1.814514192862829
-1.156360457675828
-2.5379026778275016
-0.4097339205947354
-1.5093540578902227
1.202816725180697
-0.4707787640691544
-0.7508228562209597
-0.3778119585043025
-0.38460556543796653
-0.506578936813636
-0.5149784635160054
0.35788363144460744
0.27440792834741123
-1.9840250450733456
1.3824314595415612
0.4551192960037115
0.8618406416952618
-1.0828878757893237
0.1941006354073217
-0.8861730929632602
-0.29621272753224737
1.060902276692422
0.31046615686006995
-0.6739703405200355
0.411607022758803
-0.16617647055437879
0.20538242601135964
-1.9791507257372796
-0.4231014451782027
-0.663432172528434
-0.9266379201206252
-0.10545194908991362
-0.7203086181533245
0.26466510595719916
-0.35771714523407805
-0.2544211889313231
-1.7174209113532555
-0.7932467076577733
-0.023123044945131455
-0.12020779424137118
-0.3486205123591488
-0.20784038877719196
-0.9769549728012494
0.006281165923172821
0.019666445943635202
-0.2297957118681901
-0.2655071194061658
0.6538820067940787
1.3834611371004946
-1.1652888437441276
-1.4306183043934246
0.856736286476649
0.03431636831577067
-0.5760533258834483
0.2620385955255323
-0.7648510630939077
-0.42958444721541555
-0.03387051811355581
-0.7603677018045562
0.16556743902249893
-0.01652221143114585
1.1278896489963304
0.3035542921851225
0.012963884892403245
-0.48762604149886796
-0.11936006145693584
1.0790289143161191
0.5751780249547802
0.9898283781904601
1.0842852292832643
-1.074817729458755
0.3642796214674734
-0.9352527710942751
-1.2512130175348053
-1.0441315514253786
0.3738388139413079
0.6267642827014074
-1.1893924740169475
-1.1775724652431252
-0.7196300774715522
0.6774782027665402
-1.1722408660660961
0.1117037597394942
-1.296747069663657
0.13888385918674107
-0.5324352215429722
1.601680361735257
-0.6084528182938383
-0.3921598316963531
0.44571190612771594
-0.9479695577262746
-0.605747164956845
-0.664747398649717
-1.4599400087260035
-1.3120115110424064
-1.9996339440062931
-0.2892631523674385
-0.08236699012513665
-0.6602366557492871
-1.7254212475206634
-0.44371313044836813
-0.5053871544256134
-0.6665321243145491
0.043203515936986625
0.8107150230571707
1.7302404501681126
0.4692906197598562
-0.48558666573428255
-0.7458901672176468
-0.37117731559895684
-0.6293518416348267
0.2590188848760749
-0.11890374974447837
-0.2759593288689965
-0.5059978625312782
-0.9595729083589294
-1.1168115461050474
-0.9879549138696865
1.5441499559915035
1.183131198392255
0.5547910426097524
0.7276370198120645
0.6347297070257394
1.7717825309488615
-1.1052271361157082
1.184022008402083
0.8699837436029674
-0.10839446898121585
0.5048586999714642
-1.7279264343299419
-0.1463383844457561
0.5414471507753374
0.7801127920604857
-0.2835261953931917
-0.9052422063377026
-1.2440110590891404
-0.4641930202737688
-1.1746352585109383
