1.9648134185055341
0.5485660241143409
0.5472716681710901
0.30088483244682895
-0.5238958462282433
1.2984650301914722
0.09228731205896112
0.9400972114869244
0.8675724643589546
-0.5128204051462196
1.2400290030619077
-0.8253772717393985
-0.05550887467866358
-0.3603137439989342
-0.770461584232194
-0.6080811945061979
0.03503938905931703
0.8010283919303648
-1.5480518024919967
-2.671118666931825
-1.1720468555543897
-1.19401839631553
0.48041260153388854
-0.23943064985526966
0.11693378925297693
0.6960028591567282
0.7719807892952872
1.3508015576427763
0.35742296120807093
0.024907315995780888
1.3058963900863425
-1.0849545944970436
0.2572209638955808
-0.8975467780398486
0.36572110024707405
-1.4598520858262556
0.73542137699081
-0.48650681062652
1.7952743331927257
-1.6330664760179743
0.6835613527460435
-0.8101177809620941
0.0015676951786306459
0.41759196056770553
-0.035352220684115476
0.7891761954712757
-0.08307957097756596
-0.9282081650910466
0.007360049828613491
0.14692450382295574
0.951990914050155
-0.4751660754842392
1.101120787693893
2.046104204470179
-0.6398728716255255
0.2704605769402324
0.5479541978897906
-0.29452873885220393
0.7025767999144814
-0.8005191316357811
0.012855943601828623
0.5510888119939276
0.5113947848440226
0.2556775403077306
-0.7158794146145053
-0.6698919002881267
1.6293266765134828
1.4172278911370548
-0.15676495591820494
-2.804363118513833
0.03622386082038183
-1.61186802987169
-0.007183811187684075
-0.2027481868894351
2.0750828842507367
-0.667355480052291
0.08862117802565525
0.9083147203861839
-1.1226267893839958
-1.231757321507452
-0.17889462218324526
-1.1752677510341718
0.05944140761293895
-0.6282457626468397
-0.30089438232347143
-0.8255443076741371
-1.2306984169491948
-0.6296133008199611
-0.5405693301872943
1.0850319542418994
-0.659112325454316
-1.6998195689545263
2.149828378979211
1.973928619159584
0.6450666711700342
-0.9887852519473538
1.4164922774659996
-0.9415950619994855
0.19820508396263004
0.9354120688109179
-0.11907547412133687
-0.22979536305632342
0.2492478767717413
-0.0532677463901326
0.06600318531226754
-1.3762827916107434
-0.47364960194544337
0.600049632819261
-0.053398535052262885
-0.16504982495616033
-0.8913668041995351
1.2388386578529986
-1.0574312697085957
0.022709626100691216
0.32364974777199595
-1.4151970994007226
-0.06166264953910189
-0.3160794950383976
-0.17127099676389723
-0.0809171204129806
0.41827475344165876
-0.38007946198542714
-0.7757102882581735
0.5774983014194558
-0.7862330286432373
1.4044380280703408
0.6719071556070859
0.25631137863111947
-0.18820467588941361
0.3107639864387961
-1.0425205208220065
-0.39338501122067127
0.774290587612718
-1.2418909782846599
-0.4322202398347874
-0.5227000809493357
-0.6959838432305423
-0.3312779872663566
-1.8185967615056393
-1.1856876198112103
0.8036286225875975
0.8179777880450233
0.8980828847090767
0.4392120306596542
-0.4115846022313459
0.0005843499201968992
1.4698490443344532
0.7546539334641298
-0.49778099703747053
0.26423464359104687
-0.6810594453016088
-0.05113208736910667
-0.9244868254509929
1.0393999763282975
-0.133701197665284
-1.1717897193152393
0.10618261169969401
-1.6968641416288819
0.9042768924938013
-1.2997595784363094
-0.28030144117525935
-0.985155850859407
0.5384958514739374
-0.6838305846003635
2.535368510245367
-0.20918476632179567
0.23308349343709428
-1.9582167298674902
-0.30101179209549184
-1.3446878682939376
-0.06278576372310662
0.19873325122169727
-2.214364323662091
-1.7118108933075356
-0.5910470245589933
-0.6579324070805666
-0.6591169547130588
-1.2248784271769857
-0.7395171460190387
-0.7440664963537009
-0.1373809787783944
-0.11563278674443878
1.332955991959753
0.6227003863346513
0.6882997414177526
-0.5340615360498412
-1.2221166213238728
-0.10311862202544475
-1.7321186903995098
0.20158726843758806
0.6588816235644889
-0.48335313552394443
-0.8365274119510419
-1.2415515128899073
-1.284236974668798
-1.804785063799307
-0.4070656424782585
1.806035190841385
0.9816085012665557
0.4944492201351668
0.8786088682073452
1.8906129046809204
-0.3619673859353115
1.268599228905123
0.17933682206315976
0.10287215303215425
0.9528147429188645
-2.3249940503737085
0.5897487812661256
0.19958128947140516
-0.0010436161935795663
-0.008372407126597675
0.07069781187305021
-0.39672662536163444
0.16829081701852042
-0.21696921618287754
