1.1968194735655182
1.0351925004691016
1.095967597641305
0.8817484425722582
1.3280172676362838
-0.3355368453446663
0.24581444539597047
0.7736862312268834
1.6713240764934438
-0.6976397542568343
-0.8021506940584577
-0.30668805433356827
-0.48707317723956833
-0.6897873221528429
0.1437684918281687
-0.8955475323137108
0.39982908910321147
0.5290144492081
-0.5703546207098694
-1.052170991894124
-0.3316807368201382
-1.3336093294960891
0.984316408515779
0.3616387764629529
0.32757731538502294
0.44702842597260617
-0.5486237336133265
1.0159589973883347
-0.8052074854916152
0.7395537086333586
0.49467189414386914
0.09441551364227772
0.6479419112970664
0.6542292040336837
-0.2304370391134536
-1.847677343240558
-0.41308424890097006
-0.7847983173966384
1.20503732846433
0.5966645401451925
0.9044381673010873
0.15148309077064392
-0.25516709725123526
1.9954078740610104
-0.7594400527104265
0.7512090554828607
-0.006733854881918966
-0.05935469611659239
-0.19770624996822506
-0.021489373129320873
1.5133201256873705
0.36887736627012135
0.38464587585510923
0.6599110559799982
-0.0718666118917566
-0.3970180899132544
0.09270701799590933
-0.07623235638055631
1.0092573869164865
-1.385135490292843
-1.023732782432164
0.565817994246119
-0.23862150179011607
-0.07511094421344622
-0.8618477007471683
0.33626501767505723
-0.7784063921312803
1.4846828559056493
-0.9004904675117453
-2.7792178110251213
-0.5704062521252075
-0.6024559040380532
-0.8231899651677997
0.731359808186572
2.2415529790085538
-0.8049490178739132
-0.0613254196408971
0.09242696334334721
-1.23088761451358
-2.0770538161754617
-1.3757311537893284
-1.7980569728174123
-0.6880634216413254
-0.4825964676988125
-0.4541873533395045
-0.5716829947647533
-0.715513605232242
0.7367956613808433
-0.3549859580913207
1.410884748085028
0.3452141993780316
-1.56361812548793
1.7055877202643397
-0.31323855714841414
0.48543120352034896
-0.1101519308590777
0.007820689715267615
-1.823983548536522
1.5749713661929179
-0.08606349441212896
-0.10596996874066969
-0.31123864461228085
0.7679517355029093
1.008071936735011
1.2359672234051582
-1.33929721178579
-0.05602565128603065
-0.017900768440249293
-1.6165286772947336
0.4360552316311579
-1.3984683958019286
0.015492485210977569
-0.9521743942047434
-1.0725731978650934
-1.568420440173616
-0.245502590065668
0.19245939989060917
0.11899604537308833
-0.24766460828137188
-0.043029341167031165
0.11853241117761387
0.8673840075555168
-0.859029014283178
0.7095294803540099
-0.24708977443497834
1.4751769105696115
1.0014334144517216
-1.1429556184294598
0.09101316034412493
0.1748967473190206
-1.4023572996481128
-1.3563233346115744
0.16642100185124642
0.3697669638704014
-0.11420458491493923
0.14654690939866394
-0.9236358556473815
-1.1644866919440857
-0.20628622636746596
0.05330671745060073
-0.7567827641757194
1.11093487565444
0.39075346690045687
0.4924551612506746
0.5422201594298872
0.4022253982490715
1.486064756066855
1.948819922534545
-0.5330300011047621
1.5463565393579968
-2.170360637549683
-0.5949511204703825
-0.9691305277182447
1.76454543923228
1.5248846354913768
-1.4736497663216983
-1.3019030905014024
-0.6114352834160587
-0.44845859300473934
-0.8041182171704613
0.03193607851526348
-0.1808400488136535
0.16789712629791687
-0.9024874292964447
1.576410769098119
-0.030511667357150274
-1.0041996256972108
0.11630218817186799
-0.30604173437626814
-1.250103981861189
-1.7759183110841144
-0.6370145549061945
-0.3356424841293253
-2.503062289386227
-1.6504125850428093
-0.90733954732835
-0.8613347272506039
-1.2423464021511466
0.4479595071517256
-0.6423969554829467
-1.3954591847886908
-0.3145171163492268
0.26903367372852127
1.9359896844114408
0.3819874761902218
-0.15919489337438802
-1.5280636635604496
-1.553842642837425
-1.491702713786745
1.19306695034315
1.2984551967379132
-0.3831301099386085
-1.5608628231604256
-1.555563156796354
-1.5321314834379265
-1.6472317811602184
-0.07559861638323351
0.2889451999389727
-0.25357933809390654
1.5235231664057092
0.47715704167402195
0.6200563329303027
-0.3257103079102429
0.6726572709287597
0.06968972170684473
-0.5444095838983262
1.1728769854574483
-1.138434148066988
0.09952209002179821
-0.04412125980139528
0.3500722337452367
-0.6266278807268626
0.10587134966060112
-0.20920242516007098
0.4891114691384695
0.9596307942500485
