1.7567806800760564
2.19798026835972
1.2063874731187063
1.9014744168464435
1.825980887802288
0.3214560044050313
0.30784357500306875
1.1490068897851544
-0.12143223986583063
0.38576842016190105
0.8402353034930572
-1.3700175265986343
-0.5586781876831592
0.8343674611946783
0.10891205696617948
-0.6687540612690195
1.05241581932972
-0.4105325183558658
-0.7666233570131513
-1.8302453126288125
0.20181471836796389
-0.26874893257401733
0.1655786638520067
-0.4915819192793817
-0.5509204160973614
-0.754150192580457
-0.9383443396577817
0.27943661959352717
-0.3663750746153456
-1.2791541927170937
1.5700144259607625
-0.7147722212841843
0.8817403700038333
1.418342084494162
-0.35142265544517726
-1.5415218342374755
-0.42530707198794615
-0.13670618826394876
1.2943799283559514
0.06834860813142399
0.2690629083230957
-0.6976071232209249
1.2151378121082046
1.8692950882062673
-1.9919301947036954
1.3229441068379666
0.9538105376672221
-0.6468079087231813
-0.3287000610397044
0.04074257256923193
-0.21440767803057326
-0.23594563805216992
0.24985667398443984
2.6221812800388866
-0.7198350660358623
-0.7427983519588264
-0.09090633948474504
-1.4105641804402658
0.8323734877295639
-1.1171423531812499
-0.5415542367504476
0.3490390932570149
0.38050878732319515
-0.6988694949136128
-0.16990544256871046
0.5753778042867503
-0.8464068487573496
0.5680111807953411
0.8030568698580005
-2.495176672315237
0.5212410331343076
-1.6292299280159392
-0.3968037719993349
-0.4508657666185758
1.7639500136893067
-0.8394635749383023
0.3127864489983918
1.0330517018484404
-1.7298145967348275
-1.4994824623172647
-0.37923666997581584
-1.9070051267996706
-0.9685749506221631
0.3938305357996753
-0.6144170950193266
-0.9838991389459719
-0.37997484951080834
-0.2242318696618989
0.5050478981261501
1.9376065446822266
0.6792274489621544
-1.8160956426217714
1.8183095983363569
-0.5060092110751713
1.0255809881780444
-0.9687723090128667
-0.26456420712911943
-1.2322273567633888
0.15943701787820738
-0.8349962338465233
0.3935848678298174
-1.1435460441526406
-0.6255539579406612
-0.20807700903986526
0.2969160625109322
-2.3661315114778563
-1.3414037701807546
0.58632426063287
-0.17018539064378768
1.1170635774186812
-0.7700069894840421
1.0333965362389987
-1.4484076493291442
0.08389430924107827
-0.8981731299738736
-0.16287170541813734
-0.5209332222792524
0.0870839254211449
-0.44655234119562975
-0.3316495364058213
0.9496656972418893
-1.392739399788223
-0.04265966913391392
1.4276684824754344
-0.49788482151892616
2.2965838058061494
0.5671935158719483
0.07110205181302306
0.06021701840841176
0.3384848889697756
0.1814116540029891
0.023214263428974646
0.7379826649730346
-0.19328397639702216
0.4714441368968886
0.10075715444550647
-0.6325168874184204
-0.4762373754585002
-0.433089596167855
0.7966211835409018
-0.3675619214681998
0.0721236496454857
0.6478337444895236
0.05957245960672411
-0.18815860714828309
0.27346995541560104
1.266635513944611
2.119103201453651
-0.08203035005489484
0.910949428681521
-1.4144155696117422
0.49003375424676743
-0.7550119939353876
0.27292569697491187
0.6775991999704605
-1.2066300878600402
-1.4854534105565713
-1.8400392921002837
-0.505803585822149
-1.9929277057161379
-0.28490966442670634
-0.9799632636497073
0.36373750937326493
-0.8010029380974688
2.293379234795024
-0.25451684048208306
-0.926602195548418
-0.32999208595127916
-0.01954613370604963
-1.469369468170735
-0.9562804900808076
-0.8530246783056518
-1.4092655292735707
-2.162931804463417
-0.3752531465926167
-1.5145592985054825
-1.5040457465787942
-2.289678168582014
-0.9169289075329692
-0.7791046966154973
-0.2734578716375612
-0.05842886439923728
0.43276433839078976
1.3457678659059744
0.9928591518874752
-2.023898200809267
-0.6847651913830392
-0.8806852569602968
-1.4448554030782943
-0.08911286291247456
1.7971405132523617
-0.6775070466238712
-0.6029324991321532
-1.535461221455189
-1.422985370221526
-0.5657490833141788
0.9751682423740629
0.797080338972959
-0.45758092569687353
0.34175037193248947
0.24619388892550315
2.5956662831546384
-0.48084510197289815
0.5892781764567007
-0.08426443016847912
-1.6306272485476647
1.1810427943351298
-1.8339351708037197
0.004931681146431957
1.2123799255948104
-0.32224711807099177
0.9221154482248722
0.06816575801986051
-0.9495154780614277
-0.2941150550340012
0.7142643483247325
