1.2104957013623714
1.0688207189898324
0.26234717477183717
-0.29410315796545516
0.4956342444487703
0.9747268290854805
0.9592901779558597
1.5396406410454424
0.7876617013419183
1.082693944268051
0.956778674004128
0.7249595414781743
-0.7634358507347807
-0.870100068283021
0.734067674890052
-0.5712597185319214
0.07776628111349176
1.1336238946761474
0.1962593012636462
-2.02962209149769
-0.5730254298390203
-1.2118331800541635
0.1334834793801285
-1.3789334008294876
-0.5899554451797026
-0.33075011777870267
-1.3745224871628376
1.3065932561000202
0.9951405759080746
-0.4457211929118329
1.0740025750426088
-0.21330784563725513
0.9376248944229661
0.7353010563287802
-0.46237522052434527
-0.5823130978965665
-0.2241488054164926
-0.4003105576612084
0.028465742077590672
0.27286591886049205
0.969211733506883
0.09895408638704567
0.5102910407074029
0.4387371636690436
-1.1791101159512425
0.6913397176689702
1.0817466933385425
-0.49474069188651426
-0.7995149563289903
-0.369821253607307
-0.3298443146397514
-0.22574391880554162
0.9686217325365185
0.8812539072681421
-0.6845286114250728
-0.9817316301887089
-0.036878529798928694
-0.6662988188896166
2.1778922366011195
-0.5367907792502784
-0.5792201389453691
1.9460305421303161
-0.6451946146997226
0.7198445123198638
0.9881917097730557
-0.013124638842044054
-0.07647020980870395
1.886461093301654
0.100046527915225
-0.7310654498791298
-0.6058456204459776
-1.7442570580687464
-0.21315836468705712
0.3708455327218784
1.3646911571427212
-1.5124468938995357
0.15322526378567175
-0.12109416251797989
-0.6297415195281275
-0.7217888580265297
-1.117949281511075
-1.0876821341690857
0.4200155770118127
-0.7119579401245767
-1.3204605661738864
-0.01714589288970303
-0.31395854313891647
0.88692436462392
0.18154922912236662
1.7351115731069258
-0.5917560965574229
-1.5042435490409332
1.9394350752590697
-0.3433969387848333
-0.7226043377209274
-0.7553014565948754
1.1414612031519198
-1.2454269040330328
-0.2035952340567573
0.8312521082033318
0.7536756678318228
-1.5624444683984424
-0.6660568642310188
0.7673463658798695
-0.7543767429476241
-1.2802013894936914
-1.1700392911744713
-0.4094972284658377
0.016038966546600086
0.5102910901461094
-1.8034235367719198
0.6952894351520429
-0.9378391987816282
-0.6296208169365886
-0.630633648419172
-1.004470200122805
-0.2697360247627841
0.6096746073121944
0.05285944816756005
-0.44864221170836976
-0.28181964969949613
-0.8772128184904284
-0.5791434262544684
0.2749731763304821
-1.155881293050551
1.2923698978246407
1.64931587256175
0.054842981760746506
-0.7203501345062311
0.9352175255358506
-0.8591667427143538
0.18356012098389046
1.4671488192468098
-0.4609908278737077
0.43821333369708826
0.6494025815093986
-0.06638676289842882
-0.01692421109357628
-0.3585610167497919
0.051505409512541844
0.3134108209739038
-0.777285023228514
0.2750486215925276
0.5308656901612894
-0.4833861695473089
-0.24050977959507333
1.2437212887286335
1.6082448358635946
0.11729319684226336
0.8242239798696712
-0.42490793463059423
-0.2951082205382615
-1.0765300415501335
0.16163734606277447
0.22473745290637615
-0.238754514078253
-1.5326436824588583
-2.4036100133620444
-0.584695285351078
-0.7589242903499372
-0.1672524855164495
-0.4067375648340047
0.9488275934116451
-0.1847369415996154
1.6061609225969615
-1.1027514738979978
0.03611491018412427
-0.7907022263143866
-0.9848951126829404
-1.141925498618565
-1.2747614885948566
-1.3589722581539583
-0.42591245285053625
-1.8907349114097856
-0.9775384050736368
-1.4793792850227063
-1.2236440515978364
-1.1997652753784895
-1.2544803274727216
-0.7457024519254002
-0.8731606295524725
-0.8279653992099418
2.085597753174916
1.451868171323412
0.803031431068378
-0.8051315520658575
-1.5421355374151902
-0.2856343020468768
-0.8425356829620587
0.1606840069312958
0.20096793172356975
-0.9577487192454329
-0.8600978216318557
-1.898204963659602
-0.8686941286326233
-1.251230190717282
0.6572460083329369
0.9872385210630441
-1.0499075843478722
0.4952739744325252
0.7231331974625725
1.1778147974540323
-0.5203585218311757
1.023867896121091
0.5117912096187266
-0.20025369598371
1.1654714575063831
-1.6678550144351152
-0.41659168910024047
-0.2933060120287691
0.9611523516941507
-0.3356700518262443
-0.27898667860472764
-0.789095949832336
-0.30056718382313685
-0.4265814535718053
