1.7470465788061036
0.4066201956260137
0.7985728989890508
1.5070236044805314
0.5070179596212974
-0.4514953512409219
0.8160045351183665
1.0208636509678368
0.5235030619022029
0.4741459057055112
1.2042753681232734
-1.0215582585246585
0.01600411523412787
0.4296015712461061
0.0076207151146110985
-0.8347692628536539
0.9587316205343258
0.4612473854515984
-1.5657789475858945
-2.9107928130415854
-0.4122416810230144
-0.22152589685962498
0.8361310726976905
0.6266818085815469
0.14622471634637513
0.8412568566497189
-0.13084329259867777
1.6349384861645508
-0.6682854500542014
0.9292737049728657
1.887215110999322
0.29840787336296726
-0.13556019483843684
0.0687559886213815
-0.8124496987553207
-1.3238790094479946
-0.2194894971508424
0.22411276282730558
1.2866507787275927
-0.2014696644275082
0.1907772150884059
-0.47532406360567636
-0.17148476360674897
1.443508719261088
-0.4637713206323158
0.6229530882834589
-0.2390623051122473
0.3536604883937543
-0.2569128115849509
0.4401614411620558
0.6109570760019881
-0.2570481712313115
0.8332669928627559
1.08744908078989
-0.4041165772654758
-0.26798390336932454
0.2828024357598763
-0.9418536358082731
1.2666183405557405
-0.8478025897753996
-1.0833848815717344
0.17782446966392995
-1.0820862546423788
-0.4422648135392351
-0.1838064883074747
-0.4728686264446824
0.12166011163615797
0.552343761576602
1.6990133749757705
-2.0905896533396895
-0.5256086678782217
-0.18944254708831842
-1.3012144286336613
0.446639322586074
1.301616633452234
-1.7783508737507723
0.5877852664502909
0.6589112235017293
-0.40308143546429953
-0.061985356400382496
-0.9156216538895852
-1.3291340928051154
-0.8735626726778286
-0.6059799828113849
-0.4161732407883103
0.06443713688843278
-1.325089312725316
0.16783913166387815
-0.32752946272731254
1.5997415585628392
0.17715495494830807
-1.7769254552749412
0.9537901697600546
0.061506395143537285
-0.19027288564666334
-1.0252464169835522
0.28774730185907016
-1.1560552726588198
0.5612382685587108
0.7694321118929422
0.11015467612649318
-0.8941492376802824
-0.24459276604364047
-0.24000712328695306
0.5803690446258677
-1.2222636781500165
-0.7357523780660629
-1.26254920668997
-1.263539447618583
0.013418330226403014
-0.8935053415476159
-0.040176346058876045
-0.46313196498638576
-0.5883711707027541
-0.5757261306897258
-1.4078586871465555
0.9739329459081632
0.10573841921915633
0.0442073102868874
-0.600307647525468
-0.0700923906682761
-0.7829521839674864
-0.5704784108589387
-0.7095998238907717
-1.2286522630770684
2.309009640915365
0.048195642980715436
-0.5724692569441491
-0.4667523971454441
0.9895919346151878
-0.29242420643231515
-0.8404084663409734
1.9534226169933082
-1.4161026220713278
0.7461900360870894
-0.2586475786910135
-1.6921567081485498
-1.2089434293143788
-0.8627893548877624
0.9111294397493671
0.40765576349388977
0.3148840329932392
0.8222215301255644
0.5513638825439151
0.5667068903725309
-0.05238059611926994
2.055402827242457
1.8395892186628031
0.5829873335211471
0.712371983105138
-0.7160435718575648
0.5744064732022739
-1.062475120553761
0.10901399505399256
0.32599277623704315
-0.39382692276727493
-1.6945632899188943
-1.7266542714076194
0.017032826705683374
-1.5333695580990534
-0.004483417649291499
-1.4850166532641766
0.49653426930148814
-0.9289007310191003
1.9663674001174907
0.261742816423565
-0.6155087963398695
-0.684487109950799
-0.3952178686272479
-1.4720627588401962
-1.5843972050222532
-0.0420227539188639
-1.994326204254284
-2.41970320488129
-0.9722420623873568
-0.9405642084303586
-1.5157075784335554
-1.3334883123920753
-1.1423439197845915
-0.9533581704475106
0.49371509329870367
1.1397155954056286
0.4323976879645123
0.1715806928772905
-0.3466339522066385
-1.725818636907291
-0.4824934497368858
-0.6800873464944643
-0.8716356871070927
-0.1484666462059262
1.6333782660838936
0.18683418799857066
-1.5841426370827705
-0.963661065803312
-0.9205788293996267
-0.8785694710116103
0.39613055443404677
1.1718748392535994
-0.2512634222348769
1.1991993551641869
-0.26418438987610504
1.264507720873606
-0.808472144998329
1.187670718904926
-0.07101174368085433
0.42458259097977036
0.8262270427788796
-2.6901367278018196
-0.07482187234698867
-0.6047846279247042
-0.5768693856346778
0.14674413929846997
-0.3519389460917337
0.503082607138088
0.3121159120819766
-0.2315272843685557
