0.36975281852083297
0.586714716560055
-0.6773241406729209
1.2077925686212136
1.4695863221708885
1.0849681139756588
0.9645847291541745
0.7507847765947033
0.3887040950699635
-0.8925661075031465
-0.063055026967412
-0.7303242250902618
-0.620458353302959
-0.4799956170293016
-0.11621490101163859
-0.23739252674843908
0.6586812462608966
0.6453859868680825
-0.3610592507682075
-2.2807333495094175
-0.882540139273007
-0.5496736555246906
1.4592505791848653
0.06846826811016271
-0.5540249247501305
0.059636374375470314
-0.42989749551677114
1.3925745410790618
-0.1054118620935229
0.5408294369163245
1.6808557451034272
-0.8393302230880176
-0.030211722589234102
1.0482294922814077
0.6422206421935365
-1.100107826597062
0.8677414522674592
-0.7266478137249717
1.504517044324399
-0.047890496971569455
0.40927298039973437
-0.35500161250210877
-0.4301718132609699
0.9163182560473537
-0.7764152924525158
0.3098842313215193
0.04081827073482269
-0.028306333379604476
-1.6149924745872806
0.14909804357919448
0.4919501303848496
-1.078778779515957
0.5508259169290103
0.24262041353315733
-0.1530463611766012
-0.27155434460229705
-0.6815545029744323
0.3141630241174673
0.15336327039142428
-1.186952474877634
0.0301942829777897
1.7888731344563071
-0.5264568351621064
0.9269482141316946
0.22852459072028636
-0.7046871310222188
-0.5219572362907039
1.25832087644444
-0.5893749118906948
-1.7096872656269522
0.368567550551411
-0.7731891804895963
-0.1520304989292749
-0.006045396642275935
1.940886897114279
-0.6690521697173744
-1.3227375130400332
1.5817510687315242
-0.9459461513772548
-0.7367850142250624
-0.37906857488680307
-1.2572719506468462
-0.22339889853618766
-0.3016927073679799
-0.8681758478787095
-0.742458884411464
-0.5597723342492705
0.15390099137789234
-0.9566962554725044
0.7899677462595918
-0.11486640555577714
-1.5693993811972027
2.0773803303651226
1.0821524666247027
-0.7291097195871252
-0.5256363511225102
0.4645359650894906
-1.0267706946486737
-0.7088493358632418
0.23471262750484606
-0.24268313706149677
0.38934855273792857
-0.4589226111117283
0.6395568640825295
-1.12589645061797
-1.004219196516083
-1.1174775119954208
0.7925736799757084
-0.6720725334902927
0.07074079311409184
-1.218584772282662
0.7719011151016797
-1.376207947497443
-0.7073967948473283
-1.1338525289713937
-1.655993601461557
-0.3755539807022508
-0.6083735481858703
-0.9669263324372422
-0.2025661120877893
-0.5811102077977582
0.31678901122413766
0.426050360276027
1.426827222441474
-0.20993151476588065
1.7779738949359012
1.2897276851739696
0.1993650467164088
0.9917888874064822
1.2583493061281903
-0.627877822069194
-0.4463595237108791
0.6914759512429176
-0.3218965557541581
1.070103275937481
-0.647734208375213
-0.997550510958173
0.1388534352526063
-0.9500221129733509
0.7761887021885174
-0.2531328100361944
0.49615973568445226
0.2222977576055933
-0.13086842057118342
-0.2753452876645531
-0.7146570385451263
1.4895240441722708
1.8515262921133662
-0.004062963295890176
0.7894576726062144
-1.135586461747314
0.09538187143426524
-0.3430961933493035
0.8050186336849214
1.4777502152236797
-0.7244816557324949
-1.2801606063848416
-1.052804461635825
0.5069064591920414
-1.8484697061999371
-1.1243638721010978
-0.7182770143168998
0.8773086622700949
-0.855364477981198
1.3743513817197728
-1.5450603857666898
0.14017423947227842
-0.12654681534048384
0.14124678958256293
-1.2327156418861809
-1.5173267427529145
-0.7256635143256782
-1.2862989992272698
-2.114526896913014
-1.7668267986040804
0.2774095329040561
-1.683412674989206
-1.4416249341578473
-0.8653217829213791
-0.7040335998193621
-1.2842112597539188
0.3228544489905591
1.4082249354060172
1.5953457641226512
-0.01132648264691534
0.6160207923547101
-0.34977151179241606
-2.108348381164225
-0.845704035689341
-0.3379384363773913
1.5243322537856023
0.3311539394182559
-1.0445807302256525
-0.870739187958409
-0.9956570437729199
-0.6258817455813077
0.38200063704158294
0.990516015256862
-0.6424468292779758
0.2616984246487758
1.1847525195447886
1.3409945253730158
-0.9051468018805644
1.9611946843448087
0.14216861279353354
-1.1223244854273586
0.5258958524432411
-2.2380117549728116
-0.1229004240231811
1.046181753884347
0.7148658016213507
-0.5263832994127007
0.14334758519840962
-1.1512519140396449
-1.682316260392267
0.537177768071446
