-0.01003344296189801
1.9486849985721146
0.7355982598180328
0.8944341640000468
0.2018647685044367
0.5923312742910021
0.7619702795345115
-0.22395704840447317
0.0890200404445311
-0.84186566013518
1.5827058607944602
-1.27705214737858
0.38398761552324134
-0.5484292469055642
-0.009052619299187131
-0.8926892579259943
0.9403638199411457
-0.45984553532122835
-0.4538047258191783
-1.9657778299720527
0.9328373019360232
-0.7060139123882301
0.693797950409328
-0.26835742677378677
-1.426483418221353
0.5540335554274651
-0.46566455104315513
1.6565533724405594
-0.8057723667791675
-0.8820155769328435
0.46805486897626186
-0.5807210721735475
1.030524889413506
0.05745535824738976
-1.185486367284996
-1.383082109838799
-1.1527302369340828
-0.32118236976171777
1.6592580982597682
-0.47108642995267225
1.1162165314191426
-1.0010334566343766
0.47397509827677364
2.0796111294801665
-1.411849997780627
0.6538336211176314
1.2923581472270163
-0.4538955569480914
-0.6746163952663203
-0.2059237561035722
-0.06875470664347011
-0.2973712191006326
0.27993729260837225
1.696098603795561
-0.11543345011958642
-1.3752767215576984
0.6163064878380126
0.1115204124080389
-0.13183676410709688
-0.13473890429830648
-0.33051379295587774
1.103587057463304
-0.6686165176766578
0.2718795160769769
-0.16129636835785144
0.6147323860639123
-0.3064588700725607
1.4339258708283076
0.5683662469113882
-3.1961691006012893
-0.992386633381738
-1.1243599380300062
-1.5473959685283147
0.9804685224157652
1.647118366798644
-1.319068931120195
0.26705327776251053
0.9538732523565833
-1.261773361922136
-1.5912311759924913
0.26493650095815113
-1.6243013725994229
-0.026421204209155752
-0.477484374930049
-0.40796981738720367
0.3391180806449223
-0.7209548128997614
-0.07833122473457738
0.26260230088773984
1.257743351980539
0.18834591548634871
-1.7126520954975994
1.9764063524563353
0.20381281355554684
0.24000985253938295
-1.304531545484829
0.6407115932280009
-1.0421207494267306
0.9772000152891257
-0.5345732349190438
-0.8758631498965607
-0.5994799208378842
1.5872725885265824
0.14806846366450244
0.14942026923700463
-0.43738831716831506
-1.3135615448083193
-0.2037838017480557
-0.4427360704749528
0.02137411401144601
-1.2073645506399235
1.3708520726188662
-0.6332811376305922
-0.5652836756776654
-1.4748209295586137
-0.40844575955877915
0.07441317175410889
-1.0980034604802158
-0.9209191292897222
-0.3362991971573901
0.320053711523227
-0.31378024723350273
-0.5988082533744004
0.16681903222394445
-0.06438407901853485
1.791351690236557
0.1314101434390782
-0.6799805606158157
-0.3967941772618002
-0.4481865226840293
-1.6116775635797538
-0.10458098018076284
1.3839922388724697
-0.9387423134855487
-0.2130703710825599
-0.12025692250461753
-1.2489881680223964
-0.5697061274220474
-0.9859409527290913
0.7204343935934597
-0.055174002500257335
-1.4564644083658336
-0.006060044708911916
0.20383780817556094
-0.686468033554819
-0.49811800540229
2.0136858215581377
2.124102847103317
-0.25971987258801177
-0.07261464090437608
-0.46508567529159867
0.1515065399637511
-0.854481788451093
1.3114063271378915
1.4070864442903699
-1.4023796689752552
-1.0239443350336368
-0.8119686859561317
0.2000291766323855
-1.4047742321065109
-0.7142896247746543
-0.1317438688082424
1.2154089577491163
-0.6312527844580181
1.656432404962934
-0.017854245444455907
-0.06275064595206464
-0.9019374656296675
-0.4068965186716933
-1.3448838782614023
-2.189518864278575
0.15591122012658865
-0.7275013470988659
-1.8586408705921094
-0.794088644322299
-0.5991015709071461
-0.7602205190493916
-2.0986444359189758
-1.350526278626394
-0.9792458028879631
-1.796647536340355
0.5177241732916951
0.6983352512447057
0.8704006185339979
0.1392831273798134
-1.2216084747199754
-0.009390613196282427
-0.9432254233690073
-0.27437600607030777
0.7235733461780883
0.5133031038433176
-0.715955898358774
-0.9888178585995815
-0.655586659168028
-1.160339878238926
-1.5037513718039395
1.5352066098333477
0.7731948355194823
0.12622957517194783
1.518995926226546
0.4303333849955782
0.8161870519613844
-0.4301481004628471
-0.20126400506712394
0.16238950641304556
-0.05748418990120041
1.667797146326847
-1.2956281566426628
1.2911745904360976
-0.34767371459490093
-0.469211393172776
0.5785321478534297
0.35026291393232867
-1.0218264084182689
0.5488295056324964
0.5047920341015795
