0.0931608828115642
1.7656421213383129
0.5561283889553316
0.622638863958701
0.4271710419098409
0.7811564644085741
0.6215229041104442
0.8645567311716222
-0.1365223488050611
0.35636453562911596
0.7341488138753558
-0.4047002791531367
-0.9153425495603845
-0.22082083470819536
0.46765381510858195
-0.36105746879325007
0.7291996342162351
-0.3039765025119142
-0.4864286842177239
-2.545224125183974
-0.9616500906046495
-0.37016854557621104
0.41582021000818836
0.4150789827543124
-0.48934361225959383
-0.3233650363119678
-0.2054269816679858
1.3652647819923815
1.4136822180868305
-0.390035084061097
0.3585539803956319
-0.8950454363270087
0.022954242181426388
0.4618856125488823
-0.559694206646213
-0.3005339184690671
0.4715836048097639
-1.473894682915773
0.9761857970898838
0.90108589085509
0.6735808436964495
-0.9271843916240978
-0.19474804191038086
0.7887738049859283
-0.8948528559166286
-0.3627660325740396
0.8613246606975087
-0.2924409468674696
-0.5857699389750486
0.862466266660258
0.0049819857427141345
-0.08347725631321293
0.5340257147163854
1.8107917491665795
0.17084870311398426
-0.0819219227129766
-0.3759162967952708
-0.9500879159017708
1.3292914254049415
-0.07993750718996684
-0.6306456728408292
1.2216465196885329
0.26578345945887816
0.6843426892570883
-1.220785312659434
0.5221224092019237
-0.33206882788470693
0.6202473367811071
0.2831915255973396
-1.8437677833819603
0.6687655310057752
-0.9351007642923901
-0.6588880209718282
0.7102796300140246
1.9732732291401636
-0.6496413765493404
-0.526527050323915
0.31916435889449185
-1.0133254510248244
-0.7962115734068682
0.14378188946278003
-2.2225417375859626
-0.1698448795967607
0.1443125525146862
-0.4824109526807317
0.1008018852651541
-0.7705581861191716
0.0027754305743495356
-0.3833243654159975
1.3123238192612787
0.07571684833662189
-1.5629112855601208
1.461388032095309
1.1480619694859997
0.44737505568512437
-0.6695177289724147
1.0207549560169618
-1.5361220912423716
0.24525449595986706
0.4164981698987207
-0.02127945519613017
0.15388089654477355
-0.22232861042964455
-0.13729042262201152
-0.5314224792945217
-1.4307921783996844
-2.4814278890612878
-0.9681015334243337
-0.5306621560539656
0.0873566749662001
-0.43651333912360124
0.5041117281907985
-0.1502077479000664
0.47721013380244026
-1.065946735700394
-0.9589646764381448
0.2534114020349041
0.3820400451679708
0.2671671086511884
-0.0032206614885673668
0.47458762631591145
1.274313224840061
-0.1826043687178078
-0.1912864421112191
-0.5843507273531311
1.6414678930549564
1.4122309831297823
0.2919980428695241
0.12058303062609255
0.3407592554007341
-0.574359696168997
-0.7930359531014164
0.8034405093334653
-0.5822332886550885
0.44886195200280987
0.20547884161318092
-0.43767636268004184
-0.4272303924797324
-0.9555338732224401
-0.7537589426129603
-0.8526500362924327
-0.572741567556171
-0.25854170701962703
0.37583921144246524
-0.245843576672012
-1.4806279569403877
1.765761890159408
1.848360575593931
-0.5776910993165223
0.061712178948419516
-0.6070656714200207
-0.7735183887658467
-0.9043125412840328
1.2154347815520725
0.9749450299024786
-1.8211842688270967
-1.475890430688143
-0.6524158812289862
0.8549268460520512
-1.3210078292808687
-0.4261407381415877
0.029779972049775227
1.640742631834094
-0.4455145080490939
1.4665884777908076
-0.12127065306479196
-0.8886956881125301
-0.2540289064012927
0.5556746417819798
-1.7672876709119167
-1.4491849249830377
-1.5703238076360222
-0.8477607246439134
-2.0576632838873077
-2.256292920824431
-0.751577404164682
-1.2081768878750863
0.03642360077192697
-0.5049066675773197
-1.0741928571992918
-1.3994750081170586
-0.2909191765376501
0.2678048201532003
1.8184948440718647
-0.2806966131382942
0.186612562878389
-1.2704129212601825
-1.559590939848023
-0.28880805520139397
-0.9458542690562485
0.5679753736316884
-0.5853441478848288
-1.5504486161962268
-0.3370104317441347
-1.5587768337124328
-1.4197309397049294
1.160545883236953
0.9790631598238728
-0.4722240739160435
-0.1723765699911215
-0.07178002519620996
1.6405537531883998
-0.2790304027676539
0.6224512713071899
-1.1560675190123488
-0.8244259343851654
1.2545035167847907
-1.9383230611913969
-0.4556315417243211
-1.0660144803225717
-0.1552000224684401
-0.24420475553206406
0.16258646412838368
-0.24958319803282403
-0.615436592842428
0.775637544658942
