0.8612242634945115
1.3628860922335055
-0.7683002126253637
0.8113425387882784
1.791079902645082
1.1220048423159619
-0.1003356081123481
1.2563325866903263
0.7764170681087383
0.692122078263605
-0.446759321944004
-0.7083389116862622
-1.0137816538261386
-1.2509310718153743
1.5489053715804146
0.4872495778177537
0.5887689386497033
1.0699509172526813
-0.5390722530237507
-2.3418245875587695
-0.6521170064481081
-1.504196904553838
0.7070608855561304
-0.39427686295501513
-1.0932567945620648
-0.47085973854131735
0.1763198030144848
2.1364118173176827
0.32519828956259755
-0.5608916181156994
0.8716910027983806
0.1953277572605222
0.6181115486976076
0.5169294611671734
-0.7140166127463234
-1.673762523596448
-0.3107816220669989
-0.2374471205890535
0.7337781448702769
0.0699251907263237
0.41014891039186163
-0.07211987516814905
0.19820370093366846
0.439372414843221
-0.6550520199050952
-0.5360835790319498
0.8292991097304845
-0.32617905500253763
-1.144987368346781
0.09709109224724574
0.4579156650902566
-0.7478613692072482
0.34272043613865916
1.4051241051442322
0.8385428347189658
-0.997402402034225
1.058286886579245
-0.8681421368777426
0.021562685288736394
-2.2236864349588585
-0.47615402375019
0.6644866398265262
-0.31510015684888126
0.521009662155392
0.13677134211942416
-0.4934660677473911
-1.6622808996943679
2.0984704340516775
0.3069637752100737
-2.2835376729805743
-0.11199376115827323
0.26849559254449795
-0.8576183181172218
0.5743155526494801
2.3585688741681916
-1.3259895364823246
-0.19000362543618543
1.377499378626669
-1.3485765122800943
-1.804095325183285
-0.08804245839368363
-2.2173892275798064
-0.7486484832598921
0.6390364560242241
-0.5881084457317176
-0.6477409309762139
-0.4810099527560171
0.10031366476733333
-0.6053109782874293
1.2652969150193367
-0.07421675344038026
-0.9262416708067225
1.7682050167317211
1.1298515854713909
0.7236171321948991
0.656918855280735
1.0549763546479218
-1.6001138485047615
0.3698837263696906
-0.8666199715721918
-0.13568803310399688
-0.4225037494818005
-0.10649180044868287
0.7398100932451932
-0.6222089668455093
-2.624156401926647
-0.7808394874412916
0.23707369779720938
-1.0986691925137717
0.31225708621900894
-0.22947047846907842
0.6932395621388701
-0.25896081230187895
-1.1121628333037687
0.0712064089086526
-1.3272093141345147
-0.05351508937531263
0.19943104014179464
0.05615248855406374
-0.20726724000424157
0.5581127794332355
0.4445660653820243
0.2420022586634994
-0.13315219049757815
0.5466067167618363
2.834017822947578
1.0504371639582233
-0.018376243685447248
-1.1450765647459336
1.4625805372051346
-0.6993511717343346
-1.0365469505493612
1.2698235666203703
-1.8586012532786498
0.14542508210033325
-0.17787642713970797
-1.1888457945674942
-0.6065492934095555
-0.8754733358375739
1.1819040643032839
-0.10353833297431198
-0.24923351994403953
0.15339586326717944
-0.02139764938853464
0.7747942380236503
0.5946738499308757
0.8348672938724464
1.9756608977276056
-0.4420252491558288
0.5631805809715705
-1.1021044960914104
-0.7220619897890328
-0.413909296399814
1.5386051252143047
0.2978169284558353
-0.2402670778329552
-1.5108822956997159
-1.2558568405797856
0.5617031502092626
-1.0325780605623334
-0.32224941239972493
-0.9822335826646732
0.014103206440070126
-0.6184061044796566
2.3836730424831454
0.4888847039011659
-0.9493230635834113
-0.6204500710613238
0.7342609598284265
-1.5756675567397955
-0.9347575527872679
-1.5189352018164772
-0.3184202030119522
-0.9126468843717402
0.10353617675064442
-1.1792842118683589
-2.0161275499611766
-0.7869239763266814
-0.6064126717191557
-0.3558426195962448
0.09679617654651995
0.3362413945548485
1.2083012343095125
1.4010671674175792
-0.1399663512606304
0.04934822717608822
-0.4729584437284743
0.8509678681001462
-1.168642129730517
0.3576160413701596
1.97000225253554
-0.38664826473774644
-1.032827621972392
-1.7322657843598224
-1.1598002114625952
-1.5963988796000919
1.0030477099149573
-0.20197407762141117
-0.43979375779106517
0.26787993059229853
1.8178700698871957
0.8509154218119336
0.5712903585983933
1.4978677444837138
0.9339098687973717
-0.6481076164964202
0.9416251524049218
-1.8458310926699102
0.6009761304624711
0.3834864275929436
0.7057970100533268
-0.10666757064528613
0.26742551214767796
-0.8970948589595811
0.7586120522991977
-0.6598229819206978
