1.8320891065016092
0.958884981142481
0.30625346474920456
0.5839380128639701
0.9631946459992019
-0.1376253596740048
0.3904878986332181
-0.1353003652286664
-0.16463196833693095
-0.6193444976375171
0.4207958092442546
-1.3659348745390067
-0.35256310245019246
-0.47495495455601716
0.26886516090810236
-0.24682825886886572
1.1912444588266313
-0.028356939116588722
-0.6559570569385441
-2.964514190891408
-1.5203141286642516
-0.7754724702310685
0.4800841279183213
-0.4231474889975028
-0.006129975985417313
0.7660117607592682
0.21557525078631268
0.25713031481650894
0.039154450673646785
0.06991075740731817
0.5006382962953744
0.3974461857079469
0.11748351623804887
0.0298781315825888
-0.48736901892911266
-0.9740006545869268
0.10513209518076087
0.8806004052545415
2.0801053736838404
-0.08062331999240623
0.27864723321619267
0.9538321322951762
-0.27952359572061397
1.3032693910818494
-0.6530405782952187
-0.8244430335203649
0.682470633086485
0.18969522866478317
-0.21604029633069827
-0.5846201743457368
-0.13666391160371955
-0.6460951182609899
0.4114985227668576
1.3258719268105696
-0.2626753545118785
-0.9536220927778023
0.9450846903034339
-0.5979414783612355
1.0828962532977162
-1.2153977425218399
-1.1812918693272587
0.19441228210128103
0.5702934725772432
0.28533789617808336
-0.4008059214714658
-0.44184120337949107
0.15445123905482783
0.8672245047819568
-0.5405474017454874
-1.4870096861514819
-0.4944887256735515
-0.9068531868884842
-0.4323445829759608
0.19064432107972817
2.3355760633476415
-0.7030086377483831
-1.3614937943669383
1.114224674207821
-2.0031079758404546
-0.7887061431169455
-0.5638117370181671
-1.9023838787779335
0.01579758911418183
0.9267641311931523
-0.7728719721953361
-0.1978525689723757
-0.46270498735729076
0.3467311145110224
0.2691677445345301
1.1134393458356344
0.34330316870280697
-1.3820865716603363
2.0386519139573425
-0.0846240358404593
-0.7999760359166264
-0.50049051919723
0.5861558535527814
-1.7950557282268929
0.6563102912354529
-0.2939071904528531
1.5404668785432571
-1.473294583661747
-0.24881479257951414
0.9414759508240965
-0.38700576916124996
-0.7463609263203769
-1.1039245973949388
-0.03140940291517863
-1.4837895745743965
-1.3240809265943874
-0.8279922392757829
0.3664284501231415
-0.41905170730696134
-0.26878346632554123
-1.527701729957086
-0.6260077927608173
0.2899427719321092
-0.1761759921591316
-0.1963117092123129
0.06473950784372706
0.9103755138415714
-0.6819410633337022
-0.676124090103871
0.33832379948115693
0.033106781390055795
2.056941009050185
1.3938384670679538
0.2862059579004049
-0.11147687188295352
0.2911051013931175
0.09811706680151844
-0.7209173009451317
1.0304552782612428
-0.7182715149452708
0.17630295378290772
1.1791431069662057
-1.0030309478066548
0.5468500190972716
-0.9215035196094966
0.32069493313119635
0.7234012446227176
0.017223765504278645
0.532867559870401
0.1792294973393492
-0.5935635708634319
-0.18633467980385576
1.6509193112643041
1.5069779352492978
-0.6393908741827018
1.0156590193514379
-0.915824367537327
0.01750918695679446
-1.1597778651628539
0.24460181798369995
0.9803473929044753
-1.0569334975276605
-2.388641077096344
-1.6014840316422791
0.7437691634197032
-1.337760778001209
-0.9273115205163347
-0.024846860860033182
0.2871079094842109
0.2162367385616919
1.5796893261443834
-0.1844363800272783
-0.6816361459834258
-0.20223978352187555
-0.6937767107333357
-2.322520228690205
-1.2543826664692712
-1.8953958893250633
-0.5315268425173292
-0.9242762139487414
-1.1725311226492592
-0.04047432302650711
-1.302475947264889
-0.6339008819230998
-1.2603210164166807
-0.24956774912493973
-0.6033173850771246
-0.3793147409273231
1.8525700133353609
1.8263249276085403
-0.9751212159212935
-0.6640405430537504
-1.5038526061942654
-1.306885800140714
-1.0455936164037911
0.774420568302681
0.3746686849483175
0.08776104734374446
-0.6590353999875131
-1.5626184342871894
-0.05045725826670999
-1.690783524886113
-0.1104484276586496
-0.007740674576551032
0.3492283107105188
1.0244812925199145
1.1652108245357804
1.3462955906860568
0.4118873467958204
0.21825942531358378
0.48694838728416456
-1.5006713175080004
0.3924955691867952
-2.401128316501423
0.23922531318619553
0.037512298158313
1.244220393682201
-0.33342071218233854
-0.14961317028051718
-1.2141108126766071
0.1258763249136762
0.7647482985171346
