0.537286130130402
0.8010904933309064
0.343487972474
1.1257075187337078
-0.18577976433496857
0.5925007644252049
1.0357578140028874
-0.3026049006367991
0.5507315716208737
0.9503538964521752
1.118414839716193
-0.8040541359506662
0.43452025272120465
-1.296690489898972
0.1478675744732328
-0.4300854164106349
-0.10697196459646763
-0.009478728143604995
0.21174147533664012
-2.7131511278488025
0.10944955820897517
-0.6744344134905642
0.5064810029396644
-0.06936272207158559
-1.4046252810972477
0.6554663475849961
-0.9217595698469849
1.6228192492272882
0.13405068122072322
-1.8862530765711194
1.2044866466517268
-0.56972380615213
0.32272121339973514
-0.5963338164266277
-1.4864513236191477
-0.5430993842649591
-0.3126836566513215
-0.20536987587167166
1.4584287430540717
0.4944543108646897
1.0072299069298416
0.5011248843974792
0.8556680666323433
1.9085407427140384
-1.5463789906345333
-0.3534212882672526
-0.5134931076772076
-0.5431341926548937
-0.20597675469852328
-0.16489015188455095
0.21408173879600118
0.9235738171617311
0.4183144238472091
1.568773498022956
-0.018204508233236646
-0.7295450040007531
0.39452780753590694
-1.1291139985312046
0.2898730269666764
-0.8435093402541964
-0.06746087995032668
0.4312201708679634
-0.529373480665786
0.7631959210535596
-0.10359826258829098
-0.5115791121409058
-0.6943335253422527
0.8414452435653266
0.3331093939485342
-1.823596453923653
-0.11344040376579473
-1.056612971808018
-1.3014710128784468
-0.6746847930194327
1.5868486111891436
0.24913383801046995
-1.1880019198819365
0.818318604939734
-1.1166494530719122
-0.5938839469448267
-0.7837357447090815
-2.0738726982552738
-1.5192849420052534
0.32175723602057016
-1.2965036548379856
0.2360633972934595
-1.0268419351879183
0.7368006055712522
-0.0927754191827801
1.4791061457362644
-0.08668215669430684
0.022164105874433293
0.9263244515207643
-0.06205619599341489
-1.1848505509339298
-0.6508321648802874
0.5053193411269029
-1.8014630166534242
0.44991696888902843
0.3319753394251502
0.3069858890785725
0.00639120657847525
0.8887113543369974
-0.23576358802833353
0.7680108291909034
-2.0960481163710094
-1.0069789923216836
-0.45666543008581023
-0.08354760448768594
1.1962250759925979
-0.4103300891056767
0.3958075497461494
-1.3548937305469853
-0.5918190982352274
-1.5456911644515992
-1.3815051688035134
-0.09906505506575919
-0.263804705738348
-0.38491070381779896
-1.3210711629926513
0.6076152660256231
-0.5175960307513328
0.798519846120505
0.5719064374754347
-1.021785246681949
1.1584162675673197
0.49072500070941416
-0.39064390516602926
0.4199626556833976
0.4230416949257037
-0.8400500276341418
-0.9695180159104599
0.50319817060255
-0.6759905386819024
0.08832131477893417
0.4158198939922486
-0.4538804031862007
-1.3101638656030317
-1.365340436876463
0.3483620151692348
-0.14277831104526345
0.09737166489629043
0.19325592767247932
0.7910638866769466
-0.054837851364155116
0.09898827021407428
1.4176890080572415
2.587910456154604
-0.4700701912801548
0.8343415557890214
-0.7110492458140574
-0.3253882792290274
-1.0828185349103505
0.658349174181853
0.5656632860107897
-0.9817347100175913
-1.3173503009124397
-1.1282985005845523
0.8783505559776291
-0.9194882414323419
-0.45647905218264895
0.03456006817704371
1.0192175278518987
-1.1256570403699167
1.3894373616224889
-0.3499559082316246
-0.7093997759978347
-1.1761397833195613
-0.18518239626662364
-1.1765366580756245
-1.0570992491155475
-0.6859840746815336
-1.0434514929733676
-1.5170157735677428
-0.14474321358003528
0.017615631085154626
-1.7551364766317152
-1.5344912246875593
-0.8711034285844984
-0.7438033144864631
-0.5507118138901193
1.4890537236625443
2.104923255008454
0.8261856253145873
-0.013120687402902356
0.5875983836012073
-0.6702043699917395
-1.127445579123541
-0.9028791795302886
0.9692581436217373
1.4021912664404788
-0.85102631518822
-0.5746640347116874
-0.574425547224243
-1.662544590211808
-1.7444119380330156
-0.5940631475883624
0.727286862209112
0.25558337803079173
1.083415822854088
0.11516440780531162
2.2383025487786083
0.4880653997446477
1.3154272146940915
0.21225290724413204
-0.42101438281910447
1.2601474229398524
-2.445143484728949
0.1946831529744376
-0.8947509883002396
1.1058737797296445
0.2574178969346885
1.275714950737746
-1.2925219791714322
-0.2855053367111608
-1.0780632455140848
