1.2718712126745215
1.7648470534815082
0.7877808660066286
1.4017742458143578
0.42839783130384446
0.8297469957966193
1.0775665174761833
0.2239393988079923
0.902678774173894
0.2883190379049314
-0.28221451321483954
-1.5323240795898563
0.31282265040579793
-0.6145858272647282
0.7480184157888413
-0.6242088914033078
1.4811986880143948
0.8547311180826428
-0.6147612320514455
-1.552592153147199
-0.12258331580727802
-0.6081345654988539
0.16569816834985834
0.5648156903735755
-0.6655788099820668
0.20154926216871893
-0.26047195192215816
0.1966460401211244
0.7881116018108085
0.4992146510787752
0.06575716807876997
0.13344241236523868
0.04465150435460008
-0.570738908042883
-0.14059982553230121
-1.238820422131843
0.2858383392313659
-0.4762129780643182
0.3113470329193496
-0.7678592031999992
0.45973467246403565
0.1851308739845079
0.585907277381017
0.9783430567912992
-0.9581128574597312
-0.07277246761237899
0.7843187909952146
0.38744132311800783
0.7954554944359987
-0.37925562835120397
0.7614223552576698
0.013797930006150412
-0.2369612395850157
2.379490386670852
0.10131475985246714
-0.07083828833920636
0.4414943148658525
-0.5662726273911766
1.3646272020149435
-1.0030826638692243
-0.3494958368898775
0.6583978855461184
-0.14086268511697847
1.4265789153297899
-0.3604247283872426
-0.5367090181694458
-0.03713695290857835
1.2256581352067744
-0.40795652417002287
-2.731521372205067
-0.6782076197108631
-0.584487423784377
-1.3486149830843361
-0.6478828979090233
2.195135626837666
-1.6915971808407004
0.1841210704729881
0.4818801958240017
-1.1855657044000483
-0.23042581949665208
-0.8507064307591461
-1.6510782745895547
1.0419741246160794
-0.6537808401001699
-1.1337323956934275
-0.6522216153223649
-0.48590785989762286
0.0019432724546302738
-1.2711529956985326
1.564732429106256
-0.48188717433465494
-2.509846972129666
2.1695811173438404
-0.6739224528255889
-0.5245667973064575
-0.21797434866886628
0.18088080236703558
-1.965237432784214
0.5164721135875425
0.13272245546949918
0.3260290030802765
-0.21684195074361134
-0.4886986796777959
-1.0501233454779344
0.0795286481091286
-2.2473013430827575
-0.9796690021787092
-0.41525673365901783
-1.2661669801353463
0.2905564994481159
-0.8418523547247303
0.1467675622247927
-0.6177387176736472
-0.21854651010996928
-1.443099428462513
-0.3228022957213106
0.30170382541021695
-0.5122462961758545
-0.5139294246344553
0.20600797608979415
-0.23259906454304305
0.04430727183362168
0.25489568250785727
-0.08794054301531967
-0.014345017601634757
1.3362977262528757
1.5701963402141412
-0.29660748671958564
-0.368614195402834
0.6914250779774421
-0.9497696083221165
0.02056860652084974
0.9880025922458056
-1.4627721666483855
0.5090104510939711
-0.15502646861969668
-1.1161447409961405
-1.4324157769241672
-0.11373849708122385
0.11643460736590722
0.14006030981221018
-0.31622895064175016
0.48535237230224704
-0.03857137678088046
-1.1228013441670124
-0.670609972020338
1.9060843999240973
1.339552376587153
0.183415406678186
-0.15189147419536042
-1.4707571339995145
0.08760546086500207
-0.24958011786245515
-0.5604556855630811
0.1163185922346266
-1.0522428645064654
-1.2193556720737595
-1.4239509721575143
0.5374487483688382
-1.2571210638735686
-1.0054448152134456
-0.4146578353795836
-0.04335565942441855
-1.7766531656040485
1.1186206910319014
-0.3368997203586821
-0.3972408557287478
-0.2695087862387172
-0.16531436023705015
-0.559123734973993
-0.9899816328997645
-0.3202571419693756
-1.4058537422429513
-1.5915225936989519
-0.7977613154001705
-0.26053336087718104
-2.2052551809454917
-0.7879199031553997
-1.6094500128695644
-0.754432389172779
0.019143264627399792
-0.4794389566141515
0.8577997600308633
1.2121922327407708
-0.26057067162198455
-0.3421958985755722
-1.3995284093990228
-0.9106586220470527
-0.37023689004199367
0.038259993443062856
0.6425289686368647
-1.1711351410182236
-0.30450811673889944
-1.1238588787032073
-1.3420309973164684
-0.8971977984732988
0.2335553719507843
0.9930256692367185
-0.5058266658838861
0.722224268771309
1.6453668876560201
0.39591322000096185
-0.2500423089384186
0.6255371001646847
0.6022490307873992
0.13569069129413036
1.5866224824566901
-1.240358338004844
-0.38972242164212156
-1.109087849616963
-0.2622324948411155
0.4959922621078686
-0.09399646331970431
-0.18661327064380828
0.9226761854285518
0.026905428275229307
