0.30730973137982576
1.0564884181999425
0.2227772505097248
1.2096618426016388
1.315214655924944
0.5459019980426638
0.45982119671843213
0.48681703630569545
0.8597845833070943
-0.3085818144821102
-0.27230236702463023
-0.49079693726413426
-0.46266155178380053
-1.131015288836152
0.2604380342629043
-0.169643293049615
1.352956307025529
-0.16298447183603074
-0.46075520818577237
-2.489196072183544
-0.34159778057285767
-1.6093005688782491
1.1394494344826223
-0.9599670344918227
-0.6599777039681065
0.5654149773608357
-0.6576900856959988
1.464978805252747
-0.35817331151366605
-0.2111548276355676
1.4681302397386025
0.009883659470742349
0.33975274163266656
0.37756410804565466
-0.18306993575585195
-2.5185368440332594
-0.02611847613998275
-0.16012447453070494
0.9815269071744946
0.060283284477587185
0.7399352526358912
-1.155228317052627
-0.6235187207649084
1.011208941151382
-1.606524041867779
0.7164831270640533
0.14110840905891525
-0.32501128802310636
-0.12973509395403404
-0.22878178924437353
-0.5728963382891097
0.4470435794113425
0.17943745567206243
1.1957296863248932
0.2919867643443337
-0.5281148372346933
0.36264215127684557
-0.35004249687519057
0.8340192466525117
-1.387031063245107
0.17212189666649308
1.1036810581978953
-0.16079065802132436
-0.025111771679349804
-0.34857466496231937
-0.6425127908522444
-0.2650810397621289
0.8045806646238695
0.05258669285540451
-2.4026793147967327
0.13772020135195615
0.8077230079129897
-0.4835731362332549
0.34556916843081575
0.6832969049236064
-1.0593665706601822
0.5521152265448572
0.22742360333564793
-2.6147021515546145
-1.455526123994239
-0.7761423350154273
-1.4656040438642117
-0.3407672944305374
-0.1239340954882086
-1.0612602834410938
0.9194795058739886
0.2133022800659743
-0.9883213691727966
0.21225231418336918
1.7037781364679623
0.7191511585318124
-0.08086855734878284
1.1621381105746502
-0.2041739163789265
0.31023886755714747
-0.21955038404116234
0.3988386219224813
-1.3507336963559466
-0.6159878077807176
-0.03448133422269761
-0.16165994062062441
-0.5401106636655618
0.14373875146698548
0.4272452678663434
-0.15329294124683002
-0.9922973954374887
-1.2164207905688076
-0.0844408177970368
-0.38934263982693507
-0.7595995247209404
-0.9276448229258847
-0.2397821383584844
-0.33070701822620285
-1.3199405802747908
-1.3181120561069661
-1.3398038270291943
-0.05109311405724809
0.616927016613118
-0.22311879264610696
-0.33205785342630034
0.5954703930618915
0.6171913052172151
-0.5458343836659771
0.6321305715920199
-0.9610707451321463
1.3317211524071533
0.75755132445596
-0.42314353458367954
1.007792870297907
-0.2777344359104849
-0.9287024731825699
-0.5184616789713508
0.06553384492541503
-0.5496250103325413
0.3194840995934043
-0.6282552995516845
-0.021260026030078927
0.33563313116614324
-0.8236945712195817
0.2991063929116063
3.0481238427589057
-0.4753894392618375
1.300622334586775
-0.618822249769819
0.15291269492267956
0.6256771511114629
1.7024094691829283
0.7273401586373878
-1.1357753824855978
0.15881708692788205
-1.2942340600611675
-0.3089234736541251
-1.243469662286462
0.923732128531193
0.40992665319975047
-0.4025157777793804
0.1364732088794134
-1.891676208077403
-0.04134600900905666
-1.9456169597249633
-0.01081295262584342
0.1935351015291129
0.684585407743828
0.12558142070232436
-0.0007785601280110299
0.23318092185990846
-0.6279316810238934
-1.0582466541406235
0.17851599454759814
-1.8097583707854932
-1.2897625541074504
-0.19144852095568698
-0.8255050341633888
-1.6257396426170379
-1.2665532164003421
-0.42627923729371675
-0.4820038975592492
-1.0880039471563634
-1.4429505260263011
-2.308132542251538
0.11737810221378409
-0.7711426485019448
1.6777591952845476
0.13588401702262165
0.645337609519829
-1.4178528901473155
-1.0012509446209963
-1.6356402887528105
-1.4688857507970092
0.5146434035872993
1.0097601009003536
-0.4429340987227445
-0.6316039423532109
-1.4518640106828153
-1.0023477699605594
-0.8319560126443777
0.45622408121488456
1.4948628054057074
0.9160261611802988
1.4969602473964991
1.0343371800334444
1.1657872629552437
0.30428923676289577
1.0797478915612964
-0.2623567650750966
-0.6781418415693818
0.6602696262738283
-2.227911961089807
-0.6072830407771795
-0.17552911948087968
0.4867999431494111
-0.2414714062023898
0.3042480636518857
-1.5653794493680744
-0.30019923549347427
-0.035871214960018875
