1.1205508705664158
0.8924799192403265
1.033023059680193
1.6129260659749933
1.254770904222918
1.4249453408179646
-0.2592754062436087
0.3852404124211001
1.2295598279743722
-0.804521315535839
0.29951729164117025
-0.33873693612366457
-0.6686174113075963
-0.848511275421617
0.7544583109824337
0.40549494408849496
0.1908636408476614
-0.6911386286468012
-1.5705745466758527
-1.7997348812112113
0.4606480938046827
-2.1741018619129555
0.7310521887167998
0.3091791964790503
-0.9076970842870462
-0.021820264371494147
-0.9204671256982349
2.3450600030868323
0.39323683644614316
-0.15692045897472168
0.7683519094100235
0.6293322217819315
0.2968734147929583
0.2532702531295995
-1.2577901951056387
-1.2789169616261171
0.6418134889650859
0.2533596290122399
1.2188205313064184
-0.5942741359437064
0.18766821905152448
0.2908189299135295
-0.7995135418407768
1.4168114021006193
0.10283633361683142
1.0273014265127056
1.1742183329271494
0.2603860852139056
0.05182157645492702
0.27767184665496136
0.46939215086891295
-0.5746464466494962
0.21303320991726815
0.9984575420782248
-1.0304049543743963
-1.1480761427060377
0.0997623738136256
0.327342672832183
0.3160662907463131
-1.080372374078103
-0.1727884208791188
1.3885828344121034
-0.06752173650456274
0.9903470089354725
-0.2115292131843659
-0.24194753557647222
-0.5891099317111224
-0.09853626188194298
-0.10848719321027628
-1.9775725263224164
-0.9032732061452917
-1.9898489869240636
-1.8085807743121824
-0.025845334939734954
2.8827527358233764
-0.3872277550833696
-0.351545322090267
0.5640831604862163
-1.4250030426477829
-0.8054516033737271
-0.5583148838440092
-2.1866768557048237
0.012471137497113594
-0.5122836903248388
-1.4676343909984346
-0.5448546733050782
-0.652195145343364
0.13344552443258312
-0.2586834817884454
1.1482357243659493
-0.89936114599522
-1.7682171557135355
1.3467120342721
0.1289696508673913
0.45596857475139163
-0.12758842615757782
0.629370029488254
-2.47658390195849
0.9228181586103447
0.24262749951418158
0.6486440347757458
-1.484849569169993
-0.1646795206378671
0.6441732736387706
0.05899039450732194
-2.0192319826676672
-1.0372298766840125
-0.03219249768375726
-1.0867922816547835
0.3796883973204358
-0.6185534097903764
0.29134561871509845
-1.6312854162733803
-0.03489825948448699
-2.1582944745300896
-0.9334656073934261
-0.02050672468823128
-0.00019621614154097244
0.05378680712360462
-0.6527251046526432
0.6306209905311811
-0.030378182655170477
-0.14677957562248023
0.5908280712783718
-0.3913468523947595
0.9415574229132044
0.8044424911737172
0.8817632228105194
0.3161915882931147
1.87413398929094
-0.24941444423559922
0.028929220488209617
2.5342539942393794
-0.645702419911753
0.8897830179472426
0.3499077268925472
-0.572020843222283
-1.155383827088031
-0.92054428019234
-0.09228837600762418
0.28982005120864907
-0.6015562422378492
0.9548896757115173
0.3303467459955818
0.6013698448515274
0.03530913427892214
1.1717187040150536
1.6199703735695576
-0.710396141065287
-0.20371636413811123
-0.05920659616494972
-0.3486142885087802
-1.4894522927040277
1.3622481115521012
1.3747826985906455
0.009453533916802148
-0.5308964441363537
-0.9862953723901875
0.15813533481444841
-2.1045984120449264
-0.32136504773072416
-0.704803557788874
0.6118039596805946
-1.0543948669345389
1.0044297218777107
-1.9980852138409206
-0.09691596043918022
-0.4823514501372412
0.148032566990281
-0.46339966358962237
-0.7442471039915362
-0.5197920842391801
-0.3765088699227648
-1.9925022428665446
-1.5707890381439467
0.6536857592836122
-0.5320937845096756
-1.4207807966589558
-1.1253878674805335
-0.021601213107995232
-0.8785766889108705
-0.4430251625271811
0.20797506327770254
1.1729225974511766
-0.13372603590606696
-1.1917995554610692
-2.073739912987178
-1.031540687523216
-1.4993706857577336
-0.5677258543785327
0.7274054483806939
-0.723346930241755
-1.21397196645005
0.0613069317623498
-1.0247834984403266
-1.0482972089852642
0.5889557140725576
0.7845372341425622
-0.9546453494365258
0.454696155072622
0.5187612057903942
1.631958292080967
-1.2131650409454062
1.2192056298184237
0.7509289898193322
-0.40958891402158837
0.45327169657199196
-1.4238546667868557
0.5909986331847755
-0.5604671577343264
0.11639634480881947
0.17602180511772542
-0.021518657271181747
-1.7150670970505635
-0.5550812795262019
-0.960573945277203
