2.2590775094182494
0.716894157541448
0.44859910978417933
0.9725731655878512
1.2229461506261317
1.7830111151381434
0.08502156872380101
1.8023645307708662
0.5339636221071954
0.14683203603417722
-0.16119474212792678
0.25557809015566246
0.5575333312964931
0.06672567175179567
-0.7488262162000457
-0.5269504416181906
0.9156549021286609
-0.15915083672585253
0.015869850459573454
-2.307907680068866
0.5566634592249877
-1.344230539719594
0.2844046099263399
0.8324661251270369
-0.0051071846322702785
-0.30764275081425263
-0.6755026331874961
1.702596435183135
-0.23954298475124627
-0.13959118687514466
0.04083750161246791
0.42382254336806846
2.7971749772304
-0.8203820083364954
-0.4692240001805482
-1.3361480709277116
-0.30649028549616897
-0.9080403699096922
1.202602815436421
-0.19774837748109508
1.4782233920445105
0.23196784324590047
0.04924555685496937
0.8415433118517438
-0.4525402822940576
1.1180514195207771
-0.20288350851626963
0.6307402860134771
-0.49987375442193316
0.5048180919358445
0.6702825903984639
0.6033611467656735
0.6899046257771169
1.6339866741318976
0.264057938726983
-0.5724371420283105
0.4779347615072568
-1.058389979828779
1.8666554702738534
-1.6129065726173621
-0.16153304768952842
0.6225609169817357
-0.8206666252744507
-0.347853154599959
0.4537599038091478
0.2063154781883015
-0.734286115541541
0.6726760592430295
0.3222606591126119
-2.2870260025621265
-0.5039031008909161
-0.4734325067844523
-0.26733564797804193
-0.8539211392227583
1.5618387831442058
0.4672201408866713
0.3947970119944569
1.2127039113794562
-0.45552824769955713
-2.1452416406541754
-0.7263062406438145
-0.6637069521962238
0.17708121247166222
-0.6810536894626795
0.23412457352805405
-0.4215451537620961
-1.5317427697597807
-0.08604691965768646
-0.7344764110699089
1.5276000389657167
0.6608088744231383
-1.835504689493665
1.0429761623151286
1.205982830642037
-0.10678327094670631
0.9636425025991051
0.39794986190714593
-1.2175186389869859
0.20904664508748794
0.6526128115666496
-0.1957924914391649
0.47145850661550415
-0.8533024549909742
0.8405788413196807
-0.7819151181435287
-2.4075228865267815
-1.7758463220459852
-0.5326987242834866
0.7480492461718695
0.2244626832407124
0.34993324130333703
0.6439935614013559
0.0920711289892272
0.36616959791418213
-0.2921389198619849
-0.6352962485415219
0.8682987852630525
-0.09867152116530259
-0.5987288828630132
-0.650711575226452
0.3832113933674848
-0.21884398189217258
-0.05841882473950841
1.0353926176186952
0.36524826379223924
2.159550509601992
1.0322165106882144
-0.8803136753099073
0.18444212677947075
0.5462768230965196
0.23055908990885432
-0.5668530345954915
1.295064928635059
-1.4911375071446737
0.6177576542055234
-0.27165057740803344
-0.4907295253877928
-0.21854367013938153
-1.062148189298305
2.3897045486878903
-0.06885225871044864
0.7506041965952159
-0.02857829765051123
-0.3208088073066601
0.5542457543768737
-1.0817496966164837
2.110495693772545
2.384533797405751
-0.10003398235706962
1.0289969418122984
-1.7115369406417908
0.22008335086453182
-0.3393652449467851
1.0112296875618783
0.010633528706852968
-1.245365294934598
-1.2663152858015403
-0.7340619662102029
0.4285911409893315
-1.5067950976509716
-1.2185004574981992
0.2332629148571197
0.5444303217774776
-0.7937922423948152
0.9794486085244605
-1.0578899914974689
-1.5018250786743252
-0.07281552122865098
-1.5433694406736107
-2.5447261780762194
-0.9922335927521597
-0.7866150686437123
-1.408025277914977
-1.2501253406214592
-0.504458350250564
-0.24146978001312686
-0.6743333496386952
-0.4368730103952343
-0.8730404079218548
-1.245316530686294
0.06303212046509477
0.8832527282905074
0.368740858259615
0.5307334984804951
1.7209913064413929
-0.5414967224183386
-1.6251260603024902
-1.0434814434326154
-1.1619584642077783
1.9684563034896487
-0.22672261226951962
-1.34332195920156
-0.725063328455081
-0.7902318878625068
-1.6270463406704971
-1.9498245815290558
-0.8458067680044812
-0.1515747407660386
-0.08405355906166957
1.5158083722543023
0.9260843742568219
0.1603180431446516
-0.09365153080645305
1.9915249673876865
-0.10555871635800546
-1.3144048913316666
1.3594404825066597
-1.9724936191020188
-0.5585135467875046
-0.4347914164595472
0.37302001226552006
-0.37267735197276003
0.46591789193324284
-1.4003194408360984
0.6863057867408074
-0.2580631553671392
