0.9131353751408464
0.966979444495412
-0.05220676874553065
0.9942811024289484
0.6061445401052625
1.0490248876434713
0.4291518513710404
0.8031170999833726
0.836585038946795
-0.0058713605925463375
0.3950787314090154
-1.498188606132227
-0.8529461276707225
-0.299941653488047
0.016592569877632107
-0.46398964209458415
0.5801591378200606
-0.11550803443973431
-0.9789920013990829
-2.3655068857770365
-0.4485133348865371
-0.44810991549119705
1.0626569121533864
0.14070926498740305
-0.4670936902937246
-0.25345440190644475
-0.8911113162856131
0.999370560438805
-0.5714709183976133
-1.155647897794839
1.6123477097723415
0.5529939527941795
-0.01980572209670406
-0.11663285933554234
-0.08544169143618441
-0.1824485851042147
0.1997382621803224
-0.1294510757965735
0.9906532876384591
-0.10930680948269682
0.41119594542818294
-0.21659846804252247
-0.6331585816452983
0.2392620931150874
-0.28040296283782773
0.7784549044662755
-0.1910724049293701
-0.6281736192102125
-0.41730849610988024
0.26035369144410836
-0.20254159871317867
0.42176693170740953
0.4351817624066478
1.5092681310442693
-0.2279772123862906
-0.39752315723544207
0.9014100111208074
0.13779714568239365
0.8736366243905671
-0.17894399269546135
0.30680399246886886
0.3817963408641728
0.6522507965360569
0.33623272665864823
-0.09168051991443935
-0.617270507875349
0.3939301509905401
0.012749815751237903
-0.04020923940691365
-2.2514770544409783
0.20078002564128905
-1.2304428948256951
-0.6239729014421428
-1.2037767213480624
1.528858704230938
-0.23600912840885763
-0.47072241555339617
1.1085647067122246
-0.6467162374273592
-0.9746578250750102
0.47824501479358683
-1.5512447017531066
-0.828226522295935
-0.8710188002253489
-1.3610106150515904
-0.4641429976166712
-0.8460026417822064
0.30506028141229613
-1.034990647433557
1.6467744957827062
-0.34800323244289866
-1.237324478063465
1.0860311084282968
0.395885925704647
0.46585154692617553
0.1944070602465986
0.4860267210544472
-2.1029794771523234
0.036899696653299036
0.883410904062795
0.40814978231406324
-1.223504031889719
-0.15834338911940524
1.2085357888755799
0.7901137116064795
-1.001460814827707
-1.635012729900364
0.17163392622306378
-1.4610393739576852
0.3797497099782615
-1.063465977215466
-0.2671427259133401
-1.2614348389539753
-0.4781538091643843
-1.052479624325216
-1.535787668395471
0.40466898018000624
0.19587555724953826
-0.6213625568279258
-0.3510390754625152
0.7859572541651718
-0.23218000054249055
-0.42622024944015374
-0.0409362211114756
-0.29447332120291936
1.909599456990367
0.8311222641688408
-0.013316816136103285
-0.7895310565527651
0.6231102794714671
0.03574320596017233
0.37190686105417
-0.016418806438562306
-2.1502429750995344
1.068210462128825
0.6375391095160546
-0.9316653488072169
-1.385316517523985
-1.574623642872022
-0.21885609053187616
-0.2060063483225807
0.5887307669286594
0.1146452423941075
-0.19041728739059377
-0.6750558717524169
0.007155060104643354
1.8970028733613442
1.3628262680037035
-1.2456590650441348
-0.062255292268485585
-1.0818051592896882
0.7512429901686197
-0.658692298436235
1.1904120479101006
1.4380565473324904
-0.8907110280459274
-1.1729959093957927
-1.3073185509060465
0.13893314290918019
-0.01285726475280935
0.979958047460116
-0.5994938057969037
0.17206908647119212
-1.1331137172224244
1.8105397700480363
-0.1647954165522698
-0.4263797613777883
-1.033048877044539
-1.1702813988264742
-1.6899575421054047
0.08113000132761283
-0.3612903397321693
-0.7749119246145204
-0.9571682124213085
-0.11725831920139929
-0.7310617371461641
-1.1789344218257864
-1.4678303309273684
-1.0431603640430198
-1.4989415819200804
-1.236107487355567
0.45298203514956986
1.3482407487582795
0.5958549618386656
-0.46569282157568626
-0.9119626502965746
-1.1927130102535162
-1.028475339160836
-0.6827601136393034
0.5015029166304347
1.4088378247350801
-0.38125464987523683
-0.04159535373408718
-0.29015579648927203
-1.280983003541166
-1.4936416932394185
0.6011945064614205
-0.46182644208681634
1.0812361155348686
1.3216356617366705
-0.0001901814863694007
2.5953744400010788
-0.19741862251038222
1.0271868601747314
-1.0607597059481715
0.02159038343785169
0.6844804986860448
-1.172212321126103
-0.029853469910738867
0.2634323679992082
0.93252637987122
1.017572306729988
0.23354917409673026
-1.5102960651612367
-0.14095965768342336
0.3684183973438292
