0.874775075622173
-0.019162801149622433
1.2136862407855153
0.49376086775900274
0.47450631810644434
0.7673741601190204
-0.5019354101347662
1.1802621455447866
0.9592271195163289
-0.5002922436150069
0.6698231617595388
-1.107417335191227
-1.2367546179284075
-1.398252337044169
-0.03314353038235082
-0.9268288372994291
-0.11599731462101792
0.7538910767476587
-0.8201346648542347
-2.1607773058129247
0.5161355819020466
-0.43710466378574286
0.5901410597514976
-0.9453442930764793
-0.7018504185985512
0.039614630139620854
-0.6488425791031385
0.1655404409899015
0.8812509950864429
-0.6348136091456684
0.23636999661806463
0.30036810738124925
-1.2629063077689806
-0.14920638981108314
-0.7508309766490933
-0.6807188871331171
1.2302555046098613
-0.7006112133404188
0.9749634359651546
0.33824027352576724
0.5757146384119061
0.12219144032246343
0.4423855127294808
1.164626936958823
-1.6002925299330686
0.3699880836914943
0.5255488613211761
-0.2559659290887619
-0.7164316337340264
-1.0827718087264977
-0.27831983103515445
0.6138787096845857
0.7717567681928701
1.008406636590803
0.45806016124816795
-0.5177142558067982
0.8682841576619553
-0.9459289564755098
0.6233984106698678
-0.21725189429880487
-0.3084428135977799
1.311395331296349
-0.9188890019628876
0.2811298529952878
0.04497154998141936
0.32759488207391907
-0.30469668915654624
0.34160039239512413
0.9855581537446498
-2.177959768767622
-0.707686147117067
-1.8405888103152024
-1.2197850699374353
-0.45464107256636865
1.567587153236731
-0.3219650331077667
0.11234747600317521
0.7401679569712182
-1.207238480633514
-1.1315520741683625
-1.4249272251879241
-0.8483702382386819
-0.2674131046327269
1.0283479638237147
-0.9267498568623133
-1.5285516800536953
-1.1394206858439606
0.26389203265195904
0.10418268832305802
1.5608262435413094
-0.7983505439676095
-0.6477605225510968
1.112738769913089
0.7083461677802266
0.2225186483863884
-0.16684087073472992
-0.07129280505096425
-1.0634935937470007
0.14772643853173545
0.5391893359325526
-0.22246473374243106
-1.2647978990857602
-0.09705616511322154
0.5770795876375012
0.7151381885051309
-1.6190581983053811
-1.4901107049006928
-1.1545037614246387
-0.41632237275879025
0.2754678817660777
0.42758989701160555
0.4739191606645258
-1.352013929002451
0.015558976723563933
-1.9641038995760467
-0.7825970762342848
0.8739283491992762
-0.8206971197519581
-1.5546638079038066
-0.3843294643236451
-0.6243186993835139
-0.42594949061218695
-1.0825279957037537
0.16889039275763879
-0.182289725819966
1.6035800931540785
1.1122931226695478
0.24866558355396448
-0.5096513921970927
0.39384261374650875
-1.2893051154164488
-0.776480286580841
0.3484328714884566
-0.9680997300553738
-0.015804319823848695
-0.6248936201782624
-0.7034325237450822
0.18805724827490689
-1.548689728534094
0.41335766093947035
0.11938872265217987
0.20175255918878143
-0.23937782207053654
0.36031228860665115
-0.08381774208805037
0.43560645264610426
2.1107562567360896
0.8226494407574028
-0.0183821049614028
0.6101674821811339
-1.149368423122336
0.036802197794745806
-1.4795654831384835
0.8763449929965103
0.1436131795562815
-0.866869088343298
-1.2453347150262066
-1.674916367697281
0.14570602504826408
-1.557084897730645
0.15568223228085964
-0.8190124900387714
1.1230204557174106
-0.34766400906975764
1.5979950527157576
-1.0699259213953136
-0.9135121124660226
-0.2302051917694699
-0.1343169562243153
-1.3203568909028764
-1.3416356366841486
-0.12523384803216764
-1.8461774883170818
-1.8973665720729265
-1.138832328032463
0.057990411426809496
-2.714885902462316
-1.749014556578193
-1.121563334403738
-1.4022018272250811
-1.710788729739355
-1.0991135849293034
1.5579077493563684
1.464037344727228
0.014688526917271703
-0.5594603067719017
-0.6923843190453668
-1.1267320629734148
-2.057795943751736
0.36665153269876494
0.7611944087062318
-0.9272458594762933
-0.7531274785200914
-1.2762406806626898
-1.4077695319456272
-0.943963322254334
-0.14922717937619911
0.5097138445457433
0.007209908481014438
1.7119259306541226
1.2594881542773693
0.4442987876059661
0.09488844287187281
1.1190789454789376
-0.0038531206791268535
-0.43017735716246697
1.223407678996121
-1.823366022158134
1.1380695811796149
-0.5333258588965425
-0.3736110890145093
-1.1386433289338709
-0.10048496715364118
-0.9586819610003805
-0.6481334824522318
-0.10018576430671551
