1.8661016189933615
0.6194759756068803
0.5787697091876063
0.4196567228406508
1.0502740695486703
-0.17768919647764425
0.2537287142037678
0.48250567778597997
0.9944305053296436
-0.042863470957994254
0.31470997306848725
-0.9535203241589624
-0.34102366441947213
-1.6657843157460501
-0.4877738631253321
-0.6234698557990885
1.5833069244155196
1.135970924383738
-0.2877043477194047
-1.9775232309413688
0.005599464031829204
-1.3400277142098467
0.26160478286179356
-0.5902159844633873
0.6458280668652032
0.22736510610228297
-0.42447904430753414
0.9952432636653539
0.14821292608492137
-0.17660749363324016
1.4148536463852008
-0.7569101897808241
-0.07028660772140727
-0.3709993045533059
0.00206868048190878
-1.4551424787177667
-0.20570208561681938
-1.235561940799376
0.9484974674195046
-0.24246252159552187
1.2906300751420854
-0.9476166550258083
0.3069839075202427
1.493172525964639
-0.9467650552388327
0.07468812912340674
0.15479765340577506
-0.6669246702401845
0.2982015927524173
0.050340504866864824
0.7027287635407471
0.11984028353973082
0.8345830218742376
1.9468184204485524
0.16775908932566186
-1.0264603226289837
-0.3297770595966938
-0.5856390689259856
1.0581954881301914
-1.092026674305276
0.08062961624568044
0.5921106216387104
0.5784970840257864
0.2970375727756643
-0.1118990698810288
-0.046853817403470416
-0.9031133443048781
-0.18559982200542824
-0.5884915180389454
-2.2586955437868785
-0.34495574330439294
-0.3158825453296869
-0.36260946095917285
0.9980981417802594
1.9270753240755871
0.07689749644059019
0.3564340936685455
1.1402079869877948
0.05175133128964737
-1.4316579837912626
-0.69139070566637
-0.6232752215893402
-0.6831066023472315
-1.013965548194771
-0.18374124206040499
-1.3940266367129754
-0.8969136297831404
-0.11989058719168405
-0.3555785272990657
0.3742370327261486
0.14197954883787423
-0.714254457151272
1.2031240952378124
-0.0038678944762627343
-0.09446100359653015
-0.9564014327212118
0.7141134055162398
-2.376666168375346
0.7890136304312979
1.5084611556276464
0.21210569830969933
-0.32058050434088964
0.4504132150747534
0.16812008927767552
0.19135858494675478
-1.83665938095853
-1.2589887792118106
0.1906955586476652
-1.3837196231068938
0.5283587969775301
-1.1878952235138214
0.7864973997109721
-1.1389242804082829
-1.1243417686501613
-0.5582937769141234
-0.7239457018510638
-0.04728867369726375
-0.17187463642685424
-0.6963588297457108
-1.0739943774186647
0.9827744312761799
-0.5052237088663996
-0.02312488089617183
-0.765616478027175
0.3212538527678655
1.7085524813979331
1.8174655684037502
0.24211494387394572
0.3829845988003409
-0.23164640980513468
0.18342656136200275
-0.5261003154319605
1.2165972142141914
-0.6936367116500839
-0.629670093026153
0.5072352736570778
-0.7280312556915569
-1.0967199961802259
0.31350651146308883
1.2992018671289385
0.6847733931906685
-0.898913778316889
0.3202583010377943
-0.2565372364996152
0.07114187046465101
-0.30303573134029227
1.3261425023721383
2.041775830962384
-2.2496215454693598
0.4899966175830147
-1.3224569434611686
0.13075875529154354
-0.6385506803654757
1.3513649661111384
0.7093802177675887
-0.5777092803950455
-0.2947376038198557
-1.1288528424080484
0.17211113188737745
-2.007306320153952
-0.9538308630047687
-0.7178945820110356
0.8936720620354881
-0.9547737195635603
0.6052715192635278
-0.38444678439004376
-0.6125714489366408
-1.1357260899762647
-0.8401729923956064
-1.263970219362049
-0.6498057405703842
-0.34621243201312946
-0.9414122376767904
-2.1184740383606737
-0.007286038352458335
-0.23786815529345268
-1.490151657615015
-1.7319098053523765
0.037199671950046476
-1.5671897815342128
0.7032163303684834
0.014548176957316028
0.33492178343022294
0.3460297934625346
-0.13477730484048686
-1.5105866411405002
-1.2878161082173873
-1.0598395795172606
-0.6298373482617241
0.6853664322765031
0.7072279033939353
0.07557812297945754
-0.4758173287270493
-1.7131466667345505
0.18761411272530304
-1.7987897252093026
0.08837979214910291
0.7790971958066308
-0.7454233996003031
1.8049867649657079
0.29987603375172817
1.6263721991731546
-1.2677208424090347
1.6081172113079134
-0.498313910192474
-0.9624290921665877
0.20963953648505917
-1.8872609853213715
-0.2775837839580759
0.503505742942748
-1.0428495657703496
-0.23960019442025132
0.1514918374644652
-0.8984988889324033
0.6860677099792725
-0.04139644840516361
