0.28554773651478516
0.029188198865509607
-0.6176594417247399
-0.0975102805619592
0.666981975188037
0.5390684969240819
-0.6466161438367943
0.6302429488842665
0.6136396074578402
0.14296625658770906
0.05011062385084286
-1.0268188466064012
-0.9888545388048007
-0.692944503072221
-0.25654430805565775
-0.5825856495058086
1.011807003059011
-0.6364283820152772
0.4101878427845128
-2.8154418043844127
0.0959673472453979
-1.1122616002736117
1.6792667781745196
0.5971713311607045
0.3737258203512424
0.8612393810161851
-0.8593845796001018
0.8550680893320297
-0.3519881010978394
0.5452154448196351
1.0304412301535832
-0.5617742360219113
0.09074296916180691
0.7321340311012231
-1.1499714541993888
-1.364203489655322
-0.41761995618264625
-0.6737073344822097
1.246619086467164
-0.6035417335896791
0.7969447534595245
0.2078576861758662
0.7212057741275031
1.0090878471759397
-0.8502682724086755
0.12822353661834474
0.7515693212565109
-0.5818832938607409
-0.40143260646838097
0.8818659779510502
-0.6845664988257538
-0.17268759314634344
-0.39668065008717357
0.5766188821926614
0.7909660556037241
-1.1970196216561522
1.21407818425034
-0.4883418181723313
0.897343512994234
-1.3459235865865322
1.3720477929774464
1.0288977666255075
-0.5974025222536877
0.5112110930905057
-0.35008534569174066
-0.07821789458540938
0.11530149307145376
0.4783020244041671
0.2431941184199312
-2.136077543097953
0.30581520927180944
0.24281098341152596
-0.8355288747949653
0.9032549812679498
1.401623103324766
0.5345153301878721
0.23941115182573208
1.0919409140122467
0.0039571892600893666
-0.8859232844463695
-0.7986010861482185
-1.5261679618917157
-0.6868889851977361
-0.3459888471437481
0.37347242676185866
-0.6021002415802441
-1.8729012192274546
0.942381931667617
0.11421651316298284
1.6064906604833933
-0.3453948724308196
-1.671230796526653
1.4215081034805566
0.44047956125271803
0.15182708234094508
-0.6159836463125423
0.1652784371058107
-2.48051950343438
0.03153128619656759
0.4483035060329996
0.06475671626515897
-0.5762208466936359
0.5601048628399891
0.05027983203570535
0.5992613023714529
-1.3567865858278279
-0.9204764269565758
-0.3372990693936579
0.2710205085912639
-0.7866941219910113
-1.137747719288736
0.3335215473915356
-0.8129375868617916
-1.043001100749994
-0.07203588743884881
-1.8917838334068997
-0.16966413007515319
0.13212238243059377
-0.9137653457227833
-0.15878049840795322
0.4155662614011998
-0.39173671847215474
-0.4302683904807502
-0.4020278938840646
-0.04063877246443459
2.1697931954864123
1.7875634683091
-0.1077229132078309
0.628974054892419
1.8977950457275137
-1.0675787618591908
-0.08031461100129411
0.4817244933824738
-0.2612294173683917
0.2333470732148987
0.48421669767648434
-2.2935149267644817
-0.442520398097758
-1.3183577057337499
0.44528437992384323
-0.09912192864316144
0.14104870508778145
0.5342654429654743
0.0898505930540279
-0.20422239334351583
-0.5141492491093087
2.1615543166880973
1.2851497747942748
-0.33063336362682905
-0.16159891626455636
-0.7053866067253635
-0.018531346813219066
-0.6220604116490074
1.4582576577007509
0.030901505912779292
-0.24017142982759954
-1.21438312270426
-0.8020619796118377
0.6634329003384296
-1.9174173698542332
-0.4606114691297514
-0.4333819961992744
0.13109130713249717
0.2183166983546635
2.2709551806753323
-0.3798483362672207
-0.07796811919962526
-1.2238416443917188
0.04055323373820774
-0.7886288380281502
-1.0398828292264901
-0.0605125416382738
-1.2084629376825469
-2.029693658329745
-0.7518631947964651
-0.6328426159427442
-1.044014684153271
-1.3087784084995457
-0.4868164019950594
-0.5477536021619258
-0.33700658084241086
0.3269290845054687
1.7978316888967818
1.2471140257864652
-0.38644204440486096
-0.8916145682482923
-1.0670884913506067
-0.12980431321709418
-0.9144775760973791
0.5759908117355055
0.6834066278916476
-0.12143372947496606
-1.6019216510105507
-0.7316312226800088
-0.8006243492016065
-0.8754998411739958
0.042337609307811275
1.1233374149386168
0.6471375295291576
1.5108147118203281
0.7665532019180537
1.6122916482004377
-0.05962702938706285
0.6079872714175089
-0.4128681100179879
-0.23844610029255275
-0.23555933797310669
-1.3243335191739565
0.08656923301518465
0.2741694754664553
1.553053944022814
-0.21091696418556274
0.2784940187580501
-0.25462463739890145
-0.229835861509529
-0.4834565542080067
