0.6932463460158242
1.2980354576538633
0.2653897416003316
0.5987034923067246
0.4539276449459571
0.754679245621285
0.3644171312284338
0.9208482347485549
0.8457620302029942
0.9437105331274367
1.2918398218232268
-0.8687787231328189
-0.23796701727583336
-0.4759845498875685
0.8172066439752556
-0.63922598275669
0.5565911074747847
0.22924063488155255
-0.17922293211479667
-1.7909762554911466
0.13725738085515632
-1.0084573692945833
1.0349092085646925
0.23493978964412493
0.10688047132711465
0.581200747486576
-0.5911972167261847
1.0319055211284953
0.3474298663052331
-0.04092542806934735
1.0686557520399607
0.6539645682704686
0.30282265442626055
-0.48435806904388834
-1.6526764031729582
-1.7661509912097648
0.4652464092215235
-0.8897176138577954
0.99028602630082
-0.3060564374665032
0.3421556155986723
0.7924245130578669
-0.381496867682068
1.9921738750706448
-1.7537594408146946
-0.04328352278967065
0.28377526862264285
-0.5287310489701016
-0.42028791020895706
-0.011629862413457072
0.21247934481770003
-0.7503715548830827
1.358553302885873
1.3096264577575705
0.6206130960099285
-0.7156082944888987
0.2243046152570513
-0.40227643062887974
0.7834098170000028
0.07749777427535498
-1.0555394638213031
0.3019283874578793
-0.3868865468186571
-0.4172262080058178
-0.3813775190281201
-0.24522268632321761
-0.6982524438189261
1.4023481573689272
-0.07562266750351701
-1.202905775108688
0.40168944835910675
-0.5802015600947843
-1.3904246142769918
0.37329556977843203
2.5817362048088004
-0.4393755260367371
-0.046904109177788776
0.9935007247978992
-0.898914009869723
-0.8669519500248705
-1.0810385527486446
-1.290652617279169
-0.48290413064542326
-0.7157878982508351
-1.498061244253254
-1.308810745898576
-0.9681863395048428
0.9244739397336381
-0.5556771796524519
1.617664512095109
-0.38368699860156147
-1.5522579862378123
2.272935629396093
0.2459938667672174
1.1126578129697389
0.24897539750596187
0.4407284483663739
-1.9034048971509077
0.5407540732495472
0.36060357387906034
0.6643358781388665
-0.16158521533536824
0.48240830994007966
0.8858262946447213
-0.8616739025964915
-1.3788345315355142
-0.02538978783863355
-0.3239455304205723
-0.27468715089812507
-0.2526504515084021
-1.500688436464538
-0.3996898122972613
-0.273446364980101
-0.7160119715124919
-0.7811877465179159
-2.008041561471231
1.2088758950758849
-1.092283279146342
-0.536716998538077
-0.9523382702719951
0.7043626191499553
-0.11674831236578122
-0.67571028950642
0.455668664388938
-0.40193119752358414
1.945523937481652
0.7234861200824834
0.9682412076390583
0.8265825785215999
-0.5487259884667841
-0.963513077017953
0.041770467816709844
0.9075134205853177
-0.5194287993221515
0.058235235585402285
-0.19845988964886416
-1.7977898044697223
-0.4787431261955106
-0.5976679568832641
-0.4309250336156173
-0.38045591483002855
-0.6858331921791034
-0.022864025226218998
0.9648803448512573
-0.4651040872527585
-0.4195774036076342
1.4676355012348234
1.4789410306195165
0.3327427857419062
0.27107872620276174
-0.39343544248266715
0.4506758403438308
-0.5599672273573936
0.5207733909698069
0.07108232471423692
-0.6479206691274693
-0.65195304805995
-0.6635641747064749
0.6820796092740776
-1.5985047873400877
-0.37460656213804405
-0.17585653844456767
0.9371863711608907
-0.6067332295191964
1.9823507489762517
0.1893822255175095
0.2786207960713803
-0.6436605196256325
-0.04163115457314531
-0.7804146909214177
-1.52713872800003
-0.46196718054320274
-1.390690564127916
-1.665933879430412
-0.7274072813740765
-1.1505993075462038
-0.6118590032020941
-0.8375151111990793
0.0649406281990581
-0.02087966975659017
-0.8431765786492662
0.6508197871240293
0.8651288325024228
1.1853565153292267
-1.0327514473554953
0.06408234401433333
-0.02198844735691441
-0.6105930941084406
-1.6623958388544855
0.6829453669308699
0.42544153238403454
0.18490894726549956
-0.346647056894108
-0.2601254695506343
-1.1505065453660908
-0.930475301382147
0.8705649913914559
0.719122885636378
0.37489270480111414
0.17016632622037853
1.2714025944092222
1.83218503089017
0.27125959954235
1.7574904591740932
0.010533295243623925
-0.45863805767343635
1.4535434151732165
-0.7516002584695218
-0.3023873931029074
-0.5327781602060663
1.137481915011747
-0.7573840360019535
0.5913509578452029
-0.7538287723092078
0.5508135148805419
-1.174165683509921
