0.47445903030132497
-0.2639628606697101
0.5653203381482249
0.36516521088557263
1.4420375713779494
0.7608585898278936
0.31550939460433997
0.8489992532267477
-0.01985174271192547
-0.1702722442025982
-0.37149662564693536
-0.6472702190240522
-1.3971499891467183
-1.7862037993967819
0.843067276458352
-0.5684553954469229
0.5993322602360116
-0.518839062554979
-1.267646844466126
-2.1158654063245494
0.09914212009855983
-0.5161061776529147
0.23047618444677098
-0.2609854240683104
-0.5663653336170347
0.392542721204505
-1.0999911212580047
1.0829460579361303
0.9195125181248084
0.03888596955883872
1.4096604567570248
0.018402754040499496
-0.27442918712804554
0.41466455860581514
0.13616058365623807
-1.1869201703190844
-0.35883980976927965
-0.23602864694691789
-0.8393227527602893
-0.3526193756191457
2.322746958394846
-0.3695349674571198
-0.00223872676349679
0.6416562559045529
-0.4250938323241952
1.1515114838074738
-0.3139350785565132
-1.1248034276420569
-1.112432071178381
-0.36787565998443383
0.7397659794269762
0.8429075071561121
0.7101581404694646
0.8861401201331511
-0.17621024974544391
-1.0640710500917174
0.19377692404874686
-0.46726852952907116
0.010594345596203092
-0.846220118910043
-0.8854207022980003
0.6218557391961752
0.6602855964772386
-0.5052006615505132
-0.1971557321045365
-0.42268534907150557
0.09401730776090433
-0.07508582636337247
0.2575143485585592
-1.7022259767826804
0.3637978332602829
-0.4645301207274077
0.04861557712667819
0.10678543049029884
1.9534139435037932
-0.2695107846637575
0.8267045344184125
-0.462203250400558
-1.3357549530573116
-1.5643284123117893
-0.1608986582841344
-0.9430306929743546
-0.08590764118055683
-0.21903006979215583
-1.341494396090975
-1.1271481689190845
-0.7066220188518559
-0.26135379773064993
-0.07456105800351592
0.757053282341857
-0.28600424324639384
-1.007229160404696
0.8135009716452907
0.05960909776511619
0.5138675331260114
-0.8542417809035883
0.6820222825190998
-2.7664507762986386
-0.6254404273838222
-0.3514372333273129
-0.038458900261011925
-0.11450981968616247
0.3447841591509895
-0.0698090139003602
-0.4668593178308651
-1.1900495752397655
-1.8619190389956688
-0.3276327187756086
0.014146454790336271
0.017878218502802218
-1.6394465399434779
1.04677466427743
-0.17912289686348393
-0.06816132912516693
-0.8474831075366334
-0.22672688712585842
-0.49377046849315537
-0.9114216724396993
-0.26914867537473763
0.11524987362505845
-0.4045445753553819
-1.2827500388061914
-0.13843886186342622
1.1310904622369782
-0.11895847105583396
1.9418221053785258
0.4884483435417456
0.44933872844092
0.9553599301977476
1.5172605625950886
-1.453650090241914
-1.1190421094503256
0.7416564363810769
-0.6815548253188061
0.19963075495869642
-0.4457977819216948
-1.2647693342091257
-1.1773730527480488
-0.016925154684499177
-0.32320455928660496
-0.2832220588136215
-0.7930143410927788
-0.7230120392126942
-1.291276128632966
0.22696254714326386
-0.07420264307866081
0.9704030543858705
1.8438008906207126
0.1598152973455711
-0.16338068138064898
-1.104814047813311
-0.2644345280904005
-0.7860902428374251
0.522926266126011
1.4379424701473353
-0.816897396972263
-1.3261588127403243
-1.1468620147101518
-0.7128718957730777
-1.9642771328421622
-1.4799216894883815
0.3023872796050945
1.754970476457383
-1.515840589423654
0.8720809843432797
-1.8774608342966572
0.40118268944972474
-0.4173745465781862
0.030198761892253567
-1.6729916975852561
-2.2493998641573003
-0.7744679666147557
-1.003143164547259
-0.48583514023429863
-0.8087232615814771
-0.07068668481558865
-1.606807622856032
-1.9424624250424918
0.044241959164085354
-2.221910245904604
-1.318544979864888
-0.3246498710659751
2.442919043976321
0.993272176480191
-0.009282683324414967
-0.9865556517807038
-0.832178642409847
-0.7698472655694593
-0.17260735138347216
0.08482302078267501
1.235370772706526
0.0015958703311576006
-1.1877196287440528
-0.6673155357264529
-1.2328643320265178
-1.6336040423439844
0.6063699953551384
1.1322810750918582
1.0112371043769566
0.6891174665222661
-0.08339835227475179
1.6741336554277528
-0.5921455773408602
0.5170327901525152
1.1368206734761375
-1.1145539646337976
-0.025272531656200803
-1.4086751719013475
0.6803293790838999
-0.4423265068279212
-0.16439021397371978
-0.5788481795245048
0.020892451376492205
-0.8423529896452668
-1.0118233322533388
-0.24618695716688616
