1.4351760751070892
1.5147143065136346
-0.25415700067029284
1.167210484500792
0.9649147898961085
0.7548385458347012
1.0154846848606955
-0.15935781469229549
0.3339659861204983
-0.4139849410064861
-0.17463136184107392
-0.8130166421189404
-1.3532160535022277
-0.7355088420476172
-0.7023692052947544
0.6936485933026917
-0.42819084803222496
0.15509101703580036
-0.8408061342489331
-2.024025453805633
-0.7803422501943666
-0.6059562752237209
0.981555122817638
-0.2865599793985651
-0.4247766594433413
0.3638013332660273
-0.07479188241338997
0.8342177980603664
-0.9187157437734456
-0.19068110375535435
0.7270435998911297
-0.03680780727908255
0.050302174576342784
-0.13733683972708732
-1.3408991321436585
-2.3633764430715045
0.2884196846720344
-0.6284396919104618
0.40822287830297066
-0.4961029239417625
-0.1386791189675819
0.20176890709875223
0.28890688727391145
0.3083653979291139
-0.5568627815182294
0.346507245936377
-0.04628523217590924
-0.33221765157352967
-1.462042800587239
0.34977167526931185
1.3174198372065113
-0.14682358531141995
0.41084096427307104
2.1152634435341557
0.8910420174810234
0.11449564385370237
0.182366392561101
-0.7840830517217092
0.6997615887099462
-1.2320813661899712
-0.4150572191245543
1.2503776180182848
0.02767212098482085
-0.8962455682717952
-0.8406707122274784
1.4114615335977887
0.7570878290079345
-0.8887544828900671
0.07550596070001386
-2.9441254755264437
0.26544034679430417
-1.0030388134512815
-0.3927335444006206
0.1341332099816607
1.3935758374490543
-0.43550931605128756
1.1462008752549415
-0.028963300505258527
-1.8470274077965012
-0.8991173264340615
-1.0336821736415314
-1.2071121078293956
0.3744354297212279
0.35461313674381656
-0.4312816627624664
-0.41414861417376886
-0.47796851948350655
0.9982898428499487
-0.5183550661836308
1.4122346848347274
0.10699703991294499
-1.3716893979936913
1.2464626827051422
0.055841894279556825
-0.34455057794123756
-0.3041425205993258
0.6310208801447541
-2.2057310243695576
0.49406661873848345
-0.6682988928377454
-0.2178699114288246
-0.5313554498250583
0.3806181446452038
-0.1928973189719434
0.1635484926463698
-1.3346808532484635
-0.7255250407442317
0.7267382471668653
-0.45375856614794347
-0.6561647843185299
-0.3826480365593978
-0.6874358226960795
-0.959388842703987
0.309553267527929
-0.2864055176117034
-0.3959908723047263
-0.4515238208959141
-1.244132536417127
-1.1218038878410392
-0.3293927956840082
-0.20535696925494876
-0.5287616068425489
0.6164365412046002
0.08053776591018269
-0.4668281819150604
1.6492355411783794
1.243121390449771
0.8568553987894548
-0.2858037760487326
1.1641379212593572
-0.13282151430108374
-0.9860103832203353
1.0840340171357163
-1.1166101600329936
-0.8839144451306256
0.062038698813592655
-1.3213283477351012
-1.0514528089241613
-0.7947188784297564
0.31547808019084794
-0.2851895713116776
0.5894308131385892
0.6795152501688155
-0.9919021639948373
-1.3240609036101523
-0.7930468382836737
2.1830549963764456
1.8056244626380062
-0.5619926665848861
0.8047253646378276
-0.3371325801750322
-0.5677682207478216
-0.6519916545096712
1.2711695174355169
0.32379378605213816
-1.0325756326165865
-0.8016829434944911
-1.0174587421523884
-0.11290489913133456
-1.1339503371118904
-0.6480656484988393
0.11763450570387979
1.4056442956774733
-1.1405447946219693
1.1161247223679287
-0.359928408423074
-0.24924337849570585
-0.21275566231945692
0.5989698565989505
-2.057775228075653
-1.0105055855749594
-0.4700932490867936
-1.7103889161428667
-1.203678468210947
-0.10150978032786961
-0.7446683341209017
-0.9371994189752118
-0.8825303771945364
0.200555278997116
-0.5668970400892765
-0.967742027767304
-0.13048401637478813
0.7822995730597585
2.2840774971177447
-0.23481256701217498
0.31099757538814454
-1.2541862116059832
-1.498430672711748
0.04327851531105975
0.29087721612977674
1.3610176413724027
0.5227925196164664
-0.9297180393713451
-2.101667261169551
-1.1261162644275056
-1.7081569159432624
0.17915165386505172
0.29722464047226355
0.06191221100645257
0.4199818725480449
1.4413987380202498
2.3450651155318463
-0.11225995909188416
1.3097287676549298
0.29502566559364557
-0.4731128873715983
0.9473761754647986
-0.950418125861536
-0.2754506659716499
0.3928085613038623
0.6307992871154082
-0.03329979090928062
0.7401936765529726
-0.5958528306701164
-0.14216300640856355
-0.03898776514017102
