0.6024679670874853
1.4517614850762786
0.4698006498006823
1.0777549785268712
1.4611833206247933
0.6617135541043225
0.2479880142175402
1.3349863264454702
1.2115831111174065
-0.05829546602053218
-0.04642694843049344
-1.4813466645218378
-0.5413092891609903
-0.5748244810726915
-0.45919902266161194
-0.2582093232434544
1.2649135912244505
1.2677235431562992
-1.6403902289107615
-2.21157009574683
-0.3910864734569154
-1.5833603211555816
0.2557923215882929
-0.6643755544821126
0.3639150628443378
0.5241295023549161
-0.7285414718320504
1.2971947120605734
-0.2647200720545628
-0.7971920568646869
0.16724952622071543
-0.09466841949605809
-0.16839600119631049
-0.9193242710535477
-0.3777356328551241
-0.9949949056856435
0.9157951010626123
-0.1372655613815731
1.7255249274711493
-0.2531915496553784
1.2807135809167245
-0.008894122741759547
0.6299735587086449
1.5478666502662564
-0.37328843973644005
-0.18902786422558487
0.14131321741152125
0.38957963407437723
-0.5440841370472133
-0.27881091651274337
0.9641295633232667
-0.18134124291678375
0.5059103943175887
0.8579660945703629
0.9486598456869284
-0.8623469255742071
-0.021201418232348473
-1.6741216185932344
0.9609635494824624
-1.0073356053716802
-0.3086524083873468
1.3349820031967328
-0.05117255404995675
-0.06634449823711441
-0.9835111249741373
-0.433093848473732
-0.07487418919345384
0.41378044066698655
0.13608516058391928
-2.2050368028416125
-0.332818428031749
-0.5033322896214865
-0.6616154672241249
0.1828135065480852
2.429752575509246
0.14398233616463585
-0.7654016926601848
0.18368729117109128
-0.7706816717502996
-1.0234022232269435
-2.0866842944421045
-1.0600741674364205
0.3314947876025297
0.6923015888611034
-0.6278565928586917
-0.784545915655953
0.3894555112444088
0.7924368130914579
-1.0847260569941575
1.7551810558527323
-0.5994511672783951
-1.1871523072541523
1.245054343729775
-0.2629870808471865
0.38631071939761014
-1.3155881151898434
1.2422478417779812
-2.2606954010605267
-0.552689353234174
0.5983963200347351
0.3258147911504631
-0.7964288162744455
0.16872056222608398
0.9295167924007559
-0.0035099535885673924
-0.9309884438405378
-0.642500302880852
-0.8581237720194224
-0.8727041210304658
-0.011827463370264968
-0.3184776269628673
-0.032062407787465774
-0.6651464066713942
-0.9384924175300494
-1.3314476925307406
-0.88834951813706
0.19307911069823447
0.6383608488586205
-0.14317931801091915
-1.8422583616544925
-0.04956710795567271
0.18978020012401475
-0.7773383433389409
-0.200859987965959
-0.34964835953506496
1.0546735551981794
1.0980094777148892
0.44163893341820426
-0.03238468135876013
-0.1342959563300375
-0.5230486789698421
-0.7936810287246774
0.577134060857018
-0.730791915572901
-0.9143433330252511
-0.7911787743356048
-1.5754290772805473
-0.46956987045680565
-1.680495795281363
0.3634096287547647
0.06891786896852817
-0.030702653818258298
0.6856978099912996
-0.13831519367272654
0.3070478056211494
1.2287833317672177
1.656473850119508
1.2561951545134984
-0.022141057172938627
0.428736717917493
0.03159379410131313
-0.07616966835715931
-0.1927973742120035
1.8202832978551649
0.8170702997864607
-1.239351576669874
-1.2401876323240673
-0.8422353791922553
-0.29941072978649785
-1.486834189521158
-0.163776234790674
0.19085591828531856
1.137839404320244
-0.2959217671858924
0.279373607312003
-0.8857524178920858
-0.9507748491051675
0.08202324200124456
0.22615160911416643
-1.4895804407825353
-1.4016564014539712
-0.20993203035693997
-0.5967461917089818
-0.5208701092565904
-1.83536008482882
-0.6525291520421015
-1.334581637732451
-0.27524655712202906
0.02415165676189701
-1.285157304274522
-0.793232934209008
-0.17607174474172793
1.0479743665437329
2.0053693546355555
0.07389092858822606
-0.975511616247016
-0.47598911949660533
0.3552710664926748
-0.2028505254739661
-0.9297701390349077
0.5158691408949228
-1.1359555364930145
-0.07210384013458793
-1.4546858596446175
-0.9697298842387727
-1.9235056179093353
0.8682497676028443
0.566076461168837
0.6021124469837544
0.8897603299019949
0.4900564455635163
2.7388610034074974
-0.9019184080460149
1.2192937213747068
0.8334265538287771
-0.3712173546579173
0.48289764604240154
-2.124297228690638
0.7913199570333154
-0.19897627677399554
0.4901591727345268
-0.38351903952324506
-0.7435526554972912
-0.13819948839993956
-0.43916767724308003
-0.11933298462242314
