1.0056791277716535
1.4467235216791354
1.0951584120380526
1.7856571206217222
0.9571202362226506
-0.3973534715704252
1.3818904685246736
0.5383497517056259
0.31919362821379205
0.29314893542224196
1.1397242756756603
-1.9622036635122657
-0.038171471220109054
-1.4161781031009502
0.07118502795979872
-1.0016243561909013
1.1585345086759737
0.20110034926127784
-0.23457422301996622
-1.2386648772165874
-0.9036656122948956
-0.9794928838288312
0.08050713228519402
0.42848539904669686
-0.016336777662809138
-0.9369011775898703
-0.8011927508110162
1.3571680013966907
0.19534211422624082
0.6735592652769007
0.8227754431479972
0.37739195772597567
-0.282338766770854
0.921306476344368
-0.8691232221746399
-1.0254601240324193
0.2608253405923632
0.6782294788831713
1.0169827804700662
-0.5908194161784928
0.7615199970835755
-0.3837491480090585
-0.19643954158835847
0.9613401555283997
0.41620420584190954
-0.19529191719119038
1.3577747304688526
0.37220940276573833
-0.7838653510508253
0.1523534974525325
-0.3243140208108366
0.28127047347972567
0.4940997926699053
0.7180746125007483
-0.3669860313029571
0.5294677931374498
-0.4259937660448328
-0.2442048885542205
0.8280411758733471
-0.5803421330022271
-0.8706357653827737
0.30939254343852785
0.3121461740551427
0.8919891864041383
-1.0382299557950703
0.391536511032035
-1.1924555034485396
1.1492110976410987
-0.7462871093748811
-3.3324396557729097
-0.22826249338356028
-0.6917608929958637
0.08605882767102191
-1.4003530732813527
0.7451028633848885
-0.08684881699141755
0.1543540663731885
0.5104709865929344
0.3294383557852252
-0.43958158939466574
-1.1677055254555084
-1.0890900208212495
0.6445160607008968
-0.6829097526343876
-0.5587331706397896
0.12580182193011546
-0.7670238361469017
-0.645142800242785
-0.8458132710503249
1.4126884863189182
0.40916244331556356
-1.4354364658240375
2.3046671518317137
-0.19671409215043095
0.10021629431451964
-0.04529877094224377
0.40801512283006575
-2.03588966265359
0.6383944069769926
0.22379636689532328
0.9800663542213983
0.23353614120168575
0.7877008553424888
-0.2296274711714309
0.46931321205886434
-1.8311458689484454
-1.5045094580542806
0.7638455013751355
-1.5425969553544212
-0.5708203143589057
-1.4596902660063082
0.061616702735772466
-0.13817710506609415
-0.7389376266665151
0.0008623637011270224
-0.8556721864257029
0.05621094769829971
0.5630994070195581
-0.8746544102258931
-0.3718472265872587
0.40346995932620056
-0.4779253427619946
-0.13659818568346102
0.520282663064988
0.543276926887367
1.2502684452126198
1.4379675118612862
-0.11917312429806741
-0.5982252152194951
1.15977819621392
0.028137876471441614
-0.34343452395971663
0.37521540682893495
-1.0439351511628534
-0.02037511113599816
-0.005250876280036204
0.09502081683415398
-1.315176586276428
-1.433055737096361
0.5874940597812225
-0.2515284026806749
0.80108778037764
0.12161020607973197
-0.6299267903495536
0.704068853608369
0.22223004229358279
2.1984533474306787
2.3256638855242224
-0.23118885336708056
0.6564276110531867
-1.3993298843992465
0.8451080521327388
-1.6391874967089113
2.031606178163443
0.8086719955290662
-1.109371691585525
-0.8517520101268076
-1.0115688326751415
0.2142255953368706
-1.3153069487093185
0.13951377866066395
-1.1826594162160617
0.46859780068694146
-0.37610555182607686
1.6935135887884603
-0.02704681806838871
0.2516969991689422
-0.9053922419148095
-1.1206954692226387
-1.6471248503681473
-0.21232583157920715
-0.9695428907911676
-1.6793927997319948
-2.2019245761150943
-0.45088676034447145
-1.4928267394613943
-1.8005697744677418
-0.9754564689734142
-0.9809810444386047
-0.7306737394978504
-0.27679299744585006
-0.6297848941950692
1.0492585735822189
1.1167364152303438
0.4136780119429393
-0.2028677457710713
-1.0703068461000842
-0.9780279055305043
-1.8808951967924732
-0.18133472346282564
0.19243849330866913
-0.16003387739619845
-1.532684380728067
-0.7429184742956298
-0.6922272347015558
-2.685320329784407
0.08430751785750368
1.1406457306575821
0.5119508691425811
1.3617974718851749
0.7699922031645935
1.5067447242625565
0.30719162620574914
1.7066035860609434
0.9639211063758681
-0.3177938140987687
0.762787264477126
-1.6590107993897951
0.5171043635044634
-0.2202828264606006
0.26665102028641385
0.6064221786809424
0.5489164725689
-1.2077223575722678
-0.22061576310523567
0.6897036768222827
