0.5646759039591235
1.4055393956638444
1.1104029405966718
1.3793916507425477
0.6956400343348483
-0.12565804308875594
-0.10570892158433409
0.26398720444692064
-0.026914915462983302
0.16176722376842667
1.405843298313405
-0.944487450654196
-0.20097843318327807
-0.4037893870998831
0.21240811048299935
-0.8002586598677615
0.6430199245025414
-0.3455168815354038
0.4019585804076028
-1.81609808622974
-0.4771234590047787
-0.9779065867427686
0.8732223213020818
0.6278675132283031
0.48441691720598473
0.343887966825089
-0.7134800118394656
0.6996572203074505
0.7134809614290155
-1.2239573916632334
-0.047291955468604874
0.7228597585882606
1.7716413500752881
-0.23536192504729264
-0.7867763516855382
-1.355149351691002
0.23454670355096785
-0.9946843548396429
0.6269943724394267
-0.33436953325022745
0.9846252733049439
-0.014681870788883028
-0.4482445784964619
0.4901693114244112
-0.0646914621360597
-0.3105138584911409
0.39171082922250755
-0.45899983962835506
-0.38007023793190575
-0.16060535202877663
0.3857503906392593
-0.10074560386133707
0.617254191424171
0.7901762321047368
-0.30335016064397496
-0.04231359533505413
-0.5038282410272549
-0.5781331347445022
1.9861203043284694
-0.9035138042913321
-0.30828437190609087
0.7574354854364433
0.03884120608188478
0.469206451940276
0.7257239981265851
0.30371768510024044
0.21990954467893659
1.3665536522499064
0.6856422987694466
-1.3182582040959896
-0.25602124579720337
-0.7579815414669242
-0.7064317741634295
-0.36085811942305634
1.6926748142906216
-0.555739113690366
0.11249428735558012
-0.5238436930476753
-1.4560991974503057
-2.055420397269433
-1.0879022009820056
-1.3028321345297555
0.22626889908363088
0.316124535190196
-0.42300951302911555
-0.20979067641094962
-1.5794335706010374
-0.6718391020305652
-0.8422488890837696
0.22025645299784324
-0.29767682226445014
-0.60539454693932
0.8732557748657049
0.6675056057885403
-0.19610458789358837
0.012633257950094845
0.02644365269768434
-2.179445100901484
0.6540269426081871
-0.34110839853688646
-0.10233751778331149
-0.12773033194176553
0.024371025711488775
1.5005158813331936
-0.34513865248713455
-2.0633619056830996
-1.5210676282161346
-0.7355739153639115
-0.1868497295657191
0.875572977331309
-0.530492674142442
0.09079868907125044
-0.3469637902350977
0.4567614846700202
-1.301560371122501
-1.3640877175452304
-1.2608326705426238
0.28113498120103303
-0.24253744944856787
0.6178832966750027
0.10899501238318517
-0.9757859945191145
-0.7053080064301329
-0.5474214470265351
-0.6190829326329856
1.9524470424097164
0.9003521092578977
0.9165120912140337
-1.0239869886867103
1.8150162684917874
-0.3402753238306009
0.43528984157260514
0.9106958205940746
-0.013434808827760825
-0.3938138265714355
-0.8174053745955533
-1.1020857356557958
-0.603319178317826
-0.645310178683027
0.10860933658391736
-0.7082859730954345
-0.46576420941264846
0.1707438772764342
-0.9697520557551427
-0.3692921279374157
0.8040216867845931
1.1239172902575731
0.3509879364860433
-0.19855255750366002
0.9385277913812994
-0.9177062322168359
-0.4840319364097494
-0.21654953033153068
0.7991404802767644
0.45743348372317244
-0.016781065744119084
-1.2462919280141178
-1.867967974626866
0.2245898639754722
-0.19715576899771103
-0.7652434368226742
-0.08467437330258637
0.41521620148906757
0.10334986728300077
1.83673377553562
-0.4011243845029615
-1.741338655036393
-0.6528935255548071
-0.33430651860716654
-0.5923950538737253
-0.5893839750003325
-1.4255545001814598
-1.515540220597755
-1.2229119093323093
-1.5206731661685433
0.023926751318627426
-1.1198884215844134
-1.9527947508193355
0.7445707143411618
-0.7727634102320164
-0.23398407703303248
-0.6407137353964965
0.2550830418957848
1.3475025415082755
-0.29354944112559034
-0.5417240914078805
-0.4807999834920139
-1.9827310075557758
0.353406044380413
-0.3182866075430629
0.2607355233418408
-0.8508578764328522
-0.6243210369567436
-0.8516890756255756
-1.923470795145016
-0.8634300045585777
0.9980252765579138
-0.8665359989227519
0.5612470192483381
1.2406301239517612
1.0410138616666478
2.3868940528870652
0.7481754222708693
0.9871756738326842
-0.5191533966332387
-0.14971987659847674
0.8893442182210868
-1.5455138889615412
0.6234868864150529
0.7118508228826386
-0.43919596796402877
0.1971187765032874
-0.5382300016464008
-0.8418791697611816
-0.7063671079598169
-0.5516503982793481
