1.3912847974878448
1.6282446924114793
0.4134775974818213
0.648852533283916
0.16839098429796462
0.7436503490311595
0.5444786219721682
0.0789972580716769
0.8092186052180315
-0.49271142330732653
0.17828503156210918
-1.989392447796039
-0.07982525375267382
-0.8677581861616583
0.1980494396502663
-0.2774027069959345
0.06166166381411148
-0.5496877766442102
-0.3470891036401632
-1.547983536112655
-0.16819398208459252
-1.4186968502459036
1.5685082453854298
-0.6827380397987475
0.09141899185798663
-0.14253004929913826
-0.560462870179158
0.7196495569592658
0.6058544188796284
-1.1767738230257365
0.7201700451383207
-0.0722721208533397
0.033380260483086954
0.2586071035828082
-0.47698112349784755
-1.28340733917035
0.672273967310118
-0.3395762708628567
1.4148207964903274
0.0873396718000159
0.06179259338304666
-0.6839629163435816
0.9818078061813753
1.3305367599300477
-0.8916283726531422
1.2218348811081725
-0.4578128376330522
-0.15845504089792561
-0.031629153862054504
-0.7033501503935545
0.26659697581517156
0.4151889660486293
0.8056911641049169
1.4913414851845697
-0.31436013194605805
-0.3834676444524156
-0.3323301437151856
-0.571150025367427
1.0682719207769915
0.06425821846970037
-0.5759675056728844
0.8925032366744438
-0.3007270977616691
0.4486343672925032
0.0439807406594413
-0.1858393909332009
-1.0467842901600177
0.11395774515536838
0.1732139945356651
-1.417456050380492
-0.03699229225424716
-1.4841622840335982
-0.6063784209880372
0.2486354117292408
0.771894963551644
-0.3774212048659881
-0.4283182983351441
0.32997818929013445
-0.6225007746170073
-0.13830332394620337
-0.8097119123963342
-1.856421285480455
0.05034968839553852
-0.09416844581683298
-1.7520041136370745
0.5295182588320879
-1.3543585527088047
0.11112087514191654
-0.503995835150088
2.0348948587552855
-0.01881108703844171
-1.2253504161169437
1.0523640901848572
-0.6360810756545543
-0.29700066096782296
-0.045871882218115445
0.6176311410360524
0.15466800600093
0.5678795904257325
0.07535088567066256
0.06366062078136855
-0.3449978547713911
0.6988774205331809
1.2317662945498982
-0.11082899264086804
-1.5412106189824197
-0.8189793992125058
-1.6347290637435434
-1.2459997064351773
0.1556661233248829
-0.13808550848217338
0.3553170303131486
-1.477436057848995
-0.51212660455833
-0.12094631931164579
-1.0784065176462378
-0.14403467632309747
-0.5432775588416121
-0.19497168969074968
-0.8252064053433992
0.5983216419572877
0.22614041550484604
-0.23008866619114593
0.8422553412778717
-0.17380548726277711
1.4348737723469445
1.4505028800911473
0.8823507619807037
-0.8435504607352164
-0.05424601935241263
0.3890467889456244
-0.06623742002221378
0.8366906279170273
-1.0877580502963051
0.41579348148225403
-0.26792002848748947
-0.07724541719767497
-1.0457569736042795
-0.42108822657486494
-0.6022720375901243
1.1402381424503614
-0.28790585448407674
0.7037218934218643
1.058324756441838
0.39363247071078117
-1.1865458873036698
0.8044626403019961
0.7913052058368047
-0.5222761087014751
0.6877009331063837
-1.343856526368542
0.16735587620898226
-0.6431499547071462
1.3795129135909887
0.7949535426495797
-1.7946235304266662
-0.3770278263731236
-2.0953250551901412
0.9194395302984786
-1.098652393726128
-1.0992185092353375
-0.9500580234719601
0.4815076729536125
-0.027352199825917634
1.6806437475593938
-0.939185596736518
-0.5379180674306443
0.06583606506706485
1.1254180093389783
-1.819449744713994
-1.0284469824684472
-0.9013860262484199
-2.16481905131737
-0.8757040763858138
0.11744205646568417
-0.7298965811388936
-0.9973498198164985
-0.8084836512147254
-0.36960092079973494
-1.0676203613834767
0.32304384707485456
-1.2906515342666716
0.9642230451585423
1.7868718216536466
0.8660320515033801
-0.11053268857832033
-0.12183957656351507
-0.7954891295444102
-1.0179251000790261
1.3421487214753292
1.772388486915549
-0.553853798063588
-0.7909014953701773
-0.9464466422579655
-1.9535911157833086
-1.6993427453128744
0.3639333205388488
0.7542024529943014
-0.26589854598475593
1.545623570140175
0.5002698829897759
0.6765647777416658
-0.6242360858023928
0.6843307070830799
-0.03149554186927728
-0.8225305183725569
1.1949283834435245
-2.0876386294137785
0.1199694645978708
-0.909413984495385
1.2181901178664933
0.11323157531334244
0.4366585378560002
-0.6614944919166539
1.8280704997004804
-0.034414606829027514
