0.878601835584495
0.7707486137561624
0.1732211032610124
1.640431266067766
1.4576856765070754
0.9361646299409561
0.4796495580135809
1.1848788983319967
1.3380042798814389
0.8736015676575242
0.4505699549938665
-0.6667490209119942
-0.7461678701730965
-1.6446403710597823
-0.1289726978894927
0.10879656611078325
0.20650156675029469
0.24107498166763605
-0.8933231155140962
-2.041946994440396
-0.2960331245029544
-0.08607250359607599
-0.16982301739187988
0.009908838684754728
-0.7809198996015418
0.5670713789732051
-0.15159595639322426
2.1091724851832665
0.11319865279443014
-0.2692337142243347
-0.2341439204397857
0.3243101057942537
-0.08518270002945749
1.3517826622785574
-0.8932292566215149
-1.060809156003192
-0.11741491977671478
-0.5709217474969429
1.5615071736540163
-0.7491581876752085
0.5459347278628428
0.1569758963840046
0.9605506705182949
2.3153195058382545
0.16562850288282605
-0.19284080179171836
-0.014169878478218323
-1.3428793761215685
-0.8966895199837314
0.6196922097096758
0.09959186424157179
-0.41246930643840884
-1.0102892124304967
0.9478732063528681
-0.060421673715225985
0.7773039481825146
-0.09081940219252783
-0.5629158991912698
1.8113585381587174
-0.23301931708639645
0.1674559229883757
1.01790231236155
-0.006451616788301272
0.08662688883198441
0.49660765443903715
0.2731094787723012
0.6426112688520264
1.217270259711288
0.8725261546204299
-2.624597835013012
-0.3927932803233246
-0.7688375407048402
-0.6128375201688928
0.8659129685109415
0.919109808566153
-0.44823946889833244
0.06223102393767127
-0.044754828055489915
-0.8352712204785951
-1.0342479682258383
-0.726114613474966
-2.0157438664949803
0.1553258003440869
0.8010230678205347
-0.6510525939793018
-0.2318813697491196
-1.0149625746187678
-0.737674762342591
-0.24518024816444933
0.9535463771218282
-0.16773451208310114
-1.850198162346114
1.266798942070949
0.3682729751047471
0.13469456039801092
-0.4129264693584338
-0.2901614670362367
0.02766215154788698
1.438800579846639
-0.24551811323713113
0.21327740315195126
-0.5166906395657787
-0.296420098786611
-0.11806944306710254
0.3676821197230674
-1.531230762539773
-1.9973187312336487
-0.7584248474419097
-0.42700674978695985
0.4656423681599832
-1.0690829538111515
0.8253843005028361
-1.4678070290804892
0.07244109208280164
0.10773672115675526
-0.632829791596565
0.6725989023430077
0.1687120478559216
-0.32460273918916704
0.40676733604672377
-0.6739586552495738
-0.9306423223393221
-0.5517312649224831
-0.1774659482662337
0.22861074338711768
0.9666874833396433
2.059734002301668
-0.1970630540087298
0.04151031682306283
0.74735573214912
0.4037896052606095
-0.32035076555284714
0.7984089803988046
1.3957719128682995
0.12115412217059722
-0.11968353540855532
-0.7033500176803624
-0.6911487789093612
0.22626028735759762
0.8573922425300025
-0.0780673334625008
0.30566247843862293
-0.14936942665984576
0.4225035370866075
0.013114332028442602
-0.38679243909873007
0.9260167379105279
2.255969369559079
-0.28070290658104313
1.559277233289916
-0.9508280177345879
-1.2040663897965698
-0.5671053475486851
0.9437110256018167
0.11754223378896683
-0.5043221267440919
-1.2175307042726362
-1.0978384401473809
-0.019649416488740218
-0.7105380727276436
0.016594588847997083
0.2298522187831692
1.0766632105965193
-1.4042623592929346
1.9426408739087706
-0.33184870980451
-0.34321231078697045
0.09280127491044654
-0.1583011965163393
-1.2446061749207256
-0.4323854545431828
-1.2422357397827968
-2.2182211934261895
-0.19342628380295634
-0.6002881360667415
0.7200722179355653
-0.6656615610638736
-2.2362174337260825
-1.1740743562282312
-0.4605148088729006
-0.7388263792452613
0.3211075619104404
0.18515203712086958
0.23810927566033435
-0.2382980176822834
-0.6495554069530968
-0.16131076161726499
0.590013503190544
-0.8291018172185911
0.792266170901763
0.2889223101020145
-1.0115307498397654
-0.9388061176818422
-1.6790610612812933
-1.580648616999976
-0.27337811633012754
0.6011730931434223
0.9004703641510765
1.2206047782859626
1.147583644388241
-0.1187093016163474
1.3988283368317282
-0.08441767256277455
1.9054908854941335
0.4724300914319146
-0.6274061124298567
0.010529753660169172
-0.8004916536344355
0.5761874680796512
-1.189713917710678
0.5791918326402347
-0.789659539583917
0.6149492349034329
-0.6900753821372481
-0.12944884615603205
-0.7236645816034781
